tree
version=v3
num_class=1
num_tree_per_iteration=1
label_index=0
max_feature_idx=530
objective=regression
feature_names=Column_0 Column_1 Column_2 Column_3 Column_4 Column_5 Column_6 Column_7 Column_8 Column_9 Column_10 Column_11 Column_12 Column_13 Column_14 Column_15 Column_16 Column_17 Column_18 Column_19 Column_20 Column_21 Column_22 Column_23 Column_24 Column_25 Column_26 Column_27 Column_28 Column_29 Column_30 Column_31 Column_32 Column_33 Column_34 Column_35 Column_36 Column_37 Column_38 Column_39 Column_40 Column_41 Column_42 Column_43 Column_44 Column_45 Column_46 Column_47 Column_48 Column_49 Column_50 Column_51 Column_52 Column_53 Column_54 Column_55 Column_56 Column_57 Column_58 Column_59 Column_60 Column_61 Column_62 Column_63 Column_64 Column_65 Column_66 Column_67 Column_68 Column_69 Column_70 Column_71 Column_72 Column_73 Column_74 Column_75 Column_76 Column_77 Column_78 Column_79 Column_80 Column_81 Column_82 Column_83 Column_84 Column_85 Column_86 Column_87 Column_88 Column_89 Column_90 Column_91 Column_92 Column_93 Column_94 Column_95 Column_96 Column_97 Column_98 Column_99 Column_100 Column_101 Column_102 Column_103 Column_104 Column_105 Column_106 Column_107 Column_108 Column_109 Column_110 Column_111 Column_112 Column_113 Column_114 Column_115 Column_116 Column_117 Column_118 Column_119 Column_120 Column_121 Column_122 Column_123 Column_124 Column_125 Column_126 Column_127 Column_128 Column_129 Column_130 Column_131 Column_132 Column_133 Column_134 Column_135 Column_136 Column_137 Column_138 Column_139 Column_140 Column_141 Column_142 Column_143 Column_144 Column_145 Column_146 Column_147 Column_148 Column_149 Column_150 Column_151 Column_152 Column_153 Column_154 Column_155 Column_156 Column_157 Column_158 Column_159 Column_160 Column_161 Column_162 Column_163 Column_164 Column_165 Column_166 Column_167 Column_168 Column_169 Column_170 Column_171 Column_172 Column_173 Column_174 Column_175 Column_176 Column_177 Column_178 Column_179 Column_180 Column_181 Column_182 Column_183 Column_184 Column_185 Column_186 Column_187 Column_188 Column_189 Column_190 Column_191 Column_192 Column_193 Column_194 Column_195 Column_196 Column_197 Column_198 Column_199 Column_200 Column_201 Column_202 Column_203 Column_204 Column_205 Column_206 Column_207 Column_208 Column_209 Column_210 Column_211 Column_212 Column_213 Column_214 Column_215 Column_216 Column_217 Column_218 Column_219 Column_220 Column_221 Column_222 Column_223 Column_224 Column_225 Column_226 Column_227 Column_228 Column_229 Column_230 Column_231 Column_232 Column_233 Column_234 Column_235 Column_236 Column_237 Column_238 Column_239 Column_240 Column_241 Column_242 Column_243 Column_244 Column_245 Column_246 Column_247 Column_248 Column_249 Column_250 Column_251 Column_252 Column_253 Column_254 Column_255 Column_256 Column_257 Column_258 Column_259 Column_260 Column_261 Column_262 Column_263 Column_264 Column_265 Column_266 Column_267 Column_268 Column_269 Column_270 Column_271 Column_272 Column_273 Column_274 Column_275 Column_276 Column_277 Column_278 Column_279 Column_280 Column_281 Column_282 Column_283 Column_284 Column_285 Column_286 Column_287 Column_288 Column_289 Column_290 Column_291 Column_292 Column_293 Column_294 Column_295 Column_296 Column_297 Column_298 Column_299 Column_300 Column_301 Column_302 Column_303 Column_304 Column_305 Column_306 Column_307 Column_308 Column_309 Column_310 Column_311 Column_312 Column_313 Column_314 Column_315 Column_316 Column_317 Column_318 Column_319 Column_320 Column_321 Column_322 Column_323 Column_324 Column_325 Column_326 Column_327 Column_328 Column_329 Column_330 Column_331 Column_332 Column_333 Column_334 Column_335 Column_336 Column_337 Column_338 Column_339 Column_340 Column_341 Column_342 Column_343 Column_344 Column_345 Column_346 Column_347 Column_348 Column_349 Column_350 Column_351 Column_352 Column_353 Column_354 Column_355 Column_356 Column_357 Column_358 Column_359 Column_360 Column_361 Column_362 Column_363 Column_364 Column_365 Column_366 Column_367 Column_368 Column_369 Column_370 Column_371 Column_372 Column_373 Column_374 Column_375 Column_376 Column_377 Column_378 Column_379 Column_380 Column_381 Column_382 Column_383 Column_384 Column_385 Column_386 Column_387 Column_388 Column_389 Column_390 Column_391 Column_392 Column_393 Column_394 Column_395 Column_396 Column_397 Column_398 Column_399 Column_400 Column_401 Column_402 Column_403 Column_404 Column_405 Column_406 Column_407 Column_408 Column_409 Column_410 Column_411 Column_412 Column_413 Column_414 Column_415 Column_416 Column_417 Column_418 Column_419 Column_420 Column_421 Column_422 Column_423 Column_424 Column_425 Column_426 Column_427 Column_428 Column_429 Column_430 Column_431 Column_432 Column_433 Column_434 Column_435 Column_436 Column_437 Column_438 Column_439 Column_440 Column_441 Column_442 Column_443 Column_444 Column_445 Column_446 Column_447 Column_448 Column_449 Column_450 Column_451 Column_452 Column_453 Column_454 Column_455 Column_456 Column_457 Column_458 Column_459 Column_460 Column_461 Column_462 Column_463 Column_464 Column_465 Column_466 Column_467 Column_468 Column_469 Column_470 Column_471 Column_472 Column_473 Column_474 Column_475 Column_476 Column_477 Column_478 Column_479 Column_480 Column_481 Column_482 Column_483 Column_484 Column_485 Column_486 Column_487 Column_488 Column_489 Column_490 Column_491 Column_492 Column_493 Column_494 Column_495 Column_496 Column_497 Column_498 Column_499 Column_500 Column_501 Column_502 Column_503 Column_504 Column_505 Column_506 Column_507 Column_508 Column_509 Column_510 Column_511 Column_512 Column_513 Column_514 Column_515 Column_516 Column_517 Column_518 Column_519 Column_520 Column_521 Column_522 Column_523 Column_524 Column_525 Column_526 Column_527 Column_528 Column_529 Column_530
feature_infos=[0.29999999999999999:4.8180000000000005] [0.17499999999999999:3.7669999999999999] [0.115:7.7450000000000001] [0.084000000000000005:6.2460000000000004] [0.19500000000000001:5.6799999999999997] [0.20300000000000001:6.8799999999999999] [0.29299999999999998:4.9089999999999998] [0.052000000000000005:5.0139999999999993] [0.044000000000000004:6.5510000000000002] [0.19800000000000001:5.4850000000000003] [0.22899999999999998:7.1900000000000004] [0.107:6.0650000000000004] [0.13600000000000001:6.9479999999999995] [0.064000000000000001:4.7789999999999999] [0.20999999999999999:5.6239999999999997] [0:17.436] [0.019:6.0979999999999999] [0:5.0830000000000002] [0.221:5.8150000000000004] [0.113:5.8570000000000002] [0.33100000000000002:11.635999999999999] [0.19:6.1600000000000001] [0.124:5.5599999999999996] [0.105:6.5679999999999996] [0.13200000000000001:6.8570000000000002] [0:6.8420000000000005] [0:8.2750000000000004] [0:3.7760000000000002] [0.080000000000000002:6.4160000000000004] [0:5] [0:3.6360000000000001] [0.088000000000000009:6.0739999999999998] [0.40299999999999997:5.8150000000000004] [0.086999999999999994:9.6609999999999996] [0.109:7.1679999999999993] [0.14000000000000001:4.8449999999999998] [0.114:5.3679999999999994] [0.096999999999999989:5.7570000000000006] [0.20899999999999999:6.3529999999999998] [0.11:6.1160000000000005] [0.001:6.4160000000000004] [0.13200000000000001:9.7810000000000006] [0.106:7.069] [0.245:6.1520000000000001] [0.044000000000000004:6.3289999999999997] [0.057000000000000002:6.1960000000000006] [0.27100000000000002:4.7439999999999998] [0.128:6.7370000000000001] [0.0069999999999999993:4.1230000000000002] [0.066000000000000003:12.452] [0.10199999999999999:6.0429999999999993] [0.075999999999999998:6.101] [0.095000000000000001:6.2510000000000003] [0.11599999999999999:3.6749999999999998] [0.20600000000000002:3.738] [0.042000000000000003:4.899] [0.037999999999999999:4.7350000000000003] [0.121:3.9939999999999998] [0.22:5.1749999999999998] [0.084000000000000005:6.7070000000000007] [0.086999999999999994:4.1779999999999999] [0.35999999999999999:4.8929999999999998] [0.17499999999999999:6.851] [0.040999999999999995:5.2810000000000006] [0.052999999999999999:3.9460000000000002] [0.106:6.0220000000000002] [0.105:5.3610000000000007] [0.062:7.4160000000000004] [0.072999999999999995:6.6220000000000008] [0.045999999999999999:8.2810000000000006] [0.13100000000000001:4.274] [0.21100000000000002:6.2210000000000001] [0.30599999999999999:6.8479999999999999] [0.017000000000000001:8.8719999999999999] [0.098000000000000004:8.8559999999999999] [0.122:6.0590000000000002] [0.152:5.5629999999999997] [0.099000000000000005:7.7000000000000002] [0.17800000000000002:10.032999999999999] [0.23999999999999999:6.0199999999999996] [0.14499999999999999:5.9340000000000002] [0:10.680999999999999] [0.08900000000000001:5.8229999999999995] [0.078:8.9849999999999994] [0.013000000000000001:5.7070000000000007] [0:7.6470000000000002] [0:5.0899999999999999] [0:6.4589999999999996] [0:8.3330000000000002] [0.034000000000000002:12.198] [0.055:8.9990000000000006] [0:7.3620000000000001] [0:18.367000000000001] [0.23199999999999998:8.3120000000000012] [0:10.798] [0.002:12.872] [0.0080000000000000002:5.9390000000000001] [0.064000000000000001:6.516] [0.018000000000000002:7.5839999999999996] [0.050000000000000003:7.9710000000000001] [0.094:6.3959999999999999] [0.122:5.4850000000000003] [0.11599999999999999:7.0979999999999999] [0.13200000000000001:6.1789999999999994] [0.028999999999999998:6.6670000000000007] [0.08900000000000001:5.8379999999999992] [0.17800000000000002:6.9320000000000004] [0.17300000000000001:4.2869999999999999] [0.050999999999999997:6.4489999999999998] [0.052999999999999999:7.149] [0.25900000000000001:4.7880000000000003] [0.050999999999999997:6.4790000000000001] [0.14699999999999999:5.3949999999999996] [0.01:6.7420000000000009] [0.049000000000000002:6.0570000000000004] [0.32000000000000001:5.6710000000000003] [0.39399999999999996:7.2599999999999998] [0.11699999999999999:6.9329999999999998] [0.185:6.5089999999999995] [0.068000000000000005:5.96] [0.191:7.2129999999999992] [0.070999999999999994:12.034000000000001] [0.065000000000000002:7.0870000000000006] [0.10199999999999999:10.305] [0.068000000000000005:5.1840000000000002] [0.016:12.862] [0.057000000000000002:9.2029999999999994] [0.17699999999999999:6.8700000000000001] [0.075999999999999998:8.8189999999999991] [0.19800000000000001:6.9170000000000007] [0.113:9.7679999999999989] [0.17000000000000001:3.7710000000000004] [0.064000000000000001:8.4120000000000008] [0.089999999999999997:5.2290000000000001] [0.032000000000000001:4.3330000000000002] [0.16500000000000001:5.2839999999999998] [0.128:5.4740000000000002] [0.193:6.2810000000000006] [0.253:8.4629999999999992] [0.13200000000000001:7.766] [0.026000000000000002:7.1100000000000003] [0.191:4.1319999999999997] [0.151:3.9900000000000002] [0.036000000000000004:8.4870000000000001] [0.11699999999999999:6.5] [0:7.7779999999999996] [0.16:6.7779999999999996] [0.33200000000000002:5.6179999999999994] [0.25700000000000001:7.3739999999999997] [0.059999999999999998:6.4740000000000002] [0.17899999999999999:6.2300000000000004] [0.11199999999999999:5.9699999999999998] [0.052000000000000005:6.5060000000000002] [0.13900000000000001:5.3370000000000006] [0.0030000000000000001:14.927] [0.062:12.659000000000001] [0.28499999999999998:5.5990000000000002] [0.33700000000000002:7.0659999999999998] [0.068000000000000005:6.9189999999999996] [0.037999999999999999:6.9139999999999997] [0.063:7.9179999999999993] [0.107:7.3639999999999999] [0.037000000000000005:6.5729999999999995] [0.109:6.7479999999999993] [0.12:7.1529999999999996] [0.084000000000000005:5.5629999999999997] [0.052999999999999999:6.6120000000000001] [0.047:8.4600000000000009] [0.17800000000000002:6.6679999999999993] [0.088000000000000009:6.6120000000000001] [0.089999999999999997:6.2210000000000001] [0.083000000000000004:6.2309999999999999] [0.011000000000000001:6.5979999999999999] [0.002:14.649000000000001] [0.019:15.132999999999999] [0.0080000000000000002:6.6440000000000001] [0.184:5.6970000000000001] [0.12:6.141] [0.028999999999999998:5.4579999999999993] [0.037000000000000005:4.6799999999999997] [0.11900000000000001:5.6389999999999993] [0.052000000000000005:6.181] [0.17399999999999999:7.8550000000000004] [0.34799999999999998:5.6100000000000003] [0.055999999999999994:4.681] [0.021000000000000001:5.6520000000000001] [0.074999999999999997:5.7870000000000008] [0.11:5.6040000000000001] [0.050999999999999997:5.3479999999999999] [0.13:5.875] [0.17800000000000002:10.693] [0.08199999999999999:5.2539999999999996] [0.13500000000000001:10.525] [0.076999999999999999:5.4770000000000003] [0.14800000000000002:9.5730000000000004] [0.064000000000000001:4.548] [0.32799999999999996:7.6129999999999995] [0.23600000000000002:6.5760000000000005] [0.23199999999999998:7.5590000000000002] [0.107:10.152999999999999] [0.094:11.317] [0.113:4.6689999999999996] [0.23699999999999999:5.6170000000000009] [0.13300000000000001:5.016] [0.036000000000000004:7.5220000000000002] [0.07400000000000001:8.0190000000000001] [0.31:5.6470000000000002] [0.107:7.4110000000000005] [0.161:6.7360000000000007] [0.20899999999999999:5.984] [0.115:4.8620000000000001] [0:7.4620000000000006] [0.050000000000000003:7.8929999999999998] [0.153:5.9689999999999994] [0.113:6.6459999999999999] [0.115:7.3610000000000007] [0.16399999999999998:7.2210000000000001] [0.021000000000000001:7.8660000000000005] [0.031:11.562999999999999] [0.22800000000000001:6.4199999999999999] [0.090999999999999998:6.5810000000000004] [0.30599999999999999:6.4979999999999993] [0.049000000000000002:6.8779999999999992] [0.127:6.0439999999999996] [0.07400000000000001:6.9579999999999993] [0.17199999999999999:7.218] [0.032000000000000001:7.9000000000000004] [0.052999999999999999:5.1220000000000008] [0.10400000000000001:5.3839999999999995] [0.23600000000000002:5.8940000000000001] [0.045999999999999999:6.2889999999999997] [0.066000000000000003:6.3079999999999998] [0.044000000000000004:5.4229999999999992] [0.066000000000000003:7.7420000000000009] [0.20999999999999999:6.0870000000000006] [0.012:8.0310000000000006] [0.01:5.3499999999999996] [0.025000000000000001:6.0640000000000001] [0.026000000000000002:4.1689999999999996] [0.072000000000000008:4.6719999999999997] [0.115:7.2050000000000001] [0.157:7.5039999999999996] [0.044000000000000004:8.0120000000000005] [0.26000000000000001:6.3129999999999997] [0.16800000000000001:5.2979999999999992] [0.10099999999999999:6.5049999999999999] [0.054000000000000006:7.1459999999999999] [0.069000000000000006:7.2170000000000005] [0.31900000000000001:7.1660000000000004] [0.029999999999999999:7.7439999999999998] [0.065000000000000002:6.625] [0.0069999999999999993:5.1459999999999999] [0.037999999999999999:6.9139999999999997] [0.063:7.9179999999999993] [0.095000000000000001:7.4020000000000001] [0.072000000000000008:9.9320000000000004] [0.035000000000000003:7.2039999999999997] [0.10199999999999999:6.6170000000000009] [0.23499999999999999:7.8520000000000003] [0.024:5.3689999999999998] [0.435:10.289999999999999] [0.20300000000000001:9.0620000000000012] [0.063:7.7060000000000004] [0.19600000000000001:7.5599999999999996] [0.032000000000000001:10.270999999999999] [0.091999999999999998:8.488999999999999] [0.069000000000000006:7.6449999999999996] [0.017000000000000001:7.085] [0.22399999999999998:8.5679999999999996] [0.17300000000000001:5.8550000000000004] [0.037999999999999999:4.6739999999999995] [0.016:4.9430000000000005] [0.10800000000000001:6.8140000000000001] [0.14400000000000002:6.915] [0.23199999999999998:4.7930000000000001] [0.081000000000000003:7.0099999999999998] [0.074999999999999997:6.9409999999999998] [0.052000000000000005:6.0839999999999996] [0.23100000000000001:7.9860000000000007] [0.184:5.3559999999999999] [0.14899999999999999:7.4429999999999996] [0.32799999999999996:6.5499999999999998] [0.154:5.2750000000000004] [0.10800000000000001:5.7839999999999998] [0.26000000000000001:4.4000000000000004] [0.105:5.7810000000000006] [0.0069999999999999993:4.3019999999999996] [0.079000000000000001:6.0640000000000001] [0.13699999999999998:6.8329999999999993] [0.188:6.0609999999999999] [0.121:9.511000000000001] [0.001:8.343] [0.17699999999999999:7.9220000000000006] [0.024:9.511000000000001] [0.031:9.6259999999999994] [0.31:4.165] [0.055:4.2919999999999998] [0.14800000000000002:6.4879999999999995] [0.11900000000000001:8.3410000000000011] [0.002:4.242] [0.099000000000000005:7.1729999999999992] [0.113:3.7110000000000003] [0.029999999999999999:8.2260000000000009] [0.094:6.7070000000000007] [0.024:11.199999999999999] [0.16500000000000001:4.8490000000000002] [0.070000000000000007:7.2610000000000001] [0:11.007] [0.024:12.25] [0.045999999999999999:5.5099999999999998] [0.059000000000000004:10.205] [0.0069999999999999993:10.984000000000002] [0.001:12.287000000000001] [0.065000000000000002:7.234] [0.055999999999999994:6.8310000000000004] [0.27500000000000002:7.0279999999999996] [0.076999999999999999:7.9320000000000004] [0.060999999999999999:5.9329999999999998] [0.28100000000000003:10.752000000000001] [0.064000000000000001:7.0679999999999996] [0.12:5.5460000000000003] [0.060999999999999999:5.4579999999999993] [0.060999999999999999:5.4579999999999993] [0.0040000000000000001:5.4910000000000005] [0.08900000000000001:5.7370000000000001] [0.10199999999999999:6.1399999999999997] [0.052000000000000005:8.6600000000000001] [0.089999999999999997:8.7729999999999997] [0.129:5.3739999999999997] [0.156:7.9379999999999997] [0.044999999999999998:6.7770000000000001] [0.10300000000000001:4.625] [0.255:6.6360000000000001] [0.39600000000000002:5.4829999999999997] [0.042000000000000003:14.167] [0.029999999999999999:13.632999999999999] [0.029999999999999999:8.0470000000000006] [0.20899999999999999:6.1320000000000006] [0.10400000000000001:7.2139999999999995] [0.0040000000000000001:6.9189999999999996] [0.085000000000000006:11.115] [0.084000000000000005:11.077] [0.10000000000000001:6.5920000000000005] [0.151:5.1020000000000003] [0.30399999999999999:7.1299999999999999] [0.14099999999999999:5.234] [0.019:5.0730000000000004] [0.12:5.4000000000000004] [0.309:6.8479999999999999] [0.07400000000000001:5.1779999999999999] [0.158:5.2279999999999998] [0.14699999999999999:5.7679999999999998] [0.26400000000000001:6.3229999999999995] [0.33200000000000002:7.391] [0.086999999999999994:5.7539999999999996] [0.128:5.5739999999999998] [0.079000000000000001:5.8020000000000005] [0.125:4.4800000000000004] [0.033000000000000002:6.6179999999999994] [0.32899999999999996:7.0729999999999995] [0.024:4.0030000000000001] [0.11:7.125] [0.155:6.9050000000000002] [0.096999999999999989:4.577] [0.01:4.4359999999999999] [0.16200000000000001:6.0760000000000005] [0.040999999999999995:4.6920000000000002] [0.193:6.2129999999999992] [0.027000000000000003:14.182] [0.28600000000000003:5.1189999999999998] [0.096999999999999989:6.8829999999999991] [0.017000000000000001:10.680999999999999] [0.12:5.4989999999999997] [0.049000000000000002:13.930999999999999] [0.22399999999999998:6.8250000000000002] [0.099000000000000005:7.601] [0.14800000000000002:4.4710000000000001] [0.07400000000000001:5.5279999999999996] [0.057999999999999996:4.2910000000000004] [0:4.3289999999999997] [0.107:7.1699999999999999] [0.059000000000000004:7.7560000000000002] [0.026000000000000002:9.0299999999999994] [0.052000000000000005:4.9279999999999999] [0.014999999999999999:6.3650000000000002] [0.16:7.6329999999999991] [0.20100000000000001:5.6760000000000002] [0.13900000000000001:5.2160000000000002] [0.059000000000000004:6.8810000000000002] [0.021000000000000001:4.2249999999999996] [0.16600000000000001:6.5049999999999999] [0.16899999999999998:6.5870000000000006] [0.067000000000000004:8.6579999999999995] [0.096999999999999989:12.103] [0.001:10.782999999999999] [0.001:10.847999999999999] [0.040000000000000001:6.0190000000000001] [0.29699999999999999:4.9430000000000005] [0.32100000000000001:10.956] [0:4.5270000000000001] [0.011000000000000001:6.0289999999999999] [0.14899999999999999:5.3820000000000006] [0.021000000000000001:6.9500000000000002] [0.19699999999999998:8.5660000000000007] [0.0030000000000000001:5.2679999999999998] [0.052999999999999999:5.2929999999999993] [0.018000000000000002:5.5039999999999996] [0.037999999999999999:8.5939999999999994] [0.050000000000000003:7.4060000000000006] [0.17800000000000002:6.2750000000000004] [0.085000000000000006:7.2400000000000002] [0.17199999999999999:5.7879999999999994] [0.098000000000000004:5.944] [0.113:6.0870000000000006] [0.13500000000000001:7.4229999999999992] [0.13699999999999998:6.2920000000000007] [0.10300000000000001:5.6670000000000007] [0.098000000000000004:6.7729999999999997] [0.044999999999999998:12.625999999999999] [0.16:6.891] [0.095000000000000001:10.415999999999999] [0.01:7.4320000000000004] [0.047:16.488] [0.02:17.873000000000001] [0.187:5.9199999999999999] [0.024:3.9760000000000004] [0.16200000000000001:5.7220000000000004] [0.044999999999999998:7.4420000000000002] [0.08900000000000001:11.026] [0.124:10.539000000000001] [0.022000000000000002:5.6279999999999992] [0.017000000000000001:14.962] [0.0060000000000000001:15.948] [0.042000000000000003:5.6329999999999991] [0.122:11.196] [0.037999999999999999:4.0860000000000003] [0.034000000000000002:16.495000000000001] [0.106:4.7400000000000002] [0.078:7.8039999999999994] [0.10199999999999999:5.4050000000000002] [0.088000000000000009:5.2800000000000002] [0.057999999999999996:7.7729999999999997] [0.063:7.0329999999999995] [0.41600000000000004:5.7060000000000004] [0.152:9.8759999999999994] [0.105:4.9660000000000002] [0.093000000000000013:8.3450000000000006] [0.11900000000000001:6.8670000000000009] [0.17199999999999999:5.8949999999999996] [0.157:4.468] [0.052000000000000005:5.7270000000000003] [0.115:5.601] [0.002:9.3330000000000002] [0.090999999999999998:12.864000000000001] [0.048000000000000001:4.5250000000000004] [0.093000000000000013:5.3700000000000001] [0.085000000000000006:5.4870000000000001] [0.28999999999999998:6.6670000000000007] [0.059999999999999998:5.3870000000000005] [0.070000000000000007:5.2889999999999997] [0.040000000000000001:7.2229999999999999] [0.158:6.609] [0.27500000000000002:4.0960000000000001] [0.080000000000000002:6.6329999999999991] [0.19:6.0879999999999992] [0.17999999999999999:6.5570000000000004] [0.27600000000000002:6.1079999999999997] [0.16300000000000001:8.9339999999999993] [0.040999999999999995:4.6389999999999993] [0.033000000000000002:5.3959999999999999] [0.14800000000000002:5.2709999999999999] [0.129:6.1170000000000009] [0:6.3389999999999995] [0.074999999999999997:6.0110000000000001] [0.080000000000000002:5.9520000000000008] [0.057999999999999996:4.29] [0.183:6.8020000000000005] [0.014999999999999999:6.8710000000000004] [0.021000000000000001:5.6070000000000002] [0.044000000000000004:6.5470000000000006] [0.10000000000000001:5.9009999999999998] [0.115:5.4100000000000001] [0.044000000000000004:5.5049999999999999] [0.21899999999999997:6.4139999999999997] [0.016:4.5049999999999999] [0.016:4.6680000000000001] [0.059000000000000004:5.6720000000000006] [0.16500000000000001:10.138999999999999] [0.090999999999999998:5.516] [0.070000000000000007:4.726] [0.045999999999999999:8.738999999999999] [0.034000000000000002:9.2379999999999995] [0.017000000000000001:6.9620000000000006] [0.075999999999999998:9.0939999999999994] [0.115:7.3789999999999996] [0.054000000000000006:8.7629999999999999] [0.14300000000000002:6.0300000000000002] [0.113:6.1210000000000004] [0.01:14.009] [0.07400000000000001:5.8020000000000005] [0.48999999999999999:7.6739999999999995] [0.023:4.4550000000000001] [0.11699999999999999:6.718] [0.18100000000000002:5.5599999999999996] [0.248:5.6339999999999995] [0.025000000000000001:4.3660000000000005] [0.059000000000000004:6.9249999999999998] [0.057000000000000002:6.7110000000000003] [0.20899999999999999:6.1720000000000006] [0.057999999999999996:6.3389999999999995] [0.093000000000000013:10.333] [0.042000000000000003:7.8650000000000002] [0.013000000000000001:7.9400000000000004] [0.10000000000000001:5.8879999999999999] [0.08199999999999999:4.5369999999999999] [0.22600000000000001:5.8920000000000003] [0.32500000000000001:6.899] [0.0080000000000000002:4.4569999999999999] [0.188:5.8020000000000005] [0.094:5.6050000000000004] [0.13100000000000001:6.0070000000000006] [0.22399999999999998:5.3889999999999993] [0.21899999999999997:6.0329999999999995] [0.16200000000000001:5.4520000000000008] [0.040999999999999995:6.04] [0.044000000000000004:6.0720000000000001] [0.14699999999999999:6.0520000000000005] [0.13300000000000001:5.5460000000000003] [0.17300000000000001:5.806] [0.0069999999999999993:5.1470000000000002] [0.222:6.5289999999999999]
tree_sizes=1350 1716 2072 1896 1976 1968 1896 1977 1899 1909 1992 1967 1906 1909 1992 1884 1920 1931 1819 1939 1908 1922 1927 1929 1846 1887 1932 2020 1944 2026 1750 1911 1850 2019 1866 1946 1776 2030 2047 1804 1856 1873 1863 1945 1788 1965 1800 1982 1974 1963 1894 1984 2066 1970 2136 2064 1974 1891 1898 2038 2047 1724 2080 1881 2079 2085 2061 1898 1996 2169 1888 1991 1997 1966 1992 2080 2091 2005 2005 2079 2172 1907 2092 1990 1923 1890 2104 2093 2000 1992 1818 2098 2098 1998 2181 1914 1923 1920 2001 1929

Tree=0
num_leaves=15
num_cat=0
split_feature=88 448 515 326 22 185 279 382 172 444 172 408 148 4
split_gain=41.2533 8.84293 6.14754 7.14059 4.90909 4.71394 4.27773 2.89905 2.1645 1.44857 1.27201 0.670968 0.39 0.258511
threshold=1.0340000000000003 2.1350000000000002 1.7165000000000004 0.34250000000000008 0.56550000000000022 2.0405000000000002 1.6420000000000001 1.9170000000000003 1.3685000000000003 1.0685000000000002 1.2270000000000001 1.3090000000000004 2.2525000000000004 2.0695000000000001
decision_type=2 2 2 2 2 2 2 2 2 2 2 2 2 2
left_child=2 4 3 13 -2 10 -5 9 -8 -6 -3 -4 -11 -1
right_child=1 5 11 6 7 -7 8 -9 -10 12 -12 -13 -14 -15
leaf_value=0.53500000000000003 0.50555555555555554 0.5452380952380953 0.55000000000000004 0.53000000000000003 0.47799999999999998 0.47727272727272729 0.49545454545454548 0.4934782608695652 0.45000000000000001 0.45000000000000001 0.51000000000000001 0.53000000000000003 0.46500000000000002 0.55000000000000004
leaf_weight=20 27 21 104 20 25 33 22 23 20 130 20 20 20 27
leaf_count=20 27 21 104 20 25 33 22 23 20 130 20 20 20 27
internal_value=0 -0.245819 0.315451 0.142202 -0.344444 0.0540541 -0.0806452 -0.39899 -0.261905 -0.442857 0.280488 0.467742 -0.48 0.43617
internal_weight=0 299 233 109 225 74 62 198 42 175 41 124 150 47
internal_count=532 299 233 109 225 74 62 198 42 175 41 124 150 47
shrinkage=1


Tree=1
num_leaves=19
num_cat=0
split_feature=88 509 509 279 326 88 99 454 352 191 248 283 95 493 408 147 391 126
split_gain=33.4152 7.48487 5.0658 4.63258 4.33924 3.46964 3.4101 2.15877 2.11092 1.62554 0.699099 0.410994 0.335029 0.00849099 0.005081 0.00260302 0.000428751 0.00035549
threshold=1.0340000000000003 2.286 1.7450000000000003 1.3790000000000002 0.34250000000000008 2.1220000000000003 1.9635000000000002 1.9185000000000001 1.7535000000000003 1.4725000000000004 2.4485000000000006 1.9265000000000001 1.2195000000000003 0.96300000000000008 1.0705000000000002 1.8465000000000003 1.2080000000000004 2.0860000000000003
decision_type=2 2 2 2 2 2 2 2 2 2 2 2 2 2 2 2 2 2
left_child=2 3 4 6 -1 -3 -2 11 -6 -5 12 -4 13 -11 16 17 -13 -15
right_child=1 5 7 9 8 -7 -8 -9 -10 10 -12 14 -14 15 -16 -17 -18 -19
leaf_value=0.03574999928474426 0.021538018959539912 0.040088380624850595 0.031904220155307222 -0.016170613188296556 -0.037563635557889941 -0.011313089728355409 -0.028721283431406376 0.0076181818544864659 0.0068577078373535817 -0.047622061294058098 -0.02337147742509842 0.045524999201297767 -0.033991327385107677 -0.044999998807907109 0.046811982989311218 -0.04643128102733976 0.044999998807907109 -0.04550499901175499
leaf_weight=30 27 24 28 32 20 29 27 20 23 23 20 20 30 46 22 21 70 20
leaf_count=30 27 24 28 32 20 29 27 20 23 23 20 20 30 46 22 21 70 20
internal_value=0 -0.221237 0.283906 -0.294676 0.0656102 0.11963 -0.0359163 0.383503 -0.138034 -0.367453 -0.408602 0.427406 -0.433586 -0.459133 0.454497 -0.454616 0.451167 -0.45153
internal_weight=0 299 233 246 73 53 54 160 43 192 160 140 140 110 112 87 90 66
internal_count=532 299 233 246 73 53 54 160 43 192 160 140 140 110 112 87 90 66
shrinkage=0.1


Tree=2
num_leaves=23
num_cat=0
split_feature=88 356 176 323 530 167 279 76 499 348 139 281 192 38 530 248 65 94 368 365 298 391
split_gain=27.0663 6.55562 5.08528 4.35808 4.17736 4.03337 2.84562 2.65292 1.68668 1.05096 1.31349 0.497522 0.162148 0.0493295 0.0245414 0.0217358 0.00775622 0.00449374 0.00343311 0.00131796 0.00076281 1.66018e-05
threshold=1.0340000000000003 1.0070000000000003 2.4305000000000008 1.4610000000000001 2.3810000000000002 0.75900000000000001 1.6185000000000003 2.6495000000000002 1.3495000000000001 2.1430000000000002 2.0115000000000003 1.6355000000000002 1.7805000000000002 2.9950000000000006 1.9700000000000002 2.3420000000000001 1.9690000000000003 1.9480000000000002 1.2160000000000002 2.3345000000000007 3.3260000000000005 1.6890000000000001
decision_type=2 2 2 2 2 2 2 2 2 2 2 2 2 2 2 2 2 2 2 2 2 2
left_child=3 -2 5 8 6 -3 -5 9 -1 11 -11 -7 -10 15 -14 16 18 -16 -13 -20 -19 -22
right_child=1 2 -4 4 -6 7 -8 -9 12 10 -12 13 14 -15 17 -17 -18 20 19 -21 21 -23
leaf_value=0.011427971348166466 0.033963220460074293 0.014043374856313072 0.02215537659146569 0.019434378892183305 0.03622176897141241 -0.025481759508450826 -0.028649595193564893 -0.0028089688292571476 0.032094154804944992 -0.0074174373195721559 -0.038908224856411974 -0.042594214237254596 0.044972272997810731 -0.03746671512722969 0.04246553480625153 -0.045845397412776948 -0.043602946294205532 0.041265269964933397 -0.040540215102109041 -0.041661844402551655 0.04046870434284211 0.040590940266847612
leaf_weight=24 21 21 22 20 31 21 32 28 20 26 27 23 21 20 20 20 28 20 22 20 25 20
leaf_count=24 21 21 22 20 31 21 32 28 20 26 27 23 21 20 20 20 28 20 22 20 25 20
internal_value=0 -0.199114 -0.23981 0.255515 0.0716597 -0.279459 -0.101558 -0.316981 0.357248 -0.356058 -0.234599 -0.397859 0.403528 -0.420445 0.41911 -0.428547 -0.422115 0.411547 -0.416121 -0.410743 0.407514 0.40523
internal_weight=0 299 278 233 83 256 52 235 150 207 53 154 126 133 106 113 93 85 65 42 65 45
internal_count=532 299 278 233 83 256 52 235 150 207 53 154 126 133 106 113 93 85 65 42 65 45
shrinkage=0.1


Tree=3
num_leaves=21
num_cat=0
split_feature=326 353 171 51 258 406 336 146 3 86 167 359 266 326 530 195 120 301 248 176
split_gain=22.0695 6.4123 7.07818 5.15603 2.55957 2.10681 1.99066 1.81489 0.94171 0.895124 0.724344 0.465855 0.201752 0.03312 0.0219251 0.0168032 0.0052352 0.00310849 0.00149717 9.04687e-05
threshold=1.4695000000000003 2.1515 1.2330000000000003 2.5735000000000006 1.3315000000000003 1.4315000000000002 0.85500000000000009 2.2065000000000006 1.7365000000000002 1.4645000000000004 1.2850000000000004 1.9535000000000002 2.7810000000000001 0.65700000000000014 2.4035000000000006 1.8535000000000004 2.1315000000000004 2.3700000000000006 1.6795000000000002 1.8495000000000001
decision_type=2 2 2 2 2 2 2 2 2 2 2 2 2 2 2 2 2 2 2 2
left_child=1 2 10 4 -2 -4 -6 11 -7 13 -1 -8 14 17 15 -13 18 -3 -17 -19
right_child=3 9 5 -5 6 8 7 -9 -10 -11 -12 12 -14 -15 -16 16 -18 19 -20 -21
leaf_value=0.041013604601224267 0.0060727560001870859 0.037777791313222939 0.0040571645416062454 0.025047775019298904 0.00094282284379005427 -0.014333189725875856 -0.025296231337956023 -0.0037306097149848935 -0.043445705056190498 0.019911933441956839 0.017705710232257844 -0.041178877055644991 -0.028972706347703936 0.041150527046276975 -0.042864114195108417 -0.036996438354253772 -0.039452923536300664 0.036458899776140849 -0.038220028877258304 0.036733473241329195
leaf_weight=30 23 37 29 22 20 20 35 20 25 36 24 30 20 26 20 20 25 30 20 20
leaf_count=30 23 37 29 22 20 20 35 20 25 36 24 30 20 26 20 20 25 30 20 20
internal_value=0 0.195421 0.0312654 -0.212281 -0.255974 -0.169615 -0.290661 -0.322249 -0.305068 0.33644 0.306545 -0.355772 -0.382426 0.380188 -0.398548 -0.392212 -0.383177 0.370829 -0.376082 0.365687
internal_weight=0 277 128 255 233 74 210 190 45 149 54 170 135 113 115 95 65 87 40 50
internal_count=532 277 128 255 233 74 210 190 45 149 54 170 135 113 115 95 65 87 40 50
shrinkage=0.1


Tree=4
num_leaves=22
num_cat=0
split_feature=91 185 302 147 231 447 482 233 334 34 315 299 91 169 387 397 493 516 123 62 203
split_gain=18.1598 7.54629 3.63361 3.43996 4.55291 3.38261 2.69061 1.14225 1.01155 0.460392 0.35041 0.13068 0.0933548 0.0453672 0.042574 0.0237336 0.010633 0.00502175 0.00492248 0.00221201 0.000386744
threshold=0.86250000000000016 1.4840000000000002 2.3085000000000004 1.6225000000000003 1.3575000000000002 2.0065000000000004 2.6475000000000004 2.0360000000000005 2.0150000000000006 2.7805000000000004 1.1180000000000001 1.4305000000000001 0.4290000000000001 2.0525000000000007 1.5085000000000002 1.7255 1.7520000000000002 1.8750000000000002 1.8200000000000001 2.2130000000000005 1.2310000000000001
decision_type=2 2 2 2 2 2 2 2 2 2 2 2 2 2 2 2 2 2 2 2 2
left_child=3 5 6 4 -1 -2 8 10 9 11 -5 -3 17 -14 -13 -16 18 -12 -17 -20 -19
right_child=1 2 -4 7 -6 -7 -8 -9 -10 -11 12 14 13 -15 15 16 -18 20 19 -21 -22
leaf_value=0.033058144346527429 -0.0075651188959946509 -0.028153810948133469 0.017155920267105104 0.0217297326028347 -0.026519497098593876 0.036128180517869833 0.0035910490751266486 0.014117461913510375 -0.011962675924102467 -0.019576238095760347 0.034924804170926409 -0.040634305775165559 0.042958551916209141 0.036377894729375838 -0.038448281945853396 -0.035674584047360854 -0.037124808281660086 0.033418194800615308 -0.033068656176328662 -0.03455593824386597 0.032803755289032344
leaf_weight=23 37 20 20 20 29 34 25 38 24 20 24 24 22 20 29 22 20 20 20 20 21
leaf_count=23 37 20 20 20 29 34 25 38 24 20 24 24 22 20 29 22 20 20 20 20 21
internal_value=0 -0.153346 -0.236839 0.2226 -0.00167848 0.133584 -0.273303 0.293281 -0.312149 -0.338552 0.338794 -0.356976 0.361503 0.398249 -0.368152 -0.359895 -0.351199 0.33776 -0.344731 -0.338123 0.331035
internal_weight=0 315 244 217 52 71 224 165 199 175 127 155 107 42 135 111 82 65 62 40 41
internal_count=532 315 244 217 52 71 224 165 199 175 127 155 107 42 135 111 82 65 62 40 41
shrinkage=0.1


Tree=5
num_leaves=22
num_cat=0
split_feature=86 99 527 171 35 176 507 36 228 459 233 466 141 520 148 44 408 382 230 288 500
split_gain=15.2051 6.17003 3.60671 3.01512 2.94873 2.36304 1.46291 1.43376 1.00215 1.4147 0.377846 0.32831 0.187893 0.157773 0.097507 0.061627 0.0205344 0.0114323 0.00959058 0.00440006 0.000925003
threshold=1.3915000000000004 1.4545000000000001 2.0160000000000005 1.2435000000000003 2.2435000000000005 2.3745000000000007 1.9500000000000002 1.3050000000000002 1.0930000000000002 1.4300000000000004 1.5230000000000001 2.3050000000000006 1.3135000000000003 2.3380000000000005 2.4740000000000006 2.2450000000000006 1.9080000000000001 1.2365000000000002 1.4315 2.1385000000000005 2.4180000000000006
decision_type=2 2 2 2 2 2 2 2 2 2 2 2 2 2 2 2 2 2 2 2 2
left_child=2 4 3 -1 6 7 -2 -3 9 -9 -10 -6 -12 -4 16 18 -14 19 20 -18 -15
right_child=1 5 13 -5 11 -7 -8 8 10 -11 12 -13 14 15 -16 -17 17 -19 -20 -21 -22
leaf_value=0.02531588673591614 0.010229093581438066 0.0010112567245960237 0.023993938664595288 -0.016963148117065431 0.038000539938608809 0.0098303621465509593 -0.028018967956304555 -0.029581806505167924 -0.01946164183318615 0.0050250019345964708 -0.024202288389205934 0.020098216980695725 -0.035991337218067868 0.030531776845455175 -0.041055033504962923 0.036541851639747623 -0.030601849115413166 -0.034351472692056136 0.032181888380471396 -0.032557900573896327 0.029653804202874501
leaf_weight=31 20 20 30 37 21 22 20 27 24 21 20 20 22 20 20 25 23 22 34 23 30
leaf_count=31 20 20 30 37 21 22 20 27 24 21 20 20 22 20 20 25 23 22 34 23 30
internal_value=0 -0.134922 0.211834 0.0231112 0.10422 -0.214309 -0.0889494 -0.245288 -0.270576 -0.144413 -0.309899 0.292677 -0.331182 0.304158 -0.347392 0.321833 -0.333357 -0.324766 0.308861 -0.315799 0.30005
internal_weight=0 325 207 68 81 244 40 222 202 48 154 41 130 139 110 109 90 68 84 46 50
internal_count=532 325 207 68 81 244 40 222 202 48 154 41 130 139 110 109 90 68 84 46 50
shrinkage=0.1


Tree=6
num_leaves=21
num_cat=0
split_feature=86 85 509 129 402 99 299 248 0 251 272 148 353 309 336 229 192 115 452 90
split_gain=12.3161 5.27851 3.00089 2.78709 2.9877 2.50871 1.86383 1.51924 0.709234 0.453139 0.231173 0.176003 0.109655 0.058107 0.0573023 0.031983 0.0280381 0.0172902 0.0095405 0.002471
threshold=1.3915000000000004 3.3035000000000005 1.4335000000000002 3.1245000000000007 0.96000000000000008 1.6370000000000002 1.3420000000000003 1.6595000000000002 1.4175000000000002 2.7290000000000005 3.0255000000000005 2.9375000000000004 2.3140000000000005 1.6725000000000001 2.2280000000000002 2.0970000000000009 2.0740000000000003 2.3380000000000005 1.7940000000000003 1.4615000000000002
decision_type=2 2 2 2 2 2 2 2 2 2 2 2 2 2 2 2 2 2 2 2
left_child=2 3 -1 4 -2 -3 -6 -4 -8 12 11 -9 13 -10 15 -15 -13 19 -17 -18
right_child=1 5 7 -5 6 -7 8 10 9 -11 -12 16 -14 14 -16 18 17 -19 -20 -21
leaf_value=-0.010180915892124177 0.015166921984581722 0.03411862812936306 0.0016950935125350953 0.017021917161487401 0.0020950209349393845 -0.0086512943108876545 -0.012895283102989197 0.035915399561910068 -0.035268270292065362 -0.016012280186017355 0.020008319516976677 0.030612916180065702 -0.038210160217501898 -0.033124197295733862 -0.025074618919329213 -0.03092747464776039 0.026842149748251987 0.023963057100772858 -0.028143295738846066 0.028320624977350235
leaf_weight=30 21 32 26 21 24 24 29 34 22 21 30 21 22 35 22 20 26 20 32 20
leaf_count=30 21 32 26 21 24 24 29 34 22 21 30 21 22 35 22 20 26 20 32 20
internal_value=0 -0.12143 0.19065 -0.179577 -0.209197 0.157887 -0.242581 0.24022 -0.273737 -0.297868 0.278663 0.298146 -0.316774 -0.305803 -0.296342 -0.307871 0.274304 0.264177 -0.292141 0.27485
internal_weight=0 325 207 269 248 56 227 177 203 174 151 121 153 131 109 87 87 66 52 46
internal_count=532 325 207 269 248 56 227 177 203 174 151 121 153 131 109 87 87 66 52 46
shrinkage=0.1


Tree=7
num_leaves=22
num_cat=0
split_feature=91 59 449 24 353 279 482 75 137 104 271 309 509 177 97 238 338 12 325 493 500
split_gain=10.0545 4.49719 2.73949 2.27943 2.52702 2.11918 0.937963 0.69269 0.680702 0.51124 0.49694 0.19819 0.156987 0.105187 0.0577196 0.0379198 0.0233366 0.0218021 0.0158903 0.0064845 0.00252987
threshold=0.86250000000000016 1.2715000000000003 2.4290000000000007 2.1830000000000003 1.6465000000000001 1.6420000000000001 2.5955000000000008 2.3545000000000003 2.4470000000000005 1.0270000000000004 1.7270000000000003 1.5705000000000002 1.796 1.3260000000000003 1.4890000000000003 1.6815000000000002 2.3395000000000006 1.7295000000000003 1.6575000000000002 1.4985000000000002 2.3930000000000002
decision_type=2 2 2 2 2 2 2 2 2 2 2 2 2 2 2 2 2 2 2 2 2
left_child=3 5 6 8 -5 -2 7 9 10 -3 12 -11 -1 -13 18 -15 17 -17 20 -18 -14
right_child=1 2 -4 4 -6 -7 -8 -9 -10 11 -12 13 14 15 -16 16 19 -19 -20 -21 -22
leaf_value=0.034199335159999983 0.026623882314092236 -0.010575314149970101 0.017409747242927553 -0.029640302658081055 0.015952197005671839 -0.0072337815331088174 -0.00058583945035934454 -0.0056334930658340464 0.0066680234546462706 -0.017858780696988107 0.012381490606528062 -0.035025754003297715 0.025894828215241434 -0.02337770648300648 0.029668035268783574 -0.02731574577364055 -0.025518723577260972 -0.031522471723811972 0.021660445109009746 -0.027823801468247956 0.024357010748075406
leaf_weight=28 38 21 20 20 31 36 20 20 24 20 26 21 20 20 25 22 26 28 20 23 23
leaf_count=28 38 21 20 20 31 36 20 20 24 20 26 21 20 20 25 22 26 28 20 23 23
internal_value=0 -0.114104 -0.180313 0.165634 -0.0192721 0.101526 -0.212387 -0.232937 0.222443 -0.252451 0.248769 -0.271705 0.276776 -0.285007 0.256025 -0.273493 -0.281516 -0.296715 0.239892 -0.266007 0.250723
internal_weight=0 315 241 217 51 74 221 201 166 181 142 160 116 140 88 119 99 50 63 49 43
internal_count=532 315 241 217 51 74 221 201 166 181 142 160 116 140 88 119 99 50 63 49 43
shrinkage=0.1


Tree=8
num_leaves=21
num_cat=0
split_feature=88 515 231 279 406 521 69 507 307 445 251 420 76 198 112 88 53 48 393 494
split_gain=8.54173 3.45485 3.71207 2.79203 2.39077 1.52628 1.12999 0.813449 0.668039 0.479791 0.465549 0.440748 0.288036 0.198961 0.121561 0.0849183 0.0561721 0.0417671 0.0184473 0.00634817
threshold=1.6505000000000003 1.7515000000000003 1.3030000000000002 1.0360000000000003 1.2230000000000003 2.0400000000000005 3.7630000000000003 1.4145000000000003 2.2725000000000004 1.9100000000000004 1.7090000000000003 0.56550000000000011 2.3445000000000005 2.4555000000000002 2.1165000000000003 0.80850000000000011 1.5890000000000002 2.0920000000000001 1.6150000000000002 1.7570000000000003
decision_type=2 2 2 2 2 2 2 2 2 2 2 2 2 2 2 2 2 2 2 2
left_child=1 2 10 -2 5 -4 7 -5 -6 13 -1 -9 14 15 17 -3 -15 19 -18 -13
right_child=3 9 4 6 8 -7 -8 11 -10 -11 -12 12 -14 16 -16 -17 18 -19 -20 -21
leaf_value=0.030299472610155743 0.017631365234653154 0.026154220881669417 -0.013615477227029348 -0.006109399516736308 -0.035430698841810229 0.022953858077526094 0.0041473872214555741 -0.011113472801187765 -0.013586462342313359 0.012233934150292324 0.011147539317607881 -0.025457717850804331 -0.036283897057823512 0.017258008643984798 -0.016918991804122926 0.03494957756428492 0.025887417793273929 -0.028663622408077634 0.021880429100107263 -0.023256660174382361
leaf_weight=30 24 23 21 31 28 25 20 23 28 39 22 20 23 20 20 21 20 29 27 38
leaf_count=30 24 23 21 31 28 25 20 23 28 39 22 20 23 20 20 21 20 29 27 38
internal_value=0 0.109736 0.00452409 -0.146314 -0.106329 0.0625916 -0.18427 -0.208808 -0.245086 0.217753 0.221967 -0.238737 -0.261312 0.251276 -0.239489 0.30352 0.216967 -0.25565 0.235855 -0.240156
internal_weight=0 304 154 228 102 46 204 184 56 150 52 153 130 111 107 44 67 87 47 58
internal_count=532 304 154 228 102 46 204 184 56 150 52 153 130 111 107 44 67 87 47 58
shrinkage=0.1


Tree=9
num_leaves=21
num_cat=0
split_feature=86 24 319 509 165 324 487 248 19 22 448 355 387 292 326 79 505 427 419 361
split_gain=7.04229 3.11421 1.9585 1.8545 1.50567 1.1022 1.38678 0.928142 0.547193 0.381691 0.295086 0.224493 0.369533 0.104315 0.0643487 0.0413676 0.0172356 0.0167903 0.00269869 0.00101648
threshold=1.3915000000000004 1.3565000000000003 3.7705000000000002 1.4335000000000002 1.9415000000000002 0.75700000000000012 2.1175000000000002 1.6595000000000002 1.2290000000000003 0.61900000000000011 2.1695000000000007 1.5715000000000001 1.2340000000000002 2.9840000000000004 0.65700000000000014 2.1150000000000007 1.2070000000000001 1.9525000000000003 1.6270000000000004 0.91000000000000003
decision_type=2 2 2 2 2 2 2 2 2 2 2 2 2 2 2 2 2 2 2 2
left_child=3 4 5 -1 8 -3 9 -5 -2 -7 13 -9 -13 15 18 16 -11 -18 19 -14
right_child=1 2 -4 7 -6 6 -8 11 -10 10 -12 12 14 -15 -16 -17 17 -19 -20 -21
leaf_value=-0.0085743862390518198 0.0089460299909114843 0.0032401246329148616 0.014839803959642137 0.00086208587655654334 -0.0084415128518795148 -0.009659078344702721 0.00089354741162267232 0.027967062082729845 0.031562530735264653 -0.024830312707594462 -0.034792553212331691 0.0067505761981010437 0.02039313781261444 -0.015875393748283388 0.026604580027716502 -0.027492577938929848 -0.023831045512969679 -0.020550340299422928 0.021300531998276712 0.019508229637587512
leaf_weight=30 20 24 21 26 29 20 29 38 23 28 23 20 25 20 21 23 26 39 20 27
leaf_count=30 20 24 21 26 29 20 29 38 23 28 23 20 25 20 21 23 26 39 20 27
internal_value=0 -0.0918215 -0.144042 0.144164 0.0916743 -0.170513 -0.193926 0.183132 0.210432 -0.226791 -0.243169 0.21318 0.19082 -0.225453 0.21734 -0.236952 -0.227561 -0.218626 0.203134 0.199337
internal_weight=0 325 253 207 72 232 208 177 43 179 159 151 113 136 93 116 93 65 72 52
internal_count=532 325 253 207 72 232 208 177 43 179 159 151 113 136 93 116 93 65 72 52
shrinkage=0.1


Tree=10
num_leaves=22
num_cat=0
split_feature=86 448 522 185 171 214 193 80 521 479 221 40 214 440 110 345 363 300 401 96 500
split_gain=5.77068 3.18481 2.21129 2.36739 1.64169 1.28502 1.1769 0.909637 0.775715 0.375776 0.839943 0.192283 0.171264 0.126633 0.0891399 0.0481923 0.0368347 0.0346404 0.0155031 0.00813915 0.0022822
threshold=1.0935000000000004 2.1350000000000002 2.0575000000000006 2.0405000000000002 1.0395000000000003 2.2335000000000007 2.6700000000000004 2.7025000000000006 1.7095000000000002 1.3885000000000001 1.7035000000000002 1.3845000000000003 1.8480000000000001 1.8710000000000002 1.3410000000000004 2.4085000000000005 1.2185000000000004 2.3690000000000002 2.2630000000000003 1.8910000000000002 2.6010000000000004
decision_type=2 2 2 2 2 2 2 2 2 2 2 2 2 2 2 2 2 2 2 2 2
left_child=8 4 -3 6 -2 7 -4 9 -1 11 -11 -6 14 18 -10 16 -13 19 -14 -18 -20
right_child=1 2 3 -5 5 -7 -8 -9 12 10 -12 15 13 -15 -16 -17 17 -19 20 -21 -22
leaf_value=-0.00063799883831631055 0.014455204847313108 0.029380252505793715 -0.0026900386171681539 -0.024827939697674342 -0.032086386606097222 0.0031036049553326197 0.027487731476624807 -0.0025639878038097833 0.029837528914213179 0.0027899397909641266 -0.02470457983016968 -0.023811387519041698 0.021627388298511505 0.010228137448430062 0.020396138429641726 -0.024759635049849751 -0.021924042159860786 -0.015540273562073709 0.019015037365581678 -0.019136715531349185 0.017621059405306973
leaf_weight=22 21 33 28 28 20 35 24 34 20 20 25 21 20 20 20 32 22 20 23 20 24
leaf_count=22 21 33 28 28 20 35 24 34 20 20 25 21 20 20 20 32 22 20 23 20 24
internal_value=0 -0.0649608 0.0759956 -0.0138497 -0.123954 -0.146599 0.112382 -0.175651 0.16698 -0.203987 -0.124848 -0.230366 0.197011 0.172111 0.251168 -0.214627 -0.201917 -0.189656 0.192955 -0.205967 0.183032
internal_weight=0 383 113 80 270 249 52 214 149 180 45 135 127 87 40 115 83 62 67 42 47
internal_count=532 383 113 80 270 249 52 214 149 180 45 135 127 87 40 115 83 62 67 42 47
shrinkage=0.1


Tree=11
num_leaves=22
num_cat=0
split_feature=91 359 493 22 166 76 243 495 271 515 32 22 479 326 189 156 521 488 446 292 233
split_gain=4.78341 2.41394 1.61274 1.68922 1.65935 1.30215 1.28707 0.727535 0.489659 0.483195 0.470519 0.446886 0.234193 0.189357 0.178566 0.104845 0.0288995 0.0247246 0.0211732 0.00514657 0.00151245
threshold=0.5635 1.9665000000000004 3.2000000000000006 0.90250000000000019 1.6615000000000002 2.6495000000000002 1.7220000000000002 2.9120000000000004 1.6835000000000002 1.1110000000000002 1.7945 0.64550000000000007 1.4125000000000003 0.58950000000000002 1.8095000000000003 3.6330000000000005 1.6780000000000002 2.4205000000000005 3.0575000000000006 2.0570000000000008 1.5255000000000003
decision_type=2 2 2 2 2 2 2 2 2 2 2 2 2 2 2 2 2 2 2 2 2
left_child=9 2 3 6 -5 7 -2 11 -6 -1 -8 -3 14 15 16 18 -13 19 -11 -18 -20
right_child=1 5 -4 4 8 -7 10 -9 -10 13 -12 12 -14 -15 -16 -17 17 -19 20 -21 -22
leaf_value=0.0013072471320629119 -0.0089395654077331233 -0.0039543480426073073 0.02524326084940522 0.010573422372341157 -0.0075808556377887724 0.0099251393567432056 0.029745011549928913 0.0022159995883703231 -0.02691184662674603 0.020024313777685168 0.0099263007640838629 -0.022882373258471492 -0.027025773738111769 0.026249988571457241 -0.0090889027714729318 0.0097096810489892965 -0.016161443428559737 -0.021274697974972105 0.016146196176608407 -0.018239616144161957 0.017252707339468456
leaf_weight=20 24 20 27 25 20 22 23 20 38 28 25 20 35 23 20 20 22 23 30 26 21
leaf_count=20 24 20 27 25 20 22 23 20 38 28 25 20 35 23 20 20 22 23 30 26 21
internal_value=0 -0.057217 0.026889 -0.0123993 -0.10963 -0.13081 0.0996866 -0.158021 -0.20246 0.157145 0.194228 -0.17973 -0.198933 0.180764 -0.176444 0.161774 -0.195247 -0.185789 0.178149 -0.172871 0.166018
internal_weight=0 390 182 155 83 208 72 186 58 142 48 166 146 122 111 99 91 71 79 48 51
internal_count=532 390 182 155 83 208 72 186 58 142 48 166 146 122 111 99 91 71 79 48 51
shrinkage=0.1


Tree=12
num_leaves=21
num_cat=0
split_feature=86 382 99 127 60 509 388 248 151 22 404 76 88 86 52 97 448 99 419 260
split_gain=3.9038 2.02034 1.69943 1.48243 1.80471 1.18096 0.690759 0.65096 0.462356 0.647834 0.430126 0.221094 0.199606 0.401258 0.118531 0.0762886 0.0637469 0.0115879 0.0033368 0.00137903
threshold=1.3915000000000004 2.6820000000000008 1.6140000000000003 2.7995000000000005 1.8400000000000001 1.4335000000000002 1.3765000000000003 1.5385000000000002 1.2450000000000003 0.75650000000000006 2.1485000000000003 2.2985000000000002 0.89800000000000013 1.0835000000000001 1.8065000000000004 2.0515000000000003 2.0285000000000006 2.1195000000000008 1.8540000000000001 2.0865000000000005
decision_type=2 2 2 2 2 2 2 2 2 2 2 2 2 2 2 2 2 2 2 2
left_child=5 2 3 4 -2 -1 -4 -7 -8 -10 11 14 13 16 -11 17 -9 -16 19 -18
right_child=1 -3 6 -5 -6 7 8 12 9 10 -12 -13 -14 -15 15 -17 18 -19 -20 -21
leaf_value=-0.0076131737232208261 0.010405780289854323 0.021085630605618161 0.0023443950259167214 0.023677124331394832 -0.022451511397957803 -0.0026856715480486557 -0.030388963073492051 0.020425510323709914 0.0002045722821584115 -0.010254894159734249 -0.0044640303953834204 -0.027359403255912997 0.02466997705076052 0.0018958730357033866 -0.018539764881134034 -0.023705795342507569 0.015586953908205033 -0.015388174674340657 0.016425921171903609 0.014551300638251836
leaf_weight=30 35 24 23 24 32 21 20 36 26 20 23 27 23 21 20 23 20 28 20 36
leaf_count=30 35 24 23 24 32 21 20 36 26 20 23 27 23 21 20 23 20 28 20 36
internal_value=0 -0.0683647 -0.0906281 0.023517 -0.0528725 0.107336 -0.140091 0.138432 -0.160205 -0.142997 -0.169743 -0.194127 0.160682 0.145807 -0.170549 -0.189704 0.169591 -0.167013 0.153172 0.149212
internal_weight=0 325 301 91 67 207 210 177 187 167 141 118 156 133 91 71 112 48 76 56
internal_count=532 325 301 91 67 207 210 177 187 167 141 118 156 133 91 71 112 48 76 56
shrinkage=0.1


Tree=13
num_leaves=21
num_cat=0
split_feature=326 382 129 420 15 228 33 522 57 165 515 76 268 42 342 260 231 387 12 34
split_gain=3.31446 2.35208 1.69765 1.63316 1.36391 0.988524 0.987858 0.490532 0.517286 0.395034 0.325233 0.212891 0.192707 0.164768 0.144335 0.165311 0.131196 0.123368 0.0216833 0.0141641
threshold=0.34250000000000008 2.6820000000000008 3.1245000000000007 0.57750000000000001 0.0095000000000000032 0.88300000000000012 3.4720000000000004 1.5680000000000003 1.5595000000000001 2.0975000000000006 2.0910000000000006 2.2985000000000002 1.5840000000000003 1.8285000000000002 2.3145000000000002 2.5705000000000005 1.3575000000000002 1.7245000000000001 1.9840000000000002 1.9490000000000003
decision_type=2 2 2 2 2 2 2 2 2 2 2 2 2 2 2 2 2 2 2 2
left_child=13 2 3 4 9 -5 7 -7 -9 -2 -3 12 -10 16 17 -16 18 -14 -1 -19
right_child=1 10 -4 5 -6 6 -8 8 11 -11 -12 -13 14 -15 15 -17 -18 19 -20 -21
leaf_value=0.017502540275454521 0.026746897660195831 0.027304516136646275 0.014243839532136919 0.0058436739775869582 -0.01261124570782368 -0.027473072843118146 0.0069806998968124402 -0.0024458307893045488 -0.0058061761781573297 0.006871436536312104 0.0098682833106621456 -0.024310490360547759 -0.02588671176206498 0.02024315362557387 -0.017215668255912846 -0.0053979090601205832 0.0057387103411284364 -0.018335897546438946 0.013374962827989036 -0.01466307512351445
leaf_weight=20 20 20 35 27 26 33 20 31 20 20 23 29 21 39 29 20 22 21 35 21
leaf_count=20 20 20 35 27 26 33 20 31 20 20 23 29 21 39 29 20 22 21 35 21
internal_value=0 -0.0416805 -0.067211 -0.0889202 0.0521931 -0.123161 -0.143174 -0.162105 -0.142748 0.168092 0.179782 -0.165524 -0.14848 0.149475 -0.164626 -0.123921 0.122653 -0.196286 0.148759 -0.164995
internal_weight=0 416 373 338 66 272 245 225 192 40 43 161 132 116 112 49 77 63 55 42
internal_count=532 416 373 338 66 272 245 225 192 40 43 161 132 116 112 49 77 63 55 42
shrinkage=0.1


Tree=14
num_leaves=22
num_cat=0
split_feature=359 384 96 76 466 445 361 332 143 300 163 231 48 462 320 400 334 434 397 282 80
split_gain=2.68571 1.36366 1.46199 1.14677 1.07356 0.797816 0.55903 0.787244 0.514974 0.433324 0.302713 0.371523 0.286404 0.230159 0.114217 0.103208 0.0994659 0.0886691 0.0306348 0.0303752 0.0155861
threshold=2.0255000000000005 1.1190000000000002 1.4230000000000003 2.6920000000000002 2.2775000000000003 1.2940000000000003 2.4370000000000007 2.5775000000000001 1.4505000000000001 3.0165000000000002 1.4545000000000001 1.5305000000000002 1.4425000000000001 1.5480000000000003 2.3270000000000004 1.6595000000000002 1.7255000000000003 2.9875000000000003 2.0170000000000008 1.6915000000000002 2.5010000000000008
decision_type=2 2 2 2 2 2 2 2 2 2 2 2 2 2 2 2 2 2 2 2 2
left_child=1 6 -3 5 8 -2 12 -8 -4 10 -7 -12 13 -1 16 -15 17 18 -13 20 -17
right_child=3 2 4 -5 -6 9 7 -9 -10 -11 11 14 -14 15 -16 19 -18 -19 -20 -21 -22
leaf_value=0.0029309207484835668 0.0067798052660443574 0.015620511069017299 -0.0062119872708405769 0.012964458695866847 0.0062982755945995457 -0.026890364661812785 -0.011966729333454912 0.012606670195236803 -0.024525425605037635 -0.00069442501534586372 -0.0018382479182698511 -0.018012166507542133 0.023841909429541341 0.020339425685613054 -0.022929417341947558 0.0090232190117239958 -0.020697201192379 -0.0070926092565059664 -0.012761326342821122 0.015787723623216152 0.012768550157547
leaf_weight=21 22 34 28 22 32 20 22 32 34 23 22 20 27 23 20 20 20 20 25 20 25
leaf_count=21 22 34 28 22 32 20 22 32 34 23 22 20 27 23 20 20 20 20 25 20 25
internal_value=0 0.0582864 -0.0214967 -0.0866125 -0.0857718 -0.111392 0.112035 0.0259529 -0.162548 -0.134581 -0.154552 -0.136544 0.146215 0.123375 -0.161301 0.145823 -0.145303 -0.126327 -0.15095 0.125451 0.11104
internal_weight=0 318 128 214 94 192 190 54 62 170 147 127 136 109 105 88 85 65 45 65 45
internal_count=532 318 128 214 94 192 190 54 62 170 147 127 136 109 105 88 85 65 45 65 45
shrinkage=0.1


Tree=15
num_leaves=21
num_cat=0
split_feature=91 185 127 299 171 229 316 7 286 235 24 320 298 148 107 452 301 321 445 28
split_gain=2.23294 1.41079 1.46656 1.33451 0.927578 0.635747 0.555782 0.438836 0.416909 0.548811 0.278961 0.278656 0.20848 0.163226 0.143231 0.125356 0.0352036 0.0280881 0.0119628 0.00119864
threshold=0.5635 2.1840000000000006 2.4805000000000006 1.3210000000000002 1.1555000000000002 2.4320000000000008 1.3120000000000003 1.7110000000000001 1.5585000000000002 1.6850000000000003 2.2795000000000001 2.4590000000000005 1.6490000000000002 1.7710000000000001 2.2480000000000007 1.1495000000000002 1.6505000000000003 1.7425000000000004 1.1085 2.3475000000000006
decision_type=2 2 2 2 2 2 2 2 2 2 2 2 2 2 2 2 2 2 2 2
left_child=10 2 3 -2 -5 8 -3 -4 9 -6 13 14 -10 -1 15 -8 -15 -17 19 -18
right_child=1 6 7 4 5 -7 11 -9 12 -11 -12 -13 -14 16 -16 17 18 -19 -20 -21
leaf_value=0.020461996339938858 0.018272970647861562 0.00065492261201143269 0.022147707804106177 0.010778574913740159 -0.015873468031778054 0.004320141047239304 -0.021713957829134808 0.005163622313532336 -0.011418932043015959 0.0034266933798789978 0.00065493693818216743 -0.025794837884604932 -0.024217607847281865 0.007183501906692983 -0.0068058090550558907 -0.014785169877789238 0.010170388966798782 -0.0096721897877397999 0.013222581355108155 0.0112520993465469
leaf_weight=22 24 28 32 25 34 25 21 29 20 26 23 20 35 20 28 22 20 21 36 21
leaf_count=22 24 28 32 25 34 25 21 29 20 26 23 20 35 20 28 22 20 21 36 21
internal_value=0 -0.0390926 0.00591568 -0.0375968 -0.0696443 -0.101328 -0.119465 0.140733 -0.132748 -0.0751006 0.107367 -0.150968 -0.195635 0.126853 -0.127711 -0.15381 0.109215 -0.122881 0.118924 0.107244
internal_weight=0 390 250 189 165 140 140 61 115 60 142 112 55 119 92 64 97 43 77 41
internal_count=532 390 250 189 165 140 140 61 115 60 142 112 55 119 92 64 97 43 77 41
shrinkage=0.1


Tree=16
num_leaves=21
num_cat=0
split_feature=326 382 493 64 336 288 250 356 494 117 480 281 179 446 403 353 497 526 320 387
split_gain=1.87411 1.44325 1.16786 1.14348 0.728464 0.741106 0.605676 0.720879 0.528415 0.356187 0.35512 0.336924 0.260965 0.189374 0.139094 0.114269 0.105761 0.0830968 0.0648939 0.061266
threshold=0.34250000000000008 2.6820000000000008 3.2000000000000006 1.0245000000000002 0.96950000000000014 1.6305000000000003 1.0135000000000003 1.5030000000000003 3.1915000000000004 3.4215000000000004 1.3765000000000001 1.8095000000000001 2.8955000000000006 1.3520000000000003 1.1890000000000003 2.2920000000000003 1.4600000000000002 2.2085000000000004 2.0570000000000008 1.6860000000000002
decision_type=2 2 2 2 2 2 2 2 2 2 2 2 2 2 2 2 2 2 2 2
left_child=14 2 3 -2 5 -5 7 -6 9 11 -9 -8 -3 -13 16 18 -1 -16 19 -15
right_child=1 12 -4 4 6 -7 8 10 -10 -11 -12 13 -14 15 17 -17 -18 -19 -20 -21
leaf_value=0.010868170666388977 0.0091078380266061201 0.022187284522113347 0.011727930222814148 -0.01114658258855343 0.011253687447827796 0.015173998734225397 -0.0026187478786423093 -0.00092721911655230965 0.0011563447676599026 -0.02856615040451288 -0.018189985620287751 -0.025229568891227246 0.0066023695875297899 -0.019501068443059922 0.019956095106899739 -0.021364833377301693 0.0019239604473114014 0.011955656252197319 -0.0095065756051829365 -0.012306680633076307
leaf_weight=39 39 21 37 20 23 23 21 22 20 20 26 20 22 20 20 20 20 37 33 29
leaf_count=39 39 21 37 20 23 23 21 22 20 20 26 20 22 20 20 20 20 37 33 29
internal_value=0 -0.0313418 -0.0513406 -0.0699089 -0.0910486 0.0293187 -0.111426 -0.0330287 -0.141842 -0.160665 -0.102779 -0.143183 0.142136 -0.163321 0.112398 -0.145875 0.0783623 0.147628 -0.129345 -0.152432
internal_weight=0 416 373 336 297 43 254 71 183 163 48 143 43 122 116 102 59 57 82 49
internal_count=532 416 373 336 297 43 254 71 183 163 48 143 43 122 116 102 59 57 82 49
shrinkage=0.1


Tree=17
num_leaves=21
num_cat=0
split_feature=359 85 384 231 96 209 492 427 462 143 334 197 379 457 359 339 288 337 147 284
split_gain=1.61572 0.844539 0.757027 0.946827 0.932156 0.780178 0.485842 0.441343 0.371117 0.354024 0.324524 0.359719 0.225932 0.216583 0.133336 0.125591 0.0882675 0.0343344 0.0297198 0.0295515
threshold=2.0255000000000005 3.2010000000000001 1.1190000000000002 1.0435000000000001 1.4230000000000003 2.3485000000000009 0.79200000000000004 1.4950000000000003 1.5480000000000003 1.2150000000000001 1.9335000000000002 2.5660000000000003 1.9905000000000002 1.4705000000000001 1.6575000000000002 1.6035000000000004 2.3525000000000005 0.68200000000000016 2.3475000000000006 2.0165000000000006
decision_type=2 2 2 2 2 2 2 2 2 2 2 2 2 2 2 2 2 2 2 2
left_child=2 6 8 -4 -5 9 -2 -8 -1 -6 11 16 -10 -14 -11 17 19 -15 -19 -9
right_child=1 -3 3 4 5 -7 7 10 12 14 -12 -13 13 15 -16 -17 -18 18 -20 -21
leaf_value=-0.00017074120159332569 0.0054599700123071672 0.0088399967675407733 0.017990269316803843 0.013654439506076633 -0.0049996776949791689 0.0059174768950628204 0.0028708002343773844 -0.012549827962711053 0.018878879491239786 -0.026536121716101965 -0.023095670829598722 0.0011124401397648313 -0.00032197070263680961 0.012278147724767527 -0.015267264452718554 0.017935214191675188 -0.01700163015570396 0.0046606187522411349 0.0094230684402741901 -0.0078531213991698771
leaf_weight=39 20 30 21 21 21 23 20 37 28 21 26 21 21 24 21 20 39 20 38 21
leaf_count=39 20 30 21 21 21 23 20 37 28 21 26 21 21 24 21 20 39 20 38 21
internal_value=0 -0.0671791 0.0452086 -0.0142362 -0.0523382 -0.0984607 -0.0925453 -0.11049 0.0852556 -0.15601 -0.129823 -0.107539 0.107716 0.0892608 -0.209017 0.108301 -0.133229 0.0909713 0.0778084 -0.108493
internal_weight=0 214 318 128 107 86 184 164 190 63 144 118 151 123 42 102 97 82 58 58
internal_count=532 214 318 128 107 86 184 164 190 63 144 118 151 123 42 102 97 82 58 58
shrinkage=0.1


Tree=18
num_leaves=20
num_cat=0
split_feature=359 76 216 326 287 373 445 466 77 124 40 213 275 191 339 325 156 44 128
split_gain=1.30874 0.703702 0.688353 0.727346 0.662959 0.583882 0.486759 0.431583 0.743834 0.960572 0.36023 0.318714 0.468963 0.266322 0.209469 0.192161 0.146123 0.0448512 0.0331838
threshold=2.0255000000000005 2.6920000000000002 1.3315000000000001 0.28600000000000009 1.4280000000000002 1.9160000000000001 1.2940000000000003 2.2325000000000004 1.8875000000000002 0.95350000000000013 1.179 2.3105000000000007 1.7880000000000003 2.2675000000000005 2.0255000000000005 1.2385000000000004 1.9560000000000002 1.6740000000000002 1.9130000000000003
decision_type=2 2 2 2 2 2 2 2 2 2 2 2 2 2 2 2 2 2 2
left_child=2 6 3 -1 -5 -6 -2 8 -4 -10 -11 14 -13 15 -8 -9 18 -15 -16
right_child=1 -3 7 4 5 -7 11 13 9 10 -12 12 -14 17 16 -17 -18 -19 -20
leaf_value=0.0096162812346044721 0.0060092712667855347 0.010894403335723011 0.015642027817666531 -0.023087340593338015 -0.010756809685018756 0.010839203567731949 -0.019492040551973112 0.011722013400867582 0.014519547351769038 -0.0026354126011331877 -0.020148777475823526 -0.012771482186184992 0.0058666511128346128 0.0089236869930456857 -0.011348044007055221 0.023862689394842498 -0.0047762902337126437 0.0030990887992084029 -0.016572635546326635
leaf_weight=34 22 22 30 21 31 21 33 32 21 24 23 27 27 39 31 22 32 20 20
leaf_count=34 22 22 30 21 31 21 33 32 21 24 23 27 27 39 31 22 32 20 20
internal_value=0 -0.0604612 0.0406877 -0.0246466 -0.080914 -0.0203534 -0.0798722 0.0738194 0.0252551 -0.032612 -0.112058 -0.0979854 -0.0345242 0.115937 -0.127528 0.166682 -0.100733 0.0694925 -0.133969
internal_weight=0 214 318 107 73 52 192 211 98 68 47 170 54 113 116 54 83 59 51
internal_count=532 214 318 107 73 52 192 211 98 68 47 170 54 113 116 54 83 59 51
shrinkage=0.1


Tree=19
num_leaves=21
num_cat=0
split_feature=359 85 12 454 384 492 315 405 427 269 101 197 142 146 101 24 441 221 77 266
split_gain=1.06008 0.614073 0.566491 0.527037 0.400811 0.389791 0.343715 0.376247 0.328935 0.297345 0.263468 0.233565 0.209331 0.326374 0.130727 0.0693636 0.0411274 0.0392942 0.0344214 0.00984209
threshold=2.0255000000000005 3.2010000000000001 0.97150000000000014 1.9885000000000004 1.1190000000000002 0.79200000000000004 0.87250000000000016 2.2140000000000004 1.4950000000000003 2.5135000000000005 1.9245000000000003 2.5660000000000003 1.4045000000000003 1.6600000000000004 1.4680000000000002 1.7830000000000001 2.5730000000000004 2.8435000000000001 2.2260000000000004 0.75200000000000011
decision_type=2 2 2 2 2 2 2 2 2 2 2 2 2 2 2 2 2 2 2 2
left_child=2 5 -1 6 -5 -2 -4 10 -7 11 12 15 -8 -14 17 -10 18 -15 -17 -19
right_child=1 -3 3 4 -6 8 7 -9 9 -11 -12 -13 13 14 -16 16 -18 19 -20 -21
leaf_value=-0.011110496769348782 0.0055754436925053597 0.0078248397260904309 -0.0049860812723636627 0.0055600479841232302 -0.011458132295839248 0.0028052867203950884 0.014827360796767311 0.020852356244410789 -0.015805618643112803 -0.022195597141981126 -0.0028204312622547149 0.00084089266136288642 -0.0048035815188830558 0.0026338068582117558 0.01429959516330012 -0.0051904807100072508 -0.012860270560933994 0.0062487821381252548 -0.010234876349568368 0.0088020802992913455
leaf_weight=24 20 30 22 25 31 20 37 21 23 20 25 20 22 20 29 24 26 26 31 36
leaf_count=24 20 30 22 25 31 20 37 21 23 20 25 20 22 20 29 24 26 26 31 36
internal_value=0 -0.0544151 0.036619 0.0486781 -0.0386073 -0.076045 0.0692158 0.081344 -0.0921181 -0.108809 0.0676477 -0.090559 0.0817436 0.0632353 0.085289 -0.109591 -0.0958296 0.0648804 -0.0803369 0.0773134
internal_weight=0 214 318 294 56 184 238 216 164 144 195 124 170 133 111 104 81 82 55 62
internal_count=532 214 318 294 56 184 238 216 164 144 195 124 170 133 111 104 81 82 55 62
shrinkage=0.1


Tree=20
num_leaves=21
num_cat=0
split_feature=91 185 127 299 273 22 233 298 295 250 248 494 437 424 64 408 269 394 219 478
split_gain=0.895097 0.690045 0.77232 0.702639 0.622012 0.484426 0.624141 0.396326 0.448485 0.300728 0.186165 0.188061 0.17411 0.170009 0.134408 0.0894384 0.0421688 0.0362706 0.0318954 0.00980098
threshold=0.5635 2.1840000000000006 2.2840000000000003 1.3210000000000002 2.8225000000000002 0.91000000000000003 1.9100000000000004 2.8345000000000002 2.1640000000000006 0.95750000000000013 1.8805000000000003 1.7470000000000003 1.4390000000000003 1.4530000000000001 1.3870000000000002 1.2015000000000002 1.8475000000000004 2.6250000000000004 1.4180000000000001 2.9335
decision_type=2 2 2 2 2 2 2 2 2 2 2 2 2 2 2 2 2 2 2 2
left_child=12 2 3 -2 9 -4 -7 8 13 -5 11 -11 -1 -3 -15 17 -16 18 -14 -20
right_child=1 7 5 4 -6 6 -8 -9 -10 10 -12 -13 15 14 16 -17 -18 -19 19 -21
leaf_value=-0.00059844731138302733 0.013449603861028498 -0.01790932808071375 0.017760788572623448 2.5210529565811159e-05 0.0059029798954725269 0.012216031634145315 -0.010770347288676672 -0.021128873229026797 0.0036031159652130948 -0.022166650116443636 -0.0060881174499950105 -0.010331395441858933 0.0025853212643414739 -0.00054510054178535938 -0.013527612980793824 0.014361447982844854 -0.0074037306982537984 0.010333170118526771 0.0090272192656993874 0.0061496964302556268
leaf_weight=26 22 20 34 26 35 27 21 20 35 25 31 29 20 20 22 21 23 26 20 29
leaf_count=26 22 20 34 26 35 27 21 20 35 25 31 29 20 20 22 21 23 26 20 29
internal_value=0 -0.0247509 0.0067266 -0.0321046 -0.0572088 0.0862832 0.0215949 -0.0809607 -0.0592394 -0.0938606 -0.122648 -0.158107 0.0679778 -0.0984685 -0.0736608 0.0845556 -0.103976 0.0715005 0.0595061 0.073242
internal_weight=0 390 250 168 146 82 48 140 120 111 85 54 142 85 65 116 45 95 69 49
internal_count=532 390 250 168 146 82 48 140 120 111 85 54 142 85 65 116 45 95 69 49
shrinkage=0.1


Tree=21
num_leaves=21
num_cat=0
split_feature=231 447 326 298 344 86 381 400 489 325 300 113 300 301 438 279 326 319 55 417
split_gain=0.74613 0.778719 0.669574 0.62072 0.691013 0.617134 0.569514 0.420892 0.346316 0.321388 0.319078 0.290902 0.278326 0.254982 0.202209 0.183429 0.141603 0.089025 0.0290581 0.0159447
threshold=1.0645000000000002 1.9220000000000004 3.3895000000000004 1.7430000000000001 1.3795000000000002 1.4645000000000004 1.2235000000000003 1.9670000000000003 1.3985000000000001 1.2385000000000004 1.7645000000000002 2.3050000000000002 1.6995000000000002 1.8535000000000004 0.9910000000000001 2.5955000000000008 1.6145000000000003 2.9805000000000006 1.9340000000000004 1.7185000000000001
decision_type=2 2 2 2 2 2 2 2 2 2 2 2 2 2 2 2 2 2 2 2
left_child=7 6 3 9 13 -6 -2 15 -8 -3 17 -7 -10 -5 -14 -1 -16 -9 19 -18
right_child=1 2 -4 4 5 11 8 10 12 -11 -12 -13 14 -15 16 -17 18 -19 -20 -21
leaf_value=0.0086915950956089165 0.0065855259139989998 0.0066439164209772241 -0.011303327749333075 0.017864370216494022 0.0058057101556297508 -0.020072168711086979 -0.020591528252476739 0.011869375240057708 0.00093681434435503831 0.023939225184065955 -0.0081944582238793386 -0.0043340600406130162 -0.01811259500682354 0.0042314633179236861 0.00020733889192342758 0.02207299298606813 -0.01310208382084966 0.0035482185996241044 -0.0072440213572822114 -0.0091090070921927696
leaf_weight=21 29 22 31 23 33 23 21 20 35 21 20 24 21 34 20 20 20 36 38 20
leaf_count=21 29 22 31 23 33 23 21 20 35 21 20 24 21 34 20 20 20 36 38 20
internal_value=0 -0.0198848 0.0227084 0.0460862 0.013187 -0.0467611 -0.0639395 0.0705314 -0.0854483 0.150905 0.0264782 -0.120357 -0.069021 0.0973246 -0.0920767 0.152191 -0.0729947 0.0652006 -0.0922429 -0.111055
internal_weight=0 415 211 180 137 80 204 117 175 43 76 47 154 57 119 41 98 56 78 40
internal_count=532 415 211 180 137 80 204 117 175 43 76 47 154 57 119 41 98 56 78 40
shrinkage=0.1


Tree=22
num_leaves=21
num_cat=0
split_feature=88 279 495 326 117 444 231 486 34 153 170 143 410 47 86 231 439 220 463 171
split_gain=0.620116 0.614231 0.686227 0.711025 0.483471 0.502022 0.42135 0.2967 0.44929 0.293947 0.2604 0.190342 0.16101 0.241758 0.139713 0.0932336 0.0871705 0.0799218 0.0881661 0.0062457
threshold=3.0985000000000009 1.6420000000000001 3.5890000000000009 0.34250000000000008 1.6465000000000003 1.0020000000000002 1.0645000000000002 2.9600000000000004 2.4385000000000003 1.4620000000000002 2.3250000000000006 1.6965000000000001 1.9330000000000003 2.0060000000000007 1.8470000000000002 1.7785000000000002 1.7000000000000004 1.5650000000000002 2.7545000000000006 1.4510000000000003
decision_type=2 2 2 2 2 2 2 2 2 2 2 2 2 2 2 2 2 2 2 2
left_child=1 4 3 -3 -1 -6 -5 8 12 -2 11 -7 13 14 -8 -11 -14 18 -13 -20
right_child=9 2 -4 6 5 10 7 -9 -10 15 -12 17 16 -15 -16 -17 -18 -19 19 -21
leaf_value=-0.0065421555319736743 0.0015101327641826609 0.010667961056654653 0.014875395858491009 0.0059399717415754612 0.021902561400617873 0.013953838263158547 -0.015690154042094947 -0.01917441192548722 0.0057271084175086941 -0.017376135289669036 -0.0029400325380265716 -0.0023566890321671963 -0.0082268745638430125 0.0037425222713500261 -0.0043733442900702356 -0.0089409750690193548 -0.016254362908582533 0.0094076043553650377 0.0045209863145525258 0.0068824519536324919
leaf_weight=29 23 30 22 26 21 33 20 20 26 20 30 20 24 20 24 38 31 30 24 21
leaf_count=29 23 30 22 26 21 33 20 20 26 20 30 20 24 20 24 38 31 30 24 21
internal_value=0 0.0144689 -0.0196745 -0.0364411 0.0543575 0.0737631 -0.0589208 -0.0775652 -0.0618164 -0.0805613 0.054456 0.0741099 -0.0878356 -0.0537364 -0.0951735 -0.118497 -0.127515 0.0513821 0.0316771 0.05623
internal_weight=0 451 243 221 208 179 191 165 145 81 158 128 119 64 44 58 55 95 65 45
internal_count=532 451 243 221 208 179 191 165 145 81 158 128 119 64 44 58 55 95 65 45
shrinkage=0.1


Tree=23
num_leaves=21
num_cat=0
split_feature=448 171 393 334 185 182 283 251 115 202 53 422 367 100 148 163 66 460 151 445
split_gain=0.530534 0.701551 0.514926 0.528992 0.450642 0.44599 0.290371 0.434549 0.285182 0.358915 0.310391 0.392154 0.326893 0.179677 0.146657 0.12836 0.125902 0.0633759 0.0476186 0.0353143
threshold=1.8200000000000001 0.9205000000000001 0.91700000000000015 2.2745000000000002 2.1840000000000006 2.7085000000000004 1.8510000000000002 2.1350000000000002 1.2615000000000001 1.6820000000000002 1.7560000000000002 0.66150000000000009 1.8505000000000003 1.8805000000000003 0.90200000000000002 1.7005000000000001 2.3110000000000004 1.7170000000000003 1.5450000000000002 1.9165000000000003
decision_type=2 2 2 2 2 2 2 2 2 2 2 2 2 2 2 2 2 2 2 2
left_child=1 -1 -3 6 8 -6 14 -8 9 -2 13 16 -13 17 -4 -16 -12 -10 -19 -17
right_child=4 2 3 -5 5 -7 7 -9 10 -11 11 12 -14 -15 15 19 -18 18 -20 -21
leaf_value=0.011853721208926464 0.0029791549406945708 -0.020117678945063659 -0.0013832897455854851 0.0090907405263611265 0.0036079161409889498 -0.013644839630558573 0.006142271816348418 -0.01170011026163896 0.0096196750955035298 0.021697304832438629 0.0007490288658902563 0.0016804120969027281 -0.015800262161571047 0.015739550459243003 -0.015973063198656875 -0.010377831980586054 0.010540521649333339 0.006086114300009997 -0.00050018215995459336 -0.0056021475407760594
leaf_weight=27 20 21 22 28 31 29 39 21 21 21 29 20 23 21 29 30 24 23 21 32
leaf_count=27 20 21 22 28 31 29 39 21 21 21 29 20 23 21 29 30 24 23 21 32
internal_value=0 -0.0336662 -0.0521774 -0.0366103 0.0296215 -0.0473092 -0.0572491 -0.00102562 0.0503203 0.125665 0.0333471 -0.00573994 -0.0766972 0.0769791 -0.0871022 -0.104816 0.0518291 0.0509985 0.0294265 -0.0791296
internal_weight=0 249 222 201 283 60 173 60 223 41 182 96 43 86 113 91 53 65 44 62
internal_count=532 249 222 201 283 60 173 60 223 41 182 96 43 86 113 91 53 65 44 62
shrinkage=0.1


Tree=24
num_leaves=20
num_cat=0
split_feature=454 326 64 493 381 12 324 496 372 319 198 287 435 477 346 451 186 243 151
split_gain=0.45858 0.596208 0.495943 0.420918 0.356446 0.334812 0.399936 0.312444 0.298427 0.280722 0.251022 0.211087 0.25658 0.205197 0.198803 0.116958 0.0958524 0.0492446 0.00816369
threshold=1.6360000000000001 3.4435000000000007 1.0245000000000002 3.4725000000000006 3.1410000000000005 1.0225000000000002 2.3310000000000008 1.5900000000000001 0.95150000000000012 2.5440000000000005 2.4970000000000003 1.4280000000000002 1.7745000000000002 2.2375000000000003 1.3110000000000002 1.6795000000000002 2.2690000000000006 1.9755000000000003 1.6520000000000004
decision_type=2 2 2 2 2 2 2 2 2 2 2 2 2 2 2 2 2 2 2
left_child=1 5 -2 4 8 -1 7 10 -4 -9 14 -10 -13 -12 -7 16 -14 18 -15
right_child=2 -3 3 -5 -6 6 -8 9 11 -11 13 12 15 17 -16 -17 -18 -19 -20
leaf_value=-0.0057224813187795303 0.0094176255580451767 -0.01103354506836883 -0.01888277360492132 0.0087888200348243111 0.0057923619635403163 0.0067305120577414836 0.016120594971192378 -0.0077110282825054348 -0.015147926998527154 0.006006096541881562 -0.0057397357141599067 0.0028179565388144869 0.00061647504568099979 0.0049880504732330647 0.019416563886971702 -0.012860225400488293 -0.0078984389989039845 0.0093912614936319493 0.002451911297711459
leaf_weight=31 27 29 22 20 21 30 30 37 23 25 20 33 20 30 21 28 39 24 22
leaf_count=31 27 29 22 20 21 30 30 37 23 25 20 33 20 30 21 28 39 24 22
internal_value=0 0.0259176 -0.033259 -0.0499617 -0.0647843 0.0405521 0.0532345 0.0377362 -0.0804016 -0.0217993 0.0628464 -0.0637207 -0.0469003 0.032727 0.119542 -0.0753788 -0.0501203 0.0564439 0.0391507
internal_weight=0 299 233 206 186 270 239 209 165 62 147 143 120 96 51 87 59 76 52
internal_count=532 299 233 206 186 270 239 209 165 62 147 143 120 96 51 87 59 76 52
shrinkage=0.1


Tree=25
num_leaves=21
num_cat=0
split_feature=231 185 451 74 197 309 149 55 298 400 357 90 245 293 207 235 185 257 468 6
split_gain=0.393714 0.40053 0.453652 0.545685 0.494293 0.31005 0.310093 0.309217 0.298084 0.295847 0.261345 0.226706 0.220805 0.212509 0.244587 0.21135 0.153152 0.112956 0.0512167 0.0459115
threshold=1.0645000000000002 2.1840000000000006 1.51 2.1590000000000003 1.5775000000000001 2.2205000000000008 1.7970000000000004 1.9250000000000003 1.6345000000000001 1.9670000000000003 1.9455000000000002 2.5925000000000007 1.3925000000000003 1.9730000000000001 1.8680000000000001 1.659 1.8010000000000002 2.1200000000000006 1.5165000000000002 2.3025000000000007
decision_type=2 2 2 2 2 2 2 2 2 2 2 2 2 2 2 2 2 2 2 2
left_child=9 2 4 10 15 6 -6 -8 -5 16 -4 -7 -11 17 -15 -2 -1 19 -14 -3
right_child=1 13 3 8 5 11 7 -9 -10 12 -12 -13 18 14 -16 -17 -18 -19 -20 -21
leaf_value=0.0057070457469671973 -0.012902899985201659 -0.0091617874594198331 -0.0043374604755832304 0.0097286276596908767 -0.0056550523465765381 0.017297736065746801 0.01685841904487461 -0.0007261596061289311 -0.006032196783926338 -0.0070145825262774124 -0.017544415708759736 0.0047504250348235173 0.0022177992238392756 -0.0061677995168466651 0.0072181979637770434 0.0013007276014170865 0.017934288323989935 -0.014495225603293097 0.0084459356001942692 -0.0028403919812990354
leaf_weight=20 20 27 31 30 28 36 20 20 20 22 29 24 31 39 21 22 21 28 23 20
leaf_count=20 20 27 31 30 28 36 20 20 20 22 29 24 31 39 21 22 21 28 23 20
internal_value=0 -0.0144445 0.007127 -0.0429122 0.0395053 0.0703932 0.0241623 0.0806613 0.034243 0.0512349 -0.107208 0.122788 0.014301 -0.0591855 -0.014827 -0.054629 0.119698 -0.0946723 0.0487052 -0.0647183
internal_weight=0 415 280 110 170 128 68 40 50 117 60 60 76 135 60 42 41 75 54 47
internal_count=532 415 280 110 170 128 68 40 50 117 60 60 76 135 60 42 41 75 54 47
shrinkage=0.1


Tree=26
num_leaves=21
num_cat=0
split_feature=447 171 386 88 119 426 53 462 406 271 344 18 44 179 406 404 243 121 329 196
split_gain=0.333653 0.490009 0.354962 0.419052 0.315079 0.291574 0.260635 0.247451 0.234879 0.287674 0.194691 0.200284 0.129902 0.123437 0.111283 0.0980935 0.0982038 0.0430575 0.0132941 0.0083269
threshold=1.8695000000000002 0.9205000000000001 2.6025000000000005 2.1220000000000003 1.9255000000000002 0.83200000000000007 1.5985000000000003 1.5040000000000002 2.6265000000000005 1.7980000000000003 1.3490000000000004 1.6485000000000001 2.1305000000000001 1.7620000000000002 1.7025000000000003 2.1040000000000005 2.3695000000000008 0.73150000000000015 2.2850000000000006 2.8395000000000006
decision_type=2 2 2 2 2 2 2 2 2 2 2 2 2 2 2 2 2 2 2 2
left_child=1 -1 3 8 -5 -3 7 -7 9 15 -8 -12 -13 -6 -14 16 17 -2 19 -19
right_child=2 5 -4 4 13 6 10 -9 -10 -11 11 12 14 -15 -16 -17 -18 18 -20 -21
leaf_value=0.009369294230970715 0.0087166886217892176 -0.01512554561233391 0.014166757596008803 0.0036721564112947541 -0.0047092760346182025 -0.0027003747065581624 -0.012311113893520088 0.011566662422847004 0.01248216569208755 -0.0056666356873595058 0.0050781856756657367 -0.0098169490217398375 0.0035683193779550496 -0.014860291458666325 -0.006980771152593661 0.010335924725412676 -0.0028252444293519314 0.0010284232895355673 0.0056628263462334873 0.003629501283285208
leaf_weight=29 20 23 23 26 23 31 32 20 26 36 22 39 20 25 20 23 22 20 20 32
leaf_count=29 20 23 23 26 23 31 32 20 26 36 22 39 20 25 20 23 22 20 20 32
internal_value=0 -0.0280467 0.0223616 0.0123101 -0.0519385 -0.045102 -0.0318328 0.0289454 0.0362016 0.0228829 -0.0551388 -0.033603 -0.0571025 -0.0999626 -0.0170623 0.0437864 0.0317673 0.0461199 0.0347179 0.0262909
internal_weight=0 236 296 273 74 207 184 51 199 173 133 101 79 48 40 137 114 92 72 52
internal_count=532 236 296 273 74 207 184 51 199 173 133 101 79 48 40 137 114 92 72 52
shrinkage=0.1


Tree=27
num_leaves=22
num_cat=0
split_feature=215 356 344 444 332 75 375 287 197 189 444 146 366 441 68 101 295 197 91 31 79
split_gain=0.290891 0.318335 0.378884 0.33024 0.320956 0.320259 0.287623 0.320471 0.240863 0.322613 0.213097 0.174199 0.126449 0.121174 0.0939476 0.0931164 0.0715765 0.0642535 0.0267947 0.0224578 0.00432066
threshold=1.1195000000000002 1.7955000000000003 1.9715000000000003 1.3845000000000001 2.3090000000000006 1.9860000000000002 1.0240000000000002 1.2895000000000001 1.7765000000000002 1.5405000000000002 1.0020000000000002 1.8045000000000002 1.6725000000000001 1.6930000000000003 1.8330000000000002 1.5920000000000003 1.6355000000000002 1.6940000000000002 0.45250000000000007 1.2735000000000003 2.0785000000000005
decision_type=2 2 2 2 2 2 2 2 2 2 2 2 2 2 2 2 2 2 2 2 2
left_child=6 3 13 4 -2 -4 -1 -8 9 -5 -9 17 15 -3 -6 18 -15 19 20 -12 -10
right_child=1 2 5 8 14 -7 7 10 12 -11 11 -13 -14 16 -16 -17 -18 -19 -20 -21 -22
leaf_value=0.0059684347760464466 0.020320918898852097 -0.012230072729289533 -0.0043076282267325693 0.0033280235887677583 0.0099004362989217054 0.0099520612567074659 -0.016856087166815997 0.0057116165968843485 0.0020637047651689499 -0.012788829434177149 -0.0023530705726112836 0.0030524172908848245 0.011516330162703526 -0.0080923565471058955 0.00020778164733201268 -0.0032850674260407687 -0.00067756962457982215 -0.010249978913044609 0.0075746122095733878 -0.0066942307883157181 0.0040945344752716748
leaf_weight=28 21 26 28 27 20 36 20 22 20 23 22 21 20 23 20 20 30 37 20 26 22
leaf_count=28 21 26 28 27 20 36 20 22 20 23 22 21 20 23 20 20 30 37 20 26 22
internal_value=0 0.0164415 -0.020054 0.0409431 0.103099 0.0371345 -0.0332566 -0.05084 0.015999 -0.0408573 -0.0324461 -0.0510345 0.0438697 -0.0663839 0.0505411 0.0264811 -0.0389531 -0.0711843 0.0456203 -0.0470453 0.0312747
internal_weight=0 356 143 213 61 64 176 148 152 50 128 106 102 79 40 82 53 85 62 48 42
internal_count=532 356 143 213 61 64 176 148 152 50 128 106 102 79 40 82 53 85 62 48 42
shrinkage=0.1


Tree=28
num_leaves=21
num_cat=0
split_feature=454 326 64 72 372 499 158 379 448 113 402 456 186 218 477 250 381 176 285 454
split_gain=0.25285 0.334673 0.294694 0.283516 0.242697 0.199398 0.369058 0.300999 0.275018 0.150586 0.138716 0.132244 0.0958868 0.0866697 0.0691822 0.0555087 0.037269 0.0335926 0.0238308 0.0223689
threshold=1.6360000000000001 3.4435000000000007 1.0245000000000002 2.6925000000000003 0.97000000000000008 1.1365000000000001 0.52450000000000008 1.6050000000000002 1.4045000000000003 1.3820000000000003 1.7210000000000003 1.7655000000000001 2.2625000000000006 0.88800000000000012 2.1305000000000001 1.0865000000000002 2.3345000000000007 1.4560000000000002 2.5785000000000005 1.0435000000000001
decision_type=2 2 2 2 2 2 2 2 2 2 2 2 2 2 2 2 2 2 2 2
left_child=1 5 -2 4 -4 6 -1 -7 -9 -6 14 13 -13 16 -10 -16 -11 18 -17 -19
right_child=2 -3 3 -5 9 7 -8 8 10 11 -12 12 -14 -15 15 17 -18 19 -20 -21
leaf_value=0.0060631905150200643 0.0073537066164943909 -0.0082839048579977509 -0.014892077964285148 0.0050572505662022467 0.003781272860413248 0.014100932133280571 -0.012684712448113023 -0.0082720843981951477 -0.001714347665094667 -0.0026602607465181977 0.010423144714200291 -0.014709185457322747 -0.0054195084348320965 0.0029124861299351327 0.0073150700999095155 -0.0020127120007236952 -0.0075480424440824067 0.0023671217719782836 0.0028105075094139297 0.006610988894396503
leaf_weight=21 27 29 23 31 22 27 21 20 27 39 29 20 25 20 34 20 26 27 21 23
leaf_count=21 27 29 23 31 22 27 21 20 27 39 29 20 25 20 34 20 26 27 21 23
internal_value=0 0.019245 -0.0246964 -0.0375717 -0.0531858 0.0302096 -0.0331076 0.0418733 0.0285565 -0.0386995 0.0408524 -0.0516478 -0.0954825 -0.0284411 0.0287603 0.0386755 -0.0461537 0.0257947 0.00457718 0.043193
internal_weight=0 299 233 206 175 270 42 228 201 152 181 130 45 85 152 125 65 91 41 50
internal_count=532 299 233 206 175 270 42 228 201 152 181 130 45 85 152 125 65 91 41 50
shrinkage=0.1


Tree=29
num_leaves=22
num_cat=0
split_feature=454 19 482 171 101 132 48 284 315 383 317 128 66 460 359 468 269 361 296 414 143
split_gain=0.217881 0.207707 0.238652 0.288134 0.315948 0.175002 0.294971 0.157613 0.226155 0.146126 0.136362 0.153045 0.126261 0.10949 0.151026 0.0907794 0.0863304 0.0834692 0.0427919 0.0186843 0.0121903
threshold=2.5615000000000006 2.4205000000000001 2.4900000000000007 0.9205000000000001 1.0045000000000004 2.4510000000000005 1.5785000000000002 1.4770000000000003 1.7040000000000004 1.4135000000000002 1.1235000000000002 2.3595000000000002 2.1620000000000004 2.8305000000000007 1.8165000000000002 2.1565000000000003 1.8305000000000005 2.0130000000000003 1.9900000000000002 1.6090000000000002 3.8945000000000003
decision_type=2 2 2 2 2 2 2 2 2 2 2 2 2 2 2 2 2 2 2 2 2
left_child=1 2 3 -1 -5 7 9 8 -6 -7 -4 -12 -3 14 19 16 18 -18 -9 20 -13
right_child=-2 12 10 4 5 6 -8 15 -10 -11 11 13 -14 -15 -16 -17 17 -19 -20 -21 -22
leaf_value=0.0091473272959278398 -0.0093106557076680484 0.01240297673529395 0.0098254044884621798 -0.014240566835823386 -0.0059061466215644034 -0.0088218181580305109 0.010931201968700267 -0.0047931119320648065 0.0086336490060405242 0.0024557417672541409 -0.0046713428261379404 -0.00029707135166972881 0.0014247505855746569 -0.0023454038383743658 0.012679426094982774 -0.011292569637298584 -0.0050620996553334408 0.0022186728622463924 -0.01059157813899219 0.0049007415108812541 0.0031141139312901283
leaf_weight=22 24 22 24 22 20 20 26 35 23 27 30 20 20 26 20 20 32 31 20 26 22
leaf_count=22 24 22 24 22 20 20 26 35 23 27 30 20 20 26 20 20 32 31 20 26 22
internal_value=0 0.00439874 -0.00167178 -0.0186634 -0.0274425 -0.017485 0.0238466 -0.0341547 0.0187095 -0.0234322 0.0284682 0.0168372 0.0717525 0.0335611 0.0504065 -0.0506268 -0.0400677 -0.014795 -0.0690165 0.0279395 0.0148974
internal_weight=0 508 466 298 276 254 73 181 43 47 168 144 42 114 88 138 118 63 55 68 42
internal_count=532 508 466 298 276 254 73 181 43 47 168 144 42 114 88 138 118 63 55 68 42
shrinkage=0.1


Tree=30
num_leaves=19
num_cat=0
split_feature=231 250 513 515 454 105 194 444 302 327 303 400 86 279 65 101 505 337
split_gain=0.199027 0.235468 0.327658 0.218658 0.210446 0.274271 0.219474 0.221005 0.208419 0.201048 0.183137 0.176992 0.187506 0.176789 0.0994158 0.0679214 0.0564409 0.0228768
threshold=1.0645000000000002 1.0135000000000003 1.9615000000000002 1.1450000000000002 1.6360000000000001 1.385 2.2495000000000007 1.3455000000000001 2.1565000000000007 1.8745000000000003 1.4990000000000001 2.2975000000000003 1.1020000000000001 1.3965000000000003 2.0660000000000003 1.8785000000000001 1.2590000000000001 1.0895000000000004
decision_type=2 2 2 2 2 2 2 2 2 2 2 2 2 2 2 2 2 2
left_child=11 2 3 -2 6 -6 7 -3 15 -4 -8 12 -1 -13 -12 -7 -17 -18
right_child=1 4 9 -5 5 8 10 -9 -10 -11 14 13 -14 -15 -16 16 17 -19
leaf_value=0.0031520627873219752 -0.010941840689629317 0.011747296225243752 0.015695615430277858 0.002036047084382861 -0.014886917934442559 -0.0093204881698856577 -0.0081357225056331705 -0.00028319781035738618 0.0049546008538454769 0.0034961194425289117 -0.0039310645521618429 0.0038792858491777573 0.014809976077892565 -0.0076083566727382802 0.0056151991904092339 0.00063849291870031856 -0.007852406515104866 -0.0036893624942890852
leaf_weight=37 20 26 22 37 24 29 39 37 25 35 20 37 22 21 24 22 22 33
leaf_count=37 20 26 22 37 24 29 39 37 25 35 20 37 22 21 24 22 22 33
internal_value=0 -0.01027 0.0284355 -0.025176 -0.0249292 -0.0505916 0.00231518 0.0468177 -0.0325866 0.082047 -0.0314638 0.0364277 0.0749908 -0.00280033 0.0127599 -0.0519575 -0.0364227 -0.0535458
internal_weight=0 415 114 57 301 155 146 63 131 57 83 117 59 58 44 106 77 55
internal_count=532 415 114 57 301 155 146 63 131 57 83 117 59 58 44 106 77 55
shrinkage=0.1


Tree=31
num_leaves=21
num_cat=0
split_feature=88 271 367 473 8 297 451 368 499 379 513 450 526 391 208 301 385 326 359 72
split_gain=0.187333 0.196446 0.293084 0.289503 0.313897 0.169884 0.152785 0.149446 0.373398 0.208427 0.15352 0.121414 0.109667 0.0973742 0.0579188 0.0503667 0.045356 0.0366869 0.013895 0.00202898
threshold=3.8420000000000005 1.7155000000000002 2.1055000000000006 1.6785000000000003 2.1035000000000004 2.1440000000000006 1.5220000000000002 0.29200000000000004 1.1210000000000002 1.6450000000000002 1.9720000000000002 1.7270000000000003 1.9315000000000002 0.93800000000000006 2.8090000000000006 1.8535000000000004 1.7320000000000004 1.7335 1.4555 2.0780000000000007
decision_type=2 2 2 2 2 2 2 2 2 2 2 2 2 2 2 2 2 2 2 2
left_child=1 7 3 5 -5 12 -4 -1 -9 -10 11 16 -3 -12 15 -15 -11 18 19 -16
right_child=-2 2 6 4 -6 -7 -8 8 9 10 13 -13 -14 14 17 -17 -18 -19 -20 -21
leaf_value=0.010452934745699168 -0.0068636150111922554 -0.0047590149384888038 -0.0022755030820506713 0.015405423617498441 0.0003217389328858337 -0.0097889262191192417 -0.011915967875725724 -0.0081606234290770123 0.012164710413410584 -0.0019933285970433522 0.010229403881821782 0.0046626823022961617 0.0057131807762198158 0.0092942379858522196 0.00082619010908750908 0.0024474780540913346 -0.0080956308304199164 -0.0021118909249628853 0.0046437014603898643 0.0021265029005007817
leaf_weight=20 37 20 31 22 37 27 35 35 22 29 20 20 20 21 21 22 21 23 21 28
leaf_count=20 37 20 31 22 37 27 35 35 22 29 20 20 20 21 21 22 21 23 21 28
internal_value=0 0.00513038 -0.0198955 0.00838143 0.0594616 -0.0365997 -0.0738787 0.0209884 0.0150844 0.0287303 0.0196853 -0.019223 0.00477083 0.0371441 0.0275632 0.0579124 -0.045563 0.0135308 0.0249157 0.0156923
internal_weight=0 495 192 126 59 67 66 303 283 248 226 70 40 156 136 43 50 93 70 49
internal_count=532 495 192 126 59 67 66 303 283 248 226 70 40 156 136 43 50 93 70 49
shrinkage=0.1


Tree=32
num_leaves=20
num_cat=0
split_feature=91 360 400 394 65 203 292 86 41 143 268 241 86 216 444 333 477 124 522
split_gain=0.152992 0.198453 0.243257 0.216947 0.201733 0.170672 0.171636 0.163769 0.160897 0.160835 0.177887 0.168022 0.147863 0.142452 0.239217 0.127566 0.104603 0.0924587 0.0411781
threshold=3.4435000000000007 1.4575000000000002 1.7875000000000003 3.4625000000000008 1.6670000000000003 1.3625000000000003 1.1565000000000003 1.4445000000000001 1.6015000000000001 2.9575000000000005 1.7130000000000003 1.6350000000000002 1.1495000000000002 1.1840000000000002 1.3395000000000004 1.9500000000000002 2.2375000000000003 1.6080000000000003 2.2845000000000009
decision_type=2 2 2 2 2 2 2 2 2 2 2 2 2 2 2 2 2 2 2
left_child=1 5 4 7 -3 13 -7 -4 -5 10 -8 -12 -13 17 -15 -2 -16 -1 -14
right_child=15 2 3 8 -6 6 9 -9 -10 -11 11 12 18 14 16 -17 -18 -19 -20
leaf_value=0.00095630400154429187 -1.185076649893414e-05 0.0030394008525036044 0.0025492612703766847 -0.00053045286830248574 0.014662186905791583 -0.011444430419249417 0.005449358001351357 -0.0088098906089241306 0.011848379369448162 0.005367067115240879 -0.011497756233438849 0.0044903769443573596 -0.0024749779112396703 0.010326734251834245 -0.0040357733393208157 -0.010554024231775355 0.0039959567809573319 -0.0075786988298535687 -0.0076292469646901855
leaf_weight=30 22 32 22 21 28 21 20 30 21 26 28 22 31 36 31 24 34 22 31
leaf_count=30 22 32 22 21 28 21 20 30 21 26 28 22 31 36 31 24 34 22 31
internal_value=0 0.00521723 0.0348874 0.00313441 0.0846337 -0.00854543 -0.0295074 -0.040041 0.0565896 -0.0182183 -0.0323782 -0.0478911 -0.0255289 0.0159787 0.0378729 -0.0551212 0.00165439 -0.0265466 -0.0505211
internal_weight=0 486 154 94 60 332 179 52 42 158 132 112 84 153 101 46 65 52 62
internal_count=532 486 154 94 60 332 179 52 42 158 132 112 84 153 101 46 65 52 62
shrinkage=0.1


Tree=33
num_leaves=22
num_cat=0
split_feature=367 451 385 360 19 203 35 286 189 117 388 408 194 452 486 275 367 284 326 44 171
split_gain=0.132364 0.222057 0.173678 0.168363 0.206076 0.181102 0.157215 0.223908 0.139924 0.132448 0.161084 0.136005 0.129548 0.198685 0.121855 0.11405 0.10107 0.0782916 0.0598859 0.0503942 0.0428103
threshold=2.1775000000000007 1.8150000000000002 2.4420000000000006 1.4855000000000003 1.8195000000000003 1.3625000000000003 1.9055000000000002 1.1525000000000003 1.0425000000000002 1.1710000000000003 1.2265000000000001 1.1835000000000002 1.5585000000000002 1.6610000000000003 2.3125000000000004 1.5900000000000001 2.4485000000000006 1.5115000000000003 0.84000000000000019 2.5800000000000005 1.0395000000000003
decision_type=2 2 2 2 2 2 2 2 2 2 2 2 2 2 2 2 2 2 2 2 2
left_child=3 2 16 5 12 6 8 -8 -1 -7 -11 20 -5 18 -3 -13 -2 -18 -14 -19 -12
right_child=1 14 -4 4 -6 9 7 -9 -10 10 11 15 13 -15 -16 -17 17 19 -20 -21 -22
leaf_value=0.0043602950905915353 -0.0064315386881162347 -0.0037145212657008044 0.0082352935757842808 -0.0039799969732344977 0.012081333603530836 -0.010205817786045374 0.0010407859648223297 0.01470059533381746 -0.0074686543419375086 0.0063168406846340411 0.0046054744031425801 -0.011523595731705428 0.0040430339807644494 0.0126749170885887 -0.014013011313509197 -0.0025199926232316477 0.004610166692011127 0.00031198864500667597 -0.0032006826096524798 -0.0058213079813867813 -0.0019374871626496315
leaf_weight=20 32 27 21 26 26 20 28 21 20 22 20 24 25 20 20 34 27 37 21 21 20
leaf_count=20 32 27 21 26 26 20 28 21 20 22 20 24 25 20 20 34 27 37 21 21 20
internal_value=0 -0.0216027 -0.00138387 0.0115173 0.0422029 -0.00429453 0.0309761 0.0689499 -0.0155418 -0.0267166 -0.0141597 -0.031519 0.0199869 0.0435394 -0.0809686 -0.0624562 -0.0164136 0.00162007 0.0073612 -0.0190869 0.0133399
internal_weight=0 185 138 347 118 229 89 49 40 140 120 98 92 66 47 58 117 85 46 58 40
internal_count=532 185 138 347 118 229 89 49 40 140 120 98 92 66 47 58 117 85 46 58 40
shrinkage=0.1


Tree=34
num_leaves=20
num_cat=0
split_feature=65 19 336 95 523 428 57 81 365 148 479 477 408 372 361 97 160 368 362
split_gain=0.119135 0.165438 0.13199 0.163155 0.214907 0.168777 0.135716 0.142259 0.133889 0.13359 0.111868 0.10575 0.111757 0.121592 0.0622852 0.0529242 0.0502838 0.0237529 0.0163914
threshold=3.0980000000000003 2.4990000000000001 0.6775000000000001 2.8960000000000004 1.6280000000000001 2.4725000000000006 1.6875000000000002 2.8010000000000006 1.7645000000000002 3.2265000000000006 1.2505000000000002 1.5735000000000001 0.79800000000000015 1.2385000000000004 2.6290000000000004 1.3545000000000003 2.4280000000000004 0.64800000000000002 2.3355000000000001
decision_type=2 2 2 2 2 2 2 2 2 2 2 2 2 2 2 2 2 2 2
left_child=1 2 -1 4 5 -4 7 8 -6 11 -5 -8 -13 -14 16 -10 17 -15 -19
right_child=-2 -3 3 10 6 -7 9 -9 15 -11 -12 12 13 14 -16 -17 -18 18 -20
leaf_value=0.0053988718905319012 -0.0068847729950600005 0.0068596549733127982 -0.01168845345082721 0.0096051178775572524 0.0061474034728706576 -0.00066718553231718647 0.0030103691762113677 0.0098881238584660677 -0.0062630991716022518 0.0039382423241881449 0.00022194675100898305 0.0033997258561430503 -0.010924618197605014 -0.0067247973354824355 -0.0078641925511571276 0.0008445432456210257 0.00080135906577601828 -0.00071635939960327491 -0.0045343877832320608
leaf_weight=39 24 36 33 24 27 24 28 22 22 36 27 20 25 20 24 20 36 23 22
leaf_count=39 24 36 33 24 27 24 28 22 22 36 27 20 25 20 24 20 36 23 22
internal_value=0 0.00325265 -0.00173121 -0.00674986 -0.0138425 -0.0704792 -0.00390932 0.0288595 0.00653371 -0.0166527 0.0463756 -0.026841 -0.0362201 -0.0455824 -0.0328496 -0.0287851 -0.0219683 -0.0385737 -0.0258295
internal_weight=0 508 472 433 382 57 325 91 69 234 51 198 170 150 125 42 101 65 45
internal_count=532 508 472 433 382 57 325 91 69 234 51 198 170 150 125 42 101 65 45
shrinkage=0.1


Tree=35
num_leaves=21
num_cat=0
split_feature=372 250 35 230 219 392 39 12 102 271 193 371 357 489 394 269 102 274 165 500
split_gain=0.111088 0.128735 0.230142 0.131702 0.138308 0.12307 0.177398 0.149536 0.141375 0.106568 0.127855 0.156629 0.104641 0.104364 0.0942155 0.0637273 0.0576855 0.02298 0.0111567 0.00244814
threshold=2.9580000000000006 0.97250000000000003 2.3935000000000008 1.8260000000000003 1.7785000000000004 1.3335000000000001 2.1430000000000002 1.0530000000000002 1.5370000000000001 1.7155000000000002 2.8365000000000005 1.6150000000000002 1.7525000000000002 1.9685000000000001 2.1480000000000001 1.9795000000000003 2.6685000000000003 2.1560000000000006 1.5630000000000002 2.6880000000000002
decision_type=2 2 2 2 2 2 2 2 2 2 2 2 2 2 2 2 2 2 2 2
left_child=1 2 3 4 -1 6 8 -7 -3 13 11 -11 -13 14 -9 -14 17 18 19 -15
right_child=-2 5 -4 -5 -6 7 -8 9 -10 10 -12 12 15 16 -16 -17 -18 -19 -20 -21
leaf_value=0.0095892717326059931 -0.0052854194809254761 0.0059886501115397547 0.012538588454481215 -0.0040244563759188169 -0.00020879671826739521 -0.008877009057323448 0.011052660950614761 0.0012382624754016954 -0.0055072172504404323 -0.01042810574982813 0.0042407086164034397 0.0030871974287687669 -0.0070129997337270268 0.0015117060020565986 0.010224706265726129 -4.491964022495917e-05 -0.0044314904941310145 0.0036107095727077525 -0.0021609915960289073 -3.4208483772263644e-05
leaf_weight=25 37 20 22 32 34 24 21 28 23 29 22 28 35 20 20 21 29 21 20 21
leaf_count=25 37 20 22 32 34 24 21 28 23 29 22 28 35 20 20 21 29 21 20 21
internal_value=0 0.00395072 0.0336017 0.0114121 0.0394293 -0.00482038 0.0351895 -0.0128727 -0.00160302 -0.00667698 -0.027339 -0.0409179 -0.0190425 0.0108662 0.0498261 -0.0439997 -0.0059813 0.00757571 -0.00224657 0.00719896
internal_weight=0 495 113 91 59 382 64 318 43 294 135 113 84 159 48 56 111 82 61 41
internal_count=532 495 113 91 59 382 64 318 43 294 135 113 84 159 48 56 111 82 61 41
shrinkage=0.1


Tree=36
num_leaves=19
num_cat=0
split_feature=88 203 457 324 384 268 91 385 203 406 421 233 463 365 86 48 367 408
split_gain=0.0983924 0.118727 0.146287 0.147441 0.114218 0.130265 0.152835 0.111861 0.0935541 0.0916549 0.0946028 0.115972 0.096316 0.0761259 0.0629245 0.0540902 0.0502819 0.0488097
threshold=3.8420000000000005 1.3440000000000003 1.4065000000000003 2.3800000000000003 1.0945000000000003 1.4665000000000001 0.85450000000000015 2.4420000000000006 2.0635000000000008 2.5335000000000005 2.0830000000000006 2.1835000000000009 2.1145000000000005 2.1795000000000004 1.1020000000000001 1.2125000000000001 2.7405000000000004 1.3865000000000003
decision_type=2 2 2 2 2 2 2 2 2 2 2 2 2 2 2 2 2 2
left_child=1 7 -3 4 13 -6 -7 9 17 10 11 12 -1 15 -15 -4 -13 -8
right_child=-2 2 3 -5 5 6 8 -9 -10 -11 -12 16 -14 14 -16 -17 -18 -19
leaf_value=0.0099614700369004688 -0.0049742406806782694 -0.0081632757876068367 0.0010919318767264486 0.0056130937904144002 0.0027220833693600952 -0.012522145686671139 -0.0091450226958841082 0.0074617036312286354 0.0018099458896201747 0.0074926614048308696 -0.0046018856840448511 -0.0059954360453411942 0.0015613993916373987 0.0020874425733927635 -0.005662675577596846 0.0069145316068358999 0.0010955356212798506 -0.0030417878407445788
leaf_weight=21 37 25 39 38 31 20 20 35 29 20 31 20 39 20 22 27 20 38
leaf_count=21 37 25 39 38 31 20 20 35 29 20 31 20 39 20 22 27 20 38
internal_value=0 0.00371812 -0.00829757 -0.00184201 -0.0107972 -0.0298593 -0.0463965 0.0236797 -0.0282759 0.011873 0.00224649 0.0172087 0.0450142 0.01356 -0.0197214 0.034739 -0.0244995 -0.0514635
internal_weight=0 495 309 284 246 138 107 186 87 151 131 100 60 108 42 66 40 58
internal_count=532 495 309 284 246 138 107 186 87 151 131 100 60 108 42 66 40 58
shrinkage=0.1


Tree=37
num_leaves=22
num_cat=0
split_feature=472 355 448 127 527 402 485 203 391 94 109 356 480 0 162 385 70 95 416 95 98
split_gain=0.0941515 0.183167 0.105141 0.103707 0.103393 0.10203 0.0891983 0.0951983 0.0902895 0.116135 0.0878221 0.106146 0.0722526 0.0668942 0.0573065 0.0524906 0.05177 0.048112 0.0473588 0.0191935 0.00986946
threshold=0.22400000000000003 0.9790000000000002 1.3280000000000001 3.5065000000000004 1.1565000000000001 2.7455000000000003 1.4045000000000003 1.3440000000000003 2.0540000000000007 1.4525000000000003 0.76349999999999996 1.1555000000000002 1.0515000000000001 2.0895000000000006 1.9075000000000002 2.0515000000000003 1.6070000000000002 0.5465000000000001 1.954 0.32350000000000007 1.5470000000000004
decision_type=2 2 2 2 2 2 2 2 2 2 2 2 2 2 2 2 2 2 2 2 2
left_child=-1 -2 4 5 -3 6 -4 8 9 -8 14 -12 -13 17 -9 18 -6 20 -14 -20 -11
right_child=1 2 3 -5 16 -7 7 10 -10 13 11 12 15 -15 -16 -17 -18 -19 19 -21 -22
leaf_value=-0.005990897407755256 0.0092198081589727251 0.0016678087794306604 -0.005894535285465065 -0.0048304978812880378 -0.010142170438881624 0.0061617221998269949 0.0084913554906268559 0.00011892087505354236 0.0091444163536652922 0.0014014913676708768 0.002929564640932792 -0.0086911204129046377 -0.0076733370870351791 -0.0048700411991740118 0.0067535293743434454 0.0015579949611232483 -0.0031124589729006405 0.0056839862392128763 -0.0041119318951608709 -4.7218783919771132e-05 -0.0015611402832133615
leaf_weight=25 22 22 21 34 22 34 21 30 20 22 37 20 20 20 23 28 20 21 21 26 23
leaf_count=25 22 22 21 34 22 34 21 30 20 22 37 20 20 20 23 28 20 21 21 26 23
internal_value=0 0.00295409 -0.00109409 0.0046466 -0.0388571 0.00929867 0.00425949 0.00825739 0.0297714 0.0182437 -0.00507077 -0.0172927 -0.032282 0.00196389 0.0299809 -0.0207812 -0.0679469 0.0173167 -0.0359769 -0.0186337 -0.00112743
internal_weight=0 507 485 421 64 387 353 332 127 107 205 152 115 86 53 95 42 66 67 47 45
internal_count=532 507 485 421 64 387 353 332 127 107 205 152 115 86 53 95 42 66 67 47 45
shrinkage=0.1


Tree=38
num_leaves=22
num_cat=0
split_feature=84 344 438 280 11 22 190 284 95 197 87 146 221 12 324 111 14 323 217 380 71
split_gain=0.0889732 0.0911781 0.102365 0.118343 0.114644 0.128505 0.149727 0.166406 0.103448 0.0991927 0.168217 0.0929538 0.0677509 0.0674368 0.0609394 0.0544554 0.040975 0.0374728 0.0244816 0.0106726 0.00817228
threshold=3.467000000000001 3.0925000000000007 2.8980000000000006 2.1815000000000002 1.3700000000000003 0.90250000000000019 2.9260000000000006 1.4770000000000003 0.17600000000000002 1.6755000000000002 1.4775000000000003 1.3020000000000003 2.8685000000000005 1.6740000000000002 1.2845000000000002 1.7100000000000002 1.8755000000000002 1.5230000000000001 1.9680000000000002 2.0840000000000005 2.2475000000000005
decision_type=2 2 2 2 2 2 2 2 2 2 2 2 2 2 2 2 2 2 2 2 2
left_child=1 2 3 8 15 6 7 -6 -1 -10 -11 -8 14 -12 -7 -5 20 -13 -16 -20 -15
right_child=-2 -3 -4 4 5 12 11 -9 9 10 13 17 -14 16 18 -17 -18 -19 19 -21 -22
leaf_value=0.0088139189451578118 -0.0065432532317936422 0.0051080624689348042 -0.0069374308312988089 -0.0025548457903217543 0.012800961749797519 -0.0085297799802252234 -0.0065993336657993494 0.00098398072127915486 -0.0040536026536886188 0.010700200328470341 0.0052325377711827901 -0.00075241861673021055 0.0024975089023688011 -1.6730695708908818e-05 -0.0045070587136574287 -0.0096200732822762803 -0.0039040762071963402 0.0046839792439381462 -0.0023964828753378245 0.00087041322141885764 0.0024714655147611421
leaf_weight=21 20 36 21 24 22 21 20 26 28 21 27 32 21 33 31 20 25 21 20 20 22
leaf_count=21 20 36 21 24 22 21 20 26 28 21 27 32 21 33 31 20 25 21 20 20 22
internal_value=0 0.00255596 -0.00111397 0.0020365 -0.0108321 -0.00202623 0.0206202 0.064001 0.0222482 0.0133782 0.0251719 -0.00790418 -0.0262759 0.00911185 -0.0379745 -0.0576631 -0.00547272 0.0140163 -0.0239775 -0.00763035 0.00978548
internal_weight=0 512 476 455 278 234 121 48 177 156 128 73 113 107 92 44 80 53 71 40 55
internal_count=532 512 476 455 278 234 121 48 177 156 128 73 113 107 92 44 80 53 71 40 55
shrinkage=0.1


Tree=39
num_leaves=19
num_cat=0
split_feature=361 121 158 21 530 386 56 295 351 468 43 280 183 497 267 384 300 280
split_gain=0.0917785 0.0950829 0.0772814 0.0992874 0.12712 0.124652 0.113141 0.0860351 0.0709139 0.0818322 0.0723777 0.0613928 0.100771 0.0529326 0.0491347 0.0315271 0.0304481 0.0205999
