tree
version=v3
num_class=1
num_tree_per_iteration=1
label_index=0
max_feature_idx=25
objective=regression
feature_names=Column_0 Column_1 Column_2 Column_3 Column_4 Column_5 Column_6 Column_7 Column_8 Column_9 Column_10 Column_11 Column_12 Column_13 Column_14 Column_15 Column_16 Column_17 Column_18 Column_19 Column_20 Column_21 Column_22 Column_23 Column_24 Column_25
feature_infos=[0:0.56571905] [0:0.34615349000000001] [0:0.35883246000000002] [0:0.28459596999999998] [0:0.42455163000000001] [0:0.37844301000000002] [0:0.62285889999999999] [0:0.69220689000000002] [0:0.65936930000000005] [0:0.77436095000000005] [0:0.20383456] [0:0.24527098] [0:0.46791103000000001] [0:0.24324042000000001] [0:0.62916154999999996] [0:0.33736762999999997] [0:0.28636303000000002] [0:0.51912298000000001] [0:0.46084625000000001] [0:0.23041987] [-0.18846927999999999:0.11643497] [-0.090135899999999991:0.12260508000000001] [-0.10857872:0.17104733] [-0.44840101999999998:0.16845735000000001] [-0.19738008000000001:0.12272472] [-0.12601744000000001:0.19858171999999999]
tree_sizes=1441 1998 1918 1922 2068 1990 1832 1995 1901 1833 1901 1916 2080 1925 2103 1935 1928 1860 1850 2021 1938 1945 1856 1934 1935 1864 1943 2035 1953 1872 1856 1957 1869 1883 2038 1947 1953 1966 2142 2053 1972 1951 1708 1880 1873 1888 2055 1979 2142 1894 2067 1983 1987 1983 1975 1984 1889 1806 1891 1881 1973 1969 1889 1986 2079 2046 1897 2073 1902 1808 1903 2080 1901 2006 1884 2074 1811 1806 1983 1985 1913 1982 1979 1977 2088 1900 2000 1899 1805 2074 1984 1910 1997 1990 2004 1903 1915 1821 1989 1910

Tree=0
num_leaves=16
num_cat=0
split_feature=3 8 1 16 2 24 5 15 11 19 18 9 4 12 21
split_gain=35.745 9.83274 6.35768 8.86805 5.97839 3.08728 2.78823 3.22323 2.42911 1.34714 1.03336 0.790775 0.557627 0.295385 0.163303
threshold=0.038485395000000006 0.18507461000000003 0.064168250000000024 1.0000000180025095e-35 1.0000000180025095e-35 -0.017808329999999994 0.081325560000000005 0.035052620000000007 0.020405785000000003 0.024657760000000004 0.033865475000000006 0.10058015000000002 0.079558845000000003 0.048917855000000003 -0.015890074999999997
decision_type=2 2 2 2 2 2 2 2 2 2 2 2 2 2 2
left_child=1 2 3 8 6 -5 7 -2 11 -7 12 -1 14 -4 -6
right_child=4 -3 13 5 10 9 -8 -9 -10 -11 -12 -13 -14 -15 -16
leaf_value=0.52272727272727271 0.50714285714285712 0.55000000000000004 0.5346153846153846 0.51363636363636367 0.45999999999999996 0.48529411764705882 0.51923076923076927 0.45400000000000001 0.49761904761904763 0.45789473684210524 0.47857142857142859 0.54705882352941182 0.46999999999999997 0.55000000000000004 0.45000000000000001
leaf_weight=22 21 89 26 22 20 34 26 25 21 38 21 34 20 24 89
leaf_count=22 21 89 26 22 20 34 26 25 21 38 21 34 20 24 89
internal_value=0 0.219355 0.106335 0.0146199 -0.306306 -0.191489 -0.0694444 -0.217391 0.266234 -0.291667 -0.42 0.375 -0.453488 0.42 -0.481651
internal_weight=0 310 221 171 222 94 72 46 77 72 150 56 129 50 109
internal_count=532 310 221 171 222 94 72 46 77 72 150 56 129 50 109
shrinkage=1


Tree=1
num_leaves=22
num_cat=0
split_feature=3 1 13 23 19 21 17 20 2 23 23 18 15 16 15 17 8 3 5 4 9
split_gain=28.9655 8.77754 5.19231 4.82636 3.59648 2.67785 2.19106 1.89922 1.25767 1.12734 1.09813 0.653699 0.645083 0.513934 0.0470137 0.0408814 0.0110733 0.00361278 0.00233107 0.00134206 0.000105
threshold=1.0000000180025095e-35 0.13021863000000003 0.059531540000000001 -0.030922924999999997 1.0000000180025095e-35 0.0014946900000000001 0.041366570000000012 0.033346985000000003 1.0000000180025095e-35 0.00082537000000000007 0.015482135000000001 0.024298300000000005 0.054706470000000007 0.092273600000000025 0.022248765000000004 0.13049856000000001 0.18507461000000003 0.04207077 0.10696821500000002 0.059171295000000006 0.087692860000000025
decision_type=2 2 2 2 2 2 2 2 2 2 2 2 2 2 2 2 2 2 2 2 2
left_child=2 3 4 5 10 -2 -6 8 9 -5 13 14 -13 15 -10 16 18 -16 -1 20 -19
right_child=1 -3 -4 7 6 -7 -8 -9 11 -11 -12 12 -14 -15 17 -17 -18 19 -20 -21 -22
leaf_value=0.046415980607271201 0.02566223715742429 0.035055383563041685 -0.0087227462153685719 -0.0039716486632823947 0.033159126612273132 -0.023234977324803674 -0.0081049832605546521 -0.0037803252041339872 -0.040388094186782839 -0.034832737363617992 0.017367132902145387 -0.042498787045478825 -0.017100308984518052 0.02770156294107437 -0.046940712183713915 0.040975680947303778 0.044999998807907109 -0.044999998807907109 0.047924479984101799 -0.046099999696016317 -0.045299999415874481
leaf_weight=20 24 25 38 20 22 21 31 20 20 29 20 20 20 20 20 20 53 28 21 20 20
leaf_count=20 24 25 38 20 22 21 31 20 20 29 20 20 20 20 20 20 53 28 21 20 20
internal_value=0 -0.215589 0.252547 -0.26961 0.314921 0.0284354 0.0902352 -0.331417 -0.361225 -0.222364 0.392248 -0.4072 -0.297995 0.424872 -0.447646 0.450811 0.459546 -0.457593 0.471886 -0.454118 -0.45125
internal_weight=0 287 245 262 207 45 53 217 197 49 154 148 40 134 108 114 94 88 41 68 48
internal_count=532 287 245 262 207 45 53 217 197 49 154 148 40 134 108 114 94 88 41 68 48
shrinkage=0.1


Tree=2
num_leaves=21
num_cat=0
split_feature=3 8 2 2 22 17 24 5 15 13 4 18 15 21 0 8 23 20 17 22
split_gain=23.9021 6.94347 4.83437 4.09618 2.82555 2.28056 3.13785 2.23122 2.38256 1.06298 1.3982 0.737107 0.476191 0.422417 0.0349151 0.00756294 0.00534246 0.0011535 0.000591852 9.97154e-05
threshold=0.038485395000000006 0.18507461000000003 1.0000000180025095e-35 1.0000000180025095e-35 0.028863535000000003 0.059065700000000006 -0.013047169999999999 0.081325560000000005 0.035052620000000007 0.054995245000000005 0.027166085000000003 0.033865475000000006 0.035052620000000007 -0.011351104999999998 0.029522820000000002 0.25788205000000003 -0.018780964999999997 0.0063016950000000004 0.033848635000000009 -0.0072196449999999994
decision_type=2 2 2 2 2 2 2 2 2 2 2 2 2 2 2 2 2 2 2 2
left_child=1 2 5 7 9 12 -7 8 -2 10 -4 13 -1 -5 -15 -3 -16 -18 19 -17
right_child=3 15 4 11 -6 6 -8 -9 -10 -11 -12 -13 -14 14 16 18 17 -19 -20 -21
leaf_value=0.044393651187419891 0.0061554017521086198 0.042846797252523494 -0.026169216976715971 -0.027112549927926832 0.01745231843763782 0.039816737771034241 -0.009118716889306119 0.017973729051076449 -0.03953461837768555 -0.037014423581686891 0.0080845101313157513 -0.017084374881926039 0.026856839843094352 -0.036777789890766147 -0.042870511412620549 0.04050000011920929 -0.040558969686108254 -0.041453016025048722 0.041324138939380646 0.040815777629613879
leaf_weight=30 21 29 26 31 31 20 38 26 25 22 22 21 32 20 20 20 31 27 20 20
leaf_count=30 21 29 26 31 31 20 38 26 25 22 22 21 32 20 20 20 31 27 20 20
internal_value=0 0.179373 0.0843989 -0.250476 -0.0768154 0.220088 0.0775558 -0.0544146 -0.186761 -0.188123 -0.104696 -0.344586 0.353424 -0.372869 -0.405054 0.415208 -0.414612 -0.409752 0.4088 0.406579
internal_weight=0 310 221 222 101 120 58 72 46 70 48 150 62 129 98 89 78 58 60 40
internal_count=532 310 221 222 101 120 58 72 46 70 48 150 62 129 98 89 78 58 60 40
shrinkage=0.1


Tree=3
num_leaves=21
num_cat=0
split_feature=3 8 2 16 2 17 1 23 23 3 24 19 18 9 8 2 8 21 14 21
split_gain=19.3607 5.70285 4.35284 3.35061 3.31791 2.41705 2.55245 2.84245 1.92327 2.21292 0.710244 0.448297 0.294503 0.274278 0.151973 0.0757181 0.00486037 0.00460474 0.000855564 9.17965e-05
threshold=0.038485395000000006 0.15189065500000001 0.036518695000000011 1.0000000180025095e-35 1.0000000180025095e-35 0.024471365000000005 0.064168250000000024 -0.0077710799999999988 -0.025064109999999997 0.083976380000000017 -0.028668819999999998 0.024657760000000004 0.031395250000000006 0.062565200000000015 0.19495709500000002 0.084919160000000007 0.32514425000000008 -0.0054136749999999989 0.027761385000000003 -0.016726114999999996
decision_type=2 2 2 2 2 2 2 2 2 2 2 2 2 2 2 2 2 2 2 2
left_child=1 2 5 -4 8 13 7 -7 -2 -10 -6 -5 15 -1 -3 17 -16 -12 -19 -18
right_child=4 14 3 11 10 6 -8 -9 9 -11 12 -13 -14 -15 16 -17 19 18 -20 -21
leaf_value=0.025656931102275848 0.018958126850750136 0.027546413689851765 0.018277255513451315 -0.017660541832447054 -0.013958049813906352 0.019935312771028089 0.037483973304430644 -0.021115232399992041 0.0023093649319240023 -0.040633607052621395 -0.038909713178873068 -0.037413620617654589 -0.022634607702493668 0.040879191817908452 0.038131417830785115 -0.031921235866406383 0.036749704331159594 -0.036616071164608001 -0.037435966900416784 0.036467043779514451
leaf_weight=20 23 20 22 20 21 31 21 37 28 21 20 27 20 29 36 34 20 20 35 27
leaf_count=20 23 20 22 20 21 31 21 37 28 21 20 27 20 29 36 34 20 20 35 27
internal_value=0 0.161436 0.0657609 -0.139316 -0.225429 0.168299 0.0701005 -0.0240101 -0.0489731 -0.160948 -0.310127 -0.290081 -0.337891 0.34666 0.353715 -0.358357 0.372571 -0.376103 -0.371378 0.365873
internal_weight=0 310 207 69 222 138 89 68 72 49 150 47 129 49 103 109 83 75 55 47
internal_count=532 310 207 69 222 138 89 68 72 49 150 47 129 49 103 109 83 75 55 47
shrinkage=0.1


Tree=4
num_leaves=23
num_cat=0
split_feature=3 8 2 2 24 17 0 5 8 24 19 24 15 14 15 16 8 20 4 8 14 0
split_gain=15.6833 4.70639 4.96627 3.13456 2.25441 2.01663 1.95221 1.31486 1.30371 1.1491 0.720515 0.589535 0.467468 0.278361 0.229175 0.151264 0.108502 0.0410259 0.0331224 0.0146574 0.00680259 0.0051566
threshold=0.03722416500000001 0.10051708000000002 0.025040370000000003 1.0000000180025095e-35 -0.017946894999999994 0.041366570000000012 0.062492725000000006 0.05021005500000001 0.020614395000000004 -0.00038140499999999997 0.035339675000000008 -0.028668819999999998 0.078464085000000003 1.0000000180025095e-35 0.064074470000000008 0.027952420000000002 0.14605984000000002 -0.016730269999999995 0.11767893 0.25553520000000002 0.037299630000000007 0.062861090000000022
decision_type=2 2 2 2 2 2 2 2 2 2 2 2 2 2 2 2 2 2 2 2 2 2
left_child=1 2 5 4 -2 15 -7 -6 -4 12 -10 -5 16 14 -13 -1 -3 -15 19 -18 -19 -22
right_child=3 9 8 11 7 6 -8 -9 10 -11 -12 13 -14 17 -16 -17 18 20 -20 -21 21 -23
leaf_value=0.027972911794980366 0.020640168281701898 0.041004565493627028 0.0040852333605289467 -0.012562245272454762 -0.033958220346407463 0.021361691930464336 -0.018972446804954895 -0.0012892725212233407 -0.015948628634214403 0.0071498123082247653 -0.040799879729747773 -0.030943160436370156 0.018054682314395904 -0.029789076000452042 -0.016152682304382323 0.039594328687304545 0.036373068037487209 -0.033573272451758389 0.02954364225268364 0.033065328001976015 -0.034611059530921605 -0.036752533641728487
leaf_weight=24 26 22 20 21 22 28 21 28 28 22 20 22 20 20 20 21 21 24 20 37 23 22
leaf_count=24 26 22 20 21 22 28 21 28 28 22 20 22 20 20 20 21 21 24 20 37 23 22
internal_value=0 0.148694 0.0322026 -0.198259 -0.032439 0.181121 0.0407563 -0.156636 -0.173655 0.281593 -0.263033 -0.281168 0.32011 -0.306103 -0.239001 0.333962 0.348022 -0.33777 0.330529 0.34263 -0.349329 -0.35658
internal_weight=0 304 162 228 76 94 49 50 68 142 48 152 120 131 42 45 100 89 78 58 69 45
internal_count=532 304 162 228 76 94 49 50 68 142 48 152 120 131 42 45 100 89 78 58 69 45
shrinkage=0.1


Tree=5
num_leaves=22
num_cat=0
split_feature=3 16 1 8 2 3 5 17 13 5 23 4 0 9 8 8 5 18 15 8 0
split_gain=12.7196 3.97448 4.1326 3.89913 2.1625 1.62961 1.7401 1.57478 1.33376 1.10571 0.667714 0.521379 0.352207 0.251832 0.224641 0.103675 0.0499552 0.0213416 0.00984675 0.00184091 0.000277483
threshold=0.038485395000000006 1.0000000180025095e-35 0.064168250000000024 0.15189065500000001 1.0000000180025095e-35 0.09643286500000002 0.081325560000000005 0.036091355000000006 0.06647394500000002 0.093739085000000014 0.010234210000000002 0.071290200000000012 0.023800155000000003 0.066149055000000012 0.03419289000000001 0.11326718000000001 0.030497945000000002 0.020591005000000006 0.032606525000000004 0.053322550000000003 0.25168240000000003
decision_type=2 2 2 2 2 2 2 2 2 2 2 2 2 2 2 2 2 2 2 2 2
left_child=1 8 3 7 5 6 -2 -3 10 14 13 12 -6 -1 -9 -15 -14 19 20 -18 -17
right_child=4 2 -4 -5 11 -7 -8 9 -10 -11 -12 -13 16 15 -16 18 17 -19 -20 -21 -22
leaf_value=0.020772452865328112 -0.010718800669366663 0.0059834321339925136 0.030823697788374765 0.030045417944590255 -0.016695437241684308 -0.021827143728733064 0.030036592185497285 -0.026483162939548496 7.7320138613382977e-05 -0.0070272913033312019 0.014290361199527979 -0.013558739039205736 -0.026392669620968048 0.038257335011775681 -0.04070206677913666 0.030189605593681335 -0.030262867569923402 -0.034706822037696837 0.032589922632489887 -0.031416212551055415 0.029689871370792389
leaf_weight=21 22 21 35 21 22 30 20 20 21 22 32 31 21 26 25 25 25 20 21 31 20
leaf_count=21 22 21 35 21 22 30 20 20 21 22 32 31 21 26 25 25 25 20 21 31 20
internal_value=0 0.130851 0.00927916 -0.0867165 -0.18272 -0.0402633 0.0868853 -0.179109 0.23631 -0.254002 0.270423 -0.251098 -0.28119 0.306534 -0.343826 0.329089 -0.307099 -0.319028 0.308019 -0.309013 0.299675
internal_weight=0 310 144 109 222 72 42 88 166 67 145 150 119 113 45 92 97 76 66 56 45
internal_count=532 310 144 109 222 72 42 88 166 67 145 150 119 113 45 92 97 76 66 56 45
shrinkage=0.1


Tree=6
num_leaves=20
num_cat=0
split_feature=3 16 1 24 6 24 15 2 3 16 11 8 12 8 18 0 5 8 4
split_gain=10.3416 3.32712 3.3463 2.98158 2.06922 1.70708 0.879366 0.86383 1.26154 0.707979 1.33169 0.332524 0.141388 0.0863041 0.0551831 0.0497042 0.0305312 0.00760258 0.00492526
threshold=0.03722416500000001 1.0000000180025095e-35 0.064168250000000024 -0.019419474999999995 0.068068320000000015 -0.036105234999999992 0.081620680000000015 1.0000000180025095e-35 0.075809105000000016 0.08601333500000001 1.0000000180025095e-35 0.053322550000000003 0.067399135000000013 0.17298567500000003 0.026211085000000005 0.11039572500000001 0.070867630000000015 0.37811176000000007 0.048477090000000007
decision_type=2 2 2 2 2 2 2 2 2 2 2 2 2 2 2 2 2 2 2
left_child=1 6 3 -3 5 -2 11 8 -7 10 -5 -1 14 -13 15 18 17 -15 -9
right_child=4 2 -4 9 -6 7 -8 12 -10 -11 -12 13 -14 16 -16 -17 -18 -19 -20
leaf_value=0.016358978939907894 0.0070283831520514053 0.018864104052384697 0.027741328307560514 0.0079855855022157949 0.012341936126999234 0.005952156237933947 0.0085600245155786209 -0.028151442659528632 -0.025655498994248255 -0.030983547227723257 -0.025327182880469729 0.033085973897287922 -0.020939365681260827 0.029508063906715034 -0.03327449217438698 -0.023084423542022708 0.023422752916812898 0.026902681837479278 -0.030031568489291449
leaf_weight=28 22 30 35 21 23 23 38 38 28 28 28 31 32 21 20 20 20 24 22
leaf_count=28 22 30 35 21 23 23 38 38 28 28 28 31 32 21 20 20 20 24 22
internal_value=0 0.120745 0.00900468 -0.0787925 -0.160994 -0.192903 0.218691 -0.224543 -0.114011 -0.182987 -0.110503 0.259476 -0.267249 0.287443 -0.285763 -0.274017 0.266737 0.281185 -0.288408
internal_weight=0 304 142 107 228 205 162 183 51 77 49 124 132 96 100 80 65 45 60
internal_count=532 304 142 107 228 205 162 183 51 77 49 124 132 96 100 80 65 45 60
shrinkage=0.1


Tree=7
num_leaves=22
num_cat=0
split_feature=3 8 1 16 24 21 19 5 5 1 12 13 9 12 12 8 2 8 23 4 4
split_gain=8.37674 2.85236 2.36592 2.81549 1.79024 1.86432 1.28844 1.48168 1.01153 0.656788 0.6128 0.281583 0.673156 0.276893 0.262768 0.238931 0.0863089 0.0249945 0.00344861 0.00203236 0.000303352
threshold=0.03722416500000001 0.18507461000000003 0.064168250000000024 1.0000000180025095e-35 -0.017946894999999994 0.0014946900000000001 1.0000000180025095e-35 0.090960655000000015 0.048644685000000007 0.043693885000000009 0.026034810000000005 1.0000000180025095e-35 0.08666065000000002 0.040315840000000012 0.048917855000000003 0.090260980000000005 0.029069555000000004 0.25103412000000008 -0.073236519999999986 0.039714100000000009 0.079558845000000003
decision_type=2 2 2 2 2 2 2 2 2 2 2 2 2 2 2 2 2 2 2 2 2
left_child=1 2 3 8 5 -2 7 -5 -1 11 -8 12 -6 -10 -4 16 -13 -3 20 -18 -19
right_child=4 17 14 6 9 -7 10 -9 13 -11 -12 15 -14 -15 -16 -17 19 18 -20 -21 -22
leaf_value=-0.0032950555284818016 0.017279053503467191 0.028680271841585638 0.016726130820237672 -0.019562774896621705 -0.02980793632566929 -0.016628555822021822 -0.01006317175924778 0.01804483695463701 0.014692751031655533 -0.0031115634739398955 -0.032661113242308297 -0.033762658685445784 -0.0054053971973749317 0.029755476505860041 0.031236521402994794 -0.016073177045299893 -0.025625174799386193 0.024667899683117868 0.025922403755513107 -0.026858686046166855 0.024135388304357946
leaf_weight=24 31 24 26 20 20 34 20 22 26 20 30 20 26 23 24 21 34 20 22 22 23
leaf_count=24 31 24 26 20 20 34 20 22 26 20 30 20 26 23 24 21 34 20 22 22 23
internal_value=0 0.108671 0.0463487 -0.0113976 -0.144894 -0.00457234 -0.127757 0.0013645 0.135247 -0.200851 -0.236219 -0.22459 -0.160152 0.21763 0.236911 -0.255148 -0.281237 0.259224 0.249041 -0.261098 0.243831
internal_weight=0 304 215 165 228 65 92 42 73 163 50 143 46 49 50 97 76 89 65 56 43
internal_count=532 304 215 165 228 65 92 42 73 163 50 143 46 49 50 97 76 89 65 56 43
shrinkage=0.1


Tree=8
num_leaves=21
num_cat=0
split_feature=2 3 8 3 24 17 9 1 18 15 0 14 19 8 3 8 5 15 4 5
split_gain=7.089 2.74994 2.15129 1.98207 1.47895 2.62742 1.27208 1.15476 0.885808 0.434881 0.429096 0.34764 0.411639 0.24682 0.185858 0.160212 0.065575 0.0583028 0.0243888 0.00564297
threshold=1.0000000180025095e-35 0.09643286500000002 0.10051708000000002 0.03722416500000001 -0.010559939999999999 0.023444980000000001 0.074930995000000014 0.052784960000000006 0.034264630000000011 0.10406411000000002 0.063293245000000012 0.074467400000000003 0.026765445000000002 0.067416285000000006 0.038485395000000006 0.19839838000000001 0.094460585000000014 0.036211195000000009 0.054585015000000008 0.07621188000000001
decision_type=2 2 2 2 2 2 2 2 2 2 2 2 2 2 2 2 2 2 2 2
left_child=1 4 7 10 9 13 -7 8 11 15 -4 14 -13 -6 -2 16 -1 -16 -19 -17
right_child=2 -3 3 -5 5 6 -8 -9 -10 -11 -12 12 -14 -15 17 19 -18 18 -20 -21
leaf_value=0.026520178094506266 -0.032618010557931044 -0.017024414638678233 0.0071089751273393639 -0.015916469933525211 0.0291387677192688 0.0082394015975296494 -0.019539471058284536 0.0056595244258642197 -0.0030806273221969608 0.0099965375094186702 0.027575526634852094 -0.0047094046324491507 -0.024998291134834288 0.015060268267989159 -0.018579742908477786 0.021642842847439978 0.034521033508437021 -0.023153784389004992 -0.027370059101477912 0.023737830445170402
leaf_weight=20 29 30 20 31 33 32 34 20 27 21 21 20 20 20 20 36 21 34 23 20
leaf_count=20 29 30 20 31 33 32 34 20 27 21 21 20 20 20 20 36 21 34 23 20
internal_value=0 0.115002 -0.11587 0.0316465 0.151109 0.0724457 -0.0607093 -0.170901 -0.197202 0.230438 0.175918 -0.227973 -0.148538 0.238261 -0.257949 0.258685 0.306182 -0.232251 -0.248551 0.223911
internal_weight=0 267 265 72 237 119 66 193 173 118 41 146 40 53 106 97 41 77 57 56
internal_count=532 267 265 72 237 119 66 193 173 118 41 146 40 53 106 97 41 77 57 56
shrinkage=0.1


Tree=9
num_leaves=20
num_cat=0
split_feature=2 3 1 24 11 23 24 23 13 22 8 20 3 3 9 5 14 9 25
split_gain=5.74209 2.26018 1.88558 2.59548 1.11593 1.60516 0.999499 0.704371 0.611517 0.512816 0.334193 0.302501 0.378428 0.170571 0.127303 0.116118 0.0861591 0.0361832 0.0160147
threshold=1.0000000180025095e-35 0.064514900000000014 0.064168250000000024 -0.038635014999999995 0.032338150000000003 -0.0017476449999999997 -0.014165315 0.024999320000000002 0.059531540000000001 0.029349995000000004 0.046562310000000003 -0.0066837749999999986 0.075809105000000016 0.030986120000000002 0.062974330000000009 0.074913610000000019 0.058919545000000011 0.23864976500000004 0.0087389050000000017
decision_type=2 2 2 2 2 2 2 2 2 2 2 2 2 2 2 2 2 2 2
left_child=1 4 3 -2 8 -6 -3 9 10 11 -1 12 -5 -13 -12 17 18 -16 -15
right_child=2 6 -4 7 5 -7 -8 -9 -10 -11 14 13 -14 16 15 -17 -18 -19 -20
leaf_value=0.012449806966842751 0.014900065239133507 0.0049240101938662325 0.015707494318485261 -0.0061962054967880254 0.017184818618827397 -0.019677991810299101 -0.024557001046512442 -7.1289525790648028e-05 0.0018465514481067658 -0.0074394570197910074 0.029321707670505234 -0.029962582588195803 -0.024179093742912466 -0.025220741588493873 0.014896013513207434 0.025524262103595232 -0.016073050882135117 0.020387156605720519 -0.021767016351222995
leaf_weight=39 29 23 25 25 27 21 23 22 20 32 26 35 22 29 20 38 21 30 25
leaf_count=39 29 23 25 25 27 21 23 22 20 32 26 35 22 29 20 38 21 30 25
internal_value=0 0.103501 -0.104283 -0.131507 0.145477 0.0105734 -0.098165 -0.170061 0.182907 -0.189773 0.204403 -0.21329 -0.146137 -0.241982 0.231739 0.213575 -0.215081 0.181907 -0.236218
internal_weight=0 267 265 240 221 48 46 211 173 189 153 157 47 110 114 88 75 50 54
internal_count=532 267 265 240 221 48 46 211 173 189 153 157 47 110 114 88 75 50 54
shrinkage=0.1


Tree=10
num_leaves=21
num_cat=0
split_feature=3 23 2 17 8 10 8 5 15 16 5 23 12 8 17 4 8 4 7 8
split_gain=4.87483 2.30209 2.39138 1.09207 1.17333 1.03729 0.943116 0.670456 0.850228 0.627421 0.428717 0.406631 0.372231 0.222476 0.141961 0.411698 0.155096 0.113174 0.0444207 0.00252128
threshold=0.045809085000000006 -0.030659919999999997 0.036518695000000011 0.020790475000000006 0.079278580000000015 0.034077705000000007 0.11601031500000002 0.064214520000000011 0.039788500000000011 0.020253750000000004 0.13672864500000001 0.0083446200000000022 0.067399135000000013 0.056515575000000005 0.046348535000000003 0.054585015000000008 0.25103412000000008 0.045061475000000011 0.040177890000000008 0.38814474500000001
decision_type=2 2 2 2 2 2 2 2 2 2 2 2 2 2 2 2 2 2 2 2
left_child=1 14 5 4 -2 7 12 8 -3 -4 13 -11 17 -9 16 -16 -1 18 -5 -18
right_child=3 2 9 6 -6 -7 -8 10 -10 11 -12 -13 -14 -15 15 -17 19 -19 -20 -21
leaf_value=0.028946009775002796 0.015078845104345909 0.016440822184085848 0.0014289336651563645 -0.016981514021754265 -0.016701804669130415 -0.0090102564957406789 0.0020678041421848792 0.017396016046404839 -0.01236863188445568 -0.026403558347374203 0.010043793746403287 -0.0082269900292158121 -0.01162699488432784 0.0319687042046677 0.0055007248520851136 0.022876345813274385 0.019181509688496592 -0.028204258438199761 -0.022803883607450285 0.01761267398084913
leaf_weight=21 26 21 20 20 21 27 23 20 20 32 35 20 38 22 25 30 20 32 38 21
leaf_count=21 26 21 20 20 21 27 23 20 20 32 35 20 38 22 25 30 20 32 38 21
internal_value=0 0.0737026 0.0127418 -0.124327 0.0087898 0.0867153 -0.16576 0.127174 0.0238743 -0.136233 0.182177 -0.194126 -0.199261 0.250293 0.186767 0.149783 0.219575 -0.234302 -0.207962 0.18378
internal_weight=0 334 217 198 47 145 151 118 41 72 77 52 128 42 117 55 62 90 58 41
internal_count=532 334 217 198 47 145 151 118 41 72 77 52 128 42 117 55 62 90 58 41
shrinkage=0.1


Tree=11
num_leaves=21
num_cat=0
split_feature=3 23 2 17 1 24 17 0 8 16 0 23 7 12 9 8 17 19 2 8
split_gain=3.94861 1.88054 2.08308 0.944423 1.2866 1.52472 0.884575 1.05875 0.763924 0.527813 0.483656 0.345767 0.318134 0.389082 0.240472 0.161452 0.149131 0.0904929 0.0784672 0.0331364
threshold=0.045809085000000006 -0.031922799999999994 0.036518695000000011 1.0000000180025095e-35 0.069405890000000012 -0.0059561749999999993 0.020790475000000006 0.07029537000000001 0.11601031500000002 0.020253750000000004 0.062861090000000022 0.0083446200000000022 0.038761310000000007 0.065489580000000006 0.03973266000000001 0.12971286000000001 0.073546995000000018 0.047679530000000005 0.027433960000000004 0.29710094500000006
decision_type=2 2 2 2 2 2 2 2 2 2 2 2 2 2 2 2 2 2 2 2
left_child=1 15 3 14 5 -5 7 -2 12 -4 -7 -11 13 -8 -3 -1 19 18 -14 -17
right_child=6 2 9 4 -6 10 8 -9 -10 11 -12 -13 17 -15 -16 16 -18 -19 -20 -21
leaf_value=0.023712725511619025 -0.013288490056991578 0.0093450832366943366 0.001286040246486664 0.013298294807855899 0.021083813786506655 -0.0068121068179607391 -0.019003430471338078 0.016790596598928627 0.0018610237085300942 -0.024067476120862095 -0.028804280832409858 -0.0074042911827564249 -0.029050926342606545 -0.00087313570082187648 0.022954960892329346 0.021235232502222062 0.0091367675826467317 -0.016578701786372975 -0.02123875233034293 0.016158543154597284
leaf_weight=28 25 20 20 26 25 20 29 22 23 33 20 20 20 20 37 20 29 23 36 36
leaf_count=28 25 20 20 26 25 20 29 22 23 33 20 20 20 20 37 20 29 23 36 36
internal_value=0 0.0663324 0.0126772 0.0808621 0.0176399 -0.0555412 -0.111894 0.00791082 -0.149184 -0.125561 -0.178082 -0.177795 -0.179335 -0.116033 0.181796 0.171269 0.149574 -0.218598 -0.240288 0.179716
internal_weight=0 334 221 148 91 66 198 47 151 73 40 53 128 49 57 113 85 79 56 56
internal_count=532 334 221 148 91 66 198 47 151 73 40 53 128 49 57 113 85 79 56 56
shrinkage=0.1


Tree=12
num_leaves=23
num_cat=0
split_feature=2 3 1 24 15 24 18 22 1 16 22 12 5 9 24 5 3 8 16 15 16 0
split_gain=3.32234 1.42693 1.22701 1.59396 1.06419 0.843538 0.55412 0.564341 0.517687 0.812452 1.0645 0.322627 0.584181 0.173167 0.333109 0.149058 0.179584 0.142514 0.0435406 0.0322504 0.02516 0.000541447
threshold=1.0000000180025095e-35 0.09643286500000002 0.064168250000000024 -0.038635014999999995 0.090260980000000005 -0.016761899999999996 0.027625115000000002 0.0071654350000000012 0.047616075000000008 0.034264630000000011 0.013955625000000001 1.0000000180025095e-35 0.050761515000000007 0.068569615000000014 -0.0072758949999999992 0.096233195000000007 0.03000119 0.25103412000000008 0.050895305000000009 0.066507400000000008 0.039765490000000007 0.20065500500000003
decision_type=2 2 2 2 2 2 2 2 2 2 2 2 2 2 2 2 2 2 2 2 2 2
left_child=1 4 3 -2 8 -6 11 -8 9 13 -11 12 -5 -1 17 16 -13 -15 -10 20 -18 -19
right_child=2 -3 -4 6 5 -7 7 -9 18 10 -12 15 -14 14 -16 -17 19 21 -20 -21 -22 -23
leaf_value=0.02400478990305038 0.011853912575491544 -0.012674663066864015 0.013150953650474549 0.0042365649342536926 0.013688402920961379 -0.012653161441126177 -0.015305688977241516 0.0076624613093293232 0.020762555971741675 -0.017227615937590601 0.015008261657896496 -0.027453598380088807 -0.018904286126295727 0.02412495974983488 0.0025872575491666795 -0.011621579671135316 -0.021604061839373218 0.014405646077964619 0.027361089587211607 -0.01496889620487179 -0.016873786632310261 0.013694214113056661
leaf_weight=21 29 30 25 20 20 31 20 23 20 20 21 25 24 21 20 26 23 23 20 28 22 20
leaf_count=21 29 30 25 20 20 31 20 23 20 20 21 25 24 21 20 26 23 23 20 28 22 20
internal_value=0 0.0787288 -0.079323 -0.101285 0.104738 -0.0232314 -0.131497 -0.030204 0.139827 0.112213 -0.00716557 -0.157424 -0.0838572 0.158827 0.138522 -0.183528 -0.201386 0.173725 0.240618 -0.176335 -0.192915 0.140747
internal_weight=0 267 265 240 237 51 211 43 186 146 41 168 44 105 84 124 98 64 40 73 45 43
internal_count=532 267 265 240 237 51 211 43 186 146 41 168 44 105 84 124 98 64 40 73 45 43
shrinkage=0.1


Tree=13
num_leaves=21
num_cat=0
split_feature=3 13 11 12 23 1 1 23 16 0 3 4 17 17 17 23 3 25 5 4
split_gain=2.73478 1.43643 0.973451 0.76385 0.742408 0.667329 0.652242 0.740531 0.539743 0.265562 0.260478 0.386072 0.38238 0.227995 0.179913 0.172347 0.153823 0.138191 0.141551 0.110414
threshold=0.045809085000000006 0.059531540000000001 1.0000000180025095e-35 0.038099670000000009 -0.048024824999999986 0.047616075000000008 0.069405890000000012 -0.0017476449999999997 0.10259134000000002 0.18487493000000002 0.12043519000000001 1.0000000180025095e-35 0.062615185000000004 0.10045292500000001 0.061505915000000008 -0.06189372499999999 0.097050365000000013 0.016201900000000002 0.092343820000000007 0.045061475000000011
decision_type=2 2 2 2 2 2 2 2 2 2 2 2 2 2 2 2 2 2 2 2
left_child=1 2 8 -3 -2 10 7 -4 9 13 11 12 -6 14 17 -11 19 18 -1 -13
right_child=4 3 6 -5 5 -7 -8 -9 -10 15 -12 16 -14 -15 -16 -17 -18 -19 -20 -21
leaf_value=0.0076680722832679757 0.0075784786887790855 0.0011192809189519576 0.0042786525801206251 -0.022643586123983067 0.0060665684938430789 0.0051905429079419094 0.015702323578298091 -0.016619282340010009 -0.001217929542064667 0.013465271775539106 -0.021395725501435148 -0.013390608034704043 -0.012655488494783641 0.0098264070227742206 0.02802159547805786 0.0011177576705813407 -0.0084345044568181048 0.023292743849257627 0.019171091395875681 -0.022474124701693656
leaf_weight=20 23 31 39 24 20 21 20 30 25 26 35 23 24 32 20 20 20 24 23 32
leaf_count=20 23 31 39 24 20 21 20 30 25 26 35 23 24 32 20 20 20 24 23 32
internal_value=0 0.0552033 0.0843204 -0.0924997 -0.0931207 -0.11532 -0.00198478 -0.0480741 0.124748 0.145494 -0.138123 -0.115819 -0.0414546 0.170437 0.196983 0.0809679 -0.159446 0.172138 0.138208 -0.186756
internal_weight=0 334 279 55 198 175 89 69 190 165 154 119 44 119 87 46 75 67 43 55
internal_count=532 334 279 55 198 175 89 69 190 165 154 119 44 119 87 46 75 67 43 55
shrinkage=0.1


Tree=14
num_leaves=23
num_cat=0
split_feature=2 3 14 15 1 24 24 1 16 5 18 9 24 8 24 5 15 3 5 16 17 22
split_gain=2.39026 1.00796 0.974821 0.813505 0.76103 0.806678 0.620144 0.385981 0.578139 0.859976 0.305006 0.142911 0.245013 0.137181 0.127901 0.242704 0.254346 0.271415 0.0522772 0.0419816 0.011707 0.000952788
threshold=1.0000000180025095e-35 0.09643286500000002 0.13994792500000003 0.090260980000000005 0.064168250000000024 -0.043174289999999997 -0.016761899999999996 0.047616075000000008 0.034264630000000011 0.090960655000000015 0.027625115000000002 0.068569615000000014 -0.0072758949999999992 0.25103412000000008 -0.013803119999999999 0.039489870000000003 0.085039950000000017 0.039575710000000007 0.052978080000000004 0.050895305000000009 0.061505915000000008 -0.0028737499999999996
decision_type=2 2 2 2 2 2 2 2 2 2 2 2 2 2 2 2 2 2 2 2 2 2
left_child=1 3 4 7 5 -2 -5 8 11 -10 14 -1 13 -13 18 -16 17 -17 -7 -9 -19 -15
right_child=2 -3 -4 6 -6 10 -8 19 9 -11 -12 12 -14 21 15 16 -18 20 -20 -21 -22 -23
leaf_value=0.020857988723686764 0.0082205878836768016 -0.010591663767894111 0.012945369015569273 0.011403795331716537 0.0087061865822128642 -0.022769691795110705 -0.01118199916616563 0.017395092807710174 -0.014656765758991242 0.014317371733486654 -0.0044670875064837627 0.021278891535032363 0.0019736824184656146 0.010979587034038875 -0.0041156117446147483 -0.027199488295161209 -0.0069313739460927469 -0.01535877048969269 -0.015705629709092055 0.02387441232800484 -0.011978192911261605 0.011923329234123231
leaf_weight=21 21 30 23 20 23 20 31 20 21 20 39 21 20 23 26 23 27 20 22 20 21 20
leaf_count=21 21 30 23 20 23 20 31 20 21 20 39 21 20 23 26 23 27 20 22 20 21 20
internal_value=0 0.0667781 -0.0672821 0.0886382 -0.0859801 -0.104153 -0.0232482 0.119317 0.0954726 -0.0052304 -0.123919 0.134795 0.116349 0.14654 -0.143357 -0.126364 -0.150709 -0.185048 -0.190695 0.206348 -0.136273 0.114185
internal_weight=0 267 265 237 242 219 51 186 146 41 198 105 84 64 159 117 91 64 42 40 41 43
internal_count=532 267 265 237 242 219 51 186 146 41 198 105 84 64 159 117 91 64 42 40 41 43
shrinkage=0.1


Tree=15
num_leaves=21
num_cat=0
split_feature=2 11 23 8 22 10 13 7 5 18 0 12 4 11 20 20 19 7 19 0
split_gain=1.93611 0.888219 1.59031 0.873323 0.763349 0.570921 0.457471 0.428626 0.570439 0.424693 0.432974 0.356264 0.288639 0.235568 0.268937 0.194338 0.426443 0.172252 0.0967242 0.0380224
threshold=1.0000000180025095e-35 0.032338150000000003 -0.0077710799999999988 0.15524716000000002 0.039950390000000009 0.039334200000000007 0.069269430000000007 0.091533965000000009 0.092343820000000007 0.030022425000000002 0.038573010000000005 0.021871990000000004 0.046292645000000007 0.065181060000000013 0.010619085000000002 -0.017244099999999995 0.041402595000000007 0.029392155000000003 0.032159465000000005 0.15412074500000003
decision_type=2 2 2 2 2 2 2 2 2 2 2 2 2 2 2 2 2 2 2 2
left_child=1 6 -3 4 5 9 7 15 -9 10 -2 -12 -4 14 -13 -1 17 19 -7 -17
right_child=3 2 12 -5 -6 18 -8 8 -10 -11 11 13 -14 -15 -16 16 -18 -19 -20 -21
leaf_value=0.021429690744342478 -0.021341412335634233 0.016556372314691547 -0.022063700914382936 0.01001172202328841 0.010580162741243841 -0.022594574615359308 -0.0034898348152637483 -0.0086587097495794303 0.013634190211693445 0.0030371529871926588 0.0049507282674312592 -0.0076261623125327268 -0.0059461635723710065 -0.00051213570293926055 -0.021326600177132567 0.015311748310923577 -0.00091645237058401118 0.021730735871408668 -0.013975098048863205 0.00968277504046758
leaf_weight=29 25 25 25 30 20 30 24 22 24 34 21 38 20 21 23 20 20 28 23 30
leaf_count=29 25 25 25 30 20 30 24 22 24 34 21 38 20 21 23 20 20 28 23 30
internal_value=0 0.0601003 -0.0366581 -0.0605539 -0.0810651 -0.098448 0.0944814 0.11243 0.0297237 -0.0689733 -0.0953618 -0.0667083 -0.149004 -0.0964708 -0.127919 0.142387 0.121107 0.15451 -0.18854 0.119344
internal_weight=0 267 70 265 235 215 197 173 46 162 128 103 45 82 61 127 98 78 53 50
internal_count=532 267 70 265 235 215 197 173 46 162 128 103 45 82 61 127 98 78 53 50
shrinkage=0.1


Tree=16
num_leaves=21
num_cat=0
split_feature=3 13 19 1 17 14 18 3 8 5 8 13 19 25 4 7 24 23 0 0
split_gain=1.63908 0.981221 0.750188 0.867198 0.80745 0.607811 0.603582 0.816277 0.574136 0.458042 0.837984 0.4552 0.353661 0.244279 0.195019 0.140246 0.135539 0.0984724 0.0320616 0.0299932
threshold=0.045809085000000006 0.076013060000000021 1.0000000180025095e-35 0.099170370000000022 0.040595855000000007 0.048773540000000011 0.050638775000000004 0.12043519000000001 0.10098018500000001 0.065572555000000018 0.12971286000000001 0.028170630000000006 0.063933475000000017 0.012160240000000001 0.030918085000000001 0.048525180000000008 -0.012434179999999998 -0.056249249999999994 0.25168240000000003 0.094217955000000006
decision_type=2 2 2 2 2 2 2 2 2 2 2 2 2 2 2 2 2 2 2 2
left_child=1 2 9 4 -4 -6 7 8 12 10 -1 13 15 17 -15 -2 -9 -11 -12 -17
right_child=6 -3 3 -5 5 -7 -8 16 -10 11 18 -13 -14 14 -16 19 -18 -19 -20 -21
leaf_value=-0.010148970203267204 -0.0065251019494286903 -0.01182650765951942 0.0089847465356190995 0.018492073304951191 -0.019985051179195152 -8.9233501681259704e-05 0.0088200630886214118 -0.027244118154048921 0.0066216209482762127 0.011589167118072511 0.014297465700656176 0.026625811729742134 0.0017631845859189827 -0.00012407627701759339 0.012785309417681259 -0.017263827919960024 -0.015869684110988269 0.021512493174523115 0.0092741522386118221 -0.012336333131506332
leaf_weight=27 29 34 30 20 34 28 21 20 31 20 24 23 24 25 22 30 22 20 27 21
leaf_count=27 29 34 30 20 34 28 21 20 31 20 24 23 24 25 22 30 22 20 27 21
internal_value=0 0.0427369 0.0609838 -0.00380414 -0.0448313 -0.109998 -0.0720916 -0.0911093 -0.053231 0.0995809 0.040964 0.141146 -0.0888355 0.10807 0.0591861 -0.120776 -0.212861 0.165508 0.116381 -0.152349
internal_weight=0 334 300 112 92 62 198 177 135 188 78 110 104 87 47 80 42 40 51 51
internal_count=532 334 300 112 92 62 198 177 135 188 78 110 104 87 47 80 42 40 51 51
shrinkage=0.1


Tree=17
num_leaves=20
num_cat=0
split_feature=2 14 17 24 0 10 19 25 25 13 23 25 21 0 16 14 8 0 9
split_gain=1.38802 0.687895 0.679801 1.06794 0.625447 0.503832 0.854656 0.594862 0.500448 0.582325 0.3563 0.267076 0.32545 0.219576 0.413877 0.152896 0.122319 0.242985 0.118697
threshold=1.0000000180025095e-35 0.13994792500000003 0.059065700000000006 -0.0076226199999999992 0.089312710000000017 1.0000000180025095e-35 1.0000000180025095e-35 0.0092012250000000021 0.03240392000000001 0.042461450000000005 -0.024114774999999995 0.0043158000000000007 -0.0034577949999999996 0.069476995000000014 0.022364775000000003 0.025009915000000004 0.075040155000000011 0.082584100000000008 0.20224910000000004
decision_type=2 2 2 2 2 2 2 2 2 2 2 2 2 2 2 2 2 2 2
left_child=2 5 8 10 -5 6 7 -2 9 16 -4 -8 -13 14 -7 -15 -1 -18 -19
right_child=1 -3 3 4 -6 13 11 -9 -10 -11 -12 12 -14 15 -16 -17 17 18 -20
leaf_value=0.015886914512763421 0.016675786018885416 0.011399412155151369 0.015247473427478007 -0.0020810549683643108 -0.023848549615253102 0.0041847952455282209 -0.016534014407079668 -0.0035788283265870192 0.020303321979714163 -0.0083068918775428425 -0.00086796610899593529 0.0040310683575543486 -0.013373197260357085 -0.010536682814359665 -0.013848199982728277 -0.021208183082013294 -0.00014330922411038327 0.017271967266093601 0.0074564339460006781
leaf_weight=24 29 23 34 33 22 20 32 29 33 22 23 22 21 25 35 29 26 22 28
leaf_count=24 29 23 34 33 22 20 32 29 33 22 23 22 21 25 35 29 26 22 28
internal_value=0 -0.0512713 0.0508872 -0.0084725 -0.107881 -0.0669783 -0.0256715 0.0654848 0.0937794 0.0642272 0.0874475 -0.0961656 -0.0446869 -0.11738 -0.0729075 -0.162677 0.0966323 0.0769786 0.117753
internal_weight=0 265 267 112 55 242 133 58 155 122 57 75 43 109 55 54 100 76 50
internal_count=532 265 267 112 55 242 133 58 155 122 57 75 43 109 55 54 100 76 50
shrinkage=0.1


Tree=18
num_leaves=20
num_cat=0
split_feature=18 3 8 1 5 10 25 24 12 3 9 17 8 20 24 17 5 22 16
split_gain=1.16498 1.36188 1.36222 1.76075 0.701989 0.67361 0.627413 0.615843 0.657083 0.505869 0.410414 0.397607 0.328101 0.325956 0.107597 0.0890863 0.0992871 0.0534533 0.0216343
threshold=0.068195765000000005 0.12043519000000001 0.17638038500000003 0.14859530500000004 0.082050785000000015 1.0000000180025095e-35 -0.009563519999999999 -0.014883689999999998 0.030511200000000002 0.023778495000000004 0.13501327000000005 0.033848635000000009 0.22631616500000004 0.00068689000000000011 -0.013047169999999999 0.080824580000000021 0.052978080000000004 0.0026683300000000004 0.042519975000000008
decision_type=2 2 2 2 2 2 2 2 2 2 2 2 2 2 2 2 2 2 2
left_child=1 2 3 4 6 7 -1 -6 -9 -8 -2 -11 -4 -7 -3 18 -17 -14 -13
right_child=10 14 12 -5 5 13 9 8 -10 11 -12 15 17 -15 -16 16 -18 -19 -20
leaf_value=0.0028203539550304413 0.0066042273733261467 -0.023596732850585667 0.022088753127238969 0.020459660838047664 0.015792738369532995 -0.019154983032494785 -0.021838616354292947 -0.014134182116907576 0.0076241848937102733 0.0029300737194716932 0.023614922133476837 -0.017301088236272338 0.010002411300173174 -0.0016993883025387059 -0.013696309227658354 -0.013308737743645908 -0.003344448450952768 0.003744621823231379 -0.012756760689345274
leaf_weight=36 37 21 22 30 35 20 38 23 35 24 23 20 39 23 23 20 20 21 22
leaf_count=36 37 21 22 30 35 20 38 23 35 24 23 20 39 23 23 20 20 21 22
internal_value=0 -0.0166843 0.000538479 -0.0269259 -0.0489059 0.00531769 -0.0898748 0.0531727 -0.0100413 -0.119394 0.13125 -0.0839068 0.116425 -0.0981827 -0.184215 -0.117041 -0.0832659 0.0781218 -0.149207
internal_weight=0 472 428 346 316 136 180 93 58 144 60 106 82 43 44 82 40 60 42
internal_count=532 472 428 346 316 136 180 93 58 144 60 106 82 43 44 82 40 60 42
shrinkage=0.1


Tree=19
num_leaves=22
num_cat=0
split_feature=3 13 2 11 1 24 2 17 8 8 5 5 14 15 9 2 7 0 21 25 11
split_gain=0.948758 0.701427 0.504508 0.428585 0.395929 0.449817 0.486594 0.378481 0.780652 0.304285 0.189274 0.305416 0.423924 0.181055 0.120409 0.118918 0.118244 0.149708 0.0671686 0.0466957 0.0423409
threshold=0.045809085000000006 0.076013060000000021 0.092527160000000011 1.0000000180025095e-35 0.047616075000000008 -0.017808329999999994 0.030249630000000003 0.020790475000000006 0.079278580000000015 0.10227710000000002 0.090960655000000015 0.026066720000000005 0.030110575000000004 1.0000000180025095e-35 0.080335640000000014 1.0000000180025095e-35 0.11091384500000001 0.078355240000000007 -0.0041638349999999985 -0.0008395849999999999 0.026422205000000001
decision_type=2 2 2 2 2 2 2 2 2 2 2 2 2 2 2 2 2 2 2 2 2
left_child=1 2 3 10 5 -5 -7 8 -2 13 11 14 -13 -9 -1 -15 17 -12 -17 -16 -20
right_child=7 -3 -4 4 -6 6 -8 9 -10 -11 16 12 -14 15 19 18 -18 -19 20 -21 -22
leaf_value=0.016572409735194273 0.013934316572088462 -0.010361062598359935 -0.010153177141078882 0.010086827203631403 0.013026819638907911 -0.016705672842051305 0.0019374789137925421 -0.0033664796004692719 -0.011988449770779838 0.0012832780593428118 0.020068302950156588 0.00942742998401324 -0.01066578161858377 -0.018923222096193404 0.010477631589905783 -0.013952935760219894 0.0060748071720202771 0.0098169418116068035 -0.011019139569252731 0.0038013168238103393 -0.0045900849448073473
leaf_weight=21 26 34 21 20 20 28 28 30 21 29 28 21 21 21 22 30 21 29 20 20 21
leaf_count=21 26 34 21 20 20 28 28 30 21 29 28 21 21 21 22 30 21 29 20 20 21
internal_value=0 0.0325148 0.0479424 0.0591931 0.00507953 -0.0278649 -0.073841 -0.0548482 0.023518 -0.0792404 0.0875806 0.0598619 -0.00619176 -0.101127 0.103898 -0.123125 0.124894 0.148527 -0.103572 0.0729843 -0.0772621
internal_weight=0 334 300 279 96 76 56 198 47 151 183 105 42 122 63 92 78 57 71 42 41
internal_count=532 334 300 279 96 76 56 198 47 151 183 105 42 122 63 92 78 57 71 42 41
shrinkage=0.1


Tree=20
num_leaves=21
num_cat=0
split_feature=18 3 8 1 14 14 24 21 5 14 8 17 20 23 11 2 9 24 20 25
split_gain=0.877892 1.02066 1.01459 1.2846 0.62297 0.640215 0.541569 0.356185 0.453487 0.652247 0.352577 0.325296 0.383981 0.20944 0.229283 0.148042 0.0959169 0.0831072 0.0691354 0.0549524
threshold=0.068195765000000005 0.12043519000000001 0.15524716000000002 0.14859530500000004 0.16160361500000001 1.0000000180025095e-35 -0.014165315 -0.017194849999999998 0.093435500000000019 0.056876555000000009 0.065983025000000015 0.031986400000000005 0.0080667150000000021 0.0049413750000000005 0.065181060000000013 0.027433960000000004 0.08666065000000002 -0.013244764999999997 -0.0018139149999999999 0.0046708900000000013
decision_type=2 2 2 2 2 2 2 2 2 2 2 2 2 2 2 2 2 2 2 2
left_child=1 2 3 4 5 6 -1 -7 13 -10 -2 -8 -13 14 18 16 -4 -3 -9 -18
right_child=10 17 15 -5 -6 7 11 8 9 -11 -12 12 -14 -15 -16 -17 19 -19 -20 -21
leaf_value=0.011129858660878558 0.021468276445838541 -0.020712393857538702 0.012774831242859365 0.017551518565621867 0.012582283094525339 -0.021549673946130846 0.0048757859170436863 -0.016628154795616867 -0.011488195840755236 0.012077779330623647 0.0055608606211056842 -0.0014633841743623768 -0.019744677711278202 -0.017851968211206524 -0.00021577362592021623 0.016568563967233614 0.0075016793885057977 -0.011984185257460922 -0.0092185907723272547 0.00096677615391937163
leaf_weight=33 22 20 21 29 20 21 25 20 23 24 38 27 20 33 24 21 31 24 34 22
leaf_count=33 22 20 21 29 20 21 25 20 23 24 38 27 20 33 24 21 31 24 34 22
internal_value=0 -0.0144834 0.000426485 -0.0255789 -0.0447623 -0.0567753 0.00521667 -0.0931393 -0.0768766 0.00545494 0.113936 -0.0434042 -0.0924266 -0.111738 -0.0834838 0.0915824 0.0705531 -0.159516 -0.119629 0.0478908
internal_weight=0 472 428 333 304 284 105 179 158 47 60 72 47 111 78 95 74 44 54 53
internal_count=532 472 428 333 304 284 105 179 158 47 60 72 47 111 78 95 74 44 54 53
shrinkage=0.1


Tree=21
num_leaves=21
num_cat=0
split_feature=10 3 18 20 15 14 2 25 16 8 16 15 5 14 12 19 21 5 24 0
split_gain=0.713771 0.871318 0.793227 0.532755 0.454124 0.327192 0.41901 0.436503 0.324456 0.403761 0.470381 0.248578 0.233159 0.218929 0.17881 0.188427 0.168536 0.138994 0.119899 0.0225007
threshold=1.0000000180025095e-35 0.095489360000000009 0.079964140000000017 0.034649945000000008 0.17427026000000004 0.13994792500000003 0.072967030000000016 0.0080724700000000017 0.12563487500000003 0.079394450000000019 0.020253750000000004 0.061644585000000009 0.090960655000000015 0.023445980000000005 0.048917855000000003 0.032159465000000005 -0.0018360699999999998 0.044074530000000008 -0.026144139999999996 0.22530572500000004
decision_type=2 2 2 2 2 2 2 2 2 2 2 2 2 2 2 2 2 2 2 2
left_child=1 4 3 13 5 6 8 -8 9 10 -1 -3 -12 16 15 -15 -2 19 -19 -11
right_child=2 11 -4 -5 -6 -7 7 -9 -10 17 12 -13 -14 14 -16 -17 -18 18 -20 -21
leaf_value=0.0092196914440137341 0.0022976984314265706 -0.016168128043689108 0.013681880846852438 0.0074186479406697413 -0.0088686032787613257 0.015436627391365268 0.0051568003879352052 -0.015255509633570911 0.018498673345893623 0.007676871049971808 -0.012856361664867458 -0.0018483415224843404 0.00096572320908308031 -0.022395368037676371 -0.0076188868540968445 -0.0097654615822691665 -0.0090963691637358252 0.0088892333901354256 0.018310304223136467 0.0033124478085449446
leaf_weight=32 21 27 20 21 23 31 22 20 20 21 26 22 23 27 37 21 34 35 22 27
leaf_count=32 21 27 20 21 23 31 22 20 20 21 26 22 23 27 37 21 34 35 22 27
internal_value=0 0.0263033 -0.051008 -0.0743405 0.0463724 0.0575063 0.0453988 -0.0456335 0.0639587 0.050945 -0.00210168 -0.0973884 -0.0636844 -0.0966195 -0.128429 -0.168698 -0.0474591 0.0918667 0.125254 0.0522188
internal_weight=0 351 181 161 302 279 248 42 206 186 81 49 49 140 85 48 55 105 57 48
internal_count=532 351 181 161 302 279 248 42 206 186 81 49 49 140 85 48 55 105 57 48
shrinkage=0.1


Tree=22
num_leaves=20
num_cat=0
split_feature=18 3 10 1 8 21 16 11 9 12 14 24 20 2 0 7 12 9 4
split_gain=0.613509 0.70603 0.718921 0.565607 0.561573 0.527549 0.437942 0.421916 0.303098 0.248937 0.244005 0.257574 0.215246 0.175778 0.142872 0.109955 0.102637 0.0762544 0.0758618
threshold=0.068195765000000005 0.12043519000000001 1.0000000180025095e-35 0.099170370000000022 0.079394450000000019 0.016548835000000005 0.020253750000000004 0.035875695000000006 0.13345413000000003 0.067399135000000013 0.079580455000000008 -0.00071901499999999982 -0.0089309449999999974 0.046272460000000008 0.16914512000000004 0.076582410000000004 0.038099670000000009 0.10348482500000002 0.030918085000000001
decision_type=2 2 2 2 2 2 2 2 2 2 2 2 2 2 2 2 2 2 2
left_child=1 2 3 4 6 10 9 14 -2 -1 11 13 -8 -4 15 -6 -14 -18 -3
right_child=8 18 5 -5 7 -7 12 -9 -10 -11 -12 -13 16 -15 -16 -17 17 -19 -20
leaf_value=-0.0028798818134237081 0.0037214357897432312 -0.0093055987102991858 0.00505656534362407 0.014777018334716558 0.0072332504237520292 0.0051168776117265224 0.0010637061138238227 -0.0048572769581243912 0.018229532350475589 0.012897848207503558 -0.018480375117581823 -0.012710091140933145 -0.015949537030056769 -0.0077341851693662729 0.004055376670872554 0.015615108377053677 -0.011932166144251825 -0.003199791125953198 -0.017618722725837005
leaf_weight=20 36 23 21 35 29 33 21 29 24 20 23 39 23 22 39 34 20 20 21
leaf_count=20 36 23 21 35 29 33 21 29 24 20 23 39 23 22 39 34 20 20 21
internal_value=0 -0.0121076 0.000293025 0.0285652 0.0122037 -0.0591195 -0.0360308 0.0578608 0.0952467 0.0500898 -0.0937816 -0.0682509 -0.0770406 -0.0148754 0.0881213 0.117568 -0.106266 -0.0756598 -0.132732
internal_weight=0 472 428 290 255 138 124 131 60 40 105 82 84 43 102 63 63 40 44
internal_count=532 472 428 290 255 138 124 131 60 40 105 82 84 43 102 63 63 40 44
shrinkage=0.1


Tree=23
num_leaves=21
num_cat=0
split_feature=2 18 13 3 8 1 6 8 17 4 11 24 3 3 9 22 2 3 5 24
split_gain=0.553052 0.715118 0.628749 0.533475 0.4633 0.563295 0.601706 0.427555 0.42076 0.312691 0.300515 0.254121 0.305878 0.204996 0.199019 0.198331 0.19709 0.153192 0.0960613 0.0501856
threshold=0.092527160000000011 0.057599990000000011 0.077974415000000005 0.12043519000000001 0.079394450000000019 0.099170370000000022 0.075231385000000026 0.052185560000000006 0.023444980000000001 0.069422365000000014 0.052344015000000001 -0.0068109849999999994 0.024508120000000005 0.041288515000000005 0.10090885500000001 0.016274770000000004 0.11281294500000001 0.04097868000000001 0.035465390000000006 -0.035362124999999994
decision_type=2 2 2 2 2 2 2 2 2 2 2 2 2 2 2 2 2 2 2 2
left_child=1 2 3 4 5 6 8 -3 -1 11 13 -10 -13 15 16 18 -2 -4 -6 -9
right_child=14 7 17 -5 10 -7 -8 19 9 -11 -12 12 -14 -15 -16 -17 -18 -19 -20 -21
leaf_value=0.0072629593871533869 -0.0058098103012889628 0.023127815108746293 -0.018461298663169146 -0.011615021797760781 0.0059166024541341226 0.010706080391713786 0.012072012470924251 0.0019596568824324224 -0.0047871044578237671 0.0011952928074886306 -0.0031665495976253796 -0.025432943813502792 -0.0097603847300916022 0.016368690086528661 -0.0011243152855472131 0.011973374259803285 -0.019680532869616792 -0.0060842158226296315 -0.0026141490025276492 0.0087211424424110551
leaf_weight=20 20 20 20 31 33 33 21 21 36 26 27 20 33 26 22 37 21 20 22 23
leaf_count=20 20 20 20 31 33 33 21 21 36 26 27 20 33 26 22 37 21 20 22 23
internal_value=0 0.0118171 -0.00370551 0.00933801 0.0209851 -0.0116369 -0.036746 0.110046 -0.0612408 -0.0845226 0.0635062 -0.112706 -0.156746 0.0852828 -0.0879718 0.0631252 -0.129143 -0.122728 0.025043 0.0549407
internal_weight=0 469 405 365 334 189 156 64 135 115 145 89 53 118 63 92 41 40 55 44
internal_count=532 469 405 365 334 189 156 64 135 115 145 89 53 118 63 92 41 40 55 44
shrinkage=0.1


Tree=24
num_leaves=21
num_cat=0
split_feature=2 18 13 3 8 22 1 17 8 12 24 8 8 8 17 5 7 3 22 24
split_gain=0.447972 0.579246 0.516939 0.420126 0.45792 0.611389 0.616017 0.439432 0.462699 0.431016 0.519173 0.346319 0.294834 0.275217 0.164374 0.14657 0.138012 0.0506878 0.0504512 0.0406503
threshold=0.092527160000000011 0.057599990000000011 0.084266905000000017 0.12043519000000001 0.15189065500000001 0.0091439650000000022 0.046202910000000007 0.03152720500000001 0.085721660000000019 0.031664210000000005 -0.00071901499999999982 0.052185560000000006 0.22631616500000004 1.0000000180025095e-35 0.031986400000000005 0.117110955 0.04685783000000001 0.065045860000000025 0.0022091200000000006 -0.035362124999999994
decision_type=2 2 2 2 2 2 2 2 2 2 2 2 2 2 2 2 2 2 2 2
left_child=1 2 3 4 5 6 13 15 9 -9 -11 -3 -6 -1 -2 -7 -15 -16 -14 -13
right_child=14 11 -4 -5 12 7 -8 8 -10 10 -12 19 18 16 17 -17 -18 -19 -20 -21
leaf_value=-6.9605271952847633e-05 -0.014890577153048732 0.020815034089609982 -0.012742789684524459 -0.010453519653604035 0.015994654751072326 0.01831886844620818 0.0095026806870009764 -0.013384230168802398 0.012011859709253678 0.010149803346939735 -0.0093069124501198534 0.0017636912608785288 0.0059343990643282198 -0.019062754135578872 -0.00074444043760498368 0.0063572441972792153 -0.0095447482684483907 -0.0077787077413813679 -0.00029946328606456519 0.0078490281467447475
leaf_weight=21 22 20 31 31 30 21 20 28 26 32 24 21 37 25 21 20 39 20 20 23
leaf_count=21 22 20 31 31 30 21 20 28 26 32 24 21 37 25 21 20 39 20 20 23
internal_value=0 0.0106354 -0.00333496 0.00695082 0.0170268 -0.00427357 -0.0628783 0.0364781 0.00354343 -0.0325394 0.0181121 0.0990415 0.0797038 -0.100032 -0.0791746 0.124839 -0.132627 -0.0417579 0.0374708 0.0494466
internal_weight=0 469 405 374 343 256 105 151 110 84 56 64 87 85 63 41 64 41 57 44
internal_count=532 469 405 374 343 256 105 151 110 84 56 64 87 85 63 41 64 41 57 44
shrinkage=0.1


Tree=25
num_leaves=20
num_cat=0
split_feature=22 13 14 14 11 1 9 2 6 8 20 7 15 2 18 24 23 3 21
split_gain=0.391459 0.484448 0.415134 0.478952 0.412988 0.296885 0.278733 0.275592 0.270512 0.452508 0.22002 0.360611 0.192824 0.143457 0.150296 0.141679 0.134837 0.0781741 0.0431891
threshold=-0.018731234999999995 0.084266905000000017 1.0000000180025095e-35 0.13285144500000004 0.059483060000000011 0.064168250000000024 0.097293120000000025 0.072967030000000016 0.060504005000000007 0.033079365000000006 -0.025840079999999994 0.11819824000000001 0.043035180000000013 0.033456445000000008 0.021842945000000002 -0.0084135749999999978 -0.039495814999999997 0.032732130000000005 0.0026557850000000004
decision_type=2 2 2 2 2 2 2 2 2 2 2 2 2 2 2 2 2 2 2
left_child=6 2 4 5 7 10 -1 8 9 -2 -4 13 -5 14 -12 18 -11 -18 -15
right_child=1 -3 3 12 -6 -7 -8 -9 -10 16 11 -13 -14 15 -16 -17 17 -19 -20
leaf_value=0.016594230817546223 -0.0066379087356229624 -0.011943932223712674 0.003028842658247976 0.011267576181602762 -0.0057555357615152996 0.004937083800681509 0.00238050501793623 -0.0048815415839531598 0.018165400698781014 0.0037638408117786504 -0.019338199435375059 0.0045672730391379448 -0.0014957646653056145 -0.01472691647708416 -0.0081077794629064483 -0.0029705897463151278 0.0088167731157120545 0.016467006284404884 -0.0081550732278265065
leaf_weight=22 24 37 21 29 39 26 37 21 20 33 26 20 20 20 22 39 34 22 20
leaf_count=22 24 37 21 29 39 26 37 21 20 33 26 20 20 20 22 39 34 22 20
internal_value=0 -0.00958038 -0.000257483 -0.0277571 0.0343664 -0.0500692 0.0768054 0.0576453 0.0744548 0.0554815 -0.0654587 -0.0791368 0.0605805 -0.0987919 -0.141909 -0.072594 0.0883428 0.118222 -0.11441
internal_weight=0 473 436 243 193 194 59 154 133 113 168 147 49 127 48 79 89 56 40
internal_count=532 473 436 243 193 194 59 154 133 113 168 147 49 127 48 79 89 56 40
shrinkage=0.1


Tree=26
num_leaves=21
num_cat=0
split_feature=10 14 3 22 14 15 5 8 21 19 3 24 15 13 12 15 14 14 8 23
split_gain=0.335291 0.488581 0.415377 0.299406 0.333764 0.299537 0.398276 0.226689 0.322222 0.215713 0.211793 0.204856 0.242207 0.269805 0.256974 0.161445 0.0979826 0.196627 0.129863 0.0437413
threshold=1.0000000180025095e-35 0.13285144500000004 0.09643286500000002 -0.014711969999999998 0.054888070000000004 0.096267250000000013 0.083846855000000012 0.13501327000000005 0.007838885000000002 0.028740820000000004 0.024508120000000005 0.014667875000000002 0.053224640000000011 0.046392125000000006 0.037329905000000004 0.061644585000000009 0.020322570000000002 0.10927838000000002 0.15189065500000001 -0.015658764999999998
decision_type=2 2 2 2 2 2 2 2 2 2 2 2 2 2 2 2 2 2 2 2
left_child=2 7 3 4 -1 11 -7 8 10 -10 -2 12 13 16 -14 -4 18 -18 -5 -12
right_child=1 -3 15 5 -6 6 -8 -9 9 -11 19 -13 14 -15 -16 -17 17 -19 -20 -21
leaf_value=0.0022587938078989585 -0.018275535285759432 0.010471445457501845 -0.01195499433066558 0.013509300564016617 0.019116521197492662 -0.013661214300932792 0.0048546711869892623 0.0042507823778405078 -0.0074337514909879809 0.0052156357909552758 -0.011199291823431851 -0.0036556496332837817 0.017243329037187827 -0.0075002607282089158 0.0038990375745455706 -0.00026426840396154494 -0.0061792781675467272 0.0078430850524455319 0.0034498835072471674 -0.0054216157314122514
leaf_weight=24 26 22 27 21 23 26 21 21 26 28 20 34 27 23 31 21 20 20 33 38
leaf_count=24 26 22 27 21 23 26 21 21 26 28 20 34 27 23 31 21 20 20 33 38
internal_value=0 -0.0349598 0.0180277 0.0317197 0.105083 0.0182506 -0.0538816 -0.0542858 -0.0690153 -0.0087481 -0.107758 0.0344717 0.0482715 0.0220779 0.10111 -0.068403 0.0458317 0.00831903 0.0736188 -0.0741392
internal_weight=0 181 351 303 47 256 47 159 138 54 84 209 175 117 58 48 94 40 54 58
internal_count=532 181 351 303 47 256 47 159 138 54 84 209 175 117 58 48 94 40 54 58
shrinkage=0.1


Tree=27
num_leaves=22
num_cat=0
split_feature=2 18 10 3 20 1 23 14 3 21 3 15 8 20 15 23 17 23 24 17 10
split_gain=0.312817 0.358218 0.399638 0.276156 0.271182 0.246664 0.283408 0.305626 0.291703 0.211442 0.276327 0.177039 0.174537 0.169693 0.194803 0.274265 0.134477 0.126746 0.101909 0.0984699 0.0627481
threshold=0.13018707000000004 0.082325360000000014 1.0000000180025095e-35 0.12398364000000002 0.034649945000000008 0.099170370000000022 -0.033407219999999994 1.0000000180025095e-35 1.0000000180025095e-35 0.010325315000000003 0.027967085000000006 0.057823235000000008 0.10227710000000002 0.016194795000000001 0.038380975000000005 -0.014433034999999999 0.043925730000000003 -0.006896649999999999 -0.00166457 0.082703820000000011 0.039334200000000007
decision_type=2 2 2 2 2 2 2 2 2 2 2 2 2 2 2 2 2 2 2 2 2
left_child=1 2 3 5 13 6 11 9 -9 10 -8 19 -3 14 17 -16 -10 -4 -18 -1 -17
right_child=-2 12 4 -5 -6 -7 7 8 16 -11 -12 -13 -14 -15 15 20 18 -19 -20 -21 -22
leaf_value=0.00069111425209006198 -0.011961618287577518 0.015669618597963737 0.0067306429805466909 -0.0090413804959759807 0.0061369016234363825 0.010324938249929499 0.0016255537643949291 0.0029237177040028787 -0.015229684215737508 -0.0047044573444873098 0.016299322708731606 0.014591070704191226 0.0031861646440423407 -0.014113565998956225 -0.015832012189695471 0.00085100579837506468 -0.00052763063418255615 -0.0045274886675179008 -0.010152832304381512 0.0093599155277479442 -0.0064054220807380413
leaf_weight=38 21 21 20 22 21 36 33 35 20 20 21 20 24 22 26 22 22 20 22 20 26
leaf_count=38 21 21 20 22 21 36 33 35 20 20 21 20 24 22 26 22 22 20 22 20 26
internal_value=0 0.00491573 -0.00331193 0.0175623 -0.0443956 0.0258392 0.0147366 -0.00782623 -0.044165 0.0407892 0.0733202 0.0647798 0.0901178 -0.060727 -0.0452095 -0.0756015 -0.0843069 0.0110158 -0.0534023 0.0368036 -0.0307956
internal_weight=0 511 466 309 157 287 251 173 99 74 54 78 45 136 114 74 64 40 44 58 48
internal_count=532 511 466 309 157 287 251 173 99 74 54 78 45 136 114 74 64 40 44 58 48
shrinkage=0.1


Tree=28
num_leaves=21
num_cat=0
split_feature=2 18 10 21 3 1 23 14 3 17 14 15 8 24 0 3 24 5 5 17
split_gain=0.253381 0.290157 0.323707 0.239205 0.223686 0.199798 0.22956 0.247557 0.23628 0.205504 0.175552 0.143402 0.141375 0.135133 0.181319 0.131223 0.111464 0.0953946 0.0862265 0.0797607
threshold=0.13018707000000004 0.082325360000000014 1.0000000180025095e-35 0.016548835000000005 0.12398364000000002 0.099170370000000022 -0.033407219999999994 1.0000000180025095e-35 1.0000000180025095e-35 0.078039130000000012 0.079580455000000008 0.057823235000000008 0.10227710000000002 -0.00071901499999999982 0.067921770000000006 0.055314245000000005 0.0052559600000000014 0.075744925000000018 0.062657315000000005 0.082703820000000011
decision_type=2 2 2 2 2 2 2 2 2 2 2 2 2 2 2 2 2 2 2 2
left_child=1 2 4 10 5 6 11 9 -9 17 13 19 -3 15 -15 -4 18 -8 -10 -1
right_child=-2 12 3 -5 -6 -7 7 8 16 -11 -12 -13 -14 14 -16 -17 -18 -19 -20 -21
leaf_value=0.00062200280433324614 -0.010765456278542323 0.014102656811120965 0.0043098770633891777 0.0035707884468138221 -0.0081372424113479534 0.0092924443649179816 0.012404491088312606 0.002631345874896007 -0.0089373274506734952 -0.0028934725817164469 -0.01281935772055696 0.013131963653431739 0.0028675481364189184 -0.0019023997031829575 -0.015058286802377552 -0.0056435859171100541 -0.01315953576805718 0.0031937876631590451 0.00023728613741695883 0.0084239238575537466
leaf_weight=38 21 21 27 33 22 36 23 35 21 29 29 20 24 22 20 26 23 22 20 20
leaf_count=38 21 21 27 33 22 36 23 35 21 29 29 20 24 22 20 26 23 22 20 20
internal_value=0 0.00442416 -0.00298074 -0.0399561 0.0158061 0.0232553 0.0132629 -0.00704361 -0.0397485 0.0367103 -0.0600925 0.0583018 0.081106 -0.0393037 -0.0816711 -0.00572954 -0.0758762 0.0790148 -0.0446191 0.0331232
internal_weight=0 511 466 157 309 287 251 173 99 74 124 78 45 95 42 53 64 45 41 58
internal_count=532 511 466 157 309 287 251 173 99 74 124 78 45 95 42 53 64 45 41 58
shrinkage=0.1


Tree=29
num_leaves=20
num_cat=0
split_feature=22 13 11 0 14 20 23 13 20 9 8 22 9 22 2 8 19 17 17
split_gain=0.235521 0.302029 0.256641 0.539441 0.266563 0.276191 0.249673 0.245085 0.200957 0.198461 0.15715 0.121893 0.238087 0.225354 0.103831 0.310472 0.0957582 0.0819813 0.0388475
threshold=-0.018731234999999995 0.084266905000000017 0.088615840000000015 0.048739075000000007 1.0000000180025095e-35 0.041298620000000001 -0.063009524999999983 0.041775075000000002 0.025178980000000004 0.097293120000000025 0.033079365000000006 0.011934090000000003 0.062974330000000009 0.026889935000000004 0.041025825000000009 0.11326718000000001 0.024340875000000001 0.080020980000000005 0.075551315000000022
decision_type=2 2 2 2 2 2 2 2 2 2 2 2 2 2 2 2 2 2 2
left_child=9 2 4 -4 7 6 -6 10 11 -1 -2 16 -13 -14 15 -12 -8 -18 -17
right_child=1 -3 3 -5 5 -7 8 -9 -10 -11 14 12 13 -15 -16 18 17 -19 -20
leaf_value=0.013478925925764171 -0.0040224791388027373 -0.0094174486383594366 -0.017356390381852785 0.0048806956782937051 0.0071399721033547237 0.0096755124814808385 -0.0093466135159627917 0.012887042213231326 -0.013376190883864185 0.0014852838839303601 0.014306720658870682 0.0084586136266201119 0.0029149879377497281 -0.011412994650059514 -0.0011872487872218093 0.003427349853844039 0.00051458611851558096 -0.0075991958426311615 -0.001931926827611668
leaf_weight=22 32 37 24 20 23 20 34 25 20 37 28 24 23 21 30 38 33 20 21
leaf_count=22 32 37 24 20 23 20 34 25 20 37 28 24 23 21 30 38 33 20 21
internal_value=0 -0.00743112 -6.98686e-05 -0.0724862 0.0080585 -0.0152387 -0.0265512 0.0372469 -0.0394247 0.0595749 0.0218738 -0.0272522 0.00446744 -0.0392337 0.0388581 0.0563514 -0.0520445 -0.0254722 0.0151981
internal_weight=0 473 436 44 392 218 198 174 175 59 149 155 68 44 117 87 87 53 59
internal_count=532 473 436 44 392 218 198 174 175 59 149 155 68 44 117 87 87 53 59
shrinkage=0.1


Tree=30
num_leaves=20
num_cat=0
split_feature=14 10 13 8 21 11 24 3 4 7 24 20 21 23 12 2 0 20 0
split_gain=0.204107 0.258487 0.19916 0.198069 0.197636 0.14779 0.191681 0.247795 0.164945 0.166771 0.169088 0.116103 0.112776 0.149872 0.168051 0.0714077 0.0570177 0.0339138 0.0422989
threshold=0.16160361500000001 1.0000000180025095e-35 0.076013060000000021 0.065983025000000015 0.021920675000000004 0.097032385000000013 -0.014507655 0.071450315 0.073756545000000021 0.041775075000000002 0.00063915500000000008 0.0099289800000000022 0.015895465000000001 0.0049413750000000005 0.041284420000000009 0.049164590000000008 0.046377880000000003 0.015038945000000001 0.12516720500000003
decision_type=2 2 2 2 2 2 2 2 2 2 2 2 2 2 2 2 2 2 2
left_child=1 4 12 -2 5 6 7 16 9 10 -8 -11 13 15 -15 -3 -1 18 -18
right_child=3 2 -4 -5 -6 -7 8 -9 -10 11 -12 -13 -14 14 -16 -17 17 -19 -20
leaf_value=0.0075492116765907185 0.012649568088818341 0.0018824178930824727 -0.012911496269294904 -0.00064883466342984149 -0.0059291370833913486 -0.0059418918183920064 0.0091431640861888552 0.01563206132501364 0.0062075824995355853 -0.0092990268436070056 -0.0026392026258439854 2.4174702544273302e-05 0.0025465923429959839 -0.015391688682138922 -0.0025835070670360612 -0.0045576279813593088 -0.0027949432004243137 0.005709039616631344 0.0028614987866230645
leaf_weight=26 24 36 21 21 36 22 21 20 33 34 29 22 34 20 21 33 20 20 39
leaf_count=26 24 36 21 21 36 22 21 20 33 34 29 22 34 20 21 33 20 20 39
internal_value=0 -0.00595409 -0.0381381 0.0644365 0.0105377 0.0193274 0.0258896 0.0543041 0.00033703 -0.0188835 0.0230939 -0.0563634 -0.0248707 -0.0404293 -0.088314 -0.011976 0.0348724 0.0215038 0.00944061
internal_weight=0 487 165 45 322 286 264 125 139 106 50 56 144 110 41 69 105 79 59
internal_count=532 487 165 45 322 286 264 125 139 106 50 56 144 110 41 69 105 79 59
shrinkage=0.1


Tree=31
num_leaves=21
num_cat=0
split_feature=2 18 1 15 14 13 24 9 9 13 25 4 22 13 21 2 8 8 5 4
split_gain=0.18096 0.219925 0.199789 0.194041 0.206408 0.248186 0.226289 0.267861 0.197916 0.298782 0.187734 0.150403 0.16762 0.323531 0.146589 0.131571 0.109685 0.0954657 0.0914907 0.0222366
threshold=0.13018707000000004 0.082325360000000014 0.14859530500000004 1.0000000180025095e-35 1.0000000180025095e-35 0.069269430000000007 0.00028931500000000006 0.065315475000000026 0.083810700000000002 0.035472870000000011 0.0050035450000000007 0.073756545000000021 0.0075300700000000007 0.024472665000000001 -0.0045338399999999991 0.061912870000000002 0.10227710000000002 0.064811830000000015 0.077254905000000013 0.049880485000000009
decision_type=2 2 2 2 2 2 2 2 2 2 2 2 2 2 2 2 2 2 2 2
left_child=1 2 3 8 6 11 7 -5 10 14 -1 12 15 -14 -10 -6 -3 -9 -19 -16
right_child=-2 16 -4 4 5 -7 -8 17 9 -11 -12 -13 13 -15 19 -17 -18 18 -20 -21
leaf_value=0.014808504535467365 -0.0090977990132246524 0.012327765957230613 0.0074855395478211463 -0.0063176725432276737 -0.011440489775084548 -0.012047295712674147 -0.007514074524505818 0.012682238100096582 0.0075432529063511862 -0.010124384958180599 0.0021232993973951254 0.0041730062518682753 -0.0066264957606204256 0.0075398807380614545 0.00097009287332184614 -0.0014200443238951265 0.0024316606087571319 -0.00035494086776106134 0.0090955812687752765 -0.0037454748063464648
leaf_weight=20 21 21 31 20 38 34 23 20 34 24 28 27 38 28 20 20 24 21 20 20
leaf_count=20 21 21 31 20 38 34 23 20 34 24 28 27 38 28 20 20 24 21 20 20
internal_value=0 0.00373882 -0.00270792 -0.00823542 -0.0232471 -0.0432847 0.0123967 0.037253 0.0214795 -0.00428799 0.074088 -0.0259045 -0.0406314 -0.00616518 0.0271572 -0.0798516 0.0704984 0.0701808 0.0425507 -0.0138769
internal_weight=0 511 466 435 289 185 104 81 146 98 48 151 124 66 74 58 45 61 41 40
internal_count=532 511 466 435 289 185 104 81 146 98 48 151 124 66 74 58 45 61 41 40
shrinkage=0.1


Tree=32
num_leaves=20
num_cat=0
split_feature=14 2 21 11 18 0 8 23 6 12 15 5 5 3 8 24 7 0 9
split_gain=0.158699 0.177336 0.167673 0.148765 0.203976 0.17866 0.169161 0.207321 0.291734 0.18484 0.193012 0.156659 0.243383 0.20354 0.14262 0.132919 0.0967753 0.0654159 0.0512222
threshold=0.13994792500000003 0.086805985000000016 -0.0066744799999999991 0.088615840000000015 0.068195765000000005 0.048739075000000007 0.079394450000000019 -0.018638504999999996 0.065965730000000014 0.031664210000000005 0.066507400000000008 0.090960655000000015 0.13758049500000002 0.062939230000000027 0.065983025000000015 -0.012082829999999998 0.049562535000000005 0.07029537000000001 0.17909284500000003
decision_type=2 2 2 2 2 2 2 2 2 2 2 2 2 2 2 2 2 2 2
left_child=1 3 -3 4 6 -5 7 -1 9 16 17 13 -13 15 -2 18 -9 -11 -8
right_child=14 2 -4 5 -6 -7 11 8 -10 10 -12 12 -14 -15 -16 -17 -18 -19 -20
leaf_value=-0.0095905553875491028 0.0095668522731190732 0.00046355014201253657 -0.0097348533987410765 -0.01230005486868322 0.0080764117477727781 0.00090623006579421822 -0.0044567566516343507 -0.0025368027947843077 0.010448827430428494 -0.00040911354173721494 0.0058811801510888183 0.013082926970874443 -0.00038102587359026079 -0.0088590762135572747 -0.00047606466105207804 0.0082784008964573823 -0.012048051603462387 -0.0075504664574628294 0.002076634008359785
leaf_weight=30 31 28 38 20 35 21 20 20 21 29 37 29 25 20 26 26 23 23 30
leaf_count=30 31 28 38 20 35 21 20 20 21 29 37 29 25 20 26 26 23 23 30
internal_value=0 -0.00598305 -0.0540826 0.00177874 0.00814458 -0.0553586 0.000511896 -0.0198937 -0.00498936 -0.0224063 0.00360434 0.0254067 0.0684962 0.00116883 0.0498587 0.0247898 -0.0762421 -0.0356779 -0.00536722
internal_weight=0 475 66 409 368 41 333 183 153 132 89 150 54 96 57 76 43 52 50
internal_count=532 475 66 409 368 41 333 183 153 132 89 150 54 96 57 76 43 52 50
shrinkage=0.1


Tree=33
num_leaves=20
num_cat=0
split_feature=22 13 4 11 0 14 13 20 23 23 12 5 20 16 3 12 7 21 19
split_gain=0.136449 0.178027 0.167175 0.154382 0.388336 0.156313 0.181037 0.179329 0.153814 0.115107 0.131335 0.110495 0.113159 0.100416 0.163256 0.0922125 0.164419 0.0857428 0.0834323
threshold=-0.018731234999999995 0.084266905000000017 0.098185480000000006 0.088615840000000015 0.048739075000000007 1.0000000180025095e-35 0.041775075000000002 0.041298620000000001 -0.033407219999999994 -0.024114774999999995 0.078228915000000024 0.031455535000000007 -0.0062492349999999997 0.040794065000000011 0.029228350000000004 0.030911005000000002 0.037837785000000006 0.0014946900000000001 0.027580730000000005
decision_type=2 2 2 2 2 2 2 2 2 2 2 2 2 2 2 2 2 2 2
left_child=2 3 -1 5 -5 6 11 8 17 -10 15 -2 -13 14 -14 18 -17 -7 -11
right_child=1 -3 -4 4 -6 7 -8 -9 9 10 -12 12 13 -15 -16 16 -18 -19 -20
leaf_value=0.0086391424304000219 -0.0030295569160117362 -0.0072253175926193392 -0.0023686309884810314 -0.014193093442978958 0.0046742071537300943 0.0077966518966215001 0.010739790650084615 0.0078702702524606136 -0.010417412272709911 -0.0083362821416180267 -0.0082838216579208777 -0.0034375213130953767 0.0032458739099092784 0.00045118917580967883 0.014571621818467976 0.0089787159381168238 -0.002213778292228069 -0.0011366504752500491 9.2452907119877642e-06
leaf_weight=37 39 37 22 24 20 21 25 20 21 23 30 21 35 34 20 21 35 22 25
leaf_count=37 39 37 22 24 20 21 25 20 21 23 30 21 35 34 20 21 35 22 25
internal_value=0 -0.0056562 0.0453455 -4.62456e-06 -0.0561705 0.00629971 0.0286513 -0.0115406 -0.020656 -0.0353363 -0.0245483 0.0154388 0.0316537 0.0472335 0.0736433 -0.0077339 0.0198341 0.0322613 -0.0398965
internal_weight=0 473 59 436 44 392 174 218 198 155 134 149 110 89 55 104 56 43 48
internal_count=532 473 59 436 44 392 174 218 198 155 134 149 110 89 55 104 56 43 48
shrinkage=0.1


Tree=34
num_leaves=22
num_cat=0
split_feature=15 23 10 25 20 21 16 25 8 11 5 3 25 15 17 21 15 9 2 3 15
split_gain=0.121441 0.15312 0.193637 0.184896 0.20288 0.255006 0.204373 0.172062 0.157305 0.146464 0.133429 0.132854 0.133978 0.12152 0.115602 0.108711 0.101895 0.0977119 0.0689443 0.0555855 0.0498173
threshold=0.17876623500000002 0.040997125000000002 1.0000000180025095e-35 -0.010604074999999998 -0.040743059999999991 0.0055422000000000015 0.071634020000000007 0.034046085000000011 0.22631616500000004 0.068398135000000013 0.11042868000000002 0.029228350000000004 -0.0023789549999999994 0.065700805000000015 0.06852926500000002 -0.0093009649999999978 0.060276925000000009 0.06751059500000002 0.03901957000000001 0.04207077 0.021165365000000002
decision_type=2 2 2 2 2 2 2 2 2 2 2 2 2 2 2 2 2 2 2 2 2
left_child=1 2 3 8 -5 9 13 11 14 10 15 12 -4 20 -1 -6 -12 -13 -19 -17 -7
right_child=-2 -3 7 4 5 6 -8 -9 -10 -11 16 17 -14 -15 -16 19 -18 18 -20 -21 -22
leaf_value=0.0045438570059126333 -0.006951100293857356 0.0084884000010788437 -0.002587217691259205 -0.0091900039153794463 -0.0047984069584344983 -0.00071726591413607827 -0.012164409570395947 0.0045427213828251869 -0.00098502151668071751 0.011507607707753779 0.0027633732057769193 0.0024248282957793862 -0.013100094548254101 -0.0070465608043014079 0.015036582742773353 -0.00031762626770068893 0.011809098548255861 -0.0086491801006638499 -0.0016771371658841098 0.0067553445056546483 0.0060403873573523018
leaf_weight=21 24 22 22 21 32 24 20 27 20 20 33 33 27 20 21 25 20 23 37 20 20
leaf_count=21 24 22 22 21 32 24 20 27 20 20 33 33 27 20 21 25 20 23 37 20 20
internal_value=0 0.00328398 -0.000409844 0.0141645 0.00225594 0.0107058 -0.0334079 -0.0277476 0.0631434 0.0354095 0.0231531 -0.0416611 -0.0838003 -0.00583404 0.0979022 -0.00342634 0.0617685 -0.0194587 -0.0434975 0.0282592 0.0235439
internal_weight=0 508 486 317 255 234 84 169 62 150 130 142 49 64 42 77 53 93 60 45 44
internal_count=532 508 486 317 255 234 84 169 62 150 130 142 49 64 42 77 53 93 60 45 44
shrinkage=0.1


Tree=35
num_leaves=21
num_cat=0
split_feature=2 18 3 19 13 19 5 1 3 17 13 9 24 18 0 8 22 20 4 21
split_gain=0.111415 0.142219 0.152264 0.191115 0.249948 0.27073 0.286292 0.393793 0.284346 0.228097 0.138442 0.143463 0.134756 0.142414 0.171837 0.0809777 0.0648284 0.0822764 0.0557115 0.0203548
threshold=0.13018707000000004 0.082325360000000014 0.15657755000000004 0.073939995000000022 0.07894973000000001 1.0000000180025095e-35 0.035465390000000006 0.064168250000000024 0.022147705 0.048624475000000007 0.056314810000000007 0.024289495000000005 0.0011567950000000002 0.027090995000000003 0.054656415000000007 0.10227710000000002 0.0026683300000000004 0.0063016950000000004 0.05038370000000001 0.0029896750000000002
decision_type=2 2 2 2 2 2 2 2 2 2 2 2 2 2 2 2 2 2 2 2
left_child=1 2 3 4 5 10 -7 8 -8 -5 11 -1 13 14 -13 -3 -16 -18 19 -10
right_child=-2 15 -4 9 -6 6 7 -9 18 -11 -12 12 -14 -15 16 -17 17 -19 -20 -21
leaf_value=-0.0052950406805253947 -0.0071386713578942274 0.010196847198087545 -0.0087611118704080584 -0.00010880986444169173 -0.0085152156347046704 0.0051469104262650946 -0.018302392595532267 0.0070925671048462403 -0.0011402178798680721 0.013608370556242087 0.010358914447715507 0.0098862155303359039 -0.0027727148967743335 0.010926745027303696 0.0036527908265565501 0.0016938187220754725 -0.006445064368943515 0.0017270104173803702 -0.0093621565441770315 -0.0053473326316832203
leaf_weight=26 21 21 20 27 36 32 22 20 23 22 20 25 36 25 37 24 22 28 22 23
leaf_count=26 21 21 20 27 36 32 22 20 23 22 20 25 36 25 37 24 22 28 22 23
internal_value=0 0.0029337 -0.0022505 0.00157733 -0.00569515 0.00222854 -0.0317804 -0.0559984 -0.0842037 0.0604992 0.02428 0.0163092 0.0267182 0.041025 0.0257923 0.056619 0.00479519 -0.018687 -0.0522325 -0.0324378
internal_weight=0 511 466 446 397 361 142 110 90 49 219 199 173 137 112 45 87 50 68 46
internal_count=532 511 466 446 397 361 142 110 90 49 219 199 173 137 112 45 87 50 68 46
shrinkage=0.1


Tree=36
num_leaves=21
num_cat=0
split_feature=14 10 20 8 23 0 2 13 15 5 23 17 22 6 3 25 23 8 20 8
split_gain=0.100785 0.126932 0.111652 0.325487 0.14787 0.129035 0.147571 0.140539 0.138698 0.260645 0.198128 0.168014 0.125168 0.119742 0.114051 0.103922 0.0828512 0.073807 0.049003 0.0431512
threshold=0.13994792500000003 0.080385085000000009 0.020425460000000003 0.03419289000000001 0.024999320000000002 0.12775597000000002 0.092527160000000011 0.039175475000000008 0.065216555000000009 0.078848415000000019 -0.0014986499999999998 0.049092740000000003 0.0061732600000000007 0.053075805000000011 0.055314245000000005 0.014226285000000002 -0.0052299449999999989 0.063959045000000006 0.033916360000000007 0.25553520000000002
decision_type=2 2 2 2 2 2 2 2 2 2 2 2 2 2 2 2 2 2 2 2
left_child=1 2 4 -4 5 6 8 17 13 11 -11 -10 -5 14 16 -2 -1 -7 -14 -19
right_child=15 -3 3 12 -6 7 -8 -9 9 10 -12 -13 18 -15 -16 -17 -18 19 -20 -21
leaf_value=0.0056813022980851868 0.00071211283664322561 -0.007270010228071791 -0.011742672544593612 -0.0054473805906517167 0.0086683309975672859 -0.0034926156594377502 -0.0069456102087214174 0.010313626624305142 0.0048978935151050493 0.014503366865877373 0.0012029979138224874 -0.0066134621678429545 0.00067318845672575262 -0.0087417142915607367 -0.0056654656321966446 0.0095639012487871312 -0.0025662605689528092 0.0068076803260261115 0.0074266194784459441 0.00089735599981698513
leaf_weight=29 36 26 30 21 22 23 36 22 21 24 21 32 22 24 29 21 21 21 21 30
leaf_count=29 36 26 30 21 22 23 36 22 21 24 21 32 22 24 29 21 21 21 21 30
internal_value=0 -0.00476796 -0.000834248 -0.0314794 0.00728023 0.00203438 -0.0104939 0.0329637 6.6437e-05 0.0269968 0.0829653 -0.0205236 0.00880846 -0.0255566 -0.00676357 0.039733 0.0221733 0.0121016 0.0397138 0.0333102
internal_weight=0 475 449 94 355 333 237 96 201 98 45 53 64 103 79 57 50 74 43 51
internal_count=532 475 449 94 355 333 237 96 201 98 45 53 64 103 79 57 50 74 43 51
shrinkage=0.1


Tree=37
num_leaves=21
num_cat=0
split_feature=15 20 10 3 19 8 3 25 21 16 22 4 12 16 16 21 14 5 24 23
split_gain=0.0981601 0.144269 0.144583 0.139423 0.126498 0.12742 0.160609 0.109305 0.0991653 0.134169 0.108624 0.133279 0.0989953 0.0935137 0.0945544 0.0928127 0.0753181 0.0611926 0.062887 0.0469853
threshold=0.17876623500000002 0.050904675000000003 1.0000000180025095e-35 0.09643286500000002 0.066587485000000016 0.13501327000000005 0.029228350000000004 -0.029817899999999998 0.0055422000000000015 0.034005965000000006 -0.0010504199999999998 0.075365610000000013 0.061916320000000004 0.11282681500000001 0.07927295500000002 -0.0018360699999999998 0.023898250000000003 0.035465390000000006 -0.0050705099999999994 -0.040748219999999995
decision_type=2 2 2 2 2 2 2 2 2 2 2 2 2 2 2 2 2 2 2 2
left_child=1 2 3 7 5 6 -4 -1 10 16 11 -9 -5 14 15 19 -10 -8 -19 -12
right_child=-2 -3 4 12 -6 -7 17 8 9 -11 13 -13 -14 -15 -16 -17 -18 18 -20 -21
leaf_value=0.008850877325643193 -0.0062493933170723421 0.0086195709463208914 -0.010000608700610404 -0.0075916473105150685 0.0050703794602304699 0.0032819488017897438 0.0021462492098140973 0.012609064071015877 -0.001545649429765315 -0.0064285042579285802 0.0034173666266724468 0.002033490080569978 0.0016199258016422393 0.00733681848450076 -0.0059692297915240663 0.007469901172444224 0.0066169228835497064 -0.0073113370116735842 -0.0010142818963088628 -0.0024496169732465675
leaf_weight=22 24 20 39 28 20 24 23 22 26 32 21 26 20 21 21 20 20 29 35 39
leaf_count=22 24 20 39 28 20 24 23 22 26 32 21 26 20 21 21 20 20 29 35 39
internal_value=0 0.00295247 -0.000459139 0.012126 -0.0240008 -0.0339615 -0.0466816 0.0209547 0.014962 -0.014559 0.0285069 0.0688063 -0.0375349 0.0126514 2.71124e-05 0.0157035 0.020033 -0.0227776 -0.0386763 -0.00396173
internal_weight=0 508 488 318 170 150 126 270 248 78 170 48 48 122 101 80 46 87 64 60
internal_count=532 508 488 318 170 150 126 270 248 78 170 48 48 122 101 80 46 87 64 60
shrinkage=0.1


Tree=38
num_leaves=23
num_cat=0
split_feature=13 15 20 21 15 14 15 10 5 2 22 21 19 15 3 23 0 6 11 7 25 0
split_gain=0.0882478 0.0904023 0.107419 0.138665 0.104094 0.0979392 0.123242 0.126159 0.178769 0.108118 0.101272 0.110691 0.0929543 0.0853118 0.121403 0.0967355 0.0703244 0.0675574 0.0902232 0.0255393 0.0175097 0.0166356
threshold=0.11431673000000002 0.17427026000000004 0.050904675000000003 0.030922110000000003 0.13511192500000005 1.0000000180025095e-35 1.0000000180025095e-35 0.022671935000000004 0.044074530000000008 0.03901957000000001 -0.0058471099999999991 -0.0033216099999999996 0.018943275000000002 0.065216555000000009 0.071450315 1.0000000180025095e-35 0.062861090000000022 0.039378730000000008 0.031487165000000004 0.05165055000000001 0.031414620000000004 0.25168240000000003
decision_type=2 2 2 2 2 2 2 2 2 2 2 2 2 2 2 2 2 2 2 2 2 2
left_child=1 2 3 4 5 13 10 8 -8 -9 -7 -12 -10 14 17 -15 -14 18 20 -11 21 -1
right_child=-2 -3 -4 -5 -6 6 7 9 12 19 11 -13 16 15 -16 -17 -18 -19 -20 -21 -22 -23
leaf_value=0.0038397730800859408 -0.0062011174349622293 -0.0053636424950565462 0.0077576143108308328 -0.0069713607430458074 0.0075554247502060169 0.0081727337446950744 -0.0080682660622352909 -0.01137451478280127 0.0071489996556192634 -0.00035777171142399312 0.0038956984349836905 -0.0054430091351440014 0.0035393933682436388 0.0019968087093509509 -0.0063163492961653654 0.010678878099480201 -0.0046444718082923261 -0.0030417783472909254 0.0090734118473483252 -0.0054114166117506107 -0.0010241086475434712 0.00023937968445742237
leaf_weight=33 22 27 20 25 21 21 22 24 25 20 30 22 21 33 21 21 21 22 20 20 20 21
leaf_count=33 22 27 20 25 21 21 22 24 25 20 30 22 21 33 21 21 21 22 20 20 20 21
internal_value=0 0.00267499 0.00582284 0.00272334 0.00685787 0.00339834 -0.0106904 -0.0268206 -0.00247006 -0.0606831 0.0231167 -0.000552932 0.0232117 0.0200688 0.00680023 0.0537317 -0.00552539 0.0194661 0.031141 -0.0288459 0.0150348 0.0243962
internal_weight=0 510 483 463 438 417 226 153 89 64 73 52 67 191 137 54 42 116 94 40 74 54
internal_count=532 510 483 463 438 417 226 153 89 64 73 52 67 191 137 54 42 116 94 40 74 54
shrinkage=0.1


Tree=39
num_leaves=22
num_cat=0
split_feature=2 18 18 6 14 18 19 19 9 17 13 3 3 22 23 19 7 2 8 25 25
split_gain=0.0746261 0.0832079 0.14446 0.119814 0.167949 0.115759 0.219229 0.111188 0.164565 0.138878 0.104698 0.103157 0.23604 0.100168 0.0880005 0.0951044 0.113152 0.0848979 0.0583833 0.0562583 0.0656387
threshold=0.13018707000000004 0.050638775000000004 0.039858130000000012 0.032710665000000007 0.094708480000000025 0.027625115000000002 0.027580730000000005 0.073939995000000022 0.086274665000000014 0.059065700000000006 0.038158880000000006 0.024508120000000005 0.064514900000000014 0.0075300700000000007 0.015482135000000001 0.046263585000000003 0.047700110000000011 0.053604445000000008 0.052185560000000006 0.014587210000000001 -0.0018185199999999999
decision_type=2 2 2 2 2 2 2 2 2 2 2 2 2 2 2 2 2 2 2 2 2
left_child=1 2 5 4 -3 7 -7 9 -9 10 11 19 -13 -12 15 16 18 -18 -11 20 -1
right_child=-2 3 -4 -5 -6 6 -8 8 -10 14 13 12 -14 -15 -16 -17 17 -19 -20 -21 -22
leaf_value=0.0016258555905352525 -0.0058423881213890303 -0.0065652542430325415 -0.0083698688524843131 0.0088170135223593279 0.005623703932640358 0.012724686310393736 -0.0013218737654387951 0.0098558229699847299 -0.0024263234273530546 0.006669647264820726 -0.0071407863350871669 0.01408783072339637 -0.0002932767146266997 0.0022724896436557176 -0.0083395458068008781 -0.0068837598060781605 -0.0063814518985485557 0.0012156316185913361 -0.00053603740576694365 0.0038962243545728813 -0.0060295985868876988
leaf_weight=24 21 20 21 26 26 20 25 24 20 23 26 21 25 20 27 32 38 24 22 26 21
leaf_count=24 21 20 21 26 26 20 25 24 20 23 26 21 25 20 27 32 38 24 22 26 21
internal_value=0 0.00240098 -0.00276682 0.0339102 0.00324157 0.00129913 0.0492104 -0.00448105 0.0427303 -0.010795 0.00993881 0.0258302 0.0627201 -0.0304806 -0.0311542 -0.0210066 -0.00670196 -0.0344065 0.0314687 0.00192969 -0.0194669
internal_weight=0 511 439 72 46 418 45 373 44 329 163 117 46 46 166 139 107 62 45 71 45
internal_count=532 511 439 72 46 418 45 373 44 329 163 117 46 46 166 139 107 62 45 71 45
shrinkage=0.1


Tree=40
num_leaves=21
num_cat=0
split_feature=17 14 20 20 8 20 20 2 22 24 1 14 7 25 13 12 20 11 0 9
split_gain=0.0678579 0.0863201 0.0992848 0.109706 0.173451 0.156886 0.114997 0.0878603 0.127578 0.106228 0.0908439 0.10587 0.160171 0.11686 0.0928876 0.0798532 0.0754683 0.0486975 0.0376035 0.0362153
threshold=0.16558006000000003 0.16160361500000001 -0.042130994999999997 0.020425460000000003 0.03419289000000001 0.015458170000000002 0.035483235000000009 0.086805985000000016 0.0071654350000000012 0.018036185000000003 0.069405890000000012 1.0000000180025095e-35 0.10103747500000002 0.012769035000000003 0.041775075000000002 0.054510450000000009 -0.013519789999999999 0.037905965000000007 0.069476995000000014 0.17347432000000004
decision_type=2 2 2 2 2 2 2 2 2 2 2 2 2 2 2 2 2 2 2 2
left_child=1 2 -1 5 -5 7 -6 9 -9 10 11 14 13 16 17 -3 -13 19 -18 -4
right_child=-2 15 3 4 6 -7 -8 8 -10 -11 -12 12 -14 -15 -16 -17 18 -19 -20 -21
leaf_value=-0.0066801410771652374 -0.0046199316003670303 0.0085788485108186374 -0.0033735123270287599 -0.0092782871621050721 -0.0031902942772783142 0.0089874180033802983 0.0058945177292281936 0.0017840068578317933 -0.0088676911333332893 0.0079406789415294218 0.0050621845532747871 0.0033827065431978557 0.0051855008487346711 -0.0092745624079058567 0.0080320192767041072 -6.0909083113074307e-05 -0.0011024067834527656 0.0048863464058376853 -0.0069492013606412169 0.0014368476620053544
leaf_weight=22 30 23 29 29 38 23 22 22 23 21 38 20 23 30 21 20 22 20 22 34
leaf_count=22 30 23 29 29 38 23 22 22 23 21 38 20 23 30 21 20 22 20 22 34
internal_value=0 0.00276092 -0.00125267 0.00204727 -0.0292834 0.01006 0.00140803 0.00441161 -0.0366019 0.0110031 0.00545682 -0.00230911 -0.0229446 -0.0412466 0.0209058 0.0456036 -0.0171064 0.00587324 -0.040258 -0.00777445
internal_weight=0 502 459 437 89 348 60 325 45 280 259 221 117 94 104 43 64 83 44 63
internal_count=532 502 459 437 89 348 60 325 45 280 259 221 117 94 104 43 64 83 44 63
shrinkage=0.1


Tree=41
num_leaves=21
num_cat=0
split_feature=13 15 23 15 24 0 0 11 18 14 3 7 2 17 8 23 16 13 4 23
split_gain=0.0652126 0.0716963 0.0976647 0.0922037 0.0797199 0.132872 0.0621744 0.115205 0.109624 0.114561 0.128058 0.10906 0.102489 0.100435 0.11786 0.0919862 0.12535 0.11447 0.0495998 0.0199492
threshold=0.11431673000000002 0.17427026000000004 0.040997125000000002 0.13511192500000005 0.018583130000000003 0.04392737 0.091972780000000018 0.088615840000000015 0.027625115000000002 1.0000000180025095e-35 0.030986120000000002 0.028475320000000002 0.052311835000000008 0.031986400000000005 0.046562310000000003 -0.0037209049999999996 0.050895305000000009 0.028672895000000004 0.033615650000000004 -0.033407219999999994
decision_type=2 2 2 2 2 2 2 2 2 2 2 2 2 2 2 2 2 2 2 2
left_child=1 2 3 4 6 -6 7 13 9 10 19 -10 -11 14 -1 16 17 -15 -17 -8
right_child=-2 -3 -4 -5 5 -7 8 -9 11 12 -12 -13 -14 15 -16 18 -18 -19 -20 -21
leaf_value=0.0021465523100535695 -0.0053306943546472633 -0.0047848637912129227 0.0070195843084630647 0.0066731629593830034 0.001397648627171293 -0.010129375979304314 0.001827321317082701 -0.0069295544910279137 0.00081753036736146266 -0.0068038621726869185 0.0085778395051602282 0.010359105674549937 0.0020076807964042845 0.0028245285254879259 -0.006851358573908943 -0.0050876011247358603 -0.0026531620194082677 0.011982069794265998 0.0012768680183216929 -0.0020900192316800643
leaf_weight=24 22 27 22 21 20 20 26 27 23 33 25 25 22 39 37 24 23 21 25 26
leaf_count=24 22 27 22 21 20 20 26 27 23 33 25 25 22 39 37 24 23 21 25 26
internal_value=0 0.00229951 0.00510283 0.00199644 -0.0010932 -0.0436586 0.00316335 -0.00811383 0.0169466 0.00206495 0.0269631 0.057871 -0.0327924 0.000445265 -0.033112 0.0159528 0.0362358 0.0602967 -0.0184042 -0.00131349
internal_weight=0 510 483 461 440 40 400 220 180 132 77 48 55 193 61 132 83 60 49 52
internal_count=532 510 483 461 440 40 400 220 180 132 77 48 55 193 61 132 83 60 49 52
shrinkage=0.1


Tree=42
num_leaves=18
num_cat=0
split_feature=9 22 13 22 21 4 6 9 25 8 5 25 25 20 4 15 24
split_gain=0.063364 0.0766747 0.0995421 0.128319 0.112006 0.107943 0.135287 0.108329 0.193205 0.111973 0.108887 0.0978783 0.060031 0.0440408 0.0418784 0.0381867 0.0188936
threshold=0.20805797500000003 -0.019866954999999995 0.084266905000000017 -0.0031720149999999998 0.0055422000000000015 0.071290200000000012 0.062693930000000009 0.053607780000000008 0.023681585000000002 0.081365895000000008 0.078848415000000019 0.0080724700000000017 0.0036415850000000006 0.016662025000000004 0.035492500000000003 0.069483430000000013 -0.055071254999999993
decision_type=2 2 2 2 2 2 2 2 2 2 2 2 2 2 2 2 2
left_child=1 -1 3 4 -3 6 7 8 -5 13 -11 -7 -6 15 -2 -9 -16
right_child=14 2 -4 5 12 11 -8 9 -10 10 -12 -13 -14 -15 16 -17 -18
leaf_value=0.0038990027329418812 0.0050547802141187974 -6.0115859676630077e-05 -0.0060361933195963507 0.0082490375586624816 -0.003897704747082158 0.0074424793324923445 0.0067022544074764783 -0.0013535937216753761 -0.0030203331756638364 -0.0041739818675873373 0.0044228393125676493 -0.00061411813169252134 -0.011467535682022571 -0.0086499002073769978 0.0025622978737704794 -0.0061013053491478786 -0.0015820978160428986
leaf_weight=37 37 39 34 29 22 38 24 36 32 26 34 25 20 23 22 32 22
leaf_count=37 37 39 34 29 22 38 24 36 32 26 34 25 20 23 22 32 22
internal_value=0 -0.00462508 -0.00852305 -0.00388484 -0.0391907 0.00567963 -0.0041373 -0.0121931 0.0233724 -0.0265607 0.0069755 0.0424542 -0.0750239 -0.0486724 0.025752 -0.0358781 0.004901
internal_weight=0 451 414 380 81 299 236 212 61 151 60 63 42 91 81 68 44
internal_count=532 451 414 380 81 299 236 212 61 151 60 63 42 91 81 68 44
shrinkage=0.1


Tree=43
num_leaves=20
num_cat=0
split_feature=17 25 16 5 10 6 9 13 20 23 4 15 17 12 3 16 9 9 20
split_gain=0.0605749 0.0676998 0.165386 0.0995217 0.0970055 0.0941086 0.114086 0.164856 0.117799 0.187204 0.105151 0.202152 0.0879477 0.0798802 0.0954021 0.0869174 0.0766571 0.0534161 0.0298838
threshold=0.16558006000000003 0.031414620000000004 0.076162215000000019 0.18490607500000003 0.069411070000000019 0.080275685000000013 0.031931370000000008 0.023898250000000003 0.021041860000000006 0.0094446600000000023 0.071290200000000012 0.058902465000000008 0.050148460000000006 0.025278985000000004 0.078134960000000017 0.025603615000000003 0.10491595500000002 0.15209862500000002 -0.014019129999999998
decision_type=2 2 2 2 2 2 2 2 2 2 2 2 2 2 2 2 2 2 2
left_child=1 3 12 4 5 6 7 -1 10 -10 13 18 -3 14 17 -15 -17 -8 -12
right_child=-2 2 -4 -5 -6 -7 8 -9 9 -11 11 -13 -14 15 -16 16 -18 -19 -20
leaf_value=-0.00050899403599592361 -0.0043649750249460341 0.0094585434694228511 -0.004664648116423367 -0.0071496337372809653 -0.0054873711140505203 0.0067133471278635701 0.0080889724283700892 0.011567189384950325 -0.00025710421684903631 -0.012518025636672975 0.0020920445980585141 0.010574864912258328 0.0020117505214044028 -0.0068614848978433979 -0.0037414063411276969 0.00238851071519189 -0.0040060995675220683 0.001037996907887811 -0.0030055929081635956
leaf_weight=26 30 29 22 20 29 23 21 20 33 20 23 26 35 34 21 38 37 22 23
leaf_count=26 30 29 22 20 29 23 21 20 33 20 23 26 35 34 21 38 37 22 23
internal_value=0 0.00260855 0.0281496 -0.00267158 0.000804423 0.00520406 0.00106343 0.0474152 -0.00609154 -0.0488387 0.00315579 0.0352687 0.0538608 -0.0102091 0.0178336 -0.0266746 -0.00766164 0.044815 -0.00456774
internal_weight=0 502 86 416 396 367 344 46 298 53 245 72 64 173 64 109 75 43 46
internal_count=532 502 86 416 396 367 344 46 298 53 245 72 64 173 64 109 75 43 46
shrinkage=0.1


Tree=44
num_leaves=20
num_cat=0
split_feature=9 24 16 20 21 7 18 13 5 12 8 23 17 23 8 25 0 9 7
split_gain=0.0572642 0.258934 0.0862098 0.0814296 0.10779 0.0737721 0.093041 0.104149 0.080538 0.107234 0.0794162 0.123577 0.0976596 0.072815 0.0645703 0.0612963 0.0655105 0.0451858 0.0211205
threshold=1.0000000180025095e-35 -0.00166457 0.041453875000000008 0.046687600000000003 0.030922110000000003 0.15299800000000005 0.068195765000000005 0.084266905000000017 0.098473760000000007 0.052440480000000005 0.15524716000000002 -0.026007794999999997 0.04187833500000001 -0.0083153549999999982 0.10098018500000001 0.023509955000000003 0.099782535000000019 0.10668032000000001 0.069657225000000017
decision_type=2 2 2 2 2 2 2 2 2 2 2 2 2 2 2 2 2 2 2
left_child=1 -1 -3 4 5 6 7 8 10 13 11 -2 -12 -10 -8 16 17 18 -13
right_child=3 2 -4 -5 -6 -7 14 -9 9 -11 12 15 -14 -15 -16 -17 -18 -19 -20
leaf_value=-0.0099112718928091488 -0.0082600720019804109 0.0071261469961609696 -0.0019453008320521226 0.0063440847041254696 -0.0070625215396285055 0.0052300599675315119 0.0086694754660129551 -0.0064057716472436582 0.002494199728992369 0.00653076394676016 -0.0007470814936249027 0.0030066510476171975 0.0078859757073223603 -0.0049541629124654554 0.0006339130504056812 -0.0047316505440903713 0.0036002035497834811 -0.0043327297113137323 -0.0015890513639897109
leaf_weight=29 27 20 22 22 20 30 20 27 35 39 38 20 20 21 20 32 38 32 20
leaf_count=29 27 20 22 22 20 30 20 27 35 39 38 20 20 21 20 32 38 32 20
internal_value=0 -0.0264367 0.0237444 0.0040716 0.00109637 0.00451984 0.000834944 -0.00440081 0.000601472 0.0250484 -0.0096296 -0.0205871 0.0222983 -0.00298936 0.0465169 -0.00879581 0.00241022 -0.0153188 0.007088
internal_weight=0 71 42 461 439 419 389 349 322 95 227 169 58 56 40 142 110 72 40
internal_count=532 71 42 461 439 419 389 349 322 95 227 169 58 56 40 142 110 72 40
shrinkage=0.1


Tree=45
num_leaves=20
num_cat=0
split_feature=15 23 9 20 8 12 12 20 8 12 19 17 16 4 14 5 8 7 23
split_gain=0.0555967 0.0804461 0.0721625 0.0693324 0.161139 0.0903325 0.0835282 0.104846 0.106276 0.0816225 0.184413 0.107747 0.0781559 0.123484 0.0741823 0.0564938 0.0548752 0.0426968 0.0373807
threshold=0.17876623500000002 0.040997125000000002 0.20805797500000003 0.021041860000000006 0.03419289000000001 0.030911005000000002 0.12948197000000003 -0.017379814999999996 0.062854050000000009 1.0000000180025095e-35 0.045282120000000009 0.032771160000000008 0.053547005000000002 0.033615650000000004 0.065188465000000015 0.074078800000000014 0.25553520000000002 0.048525180000000008 -0.016007304999999996
decision_type=2 2 2 2 2 2 2 2 2 2 2 2 2 2 2 2 2 2 2
left_child=1 2 3 6 -5 -6 7 8 -1 10 15 -11 13 -13 -10 -9 -4 -14 -17
right_child=-2 -3 16 4 5 -7 -8 9 14 11 -12 12 17 -15 -16 18 -18 -19 -20
leaf_value=0.0021332042069513012 -0.0047032153078665345 0.0061368262479928413 0.0056323709710138954 -0.010056857446519038 -0.0045773991043321213 0.0034758035112948471 0.0057600945491382543 -0.0039523631706833836 -0.0031188033941772679 -0.0054778773482335175 0.011219277780591733 -0.0014129727316850966 -0.0057959385437979585 0.0072379598365814399 -0.010930390842986526 0.0045836330965782204 0.00014837400474887645 0.00066007924615405509 -0.00091733035099293518
leaf_weight=22 24 22 36 24 26 30 24 20 31 37 21 33 21 33 20 30 37 20 21
leaf_count=22 24 22 36 24 26 30 24 20 31 37 21 33 21 33 20 30 37 20 21
internal_value=0 0.00222199 -0.000455412 -0.00557841 -0.0320129 -0.00263183 0.000772212 -0.00364167 -0.0367617 0.00660308 0.0298699 -0.00826181 0.0078235 0.0291249 -0.0618217 0.00552082 0.0285281 -0.0264666 0.0231853
internal_weight=0 508 486 413 80 56 333 309 73 236 92 144 107 66 51 71 73 41 51
internal_count=532 508 486 413 80 56 333 309 73 236 92 144 107 66 51 71 73 41 51
shrinkage=0.1


Tree=46
num_leaves=22
num_cat=0
split_feature=22 15 5 20 10 12 25 2 19 17 22 25 8 3 15 8 15 8 20 15 20
split_gain=0.0549127 0.091374 0.0813715 0.136154 0.0820733 0.109959 0.0962364 0.110046 0.199179 0.0961731 0.0886886 0.0829559 0.11798 0.106295 0.0684279 0.0892737 0.0731124 0.0591078 0.0533623 0.048097 0.0443433
threshold=0.056507010000000003 0.17876623500000002 0.19634685000000004 0.048079730000000008 0.020505645000000006 0.048917855000000003 0.0080724700000000017 0.033456445000000008 1.0000000180025095e-35 0.033848635000000009 0.00062731000000000017 0.010113825000000002 0.071945705000000013 0.064514900000000014 0.032606525000000004 0.10227710000000002 0.076914940000000015 0.10227710000000002 0.012023655000000003 0.049610330000000001 0.011800230000000002
decision_type=2 2 2 2 2 2 2 2 2 2 2 2 2 2 2 2 2 2 2 2 2
left_child=1 2 3 4 6 11 7 14 -9 -8 -10 13 -13 -6 15 -1 -16 20 19 -7 -11
right_child=-2 -3 -4 -5 5 18 9 8 10 17 -12 12 -14 -15 16 -17 -18 -19 -20 -21 -22
leaf_value=0.0080196716176578788 0.0050116561231247731 -0.0065103598616339953 -0.0058656422633000397 0.0082265637149768218 -0.011490317828953267 0.006648835593036243 -0.005598197689812099 0.011710004135966302 0.0055263219259878886 -0.0039968639885171733 -0.0037783507157291753 -0.005944507079601119 0.004667629336472601 -0.0020705048445328745 -0.0068616317418803063 -0.00031310190097428859 0.0013875118731944398 0.0041998953271346791 -0.0029629340528377467 0.00015714163659140469 0.0017501426555681975
leaf_weight=20 21 22 22 21 25 21 35 30 21 29 20 22 20 23 21 36 22 30 21 25 25
leaf_count=20 21 22 22 21 25 21 35 30 21 29 20 22 20 23 21 36 22 30 21 25 25
internal_value=0 -0.00205958 0.000776751 0.0035766 -0.000128488 -0.0185334 0.00987 0.0251376 0.0551811 -0.0119408 0.00987457 -0.0413673 -0.00891109 -0.0697666 0.00359119 0.0266289 -0.0264114 0.00640969 0.0121392 0.0312074 -0.0133621
internal_weight=0 511 489 467 446 157 289 170 71 119 41 90 42 48 99 56 43 84 67 46 54
internal_count=532 511 489 467 446 157 289 170 71 119 41 90 42 48 99 56 43 84 67 46 54
shrinkage=0.1


Tree=47
num_leaves=21
num_cat=0
split_feature=17 25 16 5 24 9 10 6 9 15 20 24 4 15 20 4 17 3 20 20
split_gain=0.0544388 0.0463466 0.110463 0.0778034 0.066927 0.0827737 0.0652513 0.0648313 0.0967115 0.139039 0.0856251 0.0822027 0.068406 0.125732 0.058545 0.0807205 0.0808232 0.0780753 0.049915 0.0230444
threshold=0.16558006000000003 0.031414620000000004 0.076162215000000019 0.18490607500000003 -0.021399669999999996 0.073376780000000016 0.069411070000000019 0.080275685000000013 0.031931370000000008 0.070682140000000018 0.022324280000000002 -0.0019105049999999998 0.071290200000000012 0.058902465000000008 -0.010630339999999997 0.021123515000000002 0.043244450000000011 0.050844360000000012 -0.023071299999999996 -0.014019129999999998
decision_type=2 2 2 2 2 2 2 2 2 2 2 2 2 2 2 2 2 2 2 2
left_child=1 3 4 6 -3 -6 7 8 9 -1 12 -12 14 19 18 16 -16 -17 -10 -14
right_child=-2 2 -4 -5 5 -7 -8 -9 10 -11 11 -13 13 -15 15 17 -18 -19 -20 -21
leaf_value=0.0094413966201245796 -0.0041379921254701916 0.00014425634973399016 -0.0037522027829915965 -0.0062749335914850241 0.0024989662337161246 0.011488009013555713 -0.0044487217469301463 0.0056187308021395915 -0.00078151876950869345 -0.0015960280716951405 -7.3087277511755627e-05 -0.0087266655821029264 0.0017634256191187256 0.0080244593079571904 0.0080152683447869046 -0.0055667637250735426 0.0002850346019074909 0.0015341943285117547 -0.0066197950108390722 -0.0027130202931837867
leaf_weight=25 30 23 22 20 21 20 29 23 32 21 21 23 23 28 21 32 38 30 27 23
leaf_count=25 30 23 22 20 21 20 29 23 32 21 21 23 23 28 21 32 38 30 27 23
internal_value=0 0.0024729 0.0236056 -0.00189587 0.0446182 0.0688387 0.00117754 0.00478593 0.0013492 0.0440257 -0.00523845 -0.0459655 0.00181663 0.0274114 -0.00870565 0.00388771 0.0303647 -0.0213082 -0.0345327 -0.00474797
internal_weight=0 502 86 416 64 41 396 367 344 46 298 44 254 74 180 121 59 62 59 46
internal_count=532 502 86 416 64 41 396 367 344 46 298 44 254 74 180 121 59 62 59 46
shrinkage=0.1


Tree=48
num_leaves=23
num_cat=0
split_feature=2 17 1 1 20 5 19 2 5 5 9 0 0 19 3 10 0 4 19 12 8 23
split_gain=0.0490985 0.0446199 0.0471027 0.0908862 0.0847149 0.0680667 0.141972 0.103922 0.0797639 0.0810788 0.111699 0.0665326 0.138889 0.0548284 0.119217 0.0547403 0.0622653 0.0519628 0.0486953 0.0398415 0.029644 0.0169907
threshold=0.13018707000000004 0.17056014000000003 0.064168250000000024 0.026440085000000006 -0.0062492349999999997 0.035465390000000006 1.0000000180025095e-35 0.065572555000000018 0.18286333500000004 0.056160285000000011 0.16071885500000002 0.047234295000000003 0.12408474500000001 0.073939995000000022 1.0000000180025095e-35 0.021716995000000006 0.09470708500000001 0.05038370000000001 0.025310040000000002 0.043562355000000004 0.056515575000000005 -0.077452754999999998
decision_type=2 2 2 2 2 2 2 2 2 2 2 2 2 2 2 2 2 2 2 2 2 2
left_child=1 2 3 5 -4 7 8 15 9 -7 11 -11 -13 14 -8 16 -1 20 -6 -5 -16 -18
right_child=-2 -3 4 19 18 6 13 -9 -10 10 -12 12 -14 -15 17 -17 21 -19 -20 -21 -22 -23
leaf_value=-0.0046057317430192295 -0.0047389172370977967 -0.0038411299563729422 -0.0025391726505144367 -0.0076836011768318712 0.0021490866251514056 -0.0032399192149750889 -0.010957030759891496 0.0086864413148511881 -0.0040650413393796912 0.010781056352425367 -0.0012191508565592814 -0.00013492466823663562 0.010331216926819512 0.0016500567769980991 0.0023715186144479296 0.0046642909147616091 -0.00017906373000836799 -0.0060289327258942656 0.0084106496130318745 -0.0013715924881398678 -0.0026160716477674076 0.0038935456564649939
leaf_weight=24 21 26 21 20 27 20 20 22 21 20 32 32 21 20 22 29 21 24 23 20 26 20
leaf_count=24 21 26 21 20 27 20 20 22 21 20 32 32 21 20 22 29 21 24 23 20 26 20
internal_value=0 0.0019475 0.00411106 2.99271e-05 0.0279081 0.00487548 -0.0041704 0.0249948 0.0163755 0.0259558 0.0370711 0.0586656 0.0401204 -0.0309534 -0.0412695 0.0105146 -0.00560415 -0.0222971 0.0502941 -0.045276 -0.00330093 0.0180757
internal_weight=0 511 485 414 71 374 258 116 146 125 105 73 53 112 92 94 65 72 50 40 48 41
internal_count=532 511 485 414 71 374 258 116 146 125 105 73 53 112 92 94 65 72 50 40 48 41
shrinkage=0.1


Tree=49
num_leaves=20
num_cat=0
split_feature=22 17 11 0 13 14 12 13 23 19 2 24 3 13 18 20 8 0 25
split_gain=0.0430637 0.0942677 0.0683034 0.198546 0.0536929 0.0470158 0.072641 0.0761177 0.069904 0.0535566 0.0705144 0.0851218 0.0617112 0.113845 0.0565353 0.0464433 0.0399675 0.0327846 0.00232504
threshold=-0.018731234999999995 0.04187833500000001 0.088615840000000015 0.048739075000000007 0.084266905000000017 0.020322570000000002 0.067399135000000013 0.041775075000000002 0.010130610000000002 0.082107195000000008 0.030249630000000003 0.0080157200000000022 0.046593415000000006 0.024472665000000001 0.020591005000000006 0.015810610000000006 0.15676603000000003 0.069476995000000014 0.0034193000000000006
decision_type=2 2 2 2 2 2 2 2 2 2 2 2 2 2 2 2 2 2 2
left_child=1 -1 4 -4 5 6 7 8 15 10 11 14 13 -12 -7 16 -2 -14 -18
right_child=2 -3 3 -5 -6 9 -8 -9 -10 -11 12 -13 17 -15 -16 -17 18 -19 -20
leaf_value=-0.00088012452641337679 -0.0029475083206630046 0.0072089333441108464 -0.010237147953982156 0.003077246582445999 -0.0036240742367226633 -0.0031829314376933108 0.0056275754778956381 0.006309622786939144 -0.0047303929525826663 -0.0053794593550264835 0.00017576657551070376 -0.0073951975057792406 0.0021374180912971498 0.0095817172391848143 0.0027642598383188729 0.0051067976724533809 0.0010758377154291207 -0.0028455416835288729 0.0025823847501305862
leaf_weight=34 31 25 24 21 36 33 36 20 28 21 31 23 23 22 31 21 21 31 20
leaf_count=34 31 25 24 21 36 33 36 20 28 21 31 23 23 22 31 21 21 31 20
internal_value=0 0.0254744 -0.00317757 -0.0402376 0.000718932 0.00411319 0.0161833 0.00594693 -0.00349923 -0.0058236 -0.000630869 -0.021774 0.0165603 0.0408012 -0.00302261 0.00968928 -0.00237951 -0.0072317 0.0181074
internal_weight=0 59 473 45 428 392 177 141 121 215 194 87 107 53 64 93 72 54 41
internal_count=532 59 473 45 428 392 177 141 121 215 194 87 107 53 64 93 72 54 41
shrinkage=0.1


Tree=50
num_leaves=22
num_cat=0
split_feature=22 15 23 8 1 9 7 17 2 16 15 13 23 18 11 21 22 8 0 21 0
split_gain=0.0416389 0.0704616 0.0608992 0.10548 0.0695152 0.0730683 0.11053 0.0911142 0.102572 0.0826784 0.0737513 0.0821238 0.0892002 0.087984 0.0497681 0.0485508 0.0435363 0.0400339 0.0313905 0.030437 0.00129321
threshold=0.056507010000000003 0.17876623500000002 0.024999320000000002 0.038314750000000002 0.14859530500000004 0.20805797500000003 0.15299800000000005 0.030108800000000002 0.047043405000000003 0.028613500000000004 0.11594704000000002 0.069269430000000007 -0.033407219999999994 0.035002850000000009 0.067031745000000018 -0.0086645049999999977 0.016274770000000004 0.22103887500000002 0.077517195000000011 1.0000000180025095e-35 0.18487493000000002
decision_type=2 2 2 2 2 2 2 2 2 2 2 2 2 2 2 2 2 2 2 2 2
left_child=1 2 4 -4 5 6 7 8 9 -1 11 12 19 14 15 -14 18 -7 -17 -9 -19
right_child=-2 -3 3 -5 -6 17 -8 10 -10 -11 -12 -13 13 -15 -16 16 -18 20 -20 -21 -22
leaf_value=-0.0052829665763591254 0.0043641006662732086 -0.0057155104438689625 -0.0014350078133208192 0.0079486588239669805 0.0047175548899059117 0.005566908247768879 0.0048239991351562948 0.0063307829340919861 -0.009792629290873614 0.0025845768886111646 0.0040847717139383477 -0.0061304042393702171 -0.0057011371301284629 -0.0079072477016597989 0.0036796335175278642 0.0001118328041532853 0.0026635582209564748 -2.6673830247351101e-05 -0.0051822414533013389 0.00087987908960453101 0.001070430518567181
leaf_weight=34 21 22 23 25 26 25 28 20 26 22 28 31 23 20 21 24 28 21 21 21 22
leaf_count=34 21 22 23 25 26 25 28 20 26 22 28 31 23 20 21 24 28 21 21 21 22
