tree
version=v3
num_class=1
num_tree_per_iteration=1
label_index=0
max_feature_idx=21
objective=regression
feature_names=Column_0 Column_1 Column_2 Column_3 Column_4 Column_5 Column_6 Column_7 Column_8 Column_9 Column_10 Column_11 Column_12 Column_13 Column_14 Column_15 Column_16 Column_17 Column_18 Column_19 Column_20 Column_21
feature_infos=[0:0.33268708000000002] [0:0.27912442999999998] [0:0.30447743999999999] [0:0.19985414000000001] [0:0.20821550000000003] [0:0.42774053000000001] [0:0.49991949999999996] [0:0.35848641999999997] [0:0.58044565999999997] [0:0.35578358999999998] [0:0.17971266] [0:0.23504311] [0:0.32874982000000003] [0:0.18211538999999999] [0:0.25978972] [0:0.28033257] [0:0.32671198000000001] [0:0.26118744999999999] [0:0.23896449] [0:0.22165130999999999] [0.023519709999999999:0.30161172000000003] [0.02098065:0.34168795000000002]
tree_sizes=1439 1879 2000 1898 1828 1996 1985 1828 1915 1912 1826 1998 1822 2008 1925 1987 1836 1835 1841 1923 2028 1842 1836 2032 1936 1863 2025 1848 1855 1840 2032 1857 1861 1848 2120 1874 1867 1951 1962 1860 1962 1866 1957 1968 1885 1792 1970 1959 1878 1889 1966 1796 1885 1885 1890 1911 1886 1971 1886 1890 1990 1969 2064 1808 1971 2065 1994 1979 1996 2068 2063 1974 1893 2062 2063 1976 1989 1893 2058 1896 2062 1903 1902 2061 2055 2076 1903 1980 1988 1880 2080 1900 1896 2077 1993 2154 1911 1987 1900 2170

Tree=0
num_leaves=16
num_cat=0
split_feature=3 21 1 2 17 5 5 15 19 17 9 0 16 21 4
split_gain=37.8785 9.79596 9.26555 5.56878 5.43543 4.00238 2.75207 2.13301 1.46417 1.07015 0.969697 0.32767 0.258511 0.23961 0.040099
threshold=0.028947405000000006 0.17036808000000003 0.045029620000000006 1.0000000180025095e-35 1.0000000180025095e-35 0.085900020000000007 0.059597745000000008 0.027582370000000005 0.014975965000000003 1.0000000180025095e-35 0.060461265000000007 0.017451990000000004 0.029015740000000002 0.18579799500000002 0.043175024999999999
decision_type=2 2 2 2 2 2 2 2 2 2 2 2 2 2 2
left_child=1 2 4 6 -1 10 7 -2 13 -5 -6 -11 -4 -3 -13
right_child=3 8 12 9 5 -7 -8 -9 -10 11 -12 14 -14 -15 -16
leaf_value=0.52428571428571424 0.5 0.53928571428571426 0.53500000000000003 0.47499999999999998 0.47727272727272729 0.50666666666666671 0.51800000000000002 0.45769230769230768 0.52352941176470591 0.46500000000000002 0.45000000000000001 0.45000000000000001 0.55000000000000004 0.55000000000000004 0.45500000000000002
leaf_weight=35 22 28 20 28 22 30 25 26 34 20 32 81 27 82 20
leaf_count=35 22 28 20 28 22 30 25 26 34 20 32 81 27 82 20
internal_value=0 0.225806 0.060241 -0.315315 -0.0882353 -0.22619 -0.0890411 -0.229167 0.416667 -0.426174 -0.388889 -0.466942 0.43617 0.472727 -0.490099
internal_weight=0 310 166 222 119 84 73 48 144 149 54 121 47 110 101
internal_count=532 310 166 222 119 84 73 48 144 149 54 121 47 110 101
shrinkage=1


Tree=1
num_leaves=21
num_cat=0
split_feature=3 2 8 2 17 13 20 5 5 15 2 17 9 8 12 21 0 4 20 4
split_gain=30.6816 8.42585 5.11673 4.51071 2.91109 2.90918 2.30309 2.22917 1.73083 1.72774 1.28271 0.866822 0.337735 0.289163 0.0418202 0.006659 0.00100042 0.000454828 0.000406906 8.33342e-05
threshold=0.028947405000000006 1.0000000180025095e-35 0.07759038 1.0000000180025095e-35 0.034124025000000009 0.031913640000000007 0.15355586000000002 0.059597745000000008 0.075465835000000023 0.027582370000000005 0.033060130000000007 1.0000000180025095e-35 0.034046830000000007 0.072888940000000013 0.055483720000000007 0.18579799500000002 0.028169740000000002 0.044880980000000008 0.16661669000000004 0.031219520000000004
decision_type=2 2 2 2 2 2 2 2 2 2 2 2 2 2 2 2 2 2 2 2
left_child=1 4 5 7 12 10 8 9 -6 -2 -3 -5 -1 14 16 17 -13 -14 -17 -18
right_child=3 2 -4 11 6 -7 -8 -9 -10 -11 -12 13 15 -15 -16 18 19 -19 -20 -21
leaf_value=0.034542656285422191 -0 0.017702361643314363 0.03031048153837522 -0.022500000149011615 -0.013355859041213988 -0.044215924665331842 0.042423009276390082 0.016199999332427977 0.023855238199234009 -0.038076922068229095 -0.013883438623613782 -0.045900000035762792 0.047452801913023 -0.031357141903468541 -0.040174999535083772 0.044999998807907109 -0.044999998807907109 0.046800755158714624 0.045630251225971044 -0.045250000059604646
leaf_weight=35 22 20 36 28 25 24 25 25 25 26 36 20 20 21 20 20 40 23 21 20
leaf_count=35 22 20 36 28 25 24 25 25 25 26 36 20 20 21 20 20 40 23 21 20
internal_value=0 0.203226 -0.00997943 -0.283784 0.330709 -0.150867 0.176408 -0.080137 0.0524969 -0.20625 -0.026028 -0.383557 0.427958 -0.420248 -0.44265 0.462346 -0.452875 0.47104 0.453228 -0.450833
internal_weight=0 310 116 222 194 80 75 73 50 48 56 149 119 121 100 84 80 43 41 60
internal_count=532 310 116 222 194 80 75 73 50 48 56 149 119 121 100 84 80 43 41 60
shrinkage=0.1


Tree=2
num_leaves=22
num_cat=0
split_feature=3 21 1 2 11 2 17 15 13 19 17 19 5 12 8 18 2 17 0 12 0
split_gain=24.8947 7.40981 7.27118 4.48797 3.09155 2.87677 1.54278 1.86123 1.09157 0.900681 0.747489 0.589577 0.329111 0.253077 0.250838 0.0413785 0.00932611 0.00158104 0.000342451 0.000263586 5.96229e-05
threshold=0.030156660000000002 0.17036808000000003 0.045029620000000006 1.0000000180025095e-35 0.022221900000000003 1.0000000180025095e-35 0.067836910000000014 0.027582370000000005 0.025205175000000003 0.014975965000000003 1.0000000180025095e-35 0.014975965000000003 0.073296245000000024 0.037606595000000013 0.072888940000000013 0.019481385000000004 0.034272900000000009 0.021491265000000006 0.036963545000000007 0.043987625000000009 0.14306818000000002
decision_type=2 2 2 2 2 2 2 2 2 2 2 2 2 2 2 2 2 2 2 2 2
left_child=1 2 3 4 12 6 7 -2 11 -5 -7 16 -1 -4 15 18 17 20 -12 -20 -3
right_child=5 8 13 9 -6 10 -8 -9 -10 -11 14 -13 -14 -15 -16 -17 -18 -19 19 -21 -22
leaf_value=0.017251632362604141 0.021794545108621773 0.040742429831753607 0.029113660888238385 -0.013363797274919657 -0.019373707408490388 -0.0193240726435626 -0.032579692900180819 -0.01808658528327942 0.01450798459675001 -0.037650483605023981 -0.041181363029913473 0.024240444600582126 0.035175785138493496 0.043686654132146105 -0.027539285570383071 -0.035754375159740448 0.043669768571853645 0.041769320404890814 -0.040558783830823127 -0.04100937485694886 0.040975485387302585
leaf_weight=20 22 23 22 26 23 27 20 25 23 37 22 24 21 26 20 20 20 33 37 20 21
leaf_count=20 22 23 22 26 23 27 20 25 23 37 22 24 21 26 20 20 20 33 37 20 21
internal_value=0 0.176763 0.0385118 -0.086803 0.0997076 -0.26473 -0.0931759 0.00581178 0.344778 -0.276274 -0.343457 0.382737 0.264323 0.370074 -0.37754 -0.398176 0.417458 0.412461 -0.408462 -0.407169 0.408537
internal_weight=0 319 175 127 64 213 67 47 144 63 146 121 41 48 119 99 97 77 79 57 44
internal_count=532 319 175 127 64 213 67 47 144 63 146 121 41 48 119 99 97 77 79 57 44
shrinkage=0.1


Tree=3
num_leaves=21
num_cat=0
split_feature=3 8 2 17 0 2 11 16 9 18 7 7 3 13 14 12 21 17 8 13
split_gain=20.1647 6.19913 5.34329 2.89954 3.96381 2.33018 1.63934 1.44415 1.28226 0.658536 0.633123 0.471397 0.432429 1.03104 0.258357 0.1309 0.0372206 0.0190293 0.00429357 0.0019684
threshold=0.030156660000000002 0.077336780000000008 0.033060130000000007 0.019461820000000001 0.054583365000000002 1.0000000180025095e-35 0.026527930000000002 0.029015740000000002 0.047987760000000004 0.02411806 0.038984125000000008 0.030244395000000004 0.051628750000000008 0.020269610000000004 0.052348460000000006 0.032105585000000006 0.17036808000000003 0.027434040000000003 0.16930463500000001 1.0000000180025095e-35
decision_type=2 2 2 2 2 2 2 2 2 2 2 2 2 2 2 2 2 2 2 2
left_child=1 2 3 15 11 8 14 -4 -2 12 -10 -5 13 -7 16 -1 -3 -14 -18 -19
right_child=5 6 7 4 -6 9 -8 -9 10 -11 -12 -13 17 -15 -16 -17 18 19 -20 -21
leaf_value=0.028917033821344376 0.012089010363533385 0.042203748941421509 -0.0046112688779830933 0.03289110571146011 -0.025170980393886568 -0.0087827588617801679 0.0084628729820251467 -0.037154179811477665 -0.0065006812413533526 -0.014054024219512941 -0.029986522008072249 0.012790006931338992 -0.040771211236715316 -0.038739117207350557 0.026386647969484329 0.039677881965270417 0.038587137191526351 -0.038008480817079547 0.037010451387136413 -0.036788268349109553
leaf_weight=20 21 25 25 20 30 20 25 30 24 20 22 28 20 27 20 26 31 20 39 39
leaf_count=20 21 25 25 20 30 20 25 30 24 20 22 28 20 27 20 26 31 20 39 39
internal_value=0 0.159087 0.0358029 0.150869 0.0334376 -0.238257 0.316715 -0.223619 -0.0838583 -0.309112 -0.17733 0.211655 -0.335869 -0.259917 0.367168 0.349993 0.388916 -0.381055 0.377087 -0.372019
internal_weight=0 319 179 124 78 213 140 55 67 146 46 48 126 47 115 46 95 79 70 59
internal_count=532 319 179 124 78 213 140 55 67 146 46 48 126 47 115 46 95 79 70 59
shrinkage=0.1


Tree=4
num_leaves=20
num_cat=0
split_feature=3 21 1 2 17 2 5 15 16 0 17 9 0 12 3 8 3 17 14
split_gain=16.3334 5.3339 5.21177 3.01652 2.41241 1.88745 1.20751 1.63124 0.889558 0.741571 0.602977 0.348399 0.220126 0.207208 0.0474448 0.0439354 0.00330507 0.00316995 0.00072169
threshold=0.030156660000000002 0.17036808000000003 0.045029620000000006 1.0000000180025095e-35 0.041788405000000008 1.0000000180025095e-35 0.060565520000000005 0.027582370000000005 0.034606615000000007 0.052390980000000011 1.0000000180025095e-35 0.047094785000000007 0.017892665000000006 0.037606595000000013 0.077501775000000009 0.083395385000000016 0.051628750000000008 0.020944090000000002 0.025190675000000006
decision_type=2 2 2 2 2 2 2 2 2 2 2 2 2 2 2 2 2 2 2
left_child=1 2 3 4 -1 6 7 -2 11 -5 -7 -3 -12 -4 16 -13 -14 -17 -18
right_child=5 8 13 9 -6 10 -8 -9 -10 -11 12 15 14 -15 -16 17 18 -19 -20
leaf_value=0.028598495392963802 0.0043526957929134373 0.023588217752320426 0.023516239496794614 -0.035302445806305982 -0.010403144955635072 -0.014328368725600067 0.011652852052992041 -0.033963287830352788 0.01054530856402024 -0.013534968653145961 -0.021590103563808263 0.038856239731495198 -0.034777691057234099 0.036702635311163391 -0.028658866456576754 0.033299158338238211 -0.033048805865374481 0.034765974489542155 -0.033858794515783136
leaf_weight=29 20 35 22 29 35 27 22 25 23 34 21 26 33 26 21 34 22 26 22
leaf_count=29 20 35 22 29 35 27 22 25 23 34 21 26 33 26 21 34 22 26 22
internal_value=0 0.143178 0.0258807 -0.0802137 0.0726947 -0.214431 -0.0754725 -0.16934 0.285728 -0.235549 -0.2782 0.319995 -0.308812 0.306589 -0.328721 0.354227 -0.340212 0.339348 -0.334538
internal_weight=0 319 175 127 64 213 67 45 144 63 146 121 119 48 98 86 77 60 44
internal_count=532 319 175 127 64 213 67 45 144 63 146 121 119 48 98 86 77 60 44
shrinkage=0.1


Tree=5
num_leaves=22
num_cat=0
split_feature=3 13 21 1 16 8 21 1 2 12 16 17 4 21 3 13 0 2 9 17 3
split_gain=13.232 5.03721 2.9166 2.59735 2.05119 1.65879 1.46057 1.2521 1.08324 0.776003 0.726768 0.518722 0.439165 0.0613055 0.0610398 0.0491341 0.0457643 0.0181556 0.00736137 0.00408017 0.00248669
threshold=0.030590210000000003 0.031913640000000007 0.14629686000000003 0.056130795000000004 0.041585330000000011 0.077336780000000008 0.17175759500000001 0.038702485000000009 0.018959255000000005 0.025394100000000006 0.016645890000000003 0.015376555000000002 0.053618670000000007 0.17634723500000002 0.08783953500000001 0.039815040000000003 0.14306818000000002 0.027388720000000002 0.055770770000000004 0.020410885000000004 0.057245600000000008
decision_type=2 2 2 2 2 2 2 2 2 2 2 2 2 2 2 2 2 2 2 2 2
left_child=1 2 3 4 -1 9 7 11 13 -3 -10 -2 14 -4 15 17 18 -13 -15 -20 -19
right_child=6 5 8 -5 -6 -7 -8 -9 10 -11 -12 12 -14 16 -16 -17 -18 20 19 -21 -22
leaf_value=0.0094858407974243164 -0.014579913218816121 -0.0093320168199993309 0.035458744679178512 0.028059546556323769 -0.027063582198960441 0.011502910256385805 -0.0011940602627065447 0.00021686956286430363 0.026445560021833944 -0.035919950448948405 0.00074151822111823346 -0.034547057002782822 -0.01566314071416855 0.033405884057283404 -0.036808626055717469 -0.026472531330017819 0.026435253449848723 -0.031715640872716909 0.030213005468249322 0.032146954685449605 -0.030191006479055989
leaf_weight=34 30 21 35 32 28 20 36 20 22 23 22 20 20 20 20 21 21 20 24 20 23
leaf_count=34 30 21 35 32 28 20 36 20 22 23 22 20 20 20 20 21 21 20 24 20 23
internal_value=0 0.127362 0.189656 0.0492174 -0.0702035 -0.123761 -0.195288 -0.233222 0.270151 -0.232303 0.135935 -0.263792 -0.292339 0.319364 -0.318437 -0.306616 0.30486 -0.320579 0.318151 0.310921 -0.309001
internal_weight=0 322 258 94 62 64 210 174 164 44 44 154 124 120 104 84 85 63 64 44 43
internal_count=532 322 258 94 62 64 210 174 164 44 44 154 124 120 104 84 85 63 64 44 43
shrinkage=0.1


Tree=6
num_leaves=22
num_cat=0
split_feature=3 13 21 1 5 18 2 17 15 2 9 8 17 4 0 21 20 8 9 17 21
split_gain=10.718 4.08014 2.36244 2.10385 1.6731 1.53802 1.25648 1.04086 1.04419 0.889878 0.615078 0.450453 0.319325 0.237148 0.0846242 0.0497158 0.0202069 0.012999 0.00978792 0.003839 0.0036436
threshold=0.030590210000000003 0.031913640000000007 0.14629686000000003 0.056130795000000004 0.08361004000000001 0.018064025000000004 1.0000000180025095e-35 0.067597680000000007 0.027582370000000005 0.029551750000000005 0.11148772000000001 0.044305080000000004 0.042513505000000007 0.049693455000000004 0.13459763000000002 0.13224868000000004 0.14479767000000002 0.059919135000000005 0.047987760000000004 0.020410885000000004 0.15938430500000003
decision_type=2 2 2 2 2 2 2 2 2 2 2 2 2 2 2 2 2 2 2 2 2
left_child=1 2 3 4 11 12 7 8 -2 14 13 -1 -3 15 16 -8 -4 20 -18 -20 -17
right_child=6 5 9 -5 -6 -7 10 -9 -10 -11 -12 -13 -14 -15 -16 17 18 -19 19 -21 -22
leaf_value=-0.029113055020570756 0.018569026532627288 -0.013638619014195033 0.032286805466369348 0.025253592059016228 0.015832225436514077 0.010280695015733893 -0.024329489655792715 -0.02519571423530579 -0.011678439617156984 0.010900283408792396 -0.0065391917526721952 -0.0078891713917255395 -0.031077619677498225 -0.016510652999083202 0.024261283791727491 -0.027480560221842362 0.030718611045317219 -0.031251314580440524 0.027159642037891209 0.029095513522624974 -0.029247785955667495
leaf_weight=20 21 21 27 32 22 22 32 20 25 38 20 20 21 24 36 28 22 20 21 20 20
leaf_count=20 21 21 27 32 22 22 32 20 25 38 20 20 21 24 36 28 22 20 21 20 20
internal_value=0 0.114626 0.17069 0.0442957 -0.0631832 -0.111385 -0.175759 -0.0615039 0.0213019 0.243136 -0.228126 -0.185011 -0.223581 -0.254374 0.283589 -0.275798 0.29998 -0.291094 0.29017 0.28104 -0.282169
internal_weight=0 322 258 94 62 64 210 66 46 164 144 40 42 124 126 100 90 68 63 41 48
internal_count=532 322 258 94 62 64 210 66 46 164 144 40 42 124 126 100 90 68 63 41 48
shrinkage=0.1


Tree=7
num_leaves=20
num_cat=0
split_feature=3 8 2 17 0 19 3 17 11 10 15 16 10 21 14 21 4 8 21
split_gain=8.68155 3.42822 3.22546 1.47643 2.11066 1.42783 1.15457 1.97148 0.953774 0.91754 0.869008 0.358328 0.569812 0.161261 0.120514 0.0691238 0.0238055 0.0141417 0.000956925
threshold=0.030590210000000003 0.077336780000000008 0.016659280000000002 0.034124025000000009 0.054583365000000002 0.030930200000000005 0.096577715000000008 0.015376555000000002 0.026527930000000002 1.0000000180025095e-35 1.0000000180025095e-35 0.027732375000000007 0.016057160000000004 0.16494958500000004 0.052348460000000006 0.17036808000000003 0.035907390000000004 0.15232829500000003 0.21951111500000001
decision_type=2 2 2 2 2 2 2 2 2 2 2 2 2 2 2 2 2 2 2
left_child=1 2 3 13 -5 9 7 -2 14 -4 -9 12 -12 -1 15 -3 -13 -17 -19
right_child=6 8 5 4 -6 -7 -8 10 -10 -11 11 16 -14 -15 -16 17 -18 18 -20
leaf_value=0.029676438291226667 0.0075681015849113466 0.031928348600864409 0.0091706007145918346 0.017753176987171174 -0.024185890406370165 -0.032909255073620726 -0.03299070578632933 -0.0023918870836496355 0.0043783183097839363 -0.016700100282142902 -0.0055859981248011954 -0.025776736864021849 -0.026522017442263093 0.018159068375825881 0.018874005153775214 0.027902116220105778 -0.029865812075634796 0.025217735341617038 0.024312074556946756
leaf_weight=31 38 25 26 30 20 26 33 28 25 29 26 35 26 20 20 22 24 28 20
leaf_count=31 38 25 26 30 20 26 33 28 25 29 26 35 26 20 20 22 24 28 20
internal_value=0 0.103163 0.012666 0.131884 0.0097755 -0.135989 -0.158183 -0.126167 0.220809 -0.0447031 -0.181349 -0.221061 -0.16054 0.251598 0.259293 0.274147 -0.274401 0.258026 0.248404
internal_weight=0 322 182 101 50 81 210 177 140 55 139 111 52 51 115 95 59 70 48
internal_count=532 322 182 101 50 81 210 177 140 55 139 111 52 51 115 95 59 70 48
shrinkage=0.1


Tree=8
num_leaves=21
num_cat=0
split_feature=3 13 10 16 18 21 1 17 21 20 3 6 8 20 17 20 4 2 17 17
split_gain=7.03205 3.01208 1.75375 1.34608 1.15922 1.04647 0.822751 0.7154 0.978046 0.389114 0.677376 0.374279 0.225635 0.391283 0.223416 0.132363 0.112773 0.103612 0.0826676 0.0721961
threshold=0.030590210000000003 0.031913640000000007 0.029527795000000006 0.092722515000000019 0.018064025000000004 0.17175759500000001 0.038702485000000009 0.067220860000000007 0.16405080500000005 0.13202754500000002 1.0000000180025095e-35 0.042711145000000006 0.044880985000000005 0.14830810000000003 0.042513505000000007 0.16442726500000002 0.042485310000000005 0.024079665000000004 0.039813100000000004 0.026800270000000005
decision_type=2 2 2 2 2 2 2 2 2 2 2 2 2 2 2 2 2 2 2 2
left_child=1 2 3 7 14 6 11 9 -9 -1 15 12 17 -14 -3 16 -11 -2 -19 -17
right_child=5 4 -4 -5 -6 -7 -8 8 -10 10 -12 -13 13 -15 -16 19 -18 18 -20 -21
leaf_value=0.032017081694023029 -0.031434778049588205 -0.012581286047186172 -0.0078087444417178631 -0.0057237692501233978 0.0084612174467606979 0.0012829349686702095 0.0016337409615516663 -0.0063910650258714513 0.022518878161907199 0.013943501859903335 0.0034896213561296466 -0.0071647854149341581 -0.010306847270797281 -0.027934225127100944 -0.027168181112834384 0.02418131067564613 0.024435784632251378 -0.027368322473305923 -0.019877714576090083 0.031604049727320671
leaf_weight=37 20 21 32 23 22 36 20 22 25 20 20 20 34 20 21 38 21 26 34 20
leaf_count=37 20 21 32 23 22 36 20 22 25 20 20 20 34 20 21 38 21 26 34 20
internal_value=0 0.0928468 0.141018 0.172042 -0.101343 -0.142365 -0.174474 0.198019 0.0898656 0.230604 0.202755 -0.199255 -0.218301 -0.168355 -0.198747 0.236666 0.193176 -0.252014 -0.231236 0.267409
internal_weight=0 322 258 226 64 210 174 203 47 156 119 154 134 54 42 99 41 80 60 58
internal_count=532 322 258 226 64 210 174 203 47 156 119 154 134 54 42 99 41 80 60 58
shrinkage=0.1


Tree=9
num_leaves=21
num_cat=0
split_feature=2 11 21 1 13 18 8 21 16 17 1 21 18 3 8 15 12 12 17 9
split_gain=6.14944 2.2795 2.22241 2.17658 1.27807 0.992555 0.753875 0.726511 0.494403 0.587088 0.264692 0.346846 0.252356 0.203889 0.166052 0.160457 0.0856589 0.061358 0.0578175 0.0252029
threshold=1.0000000180025095e-35 0.040169980000000008 0.19296005000000002 0.045029620000000006 0.032425345000000008 0.021325265000000003 0.075529390000000016 0.13295921000000002 0.038700655000000007 0.026800270000000005 0.015189420000000002 0.16139581500000003 0.016539655000000004 0.023354950000000003 0.16480475000000003 0.060174745000000009 1.0000000180025095e-35 0.022148520000000001 0.025811015000000003 0.058580830000000007
decision_type=2 2 2 2 2 2 2 2 2 2 2 2 2 2 2 2 2 2 2 2
left_child=1 4 3 5 8 6 13 -3 10 -10 11 -1 14 15 -13 -2 -15 -14 -18 -20
right_child=2 7 -4 -5 -6 -7 -8 -9 9 -11 -12 12 17 16 -16 -17 18 -19 19 -21
leaf_value=0.034323729168285022 -0.034896632575470474 -0.02382722787913822 0.014368505487518926 0.01581388901580464 -0.0017562393958751974 -0.0015759272610439976 -0.0070678818651608065 0.0024770630257470267 0.021282679364085198 -0.002143787171529687 0.01185475209584603 0.0090024706863221678 0.022516379803419112 -0.015455018254843626 0.020312266533865649 -0.022649503350257876 -0.027156673595309256 0.030349514782428744 -0.018350037219731705 -0.02261133262089321
leaf_weight=22 23 21 31 22 39 34 35 21 20 23 26 21 20 22 34 20 20 20 23 35
leaf_count=22 23 21 31 22 39 34 35 21 20 23 26 21 20 22 34 20 20 20 23 35
internal_value=0 0.10711 -0.107918 -0.14125 0.14703 -0.172319 -0.202224 -0.106751 0.181542 0.0875224 0.209813 0.230095 0.203893 -0.23442 0.15994 -0.292003 -0.209659 0.264329 -0.225203 -0.209215
internal_weight=0 267 265 234 225 212 178 42 186 43 143 117 95 143 55 43 100 40 78 58
internal_count=532 267 265 234 225 212 178 42 186 43 143 117 95 143 55 43 100 40 78 58
shrinkage=0.1


Tree=10
num_leaves=20
num_cat=0
split_feature=3 8 2 19 3 17 17 0 14 4 9 15 14 20 8 20 0 2 4
split_gain=5.02005 2.12246 1.97942 0.97898 0.967457 1.411 0.911954 1.47002 0.729263 0.649841 1.19289 0.606838 0.287227 0.147308 0.10723 0.0514201 0.0487386 0.0210741 0.00305367
threshold=0.030590210000000003 0.077336780000000008 0.016659280000000002 0.030930200000000005 0.096577715000000008 0.015376555000000002 0.034124025000000009 0.054583365000000002 0.041655600000000008 0.017548040000000004 0.091268690000000013 1.0000000180025095e-35 1.0000000180025095e-35 0.15105275500000001 0.16176179000000004 0.14192430500000003 0.038415130000000013 0.028572170000000004 0.050179495000000005
decision_type=2 2 2 2 2 2 2 2 2 2 2 2 2 2 2 2 2 2 2
left_child=1 2 6 8 5 -2 13 -8 -4 10 -3 -7 -13 -1 15 -11 -14 -18 -16
right_child=4 9 3 -5 -6 11 7 -9 -10 14 -12 12 16 -15 18 -17 17 -19 -20
leaf_value=0.023788851355352709 0.0079783384737215548 -0.0074849858283996583 -0.015523581378735031 -0.026910876540037307 -0.027748035616946942 -0.00061060754316193729 0.014466761698325475 -0.020533522814512255 0.0075405859227838188 0.021996206757814989 0.023406965076923372 -0.0087261724472045901 -0.01603424180121649 0.012781007736921311 0.01938397265970707 0.028547891378402714 -0.02418574272167115 -0.020256503766927964 0.017676673965020616
leaf_weight=31 38 25 26 26 33 28 30 20 29 23 25 30 21 20 20 25 21 39 22
leaf_count=31 38 25 26 26 33 28 30 20 29 23 25 30 21 20 20 25 21 39 22
internal_value=0 0.0784476 0.0072411 -0.109212 -0.120286 -0.090979 0.100634 0.00466648 -0.0336247 0.171016 0.0796099 -0.137662 -0.170848 0.19472 0.221797 0.254085 -0.201805 -0.216317 0.184897
internal_weight=0 322 182 81 210 177 101 50 55 140 50 139 111 51 90 48 81 60 42
internal_count=532 322 182 81 210 177 101 50 55 140 50 139 111 51 90 48 81 60 42
shrinkage=0.1


Tree=11
num_leaves=22
num_cat=0
split_feature=2 3 21 1 15 18 10 8 17 1 14 21 21 3 15 0 3 0 4 5 21
split_gain=4.19493 1.75819 1.60775 1.67193 1.13006 0.809527 0.549621 0.431409 0.411593 0.37282 0.52644 1.11195 0.272427 0.160597 0.111296 0.0717832 0.0910031 0.0575355 0.0281145 0.050762 0.0131221
threshold=1.0000000180025095e-35 0.06811200000000002 0.19108566500000004 0.045029620000000006 0.076447995000000005 0.021325265000000003 0.033168215000000008 0.075529390000000016 0.051230605000000005 0.063128010000000012 0.015672195000000003 0.17067951000000003 0.15236692500000001 0.022614530000000004 0.059538065000000008 0.026194100000000001 0.046566840000000005 0.050223120000000003 0.059739105000000008 0.026113450000000003 0.13360447000000003
decision_type=2 2 2 2 2 2 2 2 2 2 2 2 2 2 2 2 2 2 2 2 2
left_child=1 4 3 5 6 7 9 13 -6 10 12 -12 -1 14 -2 -15 -17 -13 19 -14 -18
right_child=2 -3 -4 -5 8 -7 -8 -9 -10 -11 11 17 18 15 -16 16 20 -19 -20 -21 -22
leaf_value=0.029699319281748366 -0.029847519302910026 -0.014861559495329857 0.011739228530363605 0.014376930418339644 0.0064306805282831198 -0.00047252213253694427 0.0011506192959271945 -0.0072095948983641233 -0.013857076317071915 0.028039338886737826 -0.011638769581913948 0.021032232195138931 0.015026436559855938 -0.022338442628582322 -0.019540395215153696 -0.011122719109058382 -0.020405036281971708 0.013447015434503558 0.013812766062176747 0.021847862154245376 -0.017145797287424405
leaf_weight=21 22 28 33 22 20 34 26 34 20 25 20 20 24 24 20 25 21 20 23 20 30
leaf_count=21 22 28 33 22 20 34 26 34 20 25 20 20 24 24 20 25 21 20 23 20 30
internal_value=0 0.0884655 -0.0891332 -0.11851 0.116241 -0.145986 0.147069 -0.173276 -0.037132 0.167443 0.148364 0.0761349 0.19761 -0.197502 -0.249394 -0.175707 -0.160651 0.172396 0.16646 0.181271 -0.184878
internal_weight=0 267 265 232 239 210 199 176 40 173 148 60 88 142 42 100 76 40 67 44 51
internal_count=532 267 265 232 239 210 199 176 40 173 148 60 88 142 42 100 76 40 67 44 51
shrinkage=0.1


Tree=12
num_leaves=20
num_cat=0
split_feature=21 1 11 14 20 8 0 8 19 13 14 21 0 8 8 7 17 2 9
split_gain=3.53631 3.19028 1.6391 1.34512 0.966054 1.55781 0.815705 0.827771 0.552264 0.52146 0.514345 0.499682 0.509683 0.233714 0.17886 0.139054 0.0807041 0.0769905 0.0661394
threshold=0.17067951000000003 0.10916801500000002 1.0000000180025095e-35 0.015672195000000003 0.17533633500000004 0.044305080000000004 0.076946030000000012 0.029142475000000004 0.014975965000000003 0.029766645000000005 0.041655600000000008 0.10910131500000002 0.052145095000000009 0.067103045000000014 0.075529390000000016 0.049407655000000002 0.033716550000000005 0.030299235000000004 0.13454168000000002
decision_type=2 2 2 2 2 2 2 2 2 2 2 2 2 2 2 2 2 2 2
left_child=1 2 3 11 5 -2 10 -8 15 -5 13 -1 -13 16 -6 18 -4 -18 -7
right_child=4 -3 6 9 14 8 7 -9 -10 -11 -12 12 -14 -15 -16 -17 17 -19 -20
leaf_value=-0.002777293821175893 -0.015080082858050313 0.024275122629478577 -0.02556881340949432 -0.0022811717892947951 0.027655216277791907 0.0092719967166582755 -0.020934958826927915 0.0039226084343484931 -0.002288900837302208 -0.019757984939121433 -0.0092395763637291069 0.005208496207540686 0.026734021407636727 -0.0329016475379467 0.01689134942073571 0.022932239103576411 -0.022965451507341295 -0.014955535531044006 0.016884533911943438
leaf_weight=21 27 32 23 38 26 21 21 37 20 31 36 22 22 20 38 23 21 28 25
leaf_count=21 27 32 23 38 26 21 21 37 20 31 36 22 22 20 38 23 21 28 25
internal_value=0 -0.0583021 -0.0884074 -0.0040873 0.114013 0.0595971 -0.149154 -0.0507755 0.123426 -0.101331 -0.193732 0.0991403 0.159713 -0.233385 0.212642 0.165836 -0.206821 -0.183884 0.134092
internal_weight=0 352 320 134 180 116 186 58 89 69 128 65 44 92 64 69 72 49 46
internal_count=532 352 320 134 180 116 186 58 89 69 128 65 44 92 64 69 72 49 46
shrinkage=0.1


Tree=13
num_leaves=22
num_cat=0
split_feature=3 13 19 17 16 3 2 15 15 21 9 17 11 16 10 0 17 17 21 5 14
split_gain=2.94668 1.40544 1.16503 1.43212 0.876618 0.761086 1.01446 1.02603 0.46426 0.395234 0.357138 0.351035 0.341362 0.128676 0.114327 0.111187 0.117437 0.110491 0.104247 0.0207358 0.0113903
threshold=0.030590210000000003 0.048246980000000002 0.014975965000000003 0.058388095000000008 0.034106390000000007 0.096577715000000008 1.0000000180025095e-35 0.032098990000000008 0.050835815000000006 0.13903519000000003 0.092320870000000013 0.017510180000000004 0.023031610000000004 0.025493265000000005 1.0000000180025095e-35 0.090925755000000011 0.044634095000000006 0.043145585000000007 0.18579799500000002 0.042450880000000003 0.021724245000000007
decision_type=2 2 2 2 2 2 2 2 2 2 2 2 2 2 2 2 2 2 2 2 2
left_child=1 2 9 4 -4 6 7 -2 -6 11 14 -1 15 -3 17 16 19 -8 -17 -11 -16
right_child=5 13 3 -5 8 -7 10 -9 -10 12 -12 -13 -14 -15 20 18 -18 -19 -20 -21 -22
leaf_value=0.013515539094805719 0.020258122930924098 -0.0058597546070814138 0.018777163852663602 -0.020330264820502358 -0.013844001889228822 -0.023158091600194122 -0.0056237741932272916 -0.0076939292765896899 0.0074446390782083793 0.015150040281670435 -0.0028342432616388098 -0.0047896196693182 0.027615582233383541 -0.017203282192349435 -0.016278509760186785 0.0048092361184812731 0.021356849159513202 -0.016135240606963638 0.014129794788147724 0.01065091870725155 -0.019336549989108383
leaf_weight=22 24 20 34 26 20 33 20 29 21 21 34 20 21 20 21 21 28 20 28 20 29
leaf_count=22 24 20 34 26 20 33 20 29 21 21 34 20 21 20 21 21 28 20 28 20 29
internal_value=0 0.0601025 0.0849844 -0.00105999 0.0690508 -0.0921571 -0.0661628 0.049636 -0.0294006 0.132998 -0.115658 0.047988 0.158685 -0.115315 -0.148643 0.137779 0.163647 -0.108795 0.101353 0.129553 -0.180522
internal_weight=0 322 282 101 75 210 177 53 41 181 124 42 139 40 90 118 69 40 49 41 50
internal_count=532 322 282 101 75 210 177 53 41 181 124 42 139 40 90 118 69 40 49 41 50
shrinkage=0.1


Tree=14
num_leaves=21
num_cat=0
split_feature=2 3 21 1 11 19 13 18 8 17 8 3 3 8 5 20 20 17 0 9
split_gain=2.434 1.16779 0.910159 1.08281 0.854296 0.610259 0.966281 0.575795 0.347036 0.504667 0.324 0.174475 0.167584 0.0846875 0.0705943 0.0865923 0.0649248 0.0492206 0.0392457 0.0133933
threshold=1.0000000180025095e-35 0.06811200000000002 0.19296005000000002 0.045029620000000006 0.05789196500000001 0.052606945000000009 0.032425345000000008 0.021325265000000003 0.044305080000000004 0.041788405000000008 0.075529390000000016 0.022358685000000003 0.023354950000000003 0.033706150000000004 0.069590170000000021 0.15261906500000003 0.14254353500000003 0.042109600000000004 0.041506140000000004 0.080212530000000018
decision_type=2 2 2 2 2 2 2 2 2 2 2 2 2 2 2 2 2 2 2 2
left_child=1 4 3 7 5 6 8 10 9 -1 11 13 14 -2 15 -10 18 -18 -13 -17
right_child=2 -3 -4 -5 -6 -7 -8 -9 12 -11 -12 16 -14 -15 -16 19 17 -19 -20 -21
leaf_value=0.016833304129540923 -0.016576457662241802 -0.012583091562347755 0.0093118797386846242 0.012194055454297499 -0.010781646333634855 0.026605372198603372 -0.0081611600837537233 0.00081047463942976569 0.0060118456326779873 -0.0039650585236293929 -0.0047678740109716143 -0.018590412936780765 0.022431758564451468 -0.025668826252222061 0.017793497184048528 0.015632932968437672 -0.0066388668492436409 -0.013654606491327288 -0.013382115749976574 0.012371665962478694
leaf_weight=20 21 28 31 22 20 22 28 34 21 28 35 23 23 20 23 20 20 20 39 34
leaf_count=20 21 28 31 22 20 22 28 34 21 28 35 23 23 20 23 20 20 20 39 34
internal_value=0 0.0673864 -0.0678949 -0.0892258 0.0900227 0.10809 0.0904496 -0.111139 0.118957 0.0470093 -0.133916 -0.155023 0.147498 -0.210118 0.129469 0.114606 -0.132878 -0.101467 -0.153142 0.135795
internal_weight=0 267 265 234 239 219 197 212 169 48 178 143 121 41 98 75 102 40 62 54
internal_count=532 267 265 234 239 219 197 212 169 48 178 143 121 41 98 75 102 40 62 54
shrinkage=0.1


Tree=15
num_leaves=22
num_cat=0
split_feature=11 1 2 18 3 21 19 8 20 0 10 0 19 14 8 2 14 8 17 7 21
split_gain=2.10276 1.70931 1.27126 0.950216 1.34675 0.847187 1.23606 0.752013 1.00388 0.458428 0.556508 0.441964 0.362803 0.333298 0.27645 0.239403 0.15148 0.147352 0.0931701 0.0144943 0.00750118
threshold=1.0000000180025095e-35 0.045029620000000006 0.061957820000000004 0.043836224999999999 0.067050020000000016 0.17175759500000001 0.014975965000000003 0.052419805000000007 0.10772962000000001 0.077513235 0.015645555000000002 0.034749795000000007 0.020483420000000002 0.032591480000000013 0.050105350000000007 0.017615950000000002 0.048482440000000009 0.14435987500000003 0.030555915000000003 0.036747930000000005 0.21277288500000002
decision_type=2 2 2 2 2 2 2 2 2 2 2 2 2 2 2 2 2 2 2 2 2
left_child=2 5 3 4 7 9 -7 8 -1 15 -11 -10 13 17 -5 -2 18 -9 -17 -20 -19
right_child=1 -3 -4 14 -6 6 -8 12 11 10 -12 -13 -14 -15 -16 16 -18 20 19 -21 -22
leaf_value=0.015972417167254858 -0.024794105121067594 0.014430941438133067 -0.012926493701525033 0.030577867999672895 -0.016265551924705506 0.020708954557776452 -0.013282968848943711 0.021238175762647932 0.0036725127324461941 0.0031950586745815891 -0.017087862330178418 -0.015650625398446773 0.025935621149837974 0.00034672492607073352 0.014150214337167287 -0.021780311451716858 -0.0065275576710700986 0.012681050776016146 -0.015804791095710934 -0.01224112230539322 0.010117369681596758
leaf_weight=28 28 33 32 20 25 20 23 22 20 31 24 29 20 22 21 22 20 21 21 25 25
leaf_count=28 28 33 32 20 25 20 23 22 20 31 24 29 20 22 21 22 20 21 21 25 25
internal_value=0 -0.0675325 0.0585281 0.0822806 0.0553296 -0.1002 0.0252723 0.084472 0.0086766 -0.131751 -0.0565567 -0.0776363 0.137529 0.110456 0.221637 -0.167404 -0.141778 0.14507 -0.164279 -0.13868 0.112877
internal_weight=0 247 285 253 212 214 43 187 77 171 55 49 110 90 41 116 88 68 68 46 46
internal_count=532 247 285 253 212 214 43 187 77 171 55 49 110 90 41 116 88 68 68 46 46
shrinkage=0.1


Tree=16
num_leaves=20
num_cat=0
split_feature=11 1 2 18 3 21 19 8 20 3 9 15 8 9 13 8 9 20 21
split_gain=1.70323 1.38454 1.02972 0.769675 1.09087 0.702577 0.895827 0.609131 0.81314 0.382767 0.3206 0.309742 0.264959 0.238145 0.245805 0.223924 0.138509 0.0775219 0.0143771
threshold=1.0000000180025095e-35 0.045029620000000006 0.061957820000000004 0.043836224999999999 0.067050020000000016 0.15827873000000003 1.0000000180025095e-35 0.052419805000000007 0.10772962000000001 1.0000000180025095e-35 0.072394410000000006 0.051989400000000012 0.12363891500000002 0.03711451000000001 0.014405785000000003 0.050105350000000007 0.070407380000000006 0.12697421000000003 0.20289845500000001
decision_type=2 2 2 2 2 2 2 2 2 2 2 2 2 2 2 2 2 2 2
left_child=2 5 3 4 7 13 -7 8 -1 -10 -8 12 -9 -2 -15 -5 -16 -18 -14
right_child=1 -3 -4 15 -6 6 10 11 9 -11 -12 -13 18 14 16 -17 17 -19 -20
leaf_value=0.014375175509069646 -0.02025834443313735 0.012987847219813954 -0.011633844277821482 0.027520081186667086 -0.014638996794819831 0.011499716504476966 -0.019900703914463521 0.022062943356506756 0.0024097911203685013 -0.015300049862036339 -0.0019954070076346401 0.0014533962167444685 0.012835275027013961 -0.0030771008133888243 -0.0085810783289132584 0.012735192761534737 -0.012941519949923864 -0.021159673637400071 0.0095255905176912029
leaf_weight=28 35 33 32 20 25 32 20 33 23 26 20 21 21 30 31 21 22 24 35
leaf_count=28 35 33 32 20 25 32 20 33 23 26 20 21 21 30 31 21 22 24 35
internal_value=0 -0.0607792 0.0526753 0.0740525 0.0497966 -0.0901797 -0.00971268 0.0760248 0.00780894 -0.0698727 -0.109481 0.123776 0.149552 -0.13098 -0.107558 0.199473 -0.137475 -0.172293 0.107667
internal_weight=0 247 285 253 212 214 72 187 77 49 40 110 89 142 107 41 77 46 56
internal_count=532 247 285 253 212 214 72 187 77 49 40 110 89 142 107 41 77 46 56
shrinkage=0.1


Tree=17
num_leaves=20
num_cat=0
split_feature=21 1 11 14 20 19 0 8 21 8 6 8 14 8 13 8 18 0 3
split_gain=1.39916 1.59103 0.765521 0.692251 0.489806 0.806553 0.477759 0.551679 0.398605 0.372952 0.366991 0.496334 0.291639 0.2662 0.242825 0.206751 0.0926329 0.0830315 0.0426745
threshold=0.17067951000000003 0.10916801500000002 1.0000000180025095e-35 0.015672195000000003 0.16368395500000002 0.014975965000000003 0.076946030000000012 0.029142475000000004 0.13903519000000003 0.086621105000000018 0.021419095000000003 0.04649828000000001 0.041655600000000008 0.07484774000000001 0.031697605000000011 0.067103045000000014 0.016539655000000004 0.051460240000000011 0.043959950000000005
decision_type=2 2 2 2 2 2 2 2 2 2 2 2 2 2 2 2 2 2 2
left_child=1 2 3 10 5 9 12 -8 -5 -2 11 -1 15 -6 -10 17 -15 18 -4
right_child=4 -3 6 8 13 -7 7 -9 14 -11 -12 -13 -14 16 -16 -17 -18 -19 -20
leaf_value=-0.0094511014223098763 -0.00061140401022774841 0.017592964600771668 -0.0079144818522036073 0.002190358524343797 0.020263659407307084 -0.012015942776841778 -0.015361260906571434 0.0049317589482745609 -0.0057776560563416708 0.014515579147980765 0.01825099621145498 0.011879000003682451 -0.0057257070413066283 0.0045232633128762245 -0.021173860002309086 -0.025336815752089029 0.012732506515803162 -0.018646273311848441 -0.01396246999502182
leaf_weight=20 28 32 20 28 30 28 21 37 21 39 21 24 36 28 20 20 27 24 28
leaf_count=20 28 32 20 28 30 28 21 37 21 39 21 24 36 28 20 20 27 24 28
internal_value=0 -0.0366727 -0.057933 -0.000308436 0.0717156 0.0223728 -0.0994474 -0.0241571 -0.0700693 0.0819385 0.0737454 0.021835 -0.133563 0.126863 -0.13288 -0.163422 0.0855326 -0.138437 -0.114425
internal_weight=0 352 320 134 180 95 186 58 69 67 65 44 128 85 41 92 55 72 48
internal_count=532 352 320 134 180 95 186 58 69 67 65 44 128 85 41 92 55 72 48
shrinkage=0.1


Tree=18
num_leaves=20
num_cat=0
split_feature=21 1 11 14 3 0 8 5 21 21 8 21 8 2 13 4 5 8 17
split_gain=1.13332 1.28874 0.620072 0.560724 0.44675 0.386985 0.44686 0.32582 0.323855 0.322911 0.30575 0.553208 0.254103 0.344132 0.194281 0.141194 0.117323 0.16599 0.0929871
threshold=0.17067951000000003 0.10916801500000002 1.0000000180025095e-35 0.015672195000000003 0.067050020000000016 0.076946030000000012 0.029142475000000004 0.059300960000000007 0.18064441000000003 0.14080416000000004 0.091391930000000024 0.19618944500000005 1.0000000180025095e-35 0.015519245000000003 0.029766645000000005 0.016462245000000004 0.022443300000000003 0.13551908000000004 0.033716550000000005
decision_type=2 2 2 2 2 2 2 2 2 2 2 2 2 2 2 2 2 2 2
left_child=1 2 3 7 8 12 -7 -1 -2 -5 11 -10 -4 -14 -11 -15 -12 -18 -17
right_child=4 -3 5 9 -6 6 -8 -9 10 14 16 -13 13 15 -16 18 17 -19 -20
leaf_value=-0.0010101682692766189 0.018068677399839677 0.015833668084815147 -0.0016669719852507115 0.0017280595826691593 -0.0068965825506231999 -0.013825134844297454 0.0044385831098298764 0.013191869791064945 -0.010442349165678025 -0.0051618649065494539 0.0058151948293953233 0.0098565321696163482 -0.024789721745511761 -0.0061303698697260448 -0.01910032869782299 -0.019693359192460777 0.020404921881854537 0.0079484310810980594 -0.010890561317404112
leaf_weight=30 28 32 20 29 22 21 37 35 25 20 33 29 23 35 20 20 20 23 30
leaf_count=30 28 32 20 29 22 21 37 35 25 20 33 29 23 35 20 20 20 23 30
internal_value=0 -0.0330055 -0.0521397 -0.000277593 0.064544 -0.0895027 -0.0217414 0.0663708 0.083134 -0.0630623 0.0621227 0.00458902 -0.120207 -0.139381 -0.121311 -0.110017 0.103002 0.137421 -0.144117
internal_weight=0 352 320 134 180 186 58 65 158 69 130 54 128 108 40 85 76 43 50
internal_count=532 352 320 134 180 186 58 65 158 69 130 54 128 108 40 85 76 43 50
shrinkage=0.1


Tree=19
num_leaves=21
num_cat=0
split_feature=2 3 10 17 18 15 20 6 8 1 7 15 14 6 20 5 8 7 17 9
split_gain=0.993591 1.08552 0.950311 0.993145 0.663505 0.63777 0.494672 0.380269 0.405906 0.655393 0.366149 0.307213 0.226593 0.264596 0.211105 0.264719 0.216759 0.204985 0.123749 0.00824882
threshold=0.061957820000000004 0.096577715000000008 1.0000000180025095e-35 0.034124025000000009 0.027754630000000002 0.095774465000000017 0.14712479500000003 0.051788300000000009 0.052419805000000007 0.045029620000000006 0.029560625000000004 0.049397830000000011 0.049740025000000007 1.0000000180025095e-35 0.14408412000000001 0.049590095000000008 0.10247388500000001 0.045147820000000012 0.028168080000000002 0.13825066500000002
decision_type=2 2 2 2 2 2 2 2 2 2 2 2 2 2 2 2 2 2 2 2
left_child=1 2 5 4 11 7 17 8 9 10 -1 -4 13 -5 15 -10 -16 -2 19 -18
right_child=6 -3 3 12 -6 -7 -8 -9 14 -11 -12 -13 -14 -15 16 -17 18 -19 -20 -21
leaf_value=0.0048168008836607136 -0.024317050849397979 -0.017371345334686341 0.0060285549864850267 -0.0005789243429899216 0.01834285001580914 -0.0068585971201008018 0.00044158352911472323 0.018694599319634766 0.0060712317512793979 0.015643854406864745 -0.010498865751700628 -0.0106832402842966 -0.019291606774696938 -0.015440969557865806 -0.0023930534161627293 0.020149075946606258 0.0048815429920241946 -0.011033518268511846 0.015408091838269132 0.0076844017952680593
leaf_weight=27 21 28 22 25 24 33 25 29 22 23 37 22 26 23 20 34 21 26 23 21
leaf_count=27 21 28 22 25 24 33 25 29 22 23 37 22 26 23 20 34 21 26 23 21
internal_value=0 0.0170976 0.029465 -0.0375614 0.0496802 0.0622848 -0.109235 0.0790892 0.0653706 0.0116557 -0.0403757 -0.0232734 -0.117729 -0.0770032 0.0985139 0.146185 0.067107 -0.169687 0.0951186 0.0628297
internal_weight=0 460 432 142 68 290 72 257 228 87 64 44 74 48 141 56 85 47 65 42
internal_count=532 460 432 142 68 290 72 257 228 87 64 44 74 48 141 56 85 47 65 42
shrinkage=0.1


Tree=20
num_leaves=22
num_cat=0
split_feature=3 10 8 15 20 18 2 21 6 8 0 3 20 3 12 7 14 17 4 21 0
split_gain=0.823708 0.93576 0.530311 0.457205 0.454719 0.416458 0.401196 0.340143 0.242931 0.425913 0.238882 0.229747 0.198315 0.172915 0.158335 0.133459 0.144143 0.134351 0.0874003 0.0586693 0.0532919
threshold=0.052941840000000011 1.0000000180025095e-35 0.086621105000000018 0.10009493500000001 0.12892446000000002 0.020586530000000002 0.060166650000000009 0.12671301500000001 0.051788300000000009 0.034892515000000006 0.028403245000000004 0.084920445000000025 0.15539438000000003 0.025777030000000003 1.0000000180025095e-35 0.049937675000000008 0.020753070000000002 0.040135260000000006 0.022591265000000003 0.19618944500000005 0.056899380000000006
decision_type=2 2 2 2 2 2 2 2 2 2 2 2 2 2 2 2 2 2 2 2 2
left_child=1 3 4 6 7 11 8 -3 9 10 -1 14 -6 15 -2 16 19 -17 -13 -11 -16
right_child=5 2 -4 -5 12 -7 -8 -9 -10 13 -12 18 -14 -15 20 17 -18 -19 -20 -21 -22
leaf_value=0.0081759826923232717 0.0012110434649955659 -0.0092149844691157331 0.0083934297940383359 -0.0055421461661656702 -0.019520287992781962 0.0042269892162746852 -0.0055644883733728667 0.0076356858015060427 0.017393100168555976 0.012647363021159951 -0.0053149388464433815 -0.011077536219222979 -0.0068265519104897983 0.018682433818466963 -0.0060272932052612312 0.0070691140013791265 -0.00077906093475493517 0.0180215565332522 -0.020211402745917442 0.0058310818858444691 -0.013159580335486682
leaf_weight=21 21 25 24 33 32 27 23 23 26 23 35 22 20 20 22 21 22 24 20 28 20
leaf_count=21 21 25 24 33 32 27 23 23 26 23 35 22 20 20 22 21 22 24 20 28 20
internal_value=0 0.0226041 -0.0495558 0.0550238 -0.0815934 -0.0684974 0.0700225 -0.011407 0.0831605 0.0709954 -0.00255843 -0.0969804 -0.146381 0.100843 -0.0587873 0.0862703 0.0598658 0.129104 -0.15427 0.0890509 -0.0942362
internal_weight=0 400 124 276 100 132 243 48 220 194 56 105 52 138 63 118 73 45 42 51 42
internal_count=532 400 124 276 100 132 243 48 220 194 56 105 52 138 63 118 73 45 42 51 42
shrinkage=0.1


Tree=21
num_leaves=20
num_cat=0
split_feature=21 1 5 9 14 15 11 20 19 0 17 7 5 11 9 2 8 3 9
split_gain=0.711993 0.855847 0.411516 0.721039 0.479561 0.379951 0.592491 0.310451 0.49509 0.267001 0.430123 0.230675 0.223196 0.348055 0.182529 0.203965 0.167503 0.0467018 0.00865059
threshold=0.17067951000000003 0.10916801500000002 0.059300960000000007 0.11427122500000002 0.042767300000000001 0.062603445000000008 0.019148665000000006 0.17533633500000004 0.014975965000000003 0.076946030000000012 0.041788405000000008 0.060416830000000012 0.028904010000000004 0.018268425000000005 0.046759385000000007 0.021491265000000006 0.075529390000000016 0.042411490000000003 0.15654315000000005
decision_type=2 2 2 2 2 2 2 2 2 2 2 2 2 2 2 2 2 2 2
left_child=1 2 9 4 5 6 -4 8 14 11 -11 12 13 -1 -2 18 -9 -14 -16
right_child=7 -3 3 -5 -6 -7 -8 16 -10 10 -12 -13 17 -15 15 -17 -18 -19 -20
leaf_value=0.00749053509817237 -0.0018032498480308624 0.012976838182657957 0.0091166609277327851 0.012408269883266517 0.0079276283416523565 -0.020111113749444486 -0.012500278314109893 0.016891788633970114 -0.0081145826069747694 0.010315291602164508 -0.0077221555730853323 -0.016152690322353291 -0.014920598463239995 -0.010942271715030075 0.0034789902024203916 0.017285274863243102 0.0064752546102298724 -0.0087137399551769096 0.0063849533065443945
leaf_weight=21 21 32 21 35 24 20 32 26 34 20 39 39 22 20 20 20 38 27 21
leaf_count=21 21 32 21 35 24 20 32 26 34 20 39 39 22 20 20 20 38 27 21
internal_value=0 -0.0261606 -0.0417534 0.00104327 -0.0433524 -0.0836687 -0.0393508 0.0511584 0.0203108 -0.0718022 -0.0160777 -0.0972886 -0.069452 -0.0150108 0.0623782 0.0900605 0.10707 -0.115005 0.0496741
internal_weight=0 352 320 132 97 73 53 180 116 188 59 129 90 41 82 61 64 49 41
internal_count=532 352 320 132 97 73 53 180 116 188 59 129 90 41 82 61 64 49 41
shrinkage=0.1


Tree=22
num_leaves=20
num_cat=0
split_feature=2 3 17 10 14 20 20 21 20 0 13 16 3 13 7 21 8 5 5
split_gain=0.603689 0.702138 0.587971 0.670218 0.430193 0.705911 0.414187 0.407017 0.353857 0.241754 0.25099 0.235367 0.302406 0.195939 0.1301 0.127264 0.116803 0.115414 0.102839
threshold=0.061957820000000004 0.094424275000000016 1.0000000180025095e-35 0.029527795000000006 1.0000000180025095e-35 0.15791638500000002 0.13059292000000003 0.17244985500000001 0.14712479500000003 0.059987945000000008 0.029446585000000004 0.048401380000000001 0.021171305000000005 0.021067135000000004 0.04387454000000001 0.19108566500000004 0.14435987500000003 0.039916365000000002 0.090427000000000021
decision_type=2 2 2 2 2 2 2 2 2 2 2 2 2 2 2 2 2 2 2
left_child=1 2 6 4 11 9 18 -8 13 10 -6 12 14 -2 -4 -7 -9 -5 -1
right_child=8 -3 3 17 5 15 7 16 -10 -11 -12 -13 -14 -15 -16 -17 -18 -19 -20
leaf_value=0.020302078546956183 -0.021129528130404654 -0.013201113629545416 0.011359269171953202 -0.0044175289338454606 0.0032218120115644791 0.0032268960827163289 -0.0054391313903033736 0.015122650151606649 0.0010977028720080852 -0.01245364997900115 -0.010303969685312199 0.00011638894587034179 0.019935205854151563 -0.0080704480357882049 0.00035521521296521478 0.012942828753819833 0.005591283006813481 -0.014101208397187294 0.010592848621308805
leaf_weight=24 20 31 21 20 34 28 30 20 25 39 23 31 23 27 22 26 36 32 20
leaf_count=24 20 31 21 20 34 28 30 20 25 39 23 31 23 27 22 26 36 32 20
internal_value=0 0.0133272 0.0238295 -0.000581521 0.0211418 -0.0124184 0.0799748 0.0396006 -0.0851458 -0.063869 -0.0223596 0.0730389 0.106798 -0.136275 0.0572929 0.0790494 0.0899534 -0.103767 0.158888
internal_weight=0 460 429 299 247 150 130 86 72 96 57 97 66 47 43 54 56 52 44
internal_count=532 460 429 299 247 150 130 86 72 96 57 97 66 47 43 54 56 52 44
shrinkage=0.1


Tree=23
num_leaves=22
num_cat=0
split_feature=3 10 17 4 15 18 2 3 14 6 13 0 8 9 13 5 20 21 8 15 17
split_gain=0.495423 0.580989 0.358612 0.383396 0.297353 0.26851 0.24694 0.202336 0.187443 0.195458 0.155166 0.0956494 0.0988676 0.0842014 0.287711 0.140919 0.232576 0.0800991 0.0608913 0.0350138 0.0214239
threshold=0.052941840000000011 1.0000000180025095e-35 0.030998540000000002 0.039243460000000001 0.10462478000000001 0.020586530000000002 0.060166650000000009 0.031664405000000007 0.038440445000000011 0.019912500000000003 0.043025330000000007 0.017451990000000004 0.057091650000000008 0.023964875000000004 0.03403829500000001 0.052812480000000009 0.15235234000000003 0.20289845500000001 0.054622560000000007 0.055574825000000008 0.040135260000000006
decision_type=2 2 2 2 2 2 2 2 2 2 2 2 2 2 2 2 2 2 2 2 2
left_child=1 4 3 -3 6 10 7 13 9 -4 11 -2 19 -1 15 16 -15 -18 -17 -13 -20
right_child=5 2 8 -5 -6 -7 -8 -9 -10 -11 -12 12 -14 14 -16 18 17 -19 20 -21 -22
leaf_value=0.010100710087863264 -0.015511451954371298 0.0084019587055913052 0.0019491796720434319 -0.0089543021633289761 -0.0056602450156653375 0.0035819634588228331 -0.0040380934886634348 0.015116518860061965 -0.015234735497721918 -0.011710001518949867 0.00032569485949352384 -0.0076043788708098558 -0.013248531652304033 -0.0058655635826289658 -0.0049531156542124578 0.013869175181278719 0.011579574362951376 0.0037675408446895225 0.0050994463171809912 -0.0019566719830479652 0.0096216252581639728
leaf_weight=32 20 35 22 20 27 27 25 24 27 20 20 23 21 20 27 23 21 35 20 21 22
leaf_count=32 20 35 22 20 27 27 25 24 27 20 20 23 21 20 27 23 21 35 20 21 22
internal_value=0 0.0175303 -0.0393285 0.0209059 0.0430756 -0.0531221 0.053884 0.0644047 -0.0873414 -0.0455519 -0.0759929 -0.0946399 -0.0760323 0.0539934 0.0450384 0.0631475 0.033911 0.0669705 0.0973316 -0.0490888 0.0746821
internal_weight=0 400 124 55 276 132 249 224 69 42 105 85 65 200 168 141 76 56 65 44 42
internal_count=532 400 124 55 276 132 249 224 69 42 105 85 65 200 168 141 76 56 65 44 42
shrinkage=0.1


Tree=24
num_leaves=21
num_cat=0
split_feature=21 1 13 5 9 6 4 14 18 20 19 10 21 8 20 2 8 16 21 5
split_gain=0.428032 0.534214 0.310782 0.335713 0.445484 0.315836 0.303159 0.272771 0.230256 0.195488 0.345269 0.23566 0.178183 0.146871 0.143251 0.141225 0.129865 0.128664 0.0756066 0.0202424
threshold=0.17067951000000003 0.10916801500000002 0.06532213000000002 0.072432220000000005 0.10696085000000001 0.055304495000000009 0.052323495000000005 0.029761995000000003 0.025731845000000003 0.17533633500000004 0.034037660000000004 0.015068255000000001 0.11335826500000001 0.04649828000000001 0.13358369500000003 0.027608445000000006 0.089548035000000012 0.029757405000000004 0.14093828500000002 0.026113450000000003
decision_type=2 2 2 2 2 2 2 2 2 2 2 2 2 2 2 2 2 2 2 2
left_child=1 2 3 5 7 6 8 -5 12 10 11 15 -1 18 -15 19 -11 -8 -14 -2
right_child=9 -3 -4 4 -6 -7 17 -9 -10 16 -12 -13 13 14 -16 -17 -18 -19 -20 -21
leaf_value=0.0025037289611645978 0.0019267022946021625 0.010290935459124739 -0.013132188729299554 -0.0078493266199075162 0.01370886253124034 0.0069931058890440254 0.0076917724497616293 0.0070378076657652867 -0.017463920637965202 0.013352013221974003 -0.010434086257591844 -0.0045726782472532554 -0.00045027002835502992 -0.018116103826711576 -0.0070115317751725144 0.013132776451917986 0.0043029674967484813 -0.0035154058154494988 -0.0075693532113551305 0.0060663142241537578
leaf_weight=20 27 32 29 32 27 22 20 20 21 29 20 24 26 21 26 24 35 21 35 21
leaf_count=20 27 32 29 32 27 22 20 20 21 29 20 24 26 21 26 24 35 21 35 21
internal_value=0 -0.0202837 -0.032603 -0.022765 0.0328756 -0.0434991 -0.0566331 -0.0212351 -0.0775866 0.0396659 0.0151874 0.0400892 -0.0616639 -0.0777197 -0.119731 0.0686945 0.0840332 0.0195151 -0.0453499 0.0373778
internal_weight=0 352 320 291 79 212 190 52 149 180 116 96 128 108 47 72 64 41 61 48
internal_count=532 352 320 291 79 212 190 52 149 180 116 96 128 108 47 72 64 41 61 48
shrinkage=0.1


Tree=25
num_leaves=20
num_cat=0
split_feature=2 18 10 3 20 7 13 8 11 16 20 3 17 15 15 2 12 17 0
split_gain=0.395942 0.486119 0.499291 0.318069 0.314291 0.305247 0.295612 0.290612 0.259714 0.292624 0.214144 0.3048 0.213374 0.148364 0.128478 0.0851861 0.126236 0.232201 0.0245889
threshold=0.095898885000000003 0.052317230000000006 1.0000000180025095e-35 0.051628750000000008 0.10429201500000002 0.030244395000000004 0.048246980000000002 0.094725875000000015 0.038396815000000008 0.054103335000000009 0.13751631500000003 0.030590210000000003 0.038531375000000014 0.027237815000000005 0.039811050000000008 0.021491265000000006 0.029214775000000002 0.048922445000000002 0.093217535000000018
decision_type=2 2 2 2 2 2 2 2 2 2 2 2 2 2 2 2 2 2 2
left_child=1 2 3 6 -4 -5 8 10 9 15 12 -12 -6 -11 -7 16 17 18 -1
right_child=-2 -3 4 5 7 14 -8 -9 -10 13 11 -13 -14 -15 -16 -17 -18 -19 -20
leaf_value=0.0077443699352443222 -0.013457394373558819 0.011756617425837453 0.0059987097108007773 0.0046738104429095984 0.0029323262026688707 -0.014156198415540808 -0.0068081350065767772 0.0042042339675217163 0.012399176390547502 0.0023996786680072547 -0.022879073843359951 -0.007627490230400949 -0.0093098062103880302 -0.0093769238735346705 -0.0033376861995618257 0.01006688667839626 0.0090099237969196912 -0.0073917231353698293 0.0033315984627863928
leaf_weight=23 21 36 23 26 24 23 24 21 38 20 20 38 35 23 21 32 36 20 28
leaf_count=23 21 36 23 26 24 23 24 21 38 20 20 38 35 23 21 32 36 20 28
internal_value=0 0.00553044 -0.00296069 0.0202548 -0.0482382 -0.0391664 0.0373019 -0.0662757 0.0487982 0.0330985 -0.0857174 -0.128867 -0.0432996 -0.0389943 -0.0899282 0.0554006 0.0418624 0.0174043 0.0532167
internal_weight=0 511 475 314 161 70 244 138 220 182 117 58 59 43 44 139 107 71 51
internal_count=532 511 475 314 161 70 244 138 220 182 117 58 59 43 44 139 107 71 51
shrinkage=0.1


Tree=26
num_leaves=22
num_cat=0
split_feature=3 11 8 2 18 8 20 20 21 21 10 7 10 12 13 16 2 10 9 15 7
split_gain=0.363438 0.427419 0.533233 0.38483 0.463141 0.372989 0.369435 0.444994 0.291711 0.274686 0.242413 0.241733 0.223313 0.242584 0.191924 0.188419 0.125967 0.0987017 0.0577852 0.0635872 0.0503846
threshold=0.10531986500000001 0.05789196500000001 0.057795445000000008 0.061957820000000004 0.052317230000000006 0.052419805000000007 0.10772962000000001 0.16442726500000002 0.09571993500000002 0.12161031500000001 0.016057160000000004 0.033647135000000009 0.028899915000000002 0.036606605000000007 0.022336565000000003 0.04324173500000001 0.021719385000000004 0.015645555000000002 0.055770770000000004 0.038700655000000007 0.020961945000000003
decision_type=2 2 2 2 2 2 2 2 2 2 2 2 2 2 2 2 2 2 2 2 2
left_child=1 3 17 4 5 6 8 10 -1 -7 11 -8 13 14 18 -5 -12 -3 -11 20 -20
right_child=-2 2 -4 15 -6 9 7 -9 -10 12 16 -13 -14 -15 -16 -17 -18 -19 19 -21 -22
leaf_value=-0.0022347044177530779 -0.011303772908393983 0.0044973524651140909 -0.020148203721536057 -0.0017613909406291725 0.014142974894661388 0.015544841092612064 0.0047124123929635341 0.0086146822953153228 0.014242730158465831 0.0098023802996613091 -0.018977155284956099 -0.0084848469108276606 -0.0065036509139463315 -0.0025440146795673562 0.015607205547747159 -0.013808539006859064 -0.0078880651144746013 -0.00543751850258559 0.0029919833102593982 -0.00091269449899083989 0.0092493919571014962
leaf_weight=21 27 20 21 37 33 21 23 21 22 20 20 35 20 35 21 20 21 20 31 21 22
leaf_count=21 27 20 21 37 33 21 23 21 22 20 20 35 20 35 21 20 21 20 31 21 22
internal_value=0 0.0060436 -0.0724452 0.016827 0.0281256 0.0175633 -0.0175741 -0.0460724 0.0619561 0.0475497 -0.0741189 -0.0325145 0.034221 0.0474553 0.0696409 -0.0598846 -0.132974 -0.00470083 0.0503318 0.0374421 0.055894
internal_weight=0 505 61 444 387 354 163 120 43 191 99 58 170 150 115 57 41 40 94 74 53
internal_count=532 505 61 444 387 354 163 120 43 191 99 58 170 150 115 57 41 40 94 74 53
shrinkage=0.1


Tree=27
num_leaves=20
num_cat=0
split_feature=3 11 8 18 8 5 12 2 16 21 21 12 7 21 14 20 20 9 17
split_gain=0.294385 0.346209 0.439307 0.313629 0.333439 0.271118 0.405464 0.245333 0.212297 0.20999 0.15584 0.155641 0.238227 0.131989 0.339875 0.26765 0.134025 0.127545 0.0555155
threshold=0.10531986500000001 0.05789196500000001 0.049661915000000008 0.043836224999999999 0.052419805000000007 0.075465835000000023 0.026277200000000004 0.057905700000000004 0.020126120000000004 0.12161031500000001 0.18433903500000001 0.038576000000000006 0.082494440000000016 0.12255493000000002 0.021325265000000003 0.15654822000000004 0.13540341000000003 0.066066525000000001 0.020944090000000002
decision_type=2 2 2 2 2 2 2 2 2 2 2 2 2 2 2 2 2 2 2
left_child=1 3 -3 4 5 13 -7 9 -8 -6 -5 12 17 -1 -15 16 -16 -11 -19
right_child=-2 2 -4 10 7 6 8 -9 -10 11 -12 -13 -14 14 15 -17 -18 18 -20
leaf_value=-0.011403819710875934 -0.010173395528734008 0.00079421914315649456 -0.016366219033415504 0.015698626227676867 0.013990357314192115 -0.0083833903251659316 0.016091392361558973 -0.0070821835007518529 0.0018559857779605823 -0.0027668077390287718 0.0045118206716848143 -0.0025355857494287195 0.013733475591987371 0.0082778055503149508 -0.0048823034591888165 0.00079000414574913907 -0.015232937066847908 0.0021233068022411318 0.007847780057474869
leaf_weight=26 27 35 26 20 21 21 20 20 22 29 33 35 25 20 22 33 29 32 36
leaf_count=26 27 35 26 20 21 21 20 20 22 29 33 35 25 20 22 33 29 32 36
internal_value=0 0.00543924 -0.0652007 0.0151443 0.00535916 -0.0242192 0.0296204 0.0341906 0.0863475 0.0459897 0.0873326 0.033428 0.0502922 -0.0503107 -0.0343788 -0.0622733 -0.10768 0.0278586 0.0515391
internal_weight=0 505 61 444 391 193 63 198 42 178 53 157 122 130 104 84 51 97 68
internal_count=532 505 61 444 391 193 63 198 42 178 53 157 122 130 104 84 51 97 68
shrinkage=0.1


Tree=28
num_leaves=20
num_cat=0
split_feature=2 3 17 19 6 8 18 0 21 7 7 0 0 7 8 8 9 4 14
split_gain=0.246918 0.267384 0.320302 0.446073 0.442274 0.422241 0.31042 0.426556 0.346416 0.28101 0.25478 0.273556 0.24341 0.172191 0.349623 0.172034 0.147272 0.117176 0.0815177
threshold=0.095898885000000003 0.096577715000000008 0.030998540000000002 0.051253220000000009 0.051788300000000009 0.095741240000000019 0.041866635000000006 0.045902610000000003 0.11248738500000001 0.020622410000000004 0.030244395000000004 0.083589120000000017 1.0000000180025095e-35 1.0000000180025095e-35 0.082659705000000014 0.024221065000000003 0.082766400000000004 0.026462470000000002 0.036543895000000007
decision_type=2 2 2 2 2 2 2 2 2 2 2 2 2 2 2 2 2 2 2
left_child=1 2 6 4 5 9 7 12 -9 17 -11 15 -1 -10 -15 -12 18 -4 -17
right_child=-2 -3 3 -5 -6 -7 -8 8 13 10 11 -13 -14 14 -16 16 -18 -19 -20
leaf_value=0.0024891954091744439 -0.010627257309499242 -0.0085643955051989094 -0.01600520506501198 0.012652128934860229 0.011701363371685147 0.0057719550245613066 0.012070715825048914 0.017990933666005734 0.0085671845835325246 0.0071200550161302084 -0.01026396721911927 -0.014341444551944733 -0.0091801505643301275 -0.0075473161518637994 0.009395132303498463 0.0011740066967571954 0.0070248881499061283 -0.0067354125231504445 -0.0076371186124604383
leaf_weight=33 21 31 30 21 20 38 38 20 37 20 21 25 39 29 21 21 21 25 21
leaf_count=33 21 31 30 21 20 38 38 20 37 20 21 25 39 29 21 21 21 25 21
internal_value=0 0.00436737 0.0101806 -0.0132839 -0.0254157 -0.0382472 0.0386191 0.0211926 0.0612365 -0.0580664 -0.0325489 -0.0515855 -0.038317 0.0339553 -0.00431488 -0.0242555 0.00187259 -0.117917 -0.0323156
internal_weight=0 511 480 263 242 222 217 179 107 184 129 109 72 87 50 84 63 55 42
internal_count=532 511 480 263 242 222 217 179 107 184 129 109 72 87 50 84 63 55 42
shrinkage=0.1


Tree=29
num_leaves=20
num_cat=0
split_feature=11 3 19 2 21 5 14 8 5 8 2 20 16 4 7 7 20 8 5
split_gain=0.217007 0.261271 0.316507 0.291691 0.262359 0.297878 0.343423 0.28626 0.312459 0.240212 0.207093 0.199093 0.318577 0.18631 0.404588 0.204482 0.150905 0.130998 0.00830911
threshold=0.073929510000000018 0.10731252000000001 0.051253220000000009 0.018959255000000005 0.18302944000000002 0.072432220000000005 0.042767300000000001 0.044715005000000009 0.10012482500000001 0.032545460000000005 0.033060130000000007 0.12405003500000002 0.029757405000000004 0.019718500000000003 0.031717375000000006 0.043526480000000013 0.105486755 0.10447015500000002 0.033340100000000004
decision_type=2 2 2 2 2 2 2 2 2 2 2 2 2 2 2 2 2 2 2
left_child=1 2 4 -4 5 11 7 16 -9 -6 17 12 -1 15 -15 -13 -7 -11 -19
right_child=-2 -3 3 -5 9 6 -8 8 -10 10 -12 13 -14 14 -16 -17 -18 18 -20
leaf_value=0.010011424117449982 -0.0073872423126689485 -0.010362788071922426 0.016545443085002869 0.0004073268955662137 0.014128189403563737 2.9750866815447807e-05 0.014666258245706561 0.011920230177327476 -0.0043270540237426757 -0.0069751718631860891 0.0098686165480802845 -0.014774281369884396 -0.0046318945803273566 0.0044919370631806748 -0.0099122577306563764 -0.0021631196700036526 -0.012254592729732394 0.001151566036666433 0.003660505375592038
leaf_weight=24 37 21 24 21 20 20 20 29 20 22 26 36 39 39 39 20 20 33 22
leaf_count=24 37 21 24 21 20 20 20 29 20 22 26 36 39 39 39 20 20 33 22
internal_value=0 0.00552178 0.0103575 0.0901432 0.00198839 -0.0136904 0.0282545 0.00164593 0.0528869 0.0409941 0.0215207 -0.0368984 0.00946513 -0.0586962 -0.0271016 -0.102703 -0.0611242 -0.00453519 0.0215514
internal_weight=0 495 474 45 429 306 109 89 49 123 103 197 63 134 78 56 40 77 55
internal_count=532 495 474 45 429 306 109 89 49 123 103 197 63 134 78 56 40 77 55
shrinkage=0.1


Tree=30
num_leaves=22
num_cat=0
split_feature=2 18 10 20 16 21 2 4 15 3 1 1 12 21 9 8 13 9 1 9 0
split_gain=0.192113 0.210215 0.232022 0.174983 0.194682 0.259207 0.145601 0.14316 0.139942 0.152141 0.198585 0.262359 0.220108 0.31787 0.222243 0.161272 0.0965526 0.0909338 0.0905299 0.0655951 0.0436296
threshold=0.095898885000000003 0.052317230000000006 1.0000000180025095e-35 0.10429201500000002 0.033168215000000008 0.17634723500000002 0.027388720000000002 0.027466775000000006 0.095774465000000017 0.089761950000000021 0.045029620000000006 1.0000000180025095e-35 0.040278240000000007 0.14591591500000003 0.10325958500000001 0.044305080000000004 0.024074100000000005 0.069673185000000012 0.13436173500000001 0.10061395000000002 0.10356993500000002
decision_type=2 2 2 2 2 2 2 2 2 2 2 2 2 2 2 2 2 2 2 2 2
left_child=1 2 8 -4 5 6 -5 -8 9 10 11 12 13 -1 -14 -15 -6 -17 -12 -19 -21
right_child=-2 -3 3 4 16 -7 7 -9 -10 -11 18 -13 14 15 -16 17 -18 19 -20 20 -22
leaf_value=0.014502410444051581 -0.0093739739818764593 0.0077526817224376531 0.0048156721659166658 -0.010956984013319016 -0.015355369169265033 0.0068519132386427378 -0.0077929770573973659 0.0034068359397351742 -0.0047509173185310586 -0.0060545342597400865 0.013221755080208506 -0.0093778344267047946 -0.007516894746305687 -0.0057212324370630088 0.005697470076847822 0.0090659943762821729 -0.0056469342737857789 -0.0026040108711458745 0.0042489765360104763 0.0076160779699594493 0.0014332115240395071
leaf_weight=27 21 36 23 27 20 24 21 25 33 21 23 20 35 20 20 27 21 20 22 21 25
leaf_count=27 21 36 23 27 20 24 21 25 33 21 23 20 35 20 20 27 21 20 22 21 25
internal_value=0 0.00385232 -0.00173143 -0.0325967 -0.0460556 -0.0216365 -0.0512767 -0.0170612 0.0140944 0.021329 0.0279419 0.0152982 0.0264855 0.0475436 -0.0271167 0.0242518 -0.103828 0.0417709 0.0883506 0.0217709 0.0425582
internal_weight=0 511 475 161 138 97 73 46 314 281 260 215 195 140 55 113 41 93 45 66 46
internal_count=532 511 475 161 138 97 73 46 314 281 260 215 195 140 55 113 41 93 45 66 46
shrinkage=0.1


Tree=31
num_leaves=20
num_cat=0
split_feature=11 2 17 6 8 20 17 12 20 8 21 5 15 21 0 14 5 4 20
split_gain=0.166225 0.205132 0.228521 0.227176 0.230519 0.390182 0.191537 0.356564 0.163674 0.163673 0.14069 0.31289 0.254577 0.167183 0.0831805 0.0621147 0.0521418 0.0517945 0.0197172
threshold=0.073929510000000018 0.061957820000000004 0.022472945000000005 0.055304495000000009 0.044305080000000004 0.15705138000000005 0.018229775000000004 0.028745465000000001 0.10858195500000002 0.025282755000000004 0.17067951000000003 0.063986390000000018 0.020402780000000006 0.18105951000000003 0.017451990000000004 0.026052290000000002 0.054865575000000007 0.020833580000000001 0.15539438000000003
decision_type=2 2 2 2 2 2 2 2 2 2 2 2 2 2 2 2 2 2 2
left_child=1 3 -3 4 5 6 -1 -8 -6 16 11 12 -10 -12 -15 18 -9 -4 -16
right_child=-2 2 17 -5 8 -7 7 9 10 -11 13 -13 -14 14 15 -17 -18 -19 -20
leaf_value=0.0023253180767194583 -0.0064653733361361406 -0.013069370549849489 -0.0040777233894914392 0.0089839187197919401 0.010541640046943466 0.0063976556503851159 -0.016807220340394582 -0.010719236405566336 0.0027085255963659924 0.0034745676281011622 0.01190147716472645 0.0060022200768192618 -0.010381537832271977 0.0067846727041926767 0.0046634291642112654 -0.0043725003814324738 -0.0035847912046370941 0.0030329263261851987 0.00048704797697540086
leaf_weight=26 37 22 20 35 23 38 28 20 24 23 22 39 39 28 20 20 21 21 26
leaf_count=26 37 22 20 35 23 38 28 20 24 23 22 39 39 28 20 20 21 21 26
internal_value=0 0.0048327 -0.0484745 0.0126067 0.00579775 -0.0241528 -0.0525334 -0.0739514 0.0251848 -0.0327735 0.01672 -0.0103714 -0.0539485 0.0405418 0.0221758 0.00280028 -0.0706501 -0.00435683 0.0230287
internal_weight=0 495 63 432 397 156 118 92 241 64 218 102 63 116 94 66 41 41 46
internal_count=532 495 63 432 397 156 118 92 241 64 218 102 63 116 94 66 41 41 46
shrinkage=0.1


Tree=32
num_leaves=20
num_cat=0
split_feature=13 17 15 16 8 15 16 11 18 14 8 7 17 0 15 20 5 7 4
split_gain=0.140909 0.172951 0.363335 0.259452 0.258187 0.190886 0.223842 0.187903 0.166599 0.156397 0.214998 0.15488 0.146277 0.126561 0.121181 0.181176 0.0973387 0.073032 0.0409771
threshold=0.06532213000000002 0.067220860000000007 0.076447995000000005 0.024427050000000002 1.0000000180025095e-35 0.050597980000000008 0.039548745000000003 0.044537980000000005 0.019161320000000006 1.0000000180025095e-35 0.089548035000000012 0.020622410000000004 0.022472945000000005 0.04453851000000001 0.024765055000000005 0.14164850500000004 0.055390250000000009 0.043526480000000013 0.052551525000000009
decision_type=2 2 2 2 2 2 2 2 2 2 2 2 2 2 2 2 2 2 2
left_child=1 3 11 4 13 6 -5 9 16 12 -11 -3 18 -1 15 -8 -7 -13 -6
right_child=-2 2 -4 5 7 8 14 -9 -10 10 -12 17 -14 -15 -16 -17 -18 -19 -20
leaf_value=0.0052208088914908121 -0.0059527268564026504 -0.0057941784596488143 -0.013106198844292927 -0.01096048181934748 0.0029273633198629665 -0.0044911705414191466 -0.0038699172153745008 0.010429421962117373 0.010495845237746835 -0.0076000729450382866 0.0042796053632628171 0.007866399520121161 0.0096585922288122007 0.016074143925851044 -0.0057139303367875986 0.0088235785581425516 0.0046625000535554829 0.00048293880656175947 -0.0029991213697940114
leaf_weight=21 37 29 27 32 28 26 23 23 20 39 25 21 27 22 32 22 21 37 20
leaf_count=21 37 29 27 32 28 26 23 23 20 39 25 21 27 22 32 22 21 37 20
internal_value=0 0.00444951 -0.0297224 0.0146742 0.0388536 -0.0134893 -0.0393092 0.0205697 0.0285163 0.00671604 -0.0295957 0.00172781 0.0377021 0.107737 -0.0100955 0.0233579 -0.00401233 0.0315626 0.00457995
internal_weight=0 495 114 381 205 176 109 162 67 139 64 87 75 43 77 45 47 58 48
internal_count=532 495 114 381 205 176 109 162 67 139 64 87 75 43 77 45 47 58 48
shrinkage=0.1


Tree=33
num_leaves=20
num_cat=0
split_feature=11 8 11 18 9 5 20 5 7 21 14 9 15 21 14 14 4 21 8
split_gain=0.135529 0.26925 0.172494 0.160866 0.175759 0.167894 0.155175 0.231087 0.320652 0.182536 0.168329 0.151576 0.216917 0.104305 0.103974 0.174225 0.0733544 0.0684353 0.0313136
threshold=0.053339355000000012 0.049661915000000008 0.044537980000000005 0.052317230000000006 0.135158835 0.082522615000000007 0.12405003500000002 0.094999520000000018 0.040919440000000008 0.19618944500000005 0.07139079000000001 0.064470275000000007 0.014625055000000001 0.17941347500000002 0.039144930000000008 0.019912500000000003 0.038425375000000005 0.14471094500000001 0.065989345000000019
decision_type=2 2 2 2 2 2 2 2 2 2 2 2 2 2 2 2 2 2 2
left_child=2 -2 3 4 6 13 7 8 -1 10 11 12 -8 -6 15 -14 -11 -13 -19
right_child=1 -3 -4 -5 5 -7 9 -9 -10 16 -12 17 14 -15 -16 -17 -18 18 -20
leaf_value=0.013957639346615628 0.0014289329634406248 -0.011056787663349702 0.007953699255983035 0.0066111656528664757 -0.0046278114523738622 0.011813029395416379 0.0091964031499810524 -0.0054500863714825494 -0.00061623703740123256 -0.0018248089652236862 -0.0108168820530409 -0.0097798441785077253 0.00082712792092934264 0.0046349826554257061 0.0030580777442082764 -0.012372300298884512 0.005993674408923004 -0.0059732606420293457 -0.00066456214059144262
leaf_weight=26 39 31 30 35 20 20 20 28 36 21 32 30 20 31 20 20 28 25 20
leaf_count=26 39 31 30 35 20 20 20 28 36 21 32 30 20 31 20 20 28 25 20
internal_value=0 -0.0410046 0.00621281 0.00112086 -0.00460881 0.0404773 -0.0144282 0.0209013 0.0549539 -0.0279013 -0.0421375 -0.0285053 0.00177327 0.0100251 -0.0282903 -0.0577259 0.026429 -0.0608024 -0.0361384
internal_weight=0 70 462 432 397 71 326 90 62 236 187 155 80 51 60 40 49 75 45
internal_count=532 70 462 432 397 71 326 90 62 236 187 155 80 51 60 40 49 75 45
shrinkage=0.1


Tree=34
num_leaves=23
num_cat=0
split_feature=2 3 19 17 6 21 9 2 3 0 7 7 8 7 11 20 0 2 8 16 5 20
split_gain=0.126032 0.127079 0.154731 0.212487 0.26991 0.204142 0.249912 0.173714 0.1807 0.171785 0.138154 0.188803 0.163144 0.173462 0.109892 0.106519 0.103107 0.082456 0.069221 0.0210807 0.0345834 0.00196458
threshold=0.095898885000000003 0.094424275000000016 0.051253220000000009 0.034124025000000009 0.051788300000000009 0.11248738500000001 0.023964875000000004 0.057546140000000003 0.042411490000000003 0.050799425000000002 0.019838150000000002 0.029560625000000004 0.020305475000000003 0.060811400000000009 0.025321290000000007 0.16243515500000003 0.045204770000000005 0.028572170000000004 0.065989345000000019 0.022893165000000004 0.048257900000000006 0.17533633500000004
decision_type=2 2 2 2 2 2 2 2 2 2 2 2 2 2 2 2 2 2 2 2 2 2
left_child=1 2 3 5 10 -1 -7 8 14 -4 15 -12 -13 16 19 17 -14 -5 -15 20 21 -8
right_child=-2 -3 9 4 -6 6 7 -9 -10 -11 11 12 13 18 -16 -17 -18 -19 -20 -21 -22 -23
leaf_value=0.010395828459877521 -0.007592522630113222 -0.0055946924031826826 0.0012104719869482023 -0.014476472004316749 0.0090917450003325934 -0.0093205023476912174 0.0022588473445336733 -0.0061319192638620741 0.01172081786983957 0.013175174234202131 0.0063523662258655987 -0.011292250108672306 -0.00068241124332416806 -0.0004569883619795644 0.0086506913992620647 -0.00094695456791669139 -0.010404288322509577 -0.0056970404248441698 0.0069788557499469751 0.0033779430047919355 -0.0030257702658504802 0.0008740008110180498
leaf_weight=28 21 34 30 20 20 20 21 20 24 20 26 20 20 31 21 20 24 23 21 21 27 20
leaf_count=28 21 34 30 20 20 20 21 20 24 20 26 20 20 31 21 20 24 23 21 21 27 20
internal_value=0 0.00312021 0.00733045 0.00116733 -0.0199694 0.0247107 0.0119582 0.0256158 0.0385911 0.0599635 -0.0307876 -0.0134961 -0.0307592 -0.0136419 0.0214383 -0.069762 -0.0598525 -0.097805 0.0254595 0.00608504 -0.00246765 0.0158331
internal_weight=0 511 477 427 225 202 174 154 134 50 205 142 116 96 110 63 44 43 52 89 68 41
internal_count=532 511 477 427 225 202 174 154 134 50 205 142 116 96 110 63 44 43 52 89 68 41
shrinkage=0.1


Tree=35
num_leaves=20
num_cat=0
split_feature=11 2 3 19 19 17 15 13 13 15 20 20 17 17 12 17 17 9 4
split_gain=0.114366 0.134551 0.141352 0.22184 0.14995 0.110246 0.217129 0.191421 0.168951 0.142024 0.139852 0.148517 0.0947089 0.0906122 0.0896123 0.0810219 0.0674662 0.0380289 0.0126755
threshold=0.073929510000000018 0.080182885000000009 0.10731252000000001 0.051253220000000009 0.029589005000000005 0.067836910000000014 0.081513095000000022 0.046803085000000008 0.023570390000000004 0.059342385000000004 0.10501616000000001 0.13636790500000004 0.027434040000000003 0.092260245000000005 0.022563190000000004 0.058388095000000008 0.033060130000000007 0.049390145000000003 0.05303842000000001
decision_type=2 2 2 2 2 2 2 2 2 2 2 2 2 2 2 2 2 2 2
left_child=1 2 3 4 5 6 7 8 10 13 -1 -12 -6 -7 -5 -14 17 -13 -19
right_child=-2 -3 -4 14 12 9 -8 -9 -10 -11 11 16 15 -15 -16 -17 -18 18 -20
leaf_value=0.0084341686850945875 -0.0053628365880482509 -0.0066014402277337824 -0.0074366560677299274 0.012881030840799213 0.0018727655056864025 -0.0040398899202652196 0.0097004844450994457 -0.0064561849845380624 0.0081443739150507521 -0.0093247700808569787 -0.0066929966436120973 -0.0038053527241572738 -0.010769392418759792 0.0042038446478545669 0.003728545990610576 -0.0024485188708640634 0.0050538044066770994 0.0021856773809083058 -0.00093899677682202315
leaf_weight=21 37 26 20 20 20 24 34 29 39 20 29 22 22 30 23 25 34 37 20
leaf_count=21 37 26 20 20 20 24 34 29 39 20 29 22 22 30 23 25 34 37 20
internal_value=0 0.00400858 0.00789046 0.0115545 0.00432065 0.0128644 0.022394 0.0114123 0.0223195 -0.0212618 0.00817315 -0.00309121 -0.0389081 0.00539963 0.0798552 -0.063434 0.0132922 -0.00273767 0.010893
internal_weight=0 495 469 449 406 339 265 231 202 74 163 142 67 54 43 47 113 79 57
internal_count=532 495 469 449 406 339 265 231 202 74 163 142 67 54 43 47 113 79 57
shrinkage=0.1


Tree=36
num_leaves=20
num_cat=0
split_feature=15 14 10 8 12 3 13 15 18 5 3 20 8 8 17 0 21 19 13
split_gain=0.104117 0.128632 0.179556 0.13484 0.155611 0.203621 0.108357 0.105354 0.355439 0.184541 0.145888 0.132111 0.124626 0.123525 0.094308 0.109245 0.101528 0.084241 0.0822013
threshold=0.14485530000000005 0.092566335000000013 1.0000000180025095e-35 0.083395385000000016 0.035673530000000002 0.027649570000000005 0.019720315000000006 0.044554470000000006 0.022185080000000003 0.048771840000000004 0.065158160000000007 0.13636790500000004 0.029610760000000003 0.057795445000000008 0.033060130000000007 0.076946030000000012 0.17974885500000001 0.015175955000000003 0.014405785000000003
decision_type=2 2 2 2 2 2 2 2 2 2 2 2 2 2 2 2 2 2 2
left_child=1 2 7 4 5 -4 -3 10 9 -9 12 -11 -1 -14 15 -15 -16 -7 -6
right_child=-2 6 3 -5 18 17 -8 8 -10 11 -12 -13 13 14 16 -17 -18 -19 -20
leaf_value=-0.0039573611333393139 -0.0069009026166029462 0.0012501510012702182 -0.014386712179447599 0.0031015414066496308 0.0045440927613526584 -0.0084384411939286766 0.010817954274825752 -0.0056302502813438578 0.014448886977334041 0.00016593070280167363 -0.006582332933321596 0.01059051062911749 0.0097184345382265759 -0.0067465492359284939 0.0094290414274754847 0.0020653557071722496 0.00035110445293997018 -0.00023543627542113108 -0.0035035565169528127
leaf_weight=39 21 29 26 30 22 21 20 30 24 31 30 20 20 24 22 34 28 31 30
leaf_count=39 21 29 26 30 22 21 20 30 24 31 30 20 20 24 22 34 28 31 30
internal_value=0 0.00283599 -0.00233105 -0.0294157 -0.0433613 -0.0716103 0.0515538 0.0120184 0.0376019 0.00593167 -0.00161744 0.04254 0.00991655 0.0249956 0.0116273 -0.0158095 0.043454 -0.0354819 -0.000987818
internal_weight=0 511 462 160 130 78 49 302 105 81 197 51 167 128 108 58 50 52 52
internal_count=532 511 462 160 130 78 49 302 105 81 197 51 167 128 108 58 50 52 52
shrinkage=0.1


Tree=37
num_leaves=21
num_cat=0
split_feature=11 8 11 20 6 8 2 21 14 15 12 17 9 14 11 2 17 17 0 9
split_gain=0.0907757 0.21994 0.12993 0.1142 0.174931 0.259069 0.215064 0.133511 0.130977 0.167569 0.166076 0.125873 0.149477 0.124514 0.113182 0.084041 0.0660638 0.0643734 0.0294293 0.0236628
threshold=0.053339355000000012 0.057091650000000008 0.044537980000000005 0.12405003500000002 0.037189960000000008 0.027754020000000001 0.029948140000000002 0.19618944500000005 0.025190675000000006 0.024765055000000005 0.014940590000000002 0.020410885000000004 0.056520265000000007 0.07139079000000001 1.0000000180025095e-35 0.021491265000000006 0.058388095000000008 0.049431640000000006 0.036434860000000006 0.095697560000000001
decision_type=2 2 2 2 2 2 2 2 2 2 2 2 2 2 2 2 2 2 2 2
left_child=2 17 3 4 5 -1 -7 8 11 10 -10 -5 -13 14 -11 18 -14 -2 -9 -20
right_child=1 -3 -4 7 -6 6 -8 15 9 13 -12 12 16 -15 -16 -17 -18 -19 19 -21
leaf_value=-0.0060516399238258606 0.0046079024449800663 -0.010647764637206611 0.0068722457624971868 -0.0052464008214883513 0.0098137203431515798 0.010804000717852716 -0.0021445965131177852 -0.0018699821018214738 0.0071888647507876158 -0.00058846946904492204 -0.0045753599639283497 0.010282097330782563 0.0040212201746180655 -0.013554720408172303 -0.0089351329028431788 0.0079920619726181041 -0.0038372344129880814 -0.0030499317015277314 0.0045174420143113186 2.8829871613803944e-05
leaf_weight=35 23 26 30 25 27 29 23 28 21 33 28 20 20 21 32 20 23 21 23 24
leaf_count=35 23 26 30 25 27 29 23 28 21 33 28 20 20 21 32 20 23 21 23 24
internal_value=0 -0.0335584 0.0050846 0.000665308 0.0278205 0.00599803 0.0507674 -0.00906956 -0.0224434 -0.0420101 0.00466451 0.00757386 0.0313984 -0.0686038 -0.046976 0.0223237 -0.00182139 0.00953027 0.00696448 0.0222538
internal_weight=0 70 462 432 114 87 52 318 223 135 49 88 63 86 65 95 43 44 75 47
internal_count=532 70 462 432 114 87 52 318 223 135 49 88 63 86 65 95 43 44 75 47
shrinkage=0.1


Tree=38
num_leaves=21
num_cat=0
split_feature=13 11 20 14 8 9 21 8 17 20 8 3 21 2 6 16 20 18 16 20
split_gain=0.0880551 0.0901592 0.102446 0.215585 0.199009 0.179197 0.154121 0.270758 0.146362 0.146161 0.127095 0.0936632 0.0845874 0.139572 0.130588 0.104599 0.0534586 0.0396895 0.0342469 0.0028615
threshold=0.084917985000000015 0.073929510000000018 0.12405003500000002 0.029444145000000001 1.0000000180025095e-35 1.0000000180025095e-35 0.12428260000000001 0.041202190000000007 0.041788405000000008 0.14712479500000003 0.042213610000000006 0.021171305000000005 0.17067951000000003 0.033060130000000007 1.0000000180025095e-35 0.017548040000000004 0.18678127500000002 0.016539655000000004 0.029015740000000002 0.15791638500000002
decision_type=2 2 2 2 2 2 2 2 2 2 2 2 2 2 2 2 2 2 2 2
left_child=1 2 3 6 9 -6 8 -8 -1 -4 11 -7 14 16 15 -12 17 19 -13 -14
right_child=-2 -3 4 -5 5 10 7 -9 -10 -11 12 18 13 -15 -16 -17 -18 -19 -20 -21
leaf_value=0.0029062114888802172 -0.0061943416187370363 -0.0044866890350759433 -0.0016428424697369336 0.012604114380083048 -0.0090578954929865351 -0.0095087179995101429 0.013980684850719714 -0.0010403658696304773 -0.0072299452819700911 0.0090192924434733066 -0.0047258664236869662 -0.0044260839070193476 0.001204117828165181 0.0091377403009682886 -0.0069494378256301087 0.0041690751223657759 -0.0038770097424276175 0.0054952874520412566 0.0014260039327200502 -0.00040067084273323421
leaf_weight=28 22 37 20 20 27 23 21 28 29 36 20 20 20 25 30 39 20 22 20 25
leaf_count=28 22 37 20 20 27 23 21 28 29 36 20 20 20 25 30 39 20 22 20 25
internal_value=0 0.00267207 0.00639076 0.0308136 -0.00247749 -0.012983 0.0128462 0.0539723 -0.0225078 0.0521139 -0.0050471 -0.0442384 0.00723675 0.0255237 -0.015776 0.0115384 0.0066002 0.0201436 -0.0150004 0.00312569
internal_weight=0 510 473 126 347 291 106 49 57 56 264 63 201 112 89 59 87 67 40 45
internal_count=532 510 473 126 347 291 106 49 57 56 264 63 201 112 89 59 87 67 40 45
shrinkage=0.1


Tree=39
num_leaves=20
num_cat=0
split_feature=1 16 11 20 9 18 9 5 20 7 3 10 2 0 2 15 0 4 8
split_gain=0.0780564 0.136929 0.120496 0.264104 0.132444 0.147092 0.126208 0.121796 0.0972084 0.228482 0.116095 0.213562 0.141428 0.0937741 0.0945619 0.0750102 0.0522833 0.0510012 0.0285253
threshold=0.10916801500000002 0.095279505000000014 0.051554845000000009 0.14192430500000003 0.135158835 0.05503114500000001 0.15261353500000005 0.039398440000000007 0.12405003500000002 0.046494280000000006 0.026388535000000001 0.017151745000000006 0.021491265000000006 0.083942505000000014 0.016071055000000004 0.033086515000000004 0.035757970000000007 0.016462245000000004 0.12622674500000003
decision_type=2 2 2 2 2 2 2 2 2 2 2 2 2 2 2 2 2 2 2
left_child=1 2 4 7 5 8 -6 -4 9 -1 11 12 16 14 -12 -16 -10 -8 -18
right_child=-2 -3 3 -5 6 -7 17 -9 10 -11 13 -13 -14 -15 15 -17 18 -19 -20
leaf_value=0.0096894310453165058 0.0045644938759505744 -0.0062612060622389736 -0.013344643795227802 0.0051640648475807654 0.011201138456263358 0.0067276780547750803 0.0055836001309849653 -0.0032349415651809141 0.0045818968082312495 -0.0023417665696653881 -0.011588521847235305 -0.0068504375622918216 0.0092833908647298822 0.0011907341443002225 -0.0074011973715547852 -0.00026894574655064691 -0.0043634878785815089 -0.0006753822307412824 0.0008546246042401023
leaf_weight=27 35 36 22 23 21 29 23 26 20 38 21 30 25 25 29 30 20 30 22
leaf_count=27 35 36 22 23 21 29 23 26 20 38 21 30 25 25 29 30 20 30 22
internal_value=0 -0.00321443 0.00142399 -0.0364672 0.00832214 -0.000595632 0.0464034 -0.0786856 -0.00745382 0.0265581 -0.0174123 0.00425142 0.0293396 -0.0415518 -0.0582578 -0.0377463 0.00373708 0.0204078 -0.0163019
internal_weight=0 497 461 71 390 316 74 48 287 65 222 117 87 105 80 59 62 53 42
internal_count=532 497 461 71 390 316 74 48 287 65 222 117 87 105 80 59 62 53 42
shrinkage=0.1


Tree=40
num_leaves=21
num_cat=0
split_feature=15 14 10 8 21 0 21 4 4 4 17 3 15 20 12 7 3 0 3 9
split_gain=0.0750673 0.0938855 0.111519 0.103923 0.127292 0.139929 0.0936467 0.0778026 0.180232 0.122732 0.103647 0.193154 0.0778746 0.117155 0.0712537 0.0773596 0.0681113 0.0629739 0.055409 0.0261508
threshold=0.14485530000000005 0.092566335000000013 1.0000000180025095e-35 0.083395385000000016 0.16754556000000001 0.046412370000000008 0.19876519000000004 0.074034245000000012 0.052323495000000005 0.086673250000000021 0.028700445000000002 0.038574255000000009 0.070323320000000009 0.11989432500000001 0.041644330000000007 0.040919440000000008 0.021171305000000005 0.021280910000000004 0.043598750000000012 0.068662715000000027
decision_type=2 2 2 2 2 2 2 2 2 2 2 2 2 2 2 2 2 2 2 2
left_child=1 2 7 4 5 18 -3 8 10 -9 11 17 13 -12 15 -15 -7 -1 -4 -19
right_child=-2 6 3 -5 -6 16 -8 9 -10 -11 12 -13 -14 14 -16 -17 -18 19 -20 -21
leaf_value=-0.0045089841895969585 -0.005859633677062534 0.008188883354887367 0.0058372035791928118 0.0029701452737208459 -0.0098177617881447087 -0.0097275083884596839 -0.00064508070049452645 -0.0082591891415755864 0.0083295810874551551 0.0014434451344641276 0.0066381442389683801 0.010209132771490624 -0.0069003491352001836 0.0038591705193674122 -0.0064743828115751967 -0.0037107323460211909 -0.0026636302208480163 -0.00032381379490040922 -0.0012601095040074804 0.0044034518990665678
leaf_weight=20 21 28 22 30 26 21 21 22 35 32 20 27 21 27 24 27 39 22 22 25
leaf_count=20 21 28 22 30 26 21 21 22 35 32 20 27 21 27 24 27 39 22 22 25
internal_value=0 0.00240807 -0.00200627 -0.0233513 -0.0355942 -0.0199484 0.044029 0.00930235 0.016792 -0.0250948 0.0058642 0.030684 -0.0137413 -0.00189944 -0.0194074 0.000742191 -0.0513599 0.00190787 0.0228855 0.0219069
internal_weight=0 511 462 160 130 104 49 302 248 54 213 94 119 98 78 54 60 67 44 47
internal_count=532 511 462 160 130 104 49 302 248 54 213 94 119 98 78 54 60 67 44 47
shrinkage=0.1


Tree=41
num_leaves=20
num_cat=0
split_feature=2 18 18 18 3 19 15 8 19 16 5 17 5 5 12 0 4 4 3
split_gain=0.0702801 0.0712551 0.148317 0.165728 0.142627 0.108497 0.185014 0.107869 0.0967056 0.119344 0.126971 0.1225 0.129604 0.196795 0.15189 0.173514 0.0712543 0.0388606 0.0232694
threshold=0.095898885000000003 0.043836224999999999 0.029362095000000005 0.021325265000000003 0.083281930000000018 0.045516310000000011 0.025866210000000004 0.048351745000000008 0.029589005000000005 0.045075795000000009 0.077513235 0.081513095000000022 0.072432220000000005 0.10659470500000001 0.044657480000000006 0.054096850000000009 0.022591265000000003 0.053618670000000007 0.036314615000000001
decision_type=2 2 2 2 2 2 2 2 2 2 2 2 2 2 2 2 2 2 2
left_child=1 2 3 4 5 8 -7 -3 9 11 -11 12 14 -14 15 -1 -6 -17 -10
right_child=-2 7 -4 -5 16 6 -8 -9 18 10 -12 -13 13 -15 -16 17 -18 -19 -20
leaf_value=0.0093759308801963925 -0.0056697136678156403 0.0086652194110987089 -0.0061550046510283687 0.0068565475208743013 -0.0016198511013672465 0.012189271664246918 -0.00014721043032383727 -0.00032931720449899633 -0.0061704524214668526 -0.0074967989726274307 0.0024499996033098019 -0.0034450444733355092 0.014229642364873805 0.00085410907314243658 -0.0067638786113820978 0.0017403150930673491 -0.0098576460477142122 -0.0036455871825594277 -0.0017366485483944418
leaf_weight=28 21 24 38 36 21 20 31 30 29 33 21 37 22 22 20 37 21 21 20
leaf_count=28 21 24 38 36 21 20 31 30 29 33 21 37 22 22 20 37 21 21 20
internal_value=0 0.00233002 -0.00172914 0.00369614 -0.00240123 0.00437127 0.0469063 0.0366825 -0.00310903 0.00512508 -0.036286 0.0170834 0.029795 0.0754188 0.0108569 0.0291117 -0.0573875 -0.00209753 -0.0436074
internal_weight=0 511 457 419 383 341 51 54 290 241 54 187 150 44 106 86 42 58 49
internal_count=532 511 457 419 383 341 51 54 290 241 54 187 150 44 106 86 42 58 49
shrinkage=0.1


Tree=42
num_leaves=21
num_cat=0
split_feature=13 16 17 15 1 11 13 4 16 3 9 10 21 2 15 17 0 21 9 8
split_gain=0.068121 0.0725831 0.157783 0.19247 0.123118 0.143754 0.198082 0.123207 0.112531 0.128108 0.098618 0.0862389 0.0852571 0.202292 0.0757641 0.123184 0.0414693 0.0339563 0.0293267 0.0137835
threshold=0.06532213000000002 0.016645890000000003 0.073479140000000012 0.084326180000000014 0.071543630000000011 0.04753018500000001 0.044343680000000003 0.017548040000000004 0.087292410000000015 0.016816660000000004 0.063912230000000014 0.044681780000000004 0.17019268500000004 0.025080090000000003 0.039811050000000008 0.043992030000000008 0.072189560000000014 0.20383534000000003 0.083847785000000022 0.17498979500000003
decision_type=2 2 2 2 2 2 2 2 2 2 2 2 2 2 2 2 2 2 2 2
left_child=1 2 3 11 5 6 8 -7 9 18 -4 12 16 17 -11 -16 -1 -14 -3 -19
right_child=-2 4 10 -5 -6 7 -8 -9 -10 14 -12 -13 13 -15 15 -17 -18 19 -20 -21
leaf_value=-0.0058542971820729275 -0.004138913298831196 0.0066056663968733376 -0.0088894805312156686 0.011701227828267623 0.0047933895907857843 -0.001388393621891737 0.0078301339149475097 -0.01209693410941823 -0.0077611771421148808 -0.006101742078010973 0.00037519265983805615 0.007265504620348414 0.0029317140695638956 0.011440503048943356 0.0040247742591115335 -0.0054796815570443873 9.8637298680841925e-05 -0.0035643826896557583 0.0013811662840783935 -4.2284408584237099e-05
leaf_weight=22 37 21 20 22 34 21 25 22 26 38 27 24 26 20 30 25 25 20 22 25
leaf_count=22 37 21 20 22 34 21 25 22 26 38 27 24 26 20 30 25 25 20 22 25
internal_value=0 0.00309373 0.016039 0.0292478 -0.00823338 -0.0165364 -0.004548 -0.0686718 -0.0173334 -0.00580959 -0.0356722 0.0173292 0.00770734 0.0255703 -0.026679 -0.00295433 -0.0268784 0.000546451 0.0393267 -0.0160766
internal_weight=0 495 231 184 264 230 187 43 162 136 47 162 138 91 93 55 47 71 43 45
internal_count=532 495 231 184 264 230 187 43 162 136 47 162 138 91 93 55 47 71 43 45
shrinkage=0.1


Tree=43
num_leaves=21
num_cat=0
split_feature=15 14 14 10 13 15 9 9 16 8 14 4 8 2 3 7 21 17 9 21
split_gain=0.0558942 0.064471 0.119442 0.0798532 0.114936 0.145711 0.090844 0.097222 0.0930521 0.102104 0.115886 0.0881739 0.0930875 0.109123 0.107669 0.080037 0.0777544 0.068814 0.0608872 0.00558821
threshold=0.14485530000000005 0.092566335000000013 0.073964895000000017 1.0000000180025095e-35 0.044343680000000003 0.031701275000000008 1.0000000180025095e-35 0.057892510000000008 0.061585280000000006 0.073480085000000014 1.0000000180025095e-35 0.034856245000000008 0.083395385000000016 0.029551750000000005 0.039725355000000011 0.033647135000000009 0.19876519000000004 0.03544542500000001 0.12841846500000001 0.20758043500000004
decision_type=2 2 2 2 2 2 2 2 2 2 2 2 2 2 2 2 2 2 2 2
left_child=1 2 3 4 6 -6 -1 15 9 10 -9 12 13 -5 -15 -8 -3 -13 -11 -20
right_child=-2 16 -4 11 5 -7 7 8 -10 18 -12 17 -14 14 -16 -17 -18 -19 19 -21
leaf_value=-0.0044634043442783877 -0.0050562499401470033 0.0071066119541813222 -0.0062595330807380381 0.0028969939685229099 0.00046371081420643761 0.012257256144657731 0.0098365740384906541 0.010019725720797268 -0.005975064654510631 -0.0046239142011686718 0.00062322583049535763 -0.0096980575146153585 0.0057500646195628429 -0.009539738050459521 -0.0002289695967057789 0.0019064926923186122 -0.00094294054433703429 -0.001755796209909022 0.002313903719186783 -5.0036437460221354e-05
leaf_weight=33 21 28 30 33 22 20 20 21 23 34 35 20 22 23 27 35 21 24 20 20
leaf_count=33 21 28 30 33 22 20 20 21 23 34 35 20 22 23 27 35 21 24 20 20
internal_value=0 0.00207791 -0.00158013 0.00265703 0.0125222 0.0607968 0.00410918 0.0118425 -0.00111994 0.00925319 0.0414691 -0.0160801 -0.000332755 -0.0156621 -0.0451192 0.0479016 0.036568 -0.0536591 -0.0151265 0.0113193
internal_weight=0 511 462 432 283 42 241 208 153 130 56 149 105 83 50 55 49 44 74 40
internal_count=532 511 462 432 283 42 241 208 153 130 56 149 105 83 50 55 49 44 74 40
shrinkage=0.1


Tree=44
num_leaves=20
num_cat=0
split_feature=13 21 9 8 1 6 9 19 20 21 21 20 16 5 12 8 5 4 17
split_gain=0.0546749 0.0560801 0.134431 0.207961 0.110003 0.0661419 0.0665419 0.0642415 0.123115 0.102743 0.093906 0.117213 0.11645 0.0697853 0.0390306 0.0834065 0.0754623 0.0333223 0.0572264
threshold=0.084917985000000015 0.097173035000000019 1.0000000180025095e-35 0.057091650000000008 0.016426010000000001 0.055304495000000009 0.029333565000000002 1.0000000180025095e-35 0.16801557000000003 0.18105951000000003 0.13224868000000004 0.14454525000000004 0.022156220000000001 0.06811279000000002 0.047535660000000007 0.054622560000000007 0.030573435000000006 0.028346625000000004 0.020944090000000002
decision_type=2 2 2 2 2 2 2 2 2 2 2 2 2 2 2 2 2 2 2
left_child=1 4 3 -3 -1 6 -4 10 9 14 -8 12 -12 17 15 16 -9 -13 -19
right_child=-2 2 5 -5 -6 -7 7 8 -10 -11 11 13 -14 -15 -16 -17 -18 18 -20
leaf_value=0.0084008953701097365 -0.0048810348697853369 0.0018231368978463469 0.0054269622804978025 -0.011940849389698681 -0.0016095975724359354 0.0048829786269174473 -0.004600570309692277 0.0063649674749467521 0.0035537008833166003 -0.0096422966942191143 0.0015545688482234256 -0.00098229784006865595 0.010242314446562281 -0.0049052598614556103 -0.004790658729545998 -0.0054186135740914888 -0.0012590976309257787 -7.4157867885123077e-05 0.0070408523373771464
leaf_weight=23 22 21 22 23 21 31 26 20 36 20 36 38 27 24 33 26 37 26 20
leaf_count=23 22 21 22 23 21 31 26 20 36 20 36 38 27 24 33 26 37 26 20
internal_value=0 0.00210554 -0.00111666 -0.0537167 0.0362316 0.00436771 0.000842584 -0.00234277 -0.0164637 -0.0302286 0.00998617 0.0184996 0.0527789 -0.00149672 -0.0188158 -0.00724954 0.0141601 0.0120907 0.0301932
internal_weight=0 510 466 44 44 422 391 369 172 136 197 171 63 108 116 83 57 84 46
internal_count=532 510 466 44 44 422 391 369 172 136 197 171 63 108 116 83 57 84 46
shrinkage=0.1


Tree=45
num_leaves=19
num_cat=0
split_feature=0 15 10 19 17 18 15 20 5 9 9 9 9 16 5 4 3 15
split_gain=0.0522209 0.146209 0.116084 0.124264 0.109616 0.137853 0.122886 0.0948485 0.0726581 0.120136 0.112233 0.0899385 0.0602914 0.110478 0.0534737 0.0756339 0.0397445 0.0368477
threshold=0.045902610000000003 0.095774465000000017 0.049794855000000006 0.051253220000000009 0.030555915000000003 0.015792425000000002 0.049768610000000012 0.10731548500000002 0.10659470500000001 0.040495735000000012 0.080212530000000018 0.067857310000000018 0.047094785000000007 0.025493265000000005 0.047587335000000008 0.048181450000000008 0.03332659000000001 0.044130475000000009
decision_type=2 2 2 2 2 2 2 2 2 2 2 2 2 2 2 2 2 2
left_child=1 7 3 4 6 12 14 -1 9 -9 11 -11 -6 16 15 -2 -14 -12
right_child=2 -3 -4 -5 5 -7 -8 8 -10 10 17 -13 13 -15 -16 -17 -18 -19
leaf_value=0.005745762347689142 0.0061312066162160297 -0.0088826897151937541 -0.0061213021505285396 0.00863667748741467 -0.0074716712884685919 0.0041568296583923137 0.0080295523279346522 0.0045510561700958093 -0.0060771723454818129 -0.0020350795290950273 -0.0010395410973088523 -0.010269810226080674 0.0045710190204377088 -0.0057705445557884455 -0.0024114464386366312 -0.0016935879429746865 -0.0014461390751724444 0.0037413203828951477
leaf_weight=23 30 22 22 22 23 37 35 39 25 36 38 21 23 36 30 21 21 28
leaf_count=23 30 22 22 22 23 37 35 39 25 36 38 21 23 36 30 21 21 28
internal_value=0 -0.0112663 0.00871264 0.0142463 0.00804848 -0.0107872 0.0307812 -0.00314095 -0.0105943 -0.00285082 -0.0181849 -0.0506893 -0.0295945 -0.0166219 0.00938611 0.0290923 0.0169919 0.00988703
internal_weight=0 232 300 278 256 140 116 210 187 162 123 57 103 80 81 51 44 66
internal_count=532 232 300 278 256 140 116 210 187 162 123 57 103 80 81 51 44 66
shrinkage=0.1


Tree=46
num_leaves=21
num_cat=0
split_feature=2 18 18 20 18 3 19 0 3 17 8 11 12 5 21 7 17 12 3 8
split_gain=0.0489818 0.0465121 0.0691704 0.103847 0.0995872 0.103352 0.0782809 0.143233 0.0735455 0.118512 0.117562 0.0910347 0.0995098 0.174468 0.122635 0.162512 0.0657627 0.0485262 0.0296672 0.0103094
threshold=0.095898885000000003 0.052317230000000006 0.029362095000000005 0.16442726500000002 0.021325265000000003 0.083281930000000018 0.045516310000000011 0.052390980000000011 0.022358685000000003 0.037171265000000009 0.075529390000000016 0.041978435000000001 0.026277200000000004 0.088092035000000013 0.18579799500000002 0.025699235000000004 0.057091650000000008 0.028209730000000006 0.043598750000000012 0.18552563500000002
decision_type=2 2 2 2 2 2 2 2 2 2 2 2 2 2 2 2 2 2 2 2
left_child=1 2 4 -4 5 6 8 -8 11 10 -10 12 14 -14 15 -1 -11 -7 -18 -16
right_child=-2 -3 3 -5 -6 17 7 -9 9 16 -12 -13 13 -15 19 -17 18 -19 -20 -21
leaf_value=-0.0005957936967856118 -0.0047332802077844037 0.00366003523231484 -0.0070983366851578474 0.0016034818584254634 0.0054015842864626193 -0.0081794395776731629 -0.00034404259019841751 0.010424002160185152 0.0013549446648297211 -0.0051861806122663751 0.01111041440051936 -0.0077165613837894944 -0.0017636381925138481 0.0098292175325609393 0.0021745898122899235 -0.013191123981960118 0.0039317390193570065 -0.0013812455836506119 -0.00086983809127442297 -0.00087146299978485336
leaf_weight=21 21 36 32 24 36 21 30 21 30 24 21 21 34 21 25 20 22 21 31 20
leaf_count=21 21 36 32 24 36 21 30 21 30 24 21 21 34 21 25 20 22 21 31 20
internal_value=0 0.00194518 -0.000681314 -0.0336899 0.00373033 -0.000996246 0.00476886 0.0408986 -0.00158499 0.0163306 0.053719 -0.0157405 -0.00659211 0.0266272 -0.0278371 -0.0673986 -0.00843312 -0.0478034 0.0112327 0.00820789
internal_weight=0 511 475 56 419 383 341 51 290 128 51 162 141 55 86 41 77 42 53 45
internal_count=532 511 475 56 419 383 341 51 290 128 51 162 141 55 86 41 77 42 53 45
shrinkage=0.1


Tree=47
num_leaves=21
num_cat=0
split_feature=21 9 8 1 1 16 14 13 5 2 3 12 12 8 11 5 14 9 13 9
split_gain=0.0430049 0.108784 0.158456 0.0967259 0.0628371 0.0804136 0.103018 0.102652 0.0927602 0.0778149 0.110797 0.104357 0.145336 0.109263 0.0698902 0.0418914 0.038895 0.0375687 0.0209506 0.0110288
threshold=0.097173035000000019 1.0000000180025095e-35 0.057795445000000008 0.039255920000000007 0.071543630000000011 0.061585280000000006 0.030920460000000004 0.034659365000000004 0.070326970000000003 0.047673605000000008 0.052941840000000011 0.03183343000000001 0.05889318000000001 0.034418750000000005 0.030970830000000005 0.028904010000000004 0.057826100000000005 0.135158835 0.046803085000000008 0.087774705000000022
decision_type=2 2 2 2 2 2 2 2 2 2 2 2 2 2 2 2 2 2 2 2
left_child=3 2 -2 -1 5 7 -7 9 18 11 -11 14 13 -13 15 17 19 -3 -9 -17
right_child=1 4 -4 -5 -6 6 -8 8 -10 10 -12 12 -14 -15 -16 16 -18 -19 -20 -21
leaf_value=0.0071251546300482001 0.0004891534541876843 -0.0051986849502376892 -0.011042126526378773 -0.0020808375795327481 0.0051933548490827285 -0.0003820136590787259 -0.0091093460585744603 0.0011925034783780576 -0.0085390948352869599 0.0091625945451336774 -0.00032069250856610863 0.012291543185710907 -0.0017576697829292352 0.0028866921318694951 -0.0058371543921530251 0.0016332977422596586 0.0052712818184954815 0.00051694651508865804 -0.0025144876895337215 -0.0013728622389652838
leaf_weight=25 26 23 22 21 24 38 21 30 20 28 22 21 33 30 25 23 20 23 31 26
leaf_count=25 26 23 22 21 24 38 21 30 20 28 22 21 33 30 25 23 20 23 31 26
internal_value=0 -0.00276608 -0.0479602 0.0292242 0.0021867 -0.000697174 -0.0348835 0.0049845 -0.0262909 0.0142301 0.0498995 0.00626823 0.0341333 0.0675928 -0.0104508 -3.32972e-05 0.0155503 -0.0234087 -0.00691377 0.000381924
internal_weight=0 486 48 46 438 414 59 355 81 274 50 224 84 51 140 115 69 46 61 49
internal_count=532 486 48 46 438 414 59 355 81 274 50 224 84 51 140 115 69 46 61 49
shrinkage=0.1


Tree=48
num_leaves=20
num_cat=0
split_feature=2 5 6 15 9 19 9 5 2 10 2 18 7 14 14 3 3 7 17
split_gain=0.0428706 0.0437891 0.104085 0.0690671 0.140029 0.120472 0.0919283 0.0803755 0.140974 0.109651 0.177069 0.1134 0.0785524 0.0655062 0.0383852 0.0379019 0.0343799 0.0334927 0.0143488
threshold=0.095898885000000003 0.14781804000000001 0.05655068500000001 0.024765055000000005 0.034046830000000007 0.041305215000000013 0.082766400000000004 0.027035045000000004 0.036420150000000005 1.0000000180025095e-35 0.044448305000000007 0.020586530000000002 0.046494280000000006 0.045345255000000008 0.038440445000000011 0.021171305000000005 0.046566840000000005 0.046813630000000009 0.016002135000000004
decision_type=2 2 2 2 2 2 2 2 2 2 2 2 2 2 2 2 2 2 2
left_child=1 2 3 4 -1 6 12 8 14 10 11 17 -6 18 -5 -11 -17 -9 -8
right_child=-2 -3 -4 7 5 -7 13 9 -10 15 -12 -13 -14 -15 -16 16 -18 -19 -20
leaf_value=0.0070922188971760782 -0.0044281738499800365 -0.0035919762409195818 0.0060140706148118749 -0.0045066187073561281 -0.008169292905726112 0.0070077949584546415 0.00078775986658001789 -0.00023131075675689408 0.002273661768792764 -0.0061726138740777967 -0.0044986882778175639 0.010599821566471032 -0.00023565477476950036 0.0057488942954064858 -0.010483783258435627 0.0011264966955842773 -0.0040672463178634639 0.0042528420928748456 -0.0023424714176346444
leaf_weight=36 21 29 31 22 26 22 32 31 23 25 32 21 24 22 21 26 25 36 27
leaf_count=36 21 29 31 22 26 22 32 31 23 25 32 21 24 22 21 26 25 36 27
internal_value=0 0.0018198 0.00409044 0.000237756 0.014808 0.00160467 -0.00989466 -0.0102728 -0.0404562 -0.000109065 0.0187142 0.0418782 -0.0436115 0.0109182 -0.074257 -0.0298299 -0.0141946 0.0217808 -0.00644719
internal_weight=0 511 482 451 189 153 131 262 66 196 120 88 50 81 43 76 51 67 59
internal_count=532 511 482 451 189 153 131 262 66 196 120 88 50 81 43 76 51 67 59
shrinkage=0.1


Tree=49
num_leaves=20
num_cat=0
split_feature=0 15 0 10 14 13 2 5 20 11 20 3 13 13 8 20 3 9 4
split_gain=0.0393387 0.105965 0.0833168 0.0937087 0.100268 0.108511 0.108413 0.0837222 0.0957028 0.0655296 0.0991017 0.0577669 0.0663074 0.118136 0.0574871 0.0594549 0.0588968 0.0574676 0.0380625
threshold=0.045902610000000003 0.095774465000000017 0.052390980000000011 1.0000000180025095e-35 0.073964895000000017 0.044343680000000003 0.028572170000000004 0.063986390000000018 0.13540341000000003 0.053339355000000012 0.10731548500000002 0.077501775000000009 0.034659365000000004 0.014405785000000003 0.037989705000000006 0.13751631500000003 0.039725355000000011 0.097401610000000013 0.041470700000000006
decision_type=2 2 2 2 2 2 2 2 2 2 2 2 2 2 2 2 2 2 2
left_child=1 9 -2 4 5 6 7 8 -4 10 -1 12 13 17 16 -16 -5 18 -12
right_child=2 -3 3 14 -6 -7 -8 -9 -10 -11 11 -13 -14 -15 15 -17 -18 -19 -20
leaf_value=0.0070717052044346933 0.0050673552836554177 -0.0075807626867158851 -0.0075113424211740503 -0.009210141887306237 -0.0052372749452479182 0.0083207017928361906 0.0059903336880619039 0.0035194823451368423 0.00041458257774371684 -0.0046130900705854102 -0.0039487617345002951 -0.0042706174535616752 -0.0034103415586287157 0.008686671127506998 0.0035538714061575855 -0.0037176446159086795 -0.0015357201243750753 0.0041202840043600497 0.0015302458411800522
leaf_weight=20 39 22 25 20 20 25 34 33 39 30 32 31 32 20 22 23 20 24 21
leaf_count=20 39 22 25 20 20 25 34 33 39 30 32 31 32 20 22 23 20 24 21
internal_value=0 -0.00977847 0.00756201 0.00112006 0.0142882 0.0228344 0.0113129 -0.00571875 -0.0268148 -0.00286113 0.0043505 -0.00394532 0.00536931 0.0183912 -0.0261456 -0.00162681 -0.0537293 0.000605403 -0.0177783
internal_weight=0 232 300 261 176 156 131 97 64 210 180 160 129 97 85 45 40 77 53
internal_count=532 232 300 261 176 156 131 97 64 210 180 160 129 97 85 45 40 77 53
shrinkage=0.1


Tree=50
num_leaves=21
num_cat=0
split_feature=13 21 9 15 14 8 20 21 7 10 18 6 7 0 8 2 13 21 12 21
split_gain=0.0379829 0.0372225 0.0688692 0.152843 0.0385895 0.0989956 0.10718 0.09382 0.0770073 0.101442 0.0897159 0.116631 0.0788878 0.081894 0.0782615 0.0753369 0.065394 0.0421902 0.0371226 0.00757439
threshold=0.084917985000000015 0.092175525000000022 1.0000000180025095e-35 0.064701930000000019 1.0000000180025095e-35 0.10447015500000002 0.13636790500000004 0.13600164000000001 0.014588720000000001 0.018593130000000003 0.033025070000000011 0.037189960000000008 0.046494280000000006 0.045204770000000005 0.067103045000000014 0.021719385000000004 0.015575070000000002 0.17067951000000003 0.032105585000000006 0.21902907000000002
decision_type=2 2 2 2 2 2 2 2 2 2 2 2 2 2 2 2 2 2 2 2
left_child=1 -1 3 -3 5 6 7 15 9 16 11 12 13 -10 18 -4 -6 -7 -14 -19
right_child=-2 2 4 -5 8 17 -8 -9 10 -11 -12 -13 14 -15 -16 -17 -18 19 -20 -21
leaf_value=0.0034773409613990227 -0.004068291834978895 0.00080494127250858589 0.0031630469864467161 -0.01033887336961925 0.0032272717521880713 -0.0046388099784962838 0.010154975138138981 0.0059993588795998337 0.0014744709647292722 0.007051981782673725 -0.0076623362843834227 -0.0078479249821975829 0.0035773488518316301 -0.0058625011151889339 0.0078204023590660657 -0.0050222587083344873 -0.0046644940706236024 0.001420400605814892 -0.0015593963699168801 -0.00097471134516957181
leaf_weight=32 22 32 22 20 21 24 20 33 29 28 21 20 24 32 20 23 21 31 34 23
leaf_count=32 22 32 22 20 21 24 20 33 29 28 21 20 24 32 20 23 21 31 34 23
internal_value=0 0.00175495 -0.000455491 -0.0348114 0.00373819 0.0150816 0.0362401 0.0194941 -0.00424757 0.0238963 -0.0151924 -0.00707886 0.00319457 -0.0237443 0.0242622 -0.0102055 -0.00718611 -0.0115022 0.00566153 0.0040026
internal_weight=0 510 478 52 426 176 98 78 250 70 180 159 139 61 78 45 42 78 58 54
internal_count=532 510 478 52 426 176 98 78 250 70 180 159 139 61 78 45 42 78 58 54
shrinkage=0.1


Tree=51
num_leaves=19
num_cat=0
split_feature=5 1 1 8 15 5 5 21 16 18 4 4 17 3 20 17 7 9
split_gain=0.0391422 0.0487408 0.109016 0.107547 0.0603161 0.0707484 0.072673 0.0591502 0.0876733 0.0913091 0.0865376 0.0716483 0.0864793 0.0631614 0.0612905 0.0671313 0.041261 0.0339592
threshold=0.14781804000000001 0.045029620000000006 0.028923070000000002 0.056397730000000007 0.092388420000000013 0.090427000000000021 0.072432220000000005 0.12772496500000005 0.024427050000000002 1.0000000180025095e-35 0.022591265000000003 0.046775010000000013 0.033060130000000007 0.028947405000000006 0.17533633500000004 0.028700445000000002 0.039334785000000004 0.085457970000000008
decision_type=2 2 2 2 2 2 2 2 2 2 2 2 2 2 2 2 2 2
left_child=1 2 4 -3 5 6 7 10 11 13 -1 14 -13 -10 15 -9 -17 -7
right_child=-2 3 -4 -5 -6 17 -8 8 9 -11 -12 12 -14 -15 -16 16 -18 -19
leaf_value=0.0088657415006309758 -0.003508796577807516 0.0064272822482356181 -0.00645293532512509 -0.0016797120634388801 -0.0035164163113595584 -0.0055157016131561253 0.0055232566165025624 0.0020441311272507948 -0.0089756045288041895 0.0018080673916565796 -0.00022293725897642698 0.0011617103273692919 0.0094203647037613258 -0.0021054201124570682 0.0031135072593595119 -0.0073355128988623619 -0.0010597248375415803 -0.00019136554075647956
leaf_weight=20 30 36 26 30 39 25 34 27 23 31 22 32 21 32 39 22 20 23
leaf_count=20 30 36 26 30 39 25 34 27 23 31 22 32 21 32 39 22 20 23
