tree
version=v3
num_class=1
num_tree_per_iteration=1
label_index=0
max_feature_idx=5
objective=regression
feature_names=Column_0 Column_1 Column_2 Column_3 Column_4 Column_5
feature_infos=[-1.94147509:1.22914992] [-1.0895072699999999:1.22809273] [-0.93116180999999998:0.88414875999999998] [-3.1421945099999999:1.7365492600000001] [-1.5448711100000001:1.04757978] [-1.0670500000000001:0.73794736999999999]
tree_sizes=1845 1965 1886 2141 1810 1983 1738 2001 1828 2084 2013 1833 1845 2003 1920 2010 1930 1922 2011 1849 1848 1857 1924 1926 1839 1925 1845 1949 1933 1869 1843 1942 1863 1851 1845 1852 1948 2026 1952 1852 1944 1855 1946 1960 1934 1859 1859 1864 1869 1772 2027 1773 1953 1941 1868 1873 2038 1868 1880 2141 1946 1795 1870 1792 1870 2141 1803 1883 1797 1866 1885 2042 1965 1867 1970 1960 1966 1873 1871 1882 2058 1881 1982 1962 1783 1883 2049 1982 1877 2059 1784 1968 1794 1956 1794 2057 1892 2153 1862 1967

Tree=0
num_leaves=21
num_cat=0
split_feature=3 2 2 3 0 5 4 1 5 1 0 0 0 4 3 1 1 3 5 1
split_gain=24.9314 5.14382 3.6407 2.86883 1.20008 1.18377 1.34674 2.00407 1.52727 1.26933 0.992178 0.832035 0.815564 0.551165 0.433505 0.297527 0.292012 0.267857 0.133333 0.111111
threshold=-0.35837396999999999 -0.34292335999999995 0.12987179500000004 -0.55198365499999991 -0.09396367999999998 -0.16700022499999997 -0.021593794999999995 -0.005409559999999999 1.0000000180025095e-35 0.035694680000000013 0.072813900000000015 0.12080919500000002 -0.074632314999999991 -0.18931573499999996 0.031200955000000002 -0.025260499999999995 -0.013290579999999998 -0.099763724999999984 1.0000000180025095e-35 0.12026163000000001
decision_type=2 2 2 2 2 2 2 2 2 2 2 2 2 2 2 2 2 2 2 2
left_child=3 -2 5 15 -4 10 9 14 -9 13 16 -6 -5 -7 -8 18 -3 -15 -1 -11
right_child=1 2 4 12 11 6 7 8 -10 19 -12 -13 -14 17 -16 -17 -18 -19 -20 -21
leaf_value=0.55000000000000004 0.53500000000000003 0.50652173913043474 0.52500000000000002 0.52812499999999996 0.48181818181818181 0.48703703703703705 0.46153846153846156 0.48181818181818181 0.52000000000000002 0.45000000000000001 0.47272727272727272 0.51000000000000001 0.50588235294117645 0.47857142857142859 0.47962962962962963 0.5346153846153846 0.48999999999999999 0.4642857142857143 0.54047619047619044 0.45999999999999996
leaf_weight=49 20 23 20 32 22 27 26 22 20 25 22 20 34 21 27 26 20 35 21 20
leaf_count=49 20 23 20 32 22 27 26 22 20 25 22 20 34 21 27 26 20 35 21 20
internal_value=0 -0.143243 -0.171429 0.32716 0.0483871 -0.21875 -0.253363 -0.163158 -0 -0.320313 -0.1 -0.047619 0.166667 -0.246988 -0.292453 0.4375 -0.0116279 -0.303571 0.471429 -0.455556
internal_weight=0 370 350 162 62 288 223 95 42 128 65 42 66 83 53 96 43 56 70 45
internal_count=532 370 350 162 62 288 223 95 42 128 65 42 66 83 53 96 43 56 70 45
shrinkage=1


Tree=1
num_leaves=22
num_cat=0
split_feature=3 2 2 3 0 5 4 1 5 1 4 0 0 0 0 3 5 4 1 1 0
split_gain=20.1944 4.1665 2.94896 2.32375 0.972062 0.958856 1.09086 1.6233 1.26221 1.02816 0.920198 0.673948 0.660607 0.612326 0.482417 0.435374 0.266761 0.227424 0.103455 0.09 2.72109e-06
threshold=-0.35837396999999999 -0.34292335999999995 0.12987179500000004 -0.55198365499999991 -0.09396367999999998 -0.16700022499999997 -0.021593794999999995 -0.005409559999999999 -0.018412864999999997 0.035694680000000013 0.0093905950000000033 0.12080919500000002 -0.074632314999999991 -0.051200414999999992 -0.15313562999999999 0.12560909000000001 0.010006650000000001 -0.13353868999999999 -0.027632659999999996 0.12026163000000001 -0.12193019499999998
decision_type=2 2 2 2 2 2 2 2 2 2 2 2 2 2 2 2 2 2 2 2 2
left_child=3 -2 5 16 -4 10 9 15 -9 14 13 -6 -5 -3 -7 -8 18 -16 20 -11 -1
right_child=1 2 4 12 11 6 7 8 -10 19 -12 -13 -14 -15 17 -17 -18 -19 -20 -21 -22
leaf_value=0.044999998807907109 0.031499999910593039 0.011724637235913958 0.022500000149011615 0.025312501192092898 -0.016363636065613141 -0.031853504572063686 -0.019264870972344372 -0.018181817829608919 0.016528925435109573 -0.044999998807907109 -0.025634388219226492 0.0090000009536743177 0.005294116367312039 -0.012148221785371956 -0.0096418397930952224 -0.03796296358108521 0.030725555236522969 -0.022999999165534975 0.036509156227111816 -0.036000000536441805 0.045047617852687842
leaf_weight=30 20 21 20 32 22 32 33 20 22 25 22 20 34 22 26 20 26 25 20 20 20
leaf_count=30 20 21 20 32 22 32 33 20 22 25 22 20 34 22 26 20 26 25 20 20 20
internal_value=0 -0.128919 -0.154286 0.294444 0.0435484 -0.196875 -0.228027 -0.146842 7.09579e-10 -0.288281 -0.09 -0.0428571 0.15 -0.00489384 -0.222289 -0.263208 0.39375 -0.1619 0.425876 -0.41 0.45019
internal_weight=0 370 350 162 62 288 223 95 42 128 65 42 66 43 83 53 96 51 70 45 50
internal_count=532 370 350 162 62 288 223 95 42 128 65 42 66 43 83 53 96 51 70 45 50
shrinkage=0.1


Tree=2
num_leaves=21
num_cat=0
split_feature=3 2 0 3 1 2 4 4 3 3 5 5 3 4 0 4 2 2 2 0
split_gain=16.3575 3.37486 2.5325 1.88224 1.85408 1.38247 1.08292 1.06948 2.81262 1.41214 1.40916 0.824908 0.607816 0.6355 0.453205 0.32767 0.245958 0.618471 0.238844 0.103383
threshold=-0.35837396999999999 -0.34292335999999995 0.33217473500000005 -0.55198365499999991 0.045029900000000005 0.12987179500000004 0.043175000000000005 -0.07069650999999999 -0.013576419999999997 -0.041318509999999996 -0.038494514999999986 -0.15133038999999995 -0.49233113999999994 -0.25599150999999992 -0.063141239999999973 0.015330665000000002 -0.14075332999999998 -0.028422994999999996 -0.091987434999999992 0.095959655000000019
decision_type=2 2 2 2 2 2 2 2 2 2 2 2 2 2 2 2 2 2 2 2
left_child=3 -2 4 16 5 6 7 9 -9 10 -3 -6 -5 -14 -7 19 -1 -18 -8 -13
right_child=1 2 -4 12 11 14 18 8 -10 -11 -12 15 13 -15 -16 -17 17 -19 -20 -21
leaf_value=0.041972100734710693 0.028349999189376831 0.0064665242578044084 0.018959044868295846 -0.0005478810696374802 -0.011729492441467617 0.016070453226566316 -0.019845226258039476 -0.02588255518958682 0.022913533007657087 -0.033526398196364895 -0.022541715555331288 -0.042628146937260261 0.03068477964401245 0.0067693020403385169 -0.0049632027035667785 -0.023851850628852846 0.017680857153165908 0.038966829730914192 -0.034263373745812307 -0.03306499972939491
leaf_weight=36 20 33 22 21 23 20 20 21 27 33 34 26 25 20 21 23 21 39 27 20
leaf_count=36 20 33 22 21 23 20 20 21 27 33 34 26 25 20 21 23 21 39 27 20
internal_value=0 -0.116027 -0.138857 0.265 -0.160887 -0.113945 -0.14904 -0.107045 0.0156524 -0.165939 -0.0825408 -0.281305 0.135 0.200557 0.0529712 -0.335975 0.354375 0.315167 -0.28128 -0.384703
internal_weight=0 370 350 162 328 236 195 148 48 100 67 92 66 45 41 69 96 60 47 46
internal_count=532 370 350 162 328 236 195 148 48 100 67 92 66 45 41 69 96 60 47 46
shrinkage=0.1


Tree=3
num_leaves=24
num_cat=0
split_feature=3 2 0 3 1 2 1 2 4 1 5 1 1 0 1 2 0 4 0 1 4 4 5
split_gain=13.2496 2.73364 2.05132 1.52461 1.50181 1.1198 0.90387 1.24601 0.686037 1.1425 0.668176 0.665662 1.07017 0.617661 0.550757 0.422438 0.367096 0.265413 0.24073 0.219705 0.112372 0.0968451 0.00150121
threshold=-0.35837396999999999 -0.34292335999999995 0.33217473500000005 -0.55198365499999991 0.045029900000000005 0.12987179500000004 -0.017313659999999998 -0.099169044999999983 -0.20446037999999997 -0.25874672999999998 -0.15133038999999995 -0.166126415 -0.058324224999999993 -0.09396367999999998 -0.12000427499999998 -0.028422994999999996 -0.063141239999999973 0.015330665000000002 0.023885890000000003 -0.025260499999999995 -0.80283771999999998 -0.17780659499999998 -0.15965190499999996
decision_type=2 2 2 2 2 2 2 2 2 2 2 2 2 2 2 2 2 2 2 2 2 2 2
left_child=3 -2 4 19 5 6 8 -8 -3 -10 -6 -11 13 -13 -5 -9 -7 21 -16 20 -1 -12 -22
right_child=1 2 -4 14 10 16 7 15 9 11 17 12 -14 -15 18 -17 -18 -19 -20 -21 22 -23 -24
leaf_value=0.028891105137088081 0.025514999628067015 -0.0022883533135704373 0.017063140327280218 0.025068829682740296 -0.010556543002957884 0.014463410377502442 -0.023786035180091859 0.017060414105653763 -0.0033695193352522679 -0.042940408140420917 -0.029391668438911441 0.0004031004011631012 -0.03873366117477417 -0.024449677914381029 0.012442825982968014 -0.0032467214834122436 -0.0044668829157238918 -0.021466665941735973 -0.0024121025204658511 0.024044159169380481 0.036860119849443436 -0.03864751125757511 0.037994469276496343
leaf_weight=22 20 23 22 22 23 20 20 20 27 20 20 20 24 20 24 21 21 23 20 26 20 26 28
leaf_count=22 20 23 22 22 23 20 20 20 27 20 20 20 24 20 24 21 21 23 20 26 20 26 28
internal_value=0 -0.104424 -0.124971 0.2385 -0.144798 -0.10255 -0.134136 -0.0332285 -0.180071 -0.212642 -0.253174 -0.27016 -0.220397 -0.120233 0.1215 0.066592 0.0476741 -0.302377 0.0569059 0.318937 0.348093 -0.346232 0.375218
internal_weight=0 370 350 162 328 236 195 61 134 111 92 84 64 40 66 41 41 69 44 96 70 46 48
internal_count=532 370 350 162 328 236 195 61 134 111 92 84 64 40 66 41 41 69 44 96 70 46 48
shrinkage=0.1


Tree=4
num_leaves=20
num_cat=0
split_feature=3 2 2 3 3 3 4 0 4 4 1 5 0 3 3 4 3 5 3
split_gain=10.7321 2.21425 1.70897 1.23494 0.99056 0.793543 1.30268 1.00339 0.86236 1.27782 1.06133 0.711277 0.720095 0.579138 0.484997 0.506793 0.413148 0.215512 0.0753304
threshold=-0.35837396999999999 -0.34292335999999995 0.12987179500000004 -0.55198365499999991 0.037194155000000007 0.0072003950000000009 0.011074295000000003 0.020960905000000005 -0.07069650999999999 0.043175000000000005 0.0055962850000000003 -0.16700022499999997 -0.15313562999999999 -0.087788804999999984 -0.49233113999999994 -0.25599150999999992 -0.12677014999999997 0.010006650000000001 -0.84471281499999995
decision_type=2 2 2 2 2 2 2 2 2 2 2 2 2 2 2 2 2 2 2
left_child=3 -2 5 17 -4 6 7 11 -7 -10 -11 -3 -13 -14 -5 -16 -9 18 -1
right_child=1 2 4 14 -6 8 -8 16 9 10 -12 12 13 -15 15 -17 -18 -19 -20
leaf_value=0.034602344663519607 0.022963500171899798 0.0075470792395727973 0.013519666210199014 -0.0016135694015593756 -0.012646501478941544 -0.022763766149679822 -0.038145239291519958 -0.017630000357274658 0.012786231935024261 -0.025987477068390163 0.001799794810789603 -0.026236243490819579 -0.016221596106238988 0.0070457132160663604 0.02628291630744934 0.0049261009693145758 -0.035662278781334565 0.02093005650318586 0.028017169237136843
leaf_weight=38 20 21 39 21 23 30 29 27 32 28 27 27 23 20 25 20 24 26 32
leaf_count=38 20 21 39 21 23 30 29 27 32 28 27 27 23 20 25 20 24 26 32
internal_value=0 -0.0939819 -0.112474 0.21465 0.0381286 -0.144896 -0.188315 -0.148872 -0.0814366 -0.0310225 -0.123465 -0.085942 -0.134366 -0.0539959 0.10935 0.16791 -0.261158 0.287044 0.31592
internal_weight=0 370 350 162 62 288 171 142 117 87 55 91 70 43 66 45 51 96 70
internal_count=532 370 350 162 62 288 171 142 117 87 55 91 70 43 66 45 51 96 70
shrinkage=0.1


Tree=5
num_leaves=22
num_cat=0
split_feature=3 0 2 1 4 1 4 4 1 0 1 1 0 0 5 3 1 3 0 5 1
split_gain=8.69304 2.07141 1.37566 1.15194 1.08368 0.815389 1.8359 1.13115 1.1169 0.938679 0.825869 0.885441 0.933331 0.562132 0.484596 0.397681 0.589075 0.242413 0.183839 0.542215 0.0344009
threshold=-0.35837396999999999 0.38074008000000009 -0.31016575999999996 0.045029900000000005 -0.20446037999999997 1.0000000180025095e-35 -0.068627994999999983 -0.17522567999999997 -0.24437628499999997 -0.28889073499999995 -0.166126415 -0.058324224999999993 -0.096282719999999988 -0.0078819949999999975 -0.15133038999999995 -0.84471281499999995 -0.025260499999999995 -0.5314394349999999 0.063046260000000007 -0.018412864999999997 -0.12313872999999999
decision_type=2 2 2 2 2 2 2 2 2 2 2 2 2 2 2 2 2 2 2 2 2
left_child=4 2 -2 5 15 7 -7 -4 9 -9 -10 12 -12 -13 -5 20 17 -17 -16 -20 -1
right_child=1 -3 3 14 -6 6 -8 8 10 -11 11 13 -14 -15 18 16 -18 -19 19 -21 -22
leaf_value=0.026758144157273428 0.012809811408321062 0.022044141093889871 0.0044186863460038842 -0.0087176346260568385 -0.0024747861921787261 -0.01752667769789696 0.024335579303177923 0.013921038167817252 -0.038040941669827417 -0.01597845724650792 0.01009044259786606 -0.036230409890413283 -0.019447025397549507 -0.013827210380917505 -0.031725216656923294 0.029896964960628089 0.0085582314266098875 0.016573122279210525 -0.033355243057012561 -0.010841851649077042 0.032154663293449966
leaf_weight=21 24 21 38 23 20 20 22 21 21 21 20 24 23 21 28 36 36 22 20 23 27
leaf_count=21 24 21 38 23 20 20 22 21 21 21 20 24 23 21 28 36 36 22 20 23 27
internal_value=0 -0.0845837 -0.102938 -0.119999 0.193185 -0.0820208 0.0440117 -0.110028 -0.148837 -0.0102871 -0.202223 -0.159702 -0.0570867 -0.257756 -0.213328 0.22388 0.186063 0.248431 -0.254193 -0.213132 0.297937
internal_weight=0 370 349 325 162 231 42 189 151 42 109 88 43 45 94 142 94 58 71 43 48
internal_count=532 370 349 325 162 231 42 189 151 42 109 88 43 45 94 142 94 58 71 43 48
shrinkage=0.1


Tree=6
num_leaves=19
num_cat=0
split_feature=3 0 2 2 0 4 0 5 0 3 1 3 3 3 1 0 3 2
split_gain=7.04136 1.67784 1.11429 1.06165 1.09687 0.877783 0.760134 0.74554 0.861915 1.50411 0.478178 0.387266 0.711141 0.322122 0.477151 0.250941 0.196355 0.0311708
threshold=-0.35837396999999999 0.38074008000000009 -0.31016575999999996 0.12987179500000004 0.16043353500000002 -0.20446037999999997 -0.09396367999999998 -0.096780104999999991 -0.027537829999999996 -0.044961939999999999 -0.061232374999999992 0.041668035000000006 -0.089872244999999976 -0.84471281499999995 -0.025260499999999995 -0.18825419999999995 -0.5314394349999999 -0.031939494999999991
decision_type=2 2 2 2 2 2 2 2 2 2 2 2 2 2 2 2 2 2
left_child=5 2 -2 4 7 13 -5 11 10 -10 15 12 -4 17 16 -9 -15 -1
right_child=1 -3 3 6 -6 -7 -8 8 9 -11 -12 -13 -14 14 -16 -17 -18 -19
leaf_value=0.028968038942132679 0.011528830230236055 0.019839726743243993 0.0025173874571919443 0.017473219931125644 -0.030148061233408314 -0.0022273077070713043 -0.0070957821958205283 -0.022156484887517734 -0.023968188630210031 0.0072549666795465682 -0.030731623488314014 0.0073638087759415318 -0.019304854848555156 0.026907268083757825 0.0077024088137679636 -0.0087597594217017852 0.014915810389952225 0.023799107968807222
leaf_weight=28 24 21 32 20 34 20 34 29 27 36 34 24 28 36 36 27 22 20
leaf_count=28 24 21 32 20 34 20 34 29 27 36 34 24 28 36 36 27 22 20
internal_value=0 -0.0761253 -0.0926439 -0.107999 -0.133512 0.173866 0.0200385 -0.109415 -0.150973 -0.0612639 -0.21377 -0.03372 -0.0766633 0.201492 0.167457 -0.156973 0.223588 0.268143
internal_weight=0 370 349 325 271 162 54 237 153 63 90 84 60 142 94 56 58 48
internal_count=532 370 349 325 271 162 54 237 153 63 90 84 60 142 94 56 58 48
shrinkage=0.1


Tree=7
num_leaves=22
num_cat=0
split_feature=3 0 1 4 4 1 1 4 0 3 1 0 5 0 3 3 2 3 2 2 1
split_gain=5.7035 1.35905 0.981587 0.711004 0.705169 0.790607 1.2673 0.971501 0.912225 1.07895 1.02591 0.640434 0.476858 0.284313 0.260919 0.438964 0.538706 0.226404 0.196778 0.193715 0.0277393
threshold=-0.35837396999999999 0.38074008000000009 0.045029900000000005 -0.20446037999999997 -0.17522567999999997 -0.005409559999999999 -0.058324224999999993 -0.060234624999999993 -0.10248998499999999 -0.068317949999999988 -0.28015919499999992 -0.022730829999999997 -0.10645768499999998 0.063046260000000007 -0.84471281499999995 -0.46364380999999993 -0.035920929999999997 -0.004103734999999999 -0.011569359999999999 -0.0068090299999999989 -0.12313872999999999
decision_type=2 2 2 2 2 2 2 2 2 2 2 2 2 2 2 2 2 2 2 2 2
left_child=3 2 4 14 18 6 8 -7 9 -6 -11 -10 -4 -14 20 16 -16 -8 -2 -15 -1
right_child=1 -3 12 -5 5 7 17 -9 11 10 -12 -13 13 19 15 -17 -18 -19 -20 -21 -22
leaf_value=0.021407051952112288 0.00043119379767665158 0.017855753785087951 -0.0068931083194911482 -0.0020045769214630128 0.019127139578694885 -0.013182307183742524 -0.033741046339273453 0.015674496229205814 -0.029081392017277802 0.0095806073574792785 -0.019658557538475313 -0.0049523135477846326 -0.030171246469020849 -0.023536067456007004 0.0023012645128700471 0.025052262345949813 0.020795471434082308 -0.018874523895127435 0.013518195897340775 -0.0096179150789976117 0.026252979205714334
leaf_weight=21 27 21 32 20 23 20 20 28 22 21 28 22 25 20 36 30 28 21 20 20 27
leaf_count=21 27 21 32 20 23 20 20 28 22 21 28 22 25 20 36 30 28 21 20 20 27
internal_value=0 -0.0685128 -0.0833795 0.15648 -0.0504764 -0.0758054 -0.110143 0.0365083 -0.0567297 0.0125941 -0.0712749 -0.170169 -0.16886 -0.218056 0.181343 0.150711 0.103925 -0.261265 0.0600013 -0.16577 0.241329
internal_weight=0 370 349 162 252 205 157 48 116 72 49 44 97 65 142 94 64 41 47 40 48
internal_count=532 370 349 162 252 205 157 48 116 72 49 44 97 65 142 94 64 41 47 40 48
shrinkage=0.1


Tree=8
num_leaves=20
num_cat=0
split_feature=3 2 2 3 4 5 3 1 3 4 5 4 5 3 3 2 2 3 0
split_gain=4.65593 1.43016 0.919865 0.793655 0.61161 0.517521 0.642074 0.791717 0.78679 1.25963 0.760415 0.581027 0.743182 0.327559 0.824016 0.243147 0.489464 0.20704 0.204177
threshold=-0.37579603499999997 -0.34292335999999995 0.12987179500000004 0.037194155000000007 -0.20446037999999997 -0.31337337499999995 -0.0069910299999999996 0.035694680000000013 0.16417605000000002 -0.07069650999999999 -0.018412864999999997 -0.13353868999999999 -0.038494514999999986 -0.46364380999999993 -0.55198365499999991 -0.14075332999999998 -0.023850199999999998 -0.11769646999999998 0.095959655000000019
decision_type=2 2 2 2 2 2 2 2 2 2 2 2 2 2 2 2 2 2 2
left_child=4 -2 5 -4 13 -3 7 11 9 -8 -11 12 -7 14 15 -1 -17 -13 -9
right_child=1 2 3 -5 -6 6 8 18 -10 10 -12 17 -14 -15 -16 16 -18 -19 -20
leaf_value=0.025064212994443048 0.019331485174951101 0.0052579256750288463 0.01222869471097604 -0.01119285277698351 -0.0018041190505027772 0.011797120457603819 -0.017113569165979111 -0.031308979807155475 -0.017397601353494743 -0.0022109460617814746 0.021783696413040163 -0.025535984560847283 -0.013088978933436531 0.027526684602101642 -0.0037435016036033632 0.0019874229282140733 0.021498817039860618 -0.012713570279233597 -0.018435428562489423
leaf_weight=36 21 21 39 23 20 21 28 28 38 28 25 20 28 24 20 20 36 34 22
leaf_count=36 21 21 39 23 20 21 28 28 38 28 25 20 28 24 20 20 36 34 22
internal_value=0 -0.0602581 -0.0752582 0.0354006 0.145238 -0.0986741 -0.110352 -0.1532 -0.0552607 0.000432838 0.0910728 -0.103081 -0.0242351 0.169249 0.146531 0.186524 0.145305 -0.174626 -0.256446
internal_weight=0 376 355 62 156 293 272 153 119 81 53 103 49 136 112 92 56 54 50
internal_count=532 376 355 62 156 293 272 153 119 81 53 103 49 136 112 92 56 54 50
shrinkage=0.1


Tree=9
num_leaves=23
num_cat=0
split_feature=3 2 1 0 2 4 1 1 5 0 4 2 3 3 2 1 0 2 0 2 5 3
split_gain=3.7846 1.92646 0.796863 1.00032 0.871522 0.825507 0.888958 0.771008 0.619682 0.816549 0.837589 0.830704 0.789988 1.54354 0.508599 0.749432 0.478405 0.466256 0.397218 0.24461 0.173103 0.073194
threshold=-0.50491666499999988 -0.42301346499999992 0.30632942500000004 0.21555589000000003 -0.18204244999999997 -0.20446037999999997 -0.0069408299999999994 -0.31006140999999993 -0.11466299499999999 -0.18825419999999995 -0.060234624999999993 -0.068375479999999988 -0.013576419999999997 0.090636485000000017 -0.14075332999999998 -0.025260499999999995 0.020960905000000005 0.05712741000000001 -0.10983081499999998 0.031097740000000002 -0.091698179999999976 -0.81906970499999987
decision_type=2 2 2 2 2 2 2 2 2 2 2 2 2 2 2 2 2 2 2 2 2 2
left_child=14 -2 3 4 18 6 19 -7 16 -10 11 -11 -12 -14 21 20 17 -9 -3 -6 -16 -1
right_child=1 2 -4 -5 5 7 -8 8 9 10 12 -13 13 -15 15 -17 -18 -19 -20 -21 -22 -23
leaf_value=0.021147412842228302 0.025958879292011263 -0.0086437684568491848 0.013615036085247995 -0.02619872182607651 0.022422082044861534 0.011946933752014525 -0.0081115704995614515 0.012787740627924602 -0.02739389262029103 -0.0036627852171659467 -0.014849717972370294 -0.03100567162036896 0.027315102517604828 -0.011502242726939066 0.022955284961338702 -0.0045598033638227552 -0.011070285042126975 -0.0069238455593585964 -0.027246488196154436 0.0071416719257831581 0.010862216576933863 0.029600299522280694
leaf_weight=21 20 22 20 25 22 21 27 30 28 20 26 25 20 21 29 21 30 20 24 20 20 20
leaf_count=21 20 22 20 25 22 21 27 30 28 20 26 25 20 21 29 21 30 20 24 20 20 20
internal_value=0 -0.0433086 -0.0584157 -0.0686292 -0.0550507 -0.0359911 0.0604503 -0.063603 -0.0810781 -0.121197 -0.0830121 -0.188533 -0.01214 0.0743305 0.164261 0.112456 -0.0108692 0.0490311 -0.183495 0.151457 0.180193 0.252708
internal_weight=0 421 401 381 356 310 69 241 220 140 112 45 67 41 111 70 80 50 46 42 49 41
internal_count=532 421 401 381 356 310 69 241 220 140 112 45 67 41 111 70 80 50 46 42 49 41
shrinkage=0.1


Tree=10
num_leaves=22
num_cat=0
split_feature=3 5 5 4 3 4 4 5 4 0 4 5 4 4 3 3 1 5 5 5 5
split_gain=3.11161 1.04611 0.738158 0.652341 0.790488 0.563025 0.772836 0.551071 0.960413 0.682866 0.606444 0.518357 0.424946 0.369819 0.280553 0.554728 0.276486 0.256674 0.156591 0.136271 0.0698781
threshold=-0.37579603499999997 0.28040316000000004 -0.11466299499999999 -0.16905514999999996 0.13882597000000005 0.0093905950000000033 -0.095278789999999988 -0.056670904999999994 -0.021593794999999995 -0.021285929999999998 -0.18931573499999996 0.028111930000000004 -0.20446037999999997 -0.0039228699999999993 -0.46364380999999993 -0.55198365499999991 0.0031396600000000003 0.019353960000000007 0.010006650000000001 0.028111930000000004 -0.14574983499999997
decision_type=2 2 2 2 2 2 2 2 2 2 2 2 2 2 2 2 2 2 2 2 2
left_child=12 2 3 -2 5 6 -5 13 10 -10 19 -12 14 -4 15 18 -13 -11 20 -9 -1
right_child=1 -3 7 4 -6 -7 -8 8 9 17 11 16 -14 -15 -16 -17 -18 -19 -20 -21 -22
leaf_value=0.014665682130568736 0.015574218129569835 0.015274313278496265 -0.011198356553264288 -0.012771465426141566 0.014336290508508681 -0.021512454612688584 0.010537912189960481 -0.0095814495533704767 -0.0087163371867255163 0.0019672361158189319 -0.008259638398885728 -0.034323483421688991 -0.0017368149757385255 -0.029791373461484912 0.02368631660938263 -0.0033220000565052036 -0.01789475865662098 0.017602188814254034 0.0082996075749397283 0.0020920712500810622 0.021160193085670471
leaf_weight=37 22 24 23 33 20 22 25 20 38 21 26 21 20 20 24 20 20 21 25 20 30
leaf_count=37 22 24 23 33 20 22 25 20 38 21 26 21 20 20 24 20 20 21 25 20 30
internal_value=0 -0.0492612 -0.0630342 -0.000157864 -0.0344559 -0.0789106 -0.0272432 -0.096386 -0.0729139 0.00996714 -0.134881 -0.193051 0.118732 -0.198463 0.138747 0.117722 -0.263095 0.0978471 0.150535 -0.0374469 0.175737
internal_weight=0 376 352 122 100 80 58 230 187 80 107 67 156 43 136 112 41 42 92 40 67
internal_count=532 376 352 122 100 80 58 230 187 80 107 67 156 43 136 112 41 42 92 40 67
shrinkage=0.1


Tree=11
num_leaves=20
num_cat=0
split_feature=3 2 1 1 0 0 5 4 2 1 0 0 3 3 2 1 3 5 3
split_gain=2.5872 1.45368 0.611487 1.27627 0.667906 0.812325 0.703438 0.678125 0.559077 0.744921 0.70161 0.676821 0.440657 0.422288 0.407772 0.580311 0.168635 0.131882 0.0636862
threshold=-0.50491666499999988 -0.42301346499999992 0.27445468500000003 0.18306130500000004 0.16043353500000002 0.092440665000000005 -0.15133038999999995 -0.12826262499999999 0.036710750000000007 -0.19806919999999997 -0.10248998499999999 -0.15313562999999999 -0.10148573999999998 -0.0024066249999999995 -0.14075332999999998 -0.025260499999999995 1.0000000180025095e-35 -0.091698179999999976 -0.81906970499999987
decision_type=2 2 2 2 2 2 2 2 2 2 2 2 2 2 2 2 2 2 2
left_child=14 -2 3 4 5 6 7 -3 9 -8 -10 -11 -13 -14 18 17 -9 -16 -1
right_child=1 2 -4 -5 -6 -7 8 16 10 11 -12 12 13 -15 15 -17 -18 -19 -20
leaf_value=0.017654600952352797 0.022730978131294252 0.013693452051707678 0.01025106430053711 -0.029854206457024531 -0.01701101143109171 0.012394541934613259 0.0016224676370620731 -0.009837611516316732 0.014069150517816129 -0.02737820656038821 -0.0085450928877381718 -0.018096503454285699 0.0068978283376920791 -0.013156577022302718 0.019211571381009859 -0.0049655795806930183 0.0021106072834559848 0.0086561169475317008 0.025539385452866555
leaf_weight=21 20 35 25 21 38 31 35 27 23 32 34 37 21 21 29 21 21 20 20
leaf_count=21 20 35 25 21 38 31 35 27 23 32 34 37 21 21 29 21 21 20 20
internal_value=0 -0.035808 -0.048931 -0.0590003 -0.0448302 -0.0298124 -0.0464785 0.0310817 -0.0781903 -0.110981 0.00579953 -0.151091 -0.101393 -0.0312937 0.135812 0.0894258 -0.0461027 0.149032 0.215008
internal_weight=0 421 401 376 355 317 286 83 203 146 57 111 79 42 111 70 48 49 41
internal_count=532 421 401 376 355 317 286 83 203 146 57 111 79 42 111 70 48 49 41
shrinkage=0.1


Tree=12
num_leaves=20
num_cat=0
split_feature=3 5 2 2 5 5 4 0 4 3 3 4 0 4 3 2 0 4 2
split_gain=2.11631 0.860313 0.562144 0.637517 0.652658 0.691934 0.720403 0.588353 0.573733 0.836532 0.625337 0.469659 0.273298 0.591051 0.369987 0.150033 0.147276 0.145335 0.0706756
threshold=-0.39645900999999995 0.28040316000000004 -0.25787235499999994 -0.18204244999999997 -0.11466299499999999 -0.056670904999999994 -0.021593794999999995 -0.021285929999999998 -0.16905514999999996 0.11818915000000001 -0.0052850899999999992 -0.18931573499999996 0.035149025000000007 -0.33366278499999996 -0.7024070349999999 -0.059024999999999994 -0.0091360199999999982 -0.0088183549999999982 -0.031939494999999991
decision_type=2 2 2 2 2 2 2 2 2 2 2 2 2 2 2 2 2 2 2
left_child=12 2 -2 -4 8 17 11 -8 -5 10 16 -7 13 14 18 -13 -10 -6 -1
right_child=1 -3 3 4 5 6 7 -9 9 -11 -12 15 -14 -15 -16 -17 -18 -19 -20
leaf_value=0.016757805459201337 0.0078001815465188794 0.014100650191307068 -0.022342336825702504 0.015650689263235439 -0.014163831919431685 -0.002237704603208436 -0.0082829278707504273 0.010344404326035428 -0.0068787114186720415 0.015361457690596582 -0.022213377271379744 -0.010504485180844432 0.0022028010804206132 0.025571051295156834 0.00030556628198334667 -0.02090152587209429 0.0048291832208633423 -0.026219325885176659 0.0091799475252628323
leaf_weight=32 31 25 23 22 20 36 30 39 22 20 21 23 32 27 33 35 21 20 20
leaf_count=32 31 25 23 22 20 36 30 39 22 20 21 23 32 27 33 35 21 20 20
internal_value=0 -0.0384237 -0.0507812 -0.0628061 -0.0508508 -0.0840607 -0.0551393 0.0224556 0.0127495 -0.0249013 -0.0806875 -0.112097 0.103531 0.126817 0.0858744 -0.167786 -0.011609 -0.201916 0.138432
internal_weight=0 388 363 332 309 203 163 69 106 84 64 94 144 112 85 58 43 40 52
internal_count=532 388 363 332 309 203 163 69 106 84 64 94 144 112 85 58 43 40 52
shrinkage=0.1


Tree=13
num_leaves=22
num_cat=0
split_feature=3 2 2 3 0 0 4 1 1 3 0 0 1 3 5 5 2 2 3 0 3
split_gain=1.73982 1.06955 0.536026 0.560942 0.43272 1.02777 0.674117 0.724626 0.590574 0.52963 0.435457 0.842278 0.524308 0.602689 0.455642 0.4064 0.307009 0.553926 0.657704 0.192122 0.0575748
threshold=-0.50491666499999988 -0.42301346499999992 0.12987179500000004 0.037194155000000007 0.13491137000000003 0.092440665000000005 0.015330665000000002 0.039071100000000004 0.15395183000000004 0.031200955000000002 0.020960905000000005 -0.027537829999999996 -0.061232374999999992 -0.047452839999999989 -0.035896984999999992 0.032167620000000008 -0.14075332999999998 0.060380050000000011 -0.84471281499999995 -0.12964935999999996 -0.81906970499999987
decision_type=2 2 2 2 2 2 2 2 2 2 2 2 2 2 2 2 2 2 2 2 2
left_child=16 -2 4 15 5 6 7 10 -6 -8 11 12 13 14 -3 -4 20 18 -18 -14 -1
right_child=1 2 3 -5 8 -7 9 -9 -10 -11 -12 -13 19 -15 -16 -17 17 -19 -20 -21 -22
leaf_value=0.014351979181880043 0.019632769450545314 0.018145229614206723 0.018153604257989814 -0.0089083329490993336 -0.021528174562586679 0.017206182224409922 -0.027140927962634877 -0.01606333064181464 -0.0012767314910888672 -0.0073730717554236908 -0.01322901716286486 0.019854405928741804 -0.017678194753825666 -0.0096384790415565188 -0.00085041147211323612 -0.00065380081534385684 0.013998374491930008 0.01904703286290169 -0.010331319808959962 -0.0038173966109752658 0.021848908588290215
leaf_weight=21 20 28 27 23 36 21 23 35 24 33 22 22 20 24 23 20 20 25 25 20 20
leaf_count=21 20 28 27 23 36 21 23 35 24 33 22 22 20 24 23 20 20 25 25 20 20
internal_value=0 -0.0293641 -0.0406206 0.0388828 -0.057434 -0.040421 -0.0582696 -0.0303704 -0.134276 -0.15492 -0.00169621 0.0192751 -0.0150199 0.0342911 0.0957857 0.101505 0.111372 0.0711229 0.00481878 -0.107478 0.18009
internal_weight=0 421 401 70 331 271 250 194 60 56 159 137 115 75 51 47 111 70 45 40 41
internal_count=532 421 401 70 331 271 250 194 60 56 159 137 115 75 51 47 111 70 45 40 41
shrinkage=0.1


Tree=14
num_leaves=21
num_cat=0
split_feature=3 2 0 1 2 3 2 5 0 3 0 0 0 0 4 1 2 2 3 0
split_gain=1.40926 0.866332 0.474192 1.24905 0.587226 0.57952 0.549529 0.805493 0.53168 0.407416 0.589715 0.604596 0.771212 0.758133 1.19834 1.03954 0.253653 0.384907 0.505486 0.23545
threshold=-0.50491666499999988 -0.42301346499999992 0.38074008000000009 0.19675579000000001 -0.18204244999999997 -0.39645900999999995 0.22425006500000003 -0.14155767499999997 -0.033799479999999993 0.16417605000000002 -0.18825419999999995 -0.10248998499999999 -0.054797639999999995 0.13491137000000003 -0.0088183549999999982 0.0015898100000000003 -0.18612334999999999 0.060380050000000011 -0.84471281499999995 -0.10983081499999998
decision_type=2 2 2 2 2 2 2 2 2 2 2 2 2 2 2 2 2 2 2 2
left_child=16 -2 3 4 19 -6 7 8 -7 10 -9 -12 -13 14 15 -14 -1 18 -18 -3
right_child=1 2 -4 -5 5 6 -8 9 -10 -11 11 12 13 -15 -16 -17 17 -19 -20 -21
leaf_value=0.017372842381397881 0.017669492438435557 -0.0061730919913812118 0.011353163719177247 -0.025600761862901542 0.013928596092307051 0.013035096457371345 0.012618177722800862 -0.016818354278802874 -0.0038177146265904109 -0.020429645194893792 0.011823133565485477 -0.023449449613690377 0.010899775177240372 -0.016429657489061358 0.023656157155831657 -0.020600837536833505 0.01242488917708397 0.01714232963323593 -0.0071384723431297719 -0.020643499882324882
leaf_weight=33 20 22 20 26 23 39 22 37 36 21 24 20 20 25 21 22 25 25 28 23
leaf_count=33 20 22 20 26 23 39 22 37 36 21 24 20 20 25 21 22 25 25 28 23
internal_value=0 -0.0264277 -0.0365585 -0.0444373 -0.028942 -0.0134462 -0.025686 -0.0382939 0.0494575 -0.0729327 -0.0566093 -0.0253348 -0.0572383 -0.0169528 0.0415169 -0.0560055 0.100235 0.0691414 0.0208953 -0.135691
internal_weight=0 421 401 381 355 310 287 265 75 190 169 132 108 88 63 42 111 78 53 45
internal_count=532 421 401 381 355 310 287 265 75 190 169 132 108 88 63 42 111 78 53 45
shrinkage=0.1


Tree=15
num_leaves=22
num_cat=0
split_feature=4 1 0 0 4 0 0 0 0 3 0 2 1 2 0 5 4 0 3 4 0
split_gain=1.15739 0.611599 0.515385 0.646597 0.641854 0.582296 0.450362 0.972049 0.906316 0.775155 0.578785 0.431931 0.625698 0.813447 0.445527 0.29917 0.236228 0.208057 0.451305 0.381914 0.172759
threshold=-0.20446037999999997 -0.32194048499999994 0.33217473500000005 0.13491137000000003 -0.016997029999999996 0.092440665000000005 0.020960905000000005 -0.015322464999999999 -0.063141239999999973 -0.099763724999999984 -0.18825419999999995 0.036710750000000007 -0.0080430899999999993 -0.14075332999999998 -0.054797639999999995 -0.037704299999999989 -0.066400709999999988 -0.16864396999999998 -0.7024070349999999 -0.68937532499999998 -0.18825419999999995
decision_type=2 2 2 2 2 2 2 2 2 2 2 2 2 2 2 2 2 2 2 2 2
left_child=11 -2 3 5 -5 6 7 8 9 20 -11 12 17 -14 -13 -12 -8 18 -1 -19 -3
right_child=1 2 -4 4 -6 -7 16 -9 -10 10 15 14 13 -15 -16 -17 -18 19 -20 -21 -22
leaf_value=0.013309019878506662 0.011087838445718472 0.0015040055848658087 0.010627828538417816 -0.0054711093008518218 -0.02861865622841794 0.012061884502569835 -0.02182531153613871 0.013238076965014139 -0.024288377072662116 -0.018387953128133502 -0.0090360448412273239 0.0028959011137485507 0.0088263564556837083 -0.017781922579915437 0.020374577045440673 0.0074726244523411704 -0.0068089721351861955 0.00105980034917593 -0.0074464821341362871 0.018675287580117585 0.014490388120923722
leaf_weight=20 26 20 20 25 23 21 22 30 24 35 23 25 20 27 35 21 20 20 22 32 21
leaf_count=20 26 20 20 25 23 21 22 30 24 35 23 25 20 27 35 21 20 20 22 32 21
internal_value=0 -0.036347 -0.0488974 -0.0597869 -0.165626 -0.038351 -0.0538064 -0.0313726 -0.0654879 -0.0300087 -0.0879091 0.059855 0.0296155 -0.0645925 0.130918 -0.0115691 -0.146747 0.0767195 0.0243709 0.119001 0.0815557
internal_weight=0 331 305 285 48 237 216 174 144 120 79 201 141 47 60 44 42 94 42 52 41
internal_count=532 331 305 285 48 237 216 174 144 120 79 201 141 47 60 44 42 94 42 52 41
shrinkage=0.1


Tree=16
num_leaves=21
num_cat=0
split_feature=3 2 1 1 1 0 2 3 4 4 5 4 0 0 1 0 2 1 5 3
split_gain=0.947185 0.673166 0.413845 0.870674 0.482722 0.697231 0.574609 0.457939 0.299654 0.702102 0.422555 0.478411 0.471124 0.372754 0.412937 0.269781 0.203663 0.405962 0.117764 0.0468889
threshold=-0.50491666499999988 -0.42301346499999992 0.27445468500000003 0.18306130500000004 0.12026163000000001 0.16043353500000002 -0.18204244999999997 -0.39645900999999995 0.11621221000000001 0.050702690000000002 -0.10159792499999999 -0.021593794999999995 -0.06459580999999999 -0.17356339999999998 -0.046071584999999991 -0.10983081499999998 -0.14075332999999998 -0.025260499999999995 -0.091698179999999976 -0.81906970499999987
decision_type=2 2 2 2 2 2 2 2 2 2 2 2 2 2 2 2 2 2 2 2
left_child=16 -2 3 4 5 6 15 -8 9 10 12 13 -9 -12 -15 -3 19 18 -18 -1
right_child=1 2 -4 -5 -6 -7 7 8 -10 -11 11 -13 -14 14 -16 -17 17 -19 -20 -21
leaf_value=0.010514216870069504 0.015738507360219957 -0.0055144404145804323 0.0093990051448345196 -0.02367310935542697 0.011292427778244019 -0.018788200377353601 0.013606189688046775 0.012556219767583044 0.0073867980030275157 -0.019632829337016398 -0.01863499369758826 0.0058560176962806337 -0.00391212145332247 0.0066030492836778813 -0.010612251237034798 -0.021561817862093449 0.013995989232227722 -0.0066934288257644295 0.0040215098112821581 0.017279751040041449
leaf_weight=21 20 22 25 21 23 28 21 38 31 23 26 31 32 22 38 20 29 21 20 20
leaf_count=21 20 22 25 21 23 28 21 38 31 23 26 31 32 22 38 20 29 21 20 20
internal_value=0 -0.0216662 -0.0305964 -0.0388801 -0.0271762 -0.036882 -0.0229741 -0.00556709 -0.0179082 -0.0314561 -0.0111777 -0.0479463 0.0502784 -0.0863382 -0.0429997 -0.13156 0.0821753 0.0493931 0.0992477 0.138145
internal_weight=0 421 401 376 355 332 304 262 241 210 187 117 70 86 60 42 111 70 49 41
internal_count=532 421 401 376 355 332 304 262 241 210 187 117 70 86 60 42 111 70 49 41
shrinkage=0.1


Tree=17
num_leaves=21
num_cat=0
split_feature=4 0 0 1 1 1 1 0 4 2 1 2 4 0 3 4 3 0 3 4
split_gain=0.79805 0.480509 0.42491 0.471357 0.460866 0.48168 0.47651 0.432253 1.1946 0.356086 0.449315 0.595877 0.443665 0.352428 0.283299 0.445776 0.229806 0.15873 0.32949 0.310773
threshold=-0.20446037999999997 -0.32064901999999995 0.33217473500000005 0.18306130500000004 -0.005409559999999999 -0.058324224999999993 -0.10796171499999999 0.13491137000000003 -0.063332654999999974 0.036710750000000007 -0.0080430899999999993 -0.14075332999999998 -0.43225187499999995 0.010268585000000002 -0.099763724999999984 0.095585715000000002 -0.004103734999999999 -0.16864396999999998 -0.7024070349999999 -0.68937532499999998
decision_type=2 2 2 2 2 2 2 2 2 2 2 2 2 2 2 2 2 2 2 2
left_child=9 -2 3 4 5 6 14 8 -6 10 17 -12 -11 -10 -3 -16 -7 18 -1 -19
right_child=1 2 -4 -5 7 16 -8 -9 13 12 11 -13 -14 -15 15 -17 -18 19 -20 -21
leaf_value=0.010933324340730907 0.0092771887008486122 6.7462385804564862e-05 0.0095222460372107378 -0.019276993281461978 -0.0090839854545063433 -0.023376379000103992 0.0071606165596417018 -0.0094687771052122116 0.0072151186466217045 0.00051591114505477578 0.007323954179883004 -0.015449572878855247 0.018202270456665271 0.024787652492523196 -0.021235633807049861 -0.0018094593570345922 -0.0089075446661029539 0.00013061285018920899 -0.0068011928011070602 0.016020951583050193
leaf_weight=20 29 27 21 22 36 23 28 30 25 23 20 27 37 21 27 21 21 20 22 32
leaf_count=20 29 27 21 22 36 23 28 30 25 23 20 27 37 21 27 21 21 20 22 32
internal_value=0 -0.0301817 -0.0419885 -0.0522427 -0.040306 -0.0771263 -0.0397128 0.0080207 0.045597 0.0497022 0.0222456 -0.0575871 0.114225 0.152374 -0.0812719 -0.127367 -0.164708 0.062162 0.0164382 0.0990928
internal_weight=0 331 302 281 259 147 103 112 82 201 141 47 60 46 75 48 44 94 42 52
internal_count=532 331 302 281 259 147 103 112 82 201 141 47 60 46 75 48 44 94 42 52
shrinkage=0.1


Tree=18
num_leaves=22
num_cat=0
split_feature=2 3 5 1 0 0 0 5 2 1 1 1 3 0 0 1 5 3 5 3 3
split_gain=0.677941 0.703686 0.442042 0.532558 0.458448 0.762309 0.63893 0.51099 0.508579 0.508158 0.386679 0.725638 1.0411 0.490537 0.477106 0.709665 0.329717 0.338001 0.141108 0.0606194 0.0844876
threshold=-0.52332427999999986 -0.55198365499999991 0.28040316000000004 -0.39530500499999993 -0.18496180499999995 -0.21277177499999997 -0.11786687499999998 -0.046740119999999989 -0.12863086999999998 0.023714250000000003 -0.021947184999999998 0.035694680000000013 -0.11769646999999998 0.049852740000000006 0.13491137000000003 0.15395183000000004 0.030773495000000001 -0.057094289999999992 0.010006650000000001 -0.75411730999999993 -0.97452234999999987
decision_type=2 2 2 2 2 2 2 2 2 2 2 2 2 2 2 2 2 2 2 2 2
left_child=-1 18 3 -3 5 7 -6 -5 9 -8 16 12 -12 -13 -15 -16 17 -10 19 20 -2
right_child=1 2 -4 4 6 -7 8 -9 10 -11 11 13 -14 14 15 -17 -18 -19 -20 -21 -22
leaf_value=0.018061760365962982 0.011107422769069673 0.012310051421324414 0.011370453509417448 0.0059957589507102973 0.010198875019947689 -0.026196423124360005 -0.025431423373520376 -0.013673829127635276 0.0060423111631756742 -0.0048531571403145797 -0.0056315530623708455 -0.015702533736251866 0.024056030644310847 0.01151669666171074 -0.018842950869690289 0.0051576108006494391 -0.017904856671457706 -0.01150505691766739 7.9004643928437011e-05 0.013373414956033232 0.0023873983323574066
leaf_weight=20 25 21 22 25 36 23 20 28 21 30 21 26 27 25 22 28 23 23 21 25 20
leaf_count=20 25 21 22 25 36 23 20 28 21 30 21 26 27 25 22 28 23 23 21 25 20
internal_value=0 -0.00705537 -0.0242913 -0.0319001 -0.0405112 -0.109933 -0.0230408 -0.0439572 -0.0399621 -0.130845 -0.0189245 0.00944765 0.110677 -0.0386614 0.00237141 -0.0540264 -0.0820208 -0.0313018 0.0726844 0.0942527 0.0723186
internal_weight=0 512 421 399 378 76 302 53 266 50 216 149 48 101 75 50 67 44 91 70 45
internal_count=532 512 421 399 378 76 302 53 266 50 216 149 48 101 75 50 67 44 91 70 45
shrinkage=0.1


Tree=19
num_leaves=20
num_cat=0
split_feature=2 3 5 1 1 4 4 2 5 3 4 5 3 3 4 0 2 2 3
split_gain=0.549132 0.569986 0.358054 0.431372 0.393773 0.390027 0.641691 0.824087 0.3197 0.400491 0.487505 0.420495 0.385366 0.606106 0.851831 0.284135 0.133503 0.120842 0.0876746
threshold=-0.52332427999999986 -0.55198365499999991 0.28040316000000004 -0.39530500499999993 -0.29096854499999997 -0.20446037999999997 -0.35843473499999995 1.0000000180025095e-35 -0.11466299499999999 0.11818915000000001 -0.13156506999999998 -0.22405762499999998 0.16417605000000002 -0.0069910299999999996 -0.0072083499999999997 -0.084796799999999992 0.028473875000000003 -0.14075332999999998 -0.099763724999999984
decision_type=2 2 2 2 2 2 2 2 2 2 2 2 2 2 2 2 2 2 2
left_child=-1 16 3 -3 -5 6 -6 -8 9 10 -7 -12 13 15 -15 -10 17 -2 -17
right_child=1 2 -4 4 5 8 7 -9 12 -11 11 -13 -14 14 -16 18 -18 -19 -20
leaf_value=0.016255584433674815 0.0085370640240369309 0.011079045917306629 0.010233407806266439 -0.017301377281546595 -0.012060372886203584 0.009989509209990503 -0.0011523711151982608 0.022224958673119546 -0.0028534234936038651 0.011655440316958861 -0.017318298364127124 -0.0006026248064111262 -0.018572514332257786 -0.0097669612423613161 0.014267987981438638 -0.018217003605130948 0.012438621096037052 -0.00015777442039865438 -0.010174151056486627
leaf_weight=20 31 21 22 20 21 20 38 25 30 22 27 34 26 29 30 33 27 33 23
leaf_count=20 31 21 22 20 21 20 38 25 30 22 27 34 26 29 30 33 27 33 23
internal_value=0 -0.00634984 -0.0218622 -0.0287101 -0.0364601 -0.0288314 0.0307817 0.0812435 -0.0471069 -0.00309451 -0.0355917 -0.0800137 -0.0736174 -0.0535153 0.024542 -0.107066 0.065416 0.0405379 -0.149137
internal_weight=0 512 421 399 378 358 84 63 274 103 81 61 171 145 59 86 91 64 56
internal_count=532 512 421 399 378 358 84 63 274 103 81 61 171 145 59 86 91 64 56
shrinkage=0.1


Tree=20
num_leaves=20
num_cat=0
split_feature=0 1 3 2 0 0 5 3 2 1 3 2 0 2 1 1 5 4 4
split_gain=0.448809 0.755476 0.577657 0.401141 0.390635 0.653061 0.377888 0.39196 0.356804 0.424808 0.326641 0.267739 0.261746 0.342565 0.154032 0.260085 0.213509 0.0828351 0.0380968
threshold=0.39943119000000005 0.19675579000000001 -0.38909183999999991 0.22425006500000003 0.13491137000000003 0.089462705000000017 -0.096780104999999991 0.041668035000000006 -0.096165404999999995 -0.081541544999999979 -0.013135729999999998 -0.044052654999999989 -0.021285929999999998 0.031097740000000002 0.020690220000000006 -0.025260499999999995 0.030773495000000001 -0.47396259999999996 -0.77119166499999992
decision_type=2 2 2 2 2 2 2 2 2 2 2 2 2 2 2 2 2 2 2
left_child=1 2 14 4 5 6 7 11 9 -8 -6 -4 13 -10 15 16 17 18 -1
right_child=-2 -3 3 -5 10 -7 8 -9 12 -11 -12 -13 -14 -15 -16 -17 -18 -19 -20
leaf_value=0.009995434790849687 0.014327673933335713 -0.015222596004605293 -0.0075778741170378291 0.011253159425475381 -0.0032848554748025811 0.015186802636493336 0.0082286976976320148 0.014362919437033789 -0.020560943079181018 -0.0076065359533660955 -0.020942527204751968 0.004796238833417496 -0.001763965594100541 -0.0060399500822479078 0.01397040829062462 -0.0053308503871614286 -0.00029918128003676736 0.014880310894328765 0.0041399144567549227
leaf_weight=25 21 33 34 22 22 22 32 21 32 36 20 36 29 33 20 22 30 22 20
leaf_count=25 21 33 34 22 22 22 32 21 32 36 20 36 29 33 20 22 30 22 20
internal_value=0 -0.00588809 0.00421474 -0.0180454 -0.0271076 -0.0133888 -0.027759 0.0238064 -0.0567247 -0.00154661 -0.116933 -0.0121404 -0.0966408 -0.131887 0.058504 0.0448569 0.0671212 0.0985151 0.0739298
internal_weight=0 511 478 339 317 275 253 91 162 68 42 70 94 65 139 119 97 67 45
internal_count=532 511 478 339 317 275 253 91 162 68 42 70 94 65 139 119 97 67 45
shrinkage=0.1


Tree=21
num_leaves=20
num_cat=0
split_feature=2 3 5 1 0 0 0 0 0 1 2 5 0 3 5 1 2 2 4
split_gain=0.434737 0.391498 0.268427 0.322053 0.352788 0.594699 0.474409 0.399386 0.91746 0.469033 0.496019 0.360425 0.353979 0.270234 0.692478 0.203016 0.109636 0.100664 0.0455276
threshold=-0.52332427999999986 -0.55198365499999991 0.28040316000000004 -0.39530500499999993 -0.18496180499999995 -0.21277177499999997 -0.11786687499999998 -0.027537829999999996 -0.0016717149999999996 -0.021947184999999998 0.12123636500000003 -0.046740119999999989 -0.063141239999999973 0.016864425000000006 -0.018412864999999997 0.092860400000000023 0.028473875000000003 -0.14075332999999998 -0.097095319999999985
decision_type=2 2 2 2 2 2 2 2 2 2 2 2 2 2 2 2 2 2 2
left_child=-1 16 3 -3 5 11 -6 12 -9 -10 13 -5 18 15 -15 -11 17 -2 -8
right_child=1 2 -4 4 6 -7 7 8 9 10 -12 -13 -14 14 -16 -17 -18 -19 -20
leaf_value=0.014463630663231015 0.0072201188773878162 0.0096099910991532464 0.0089028391648422588 0.0053515567183494567 0.0091930316554175492 -0.022631162811961512 9.5692276954650888e-06 0.019572808109223846 -0.013579307562288116 -0.013080091904284379 0.01198048362365136 -0.011167929676490272 -0.017733816339944801 -0.00800164070879591 0.0155259715562517 -0.0019014223362319171 0.010726705617788766 -0.00071564742335767468 -0.0067378467321395881
leaf_weight=20 31 21 22 25 36 23 20 20 34 33 26 28 30 29 22 32 27 33 20
leaf_count=20 31 21 22 25 36 23 20 20 34 33 26 28 30 29 22 32 27 33 20
internal_value=0 -0.00564986 -0.018506 -0.0244352 -0.0311316 -0.0920302 -0.0158061 -0.0303869 -0.00723023 -0.0302937 -0.00503325 -0.0337572 -0.0952257 -0.0330142 0.0214753 -0.0757675 0.0538273 0.0312824 -0.0336414
internal_weight=0 512 421 399 378 76 302 266 196 176 142 53 70 116 51 65 91 64 40
internal_count=532 512 421 399 378 76 302 266 196 176 142 53 70 116 51 65 91 64 40
shrinkage=0.1


Tree=22
num_leaves=21
num_cat=0
split_feature=2 3 2 3 4 0 0 4 3 2 0 5 4 2 1 5 0 3 1 1
split_gain=0.361 0.332475 0.236033 0.473114 0.181328 0.245313 0.330598 0.21736 0.606543 0.346225 0.433085 0.564078 0.371895 0.36741 0.341632 0.234984 0.197662 0.246757 0.0539919 0.0256922
threshold=-0.42301346499999992 -0.84471281499999995 0.17193439000000002 -0.14582539499999997 0.030685790000000001 -0.081080064999999993 0.14535704500000005 -0.031852544999999989 -0.013576419999999997 0.05712741000000001 -0.0036599449999999995 -0.22405762499999998 -0.19266604499999998 -0.044052654999999989 -0.035571525 -0.052795859999999993 0.075676375000000004 -0.12677014999999997 -0.091064544999999983 0.0031396600000000003
decision_type=2 2 2 2 2 2 2 2 2 2 2 2 2 2 2 2 2 2 2 2
left_child=-1 18 4 -4 7 -6 -7 9 -9 10 11 -3 -11 14 15 -13 19 -18 -2 -12
right_child=1 2 3 -5 5 6 -8 8 -10 12 16 13 -14 -15 -16 -17 17 -19 -20 -21
leaf_value=0.010848821818443209 0.0044655352278991983 0.018083457152048746 0.0169609060510993 -0.0024222779799910154 -0.013299949013162405 0.0052509609343750138 -0.010570223033428193 -0.0087819949910044673 0.013554760669508288 -0.0015773771926760674 -0.0086593166738748555 -0.0064381028013303886 -0.019197005681369617 0.0085624660817640169 -0.012562632164917887 0.0082384696230292324 0.0052625873982906348 -0.0087875207066535951 0.011320674158632756 -0.013728065346367658
leaf_weight=29 27 21 20 34 32 28 25 20 31 25 20 20 23 35 28 24 25 25 20 20
leaf_count=29 27 21 20 34 32 28 25 20 31 25 20 20 23 35 28 24 25 25 20 20
internal_value=0 -0.00625479 -0.0145087 0.0475668 -0.0228473 -0.063862 -0.0221186 -0.0118496 0.0479525 -0.0233154 -0.00638645 0.030988 -0.100201 0.00157886 -0.0392767 0.015673 -0.0595412 -0.0176247 0.0738262 -0.111937
internal_weight=0 503 456 54 402 85 53 317 51 266 218 128 48 107 72 44 90 50 47 40
internal_count=532 503 456 54 402 85 53 317 51 266 218 128 48 107 72 44 90 50 47 40
shrinkage=0.1


Tree=23
num_leaves=21
num_cat=0
split_feature=0 1 3 4 4 0 5 0 0 0 1 4 4 3 3 2 5 0 5 1
split_gain=0.34219 0.580059 0.339627 0.601554 0.556548 0.7149 0.581958 0.559046 0.715898 0.453879 0.448096 0.32434 0.321487 0.489514 0.407291 0.443052 0.343554 0.32141 0.207714 0.063667
threshold=0.39943119000000005 0.19675579000000001 -0.14582539499999997 -0.083303014999999994 -0.095278789999999988 0.16043353500000002 -0.0075493299999999991 -0.022730829999999997 -0.28889073499999995 -0.18825419999999995 -0.005409559999999999 0.043175000000000005 -0.28579368499999996 -0.37579603499999997 -0.31697107499999994 -0.012510189999999999 -0.038494514999999986 -0.054797639999999995 0.010006650000000001 -0.12500634999999996
decision_type=2 2 2 2 2 2 2 2 2 2 2 2 2 2 2 2 2 2 2 2
left_child=1 2 3 12 6 7 -4 8 -6 -10 -9 -11 13 17 15 -14 -16 18 19 -1
right_child=-2 -3 4 -5 5 -7 -8 10 9 11 -12 -13 14 -15 16 -17 -18 -19 -20 -21
leaf_value=0.0065750978180560572 0.012510614930873826 -0.013336921697764688 -0.018653494699133768 -0.013127635064579191 0.013317538922031722 -0.016941163945011797 -0.00041016627870061814 0.00037296974788541382 -0.018587989256378602 0.0069476438065369924 0.0185556914205804 -0.0096703932661077255 -0.0088720944174565369 -0.012996908593922855 0.021958536992315203 0.012176697179675103 0.0050382840074598796 0.01143904174187858 -0.0083054332506088992 -0.00075890523381531242
leaf_weight=29 21 33 36 21 24 20 34 23 22 24 33 23 20 20 30 20 20 38 21 20
leaf_count=29 21 33 36 21 24 20 34 23 22 24 33 23 20 20 30 20 20 38 21 20
internal_value=0 -0.00514135 0.0037112 0.0303667 -0.0229443 0.00811257 -0.0979245 0.0319413 -0.0155904 -0.067335 0.110878 -0.0118459 0.0459378 0.0137368 0.0917349 0.016523 0.151904 0.040349 0.000155091 0.0358163
internal_weight=0 511 478 239 239 169 70 149 93 69 56 47 218 128 90 40 50 108 70 49
internal_count=532 511 478 239 239 169 70 149 93 69 56 47 218 128 90 40 50 108 70 49
shrinkage=0.1


Tree=24
num_leaves=20
num_cat=0
split_feature=2 0 1 4 5 3 0 0 0 1 1 1 1 3 1 1 1 3 2
split_gain=0.303749 0.303608 0.431126 0.305049 0.398914 0.394876 0.320719 0.56995 0.327608 0.53129 0.535292 0.362945 0.339885 0.218501 0.273036 0.535882 0.210927 0.209277 0.192342
threshold=-0.52332427999999986 0.39943119000000005 0.19675579000000001 -0.13353868999999999 -0.22405762499999998 -0.19574705999999997 -0.28889073499999995 -0.18825419999999995 0.16043353500000002 -0.0064005799999999995 -0.058324224999999993 0.025199020000000003 -0.1470581 -0.12677014999999997 -0.19511098999999996 0.017221515000000003 -0.31759376499999997 -0.49233113999999994 -0.011569359999999999
decision_type=2 2 2 2 2 2 2 2 2 2 2 2 2 2 2 2 2 2 2
left_child=-1 2 3 4 18 -5 -7 -8 9 10 12 -11 -9 14 16 17 -6 -16 -2
right_child=1 -3 -4 5 13 6 7 8 -10 11 -12 -13 -14 -15 15 -17 -18 -19 -20
leaf_value=0.012089868178591132 0.018369864895939829 0.011605585366487503 -0.012003229706632821 -0.014348189532756806 0.0019341299962252379 0.0086782407015562057 -0.018304443001813657 -0.007305683738862475 -0.011490421609778423 0.017192335724830626 -0.018184844298022137 0.0016781572301528957 0.0097059130020763565 -0.0066628704885286945 1.9539393580112705e-05 0.0096535724432518094 0.016457451023161412 -0.010408000814679422 0.004667230560222552
leaf_weight=20 20 20 33 26 20 28 21 24 24 25 21 38 23 35 39 36 20 38 21
leaf_count=20 20 20 33 26 20 28 21 24 24 25 21 38 23 35 39 36 20 38 21
internal_value=0 -0.0047226 -0.0096323 -0.00169504 0.0241409 -0.0274187 -0.0126263 -0.0284413 -0.00749509 0.0121829 -0.049115 0.0783458 0.0101914 0.00464988 0.0209554 -0.00417818 0.0919579 -0.0512652 0.113514
internal_weight=0 512 492 459 229 230 204 176 155 131 68 63 47 188 153 113 40 77 41
internal_count=532 512 492 459 229 230 204 176 155 131 68 63 47 188 153 113 40 77 41
shrinkage=0.1


Tree=25
num_leaves=21
num_cat=0
split_feature=2 3 1 0 1 1 1 5 1 0 1 1 5 5 1 2 4 2 3 1
split_gain=0.254348 0.203053 0.15832 0.291245 0.217023 0.413845 0.273316 0.1829 0.713096 0.310013 0.482494 0.497131 0.398699 0.324474 0.371724 0.298836 0.278532 0.2754 0.124188 0.0448119
threshold=-0.42301346499999992 -0.84471281499999995 0.30632942500000004 0.21555589000000003 0.18306130500000004 0.092860400000000023 0.069676520000000006 0.090517575000000003 -0.19806919999999997 -0.027537829999999996 -0.03409189499999999 -0.10475946499999998 -0.17843999999999996 -0.19190403499999997 -0.31759376499999997 -0.075757334999999995 -0.124091045 0.036710750000000007 -0.077140059999999996 -0.091064544999999983
decision_type=2 2 2 2 2 2 2 2 2 2 2 2 2 2 2 2 2 2 2 2
left_child=-1 19 3 4 5 6 7 9 -9 10 11 13 -11 -3 -15 -14 -16 -17 -12 -2
right_child=1 2 -4 -5 -6 -7 -8 8 -10 12 18 -13 15 14 16 17 -18 -19 -20 -21
leaf_value=0.0091063297044582155 0.0030756991908506112 0.0072838268801569935 0.0075298268347978592 -0.011628393697793837 -0.010566381809555672 0.010536013793898747 -0.01240344211082196 0.0092140332573936098 -0.013642365886614875 -0.0048910917232076051 -0.015576304525136947 0.011299762896129065 0.00014917299799297167 -0.01715292465828714 0.0059554687916086278 0.022462223825000585 -0.0085458220017177091 0.0064520818012004551 -0.0051449742966464592 0.0093209346904768609
leaf_weight=29 27 25 20 27 22 32 21 21 39 28 25 35 23 21 26 21 27 22 21 20
leaf_count=29 27 25 20 27 22 32 21 21 39 28 25 35 23 21 26 21 27 22 21 20
internal_value=0 -0.00525017 -0.0117006 -0.0156913 -0.00905076 -0.00355854 -0.0133766 -0.00641904 -0.0564263 0.00453145 -0.0197762 0.0105583 0.051078 -0.0256577 -0.0589333 0.0934975 -0.0143198 0.14271 -0.108142 0.0573325
internal_weight=0 503 456 436 409 387 355 334 60 274 180 134 94 99 74 66 53 43 46 47
internal_count=532 503 456 436 409 387 355 334 60 274 180 134 94 99 74 66 53 43 46 47
shrinkage=0.1


Tree=26
num_leaves=20
num_cat=0
split_feature=0 0 1 3 5 5 0 0 5 2 4 4 4 0 0 0 1 3 4
split_gain=0.222663 0.227448 0.324637 0.246185 0.23619 0.190422 0.221123 0.407905 0.248564 0.377833 0.295256 0.274251 0.362747 0.22567 0.178884 0.175444 0.302642 0.288377 0.2776
threshold=-0.61563910999999993 0.39943119000000005 0.22614605000000002 0.16417605000000002 0.29447022500000003 0.094430715000000012 -0.17851288999999998 -0.24088948999999998 -0.04962384999999999 -0.17857171999999996 -0.0039228699999999993 0.0093905950000000033 -0.20446037999999997 -0.30003696499999993 -0.055953494999999992 -0.10598777999999999 -0.047898844999999995 -0.37579603499999997 -0.127105265
decision_type=2 2 2 2 2 2 2 2 2 2 2 2 2 2 2 2 2 2 2
left_child=-1 2 3 4 5 6 7 13 10 -10 15 12 -11 -2 -7 -8 -17 -18 -19
right_child=1 -3 -4 -5 -6 14 8 -9 9 11 -12 -13 -14 -15 -16 16 17 18 -20
leaf_value=0.010091805209716162 -0.0036337982175641162 0.0097763112613133019 -0.012193461041897537 -0.008093820952785177 0.011018461738713086 0.00010034657226732145 0.0099141684382976526 -0.011632229475858244 -0.0067223990801721818 0.013069183675243574 -0.0099473576854776456 0.018802188374102118 -0.0011487574169510291 0.0097973171367563994 -0.011630071149780773 -0.0078938917561625962 -0.0050326175486239107 0.016688076473240342 0.0014784253019440388
leaf_weight=21 29 21 24 37 20 26 21 37 20 34 27 20 38 22 26 34 26 21 28
leaf_count=21 29 21 24 37 20 26 21 37 20 34 27 20 38 22 26 34 26 21 28
internal_value=0 -0.00414732 -0.00851491 -0.00267355 0.00407655 -0.00111211 0.0071229 -0.03639 0.0213576 0.0573478 -0.00431694 0.0844286 0.0556527 0.0216002 -0.0576486 0.0154464 -0.000678428 0.0347997 0.0799685
internal_weight=0 511 490 466 429 409 357 88 269 112 157 92 72 51 52 130 109 75 49
internal_count=532 511 490 466 429 409 357 88 269 112 157 92 72 51 52 130 109 75 49
shrinkage=0.1


Tree=27
num_leaves=21
num_cat=0
split_feature=2 0 1 2 3 4 5 5 0 5 4 3 3 3 4 5 1 1 4 2
split_gain=0.192998 0.189938 0.262982 0.213259 0.30974 0.267756 0.186698 0.165879 0.276508 0.183689 0.267307 0.767042 0.5096 0.391583 0.296672 0.252749 0.152137 0.123289 0.265208 0.0616996
threshold=-0.52332427999999986 0.39943119000000005 0.22614605000000002 0.17193439000000002 -0.022947184999999995 0.16425430500000002 0.048031190000000008 1.0000000180025095e-35 -0.13156288999999996 -0.085767234999999983 -0.090224914999999975 -0.13853413999999997 -0.32995441999999992 0.016864425000000006 -0.31877273499999997 -0.052795859999999993 -0.0069408299999999994 0.0042287500000000007 -0.20446037999999997 -0.0045935199999999994
decision_type=2 2 2 2 2 2 2 2 2 2 2 2 2 2 2 2 2 2 2 2
left_child=-1 2 3 5 -5 6 7 9 -9 10 11 12 14 -12 19 -11 -17 18 -8 -2
right_child=1 -3 -4 4 -6 -7 17 8 -10 15 13 -13 -14 -15 -16 16 -18 -19 -20 -21
leaf_value=0.0096369773003971218 0.0067371117553256202 0.0091765309125185022 -0.010974115086719395 0.012862341752874533 -0.0034315595775842667 -0.010410193327282158 0.0013565711987515291 -0.0016623744868584688 0.014208714906936107 -0.0128938933895172 -0.00093157508451005696 -0.014009233735851013 0.015822738810227468 0.017521252436563373 -0.010188157483935357 0.0045126793135342935 -0.0063780160701793175 0.00048618592145676553 -0.012140882317278837 -0.0004826885065995157
leaf_weight=20 29 20 24 28 20 28 24 21 23 23 23 32 26 23 22 29 23 37 37 20
leaf_count=20 29 20 24 28 20 28 24 21 23 23 23 32 26 23 22 29 23 37 37 20
internal_value=0 -0.00376444 -0.00764777 -0.00241221 0.0607322 -0.00962871 -0.00288062 0.00971924 0.0663388 -0.000245796 0.0174995 -0.00583886 0.038451 0.0829484 -0.00541084 -0.0416515 -0.00304359 -0.0406802 -0.0683041 0.0379025
internal_weight=0 512 492 468 48 420 392 294 44 250 175 129 97 46 71 75 52 98 61 49
internal_count=532 512 492 468 48 420 392 294 44 250 175 129 97 46 71 75 52 98 61 49
shrinkage=0.1


Tree=28
num_leaves=21
num_cat=0
split_feature=0 2 2 3 4 4 5 0 0 5 1 4 0 0 4 4 3 3 4 5
split_gain=0.183566 0.151663 0.19616 0.285585 0.137263 0.355608 0.315945 0.165365 0.22362 0.564025 0.379123 0.215936 0.19829 0.191193 0.388884 0.459492 0.180239 0.176835 0.169663 0.043933
threshold=-0.61563910999999993 -0.42301346499999992 -0.20671072999999998 -0.17748781 0.030685790000000001 0.095585715000000002 -0.0075493299999999991 0.19442626000000005 -0.084796799999999992 0.10683512500000002 -0.061232374999999992 -0.17780659499999998 -0.19606151499999999 -0.027537829999999996 -0.095278789999999988 -0.19266604499999998 -0.43517768999999995 -0.099763724999999984 -0.21281038499999996 -0.031536719999999997
decision_type=2 2 2 2 2 2 2 2 2 2 2 2 2 2 2 2 2 2 2 2
left_child=-1 -2 3 -3 7 -6 -7 8 10 13 11 12 -4 18 15 16 -15 -13 -10 -12
right_child=1 2 4 -5 5 6 -8 -9 9 -11 19 17 -14 14 -16 -17 -18 -19 -20 -21
leaf_value=0.0091630822668472937 0.0070641356206928886 0.00016072900757065108 -0.0030630568363543215 -0.014586171957974634 -0.013147614116745969 -0.0057647751098764792 0.0084867982060781548 0.0079346697824075815 0.00012031480331312526 -0.017983007456641647 -0.008221008758991958 0.018575360874334972 0.0092250232739994938 0.010799127132130791 0.010070271646747224 -0.011346699972636999 -0.0018615075103614643 0.0054366794414818292 -0.012605687007308006 -0.0015928131047985518
leaf_weight=21 26 29 29 24 27 35 28 30 22 20 20 21 24 22 39 32 23 20 20 20
leaf_count=21 26 29 29 24 27 35 28 30 22 20 20 21 24 22 39 32 23 20 20 20
internal_value=0 -0.00376565 -0.00775448 -0.0651711 -0.000710307 -0.035458 0.00569257 0.00843383 0.00161529 -0.0216132 0.032471 0.0671689 0.0250136 -0.00158573 0.0193459 -0.0218608 0.0432814 0.121662 -0.0593969 -0.0490691
internal_weight=0 511 485 53 432 90 63 342 312 178 134 94 53 158 116 77 45 41 42 40
internal_count=532 511 485 53 432 90 63 342 312 178 134 94 53 158 116 77 45 41 42 40
shrinkage=0.1


Tree=29
num_leaves=20
num_cat=0
split_feature=0 1 3 5 5 5 3 4 1 5 3 4 4 2 0 0 5 1 2
split_gain=0.148689 0.156359 0.315789 0.214877 0.182871 0.169539 0.595848 0.199693 0.181412 0.170414 0.229516 0.610714 0.484179 0.331176 0.267245 0.262295 0.277461 0.213368 0.163449
threshold=-0.61563910999999993 0.27445468500000003 0.16417605000000002 0.29447022500000003 -0.074181014999999975 0.026488395000000001 0.0072003950000000009 -0.095278789999999988 -0.051202814999999992 1.0000000180025095e-35 -0.14582539499999997 -0.095278789999999988 -0.0039228699999999993 -0.035920929999999997 0.087354630000000016 0.020960905000000005 -0.22405762499999998 -0.21522534499999998 -0.084609019999999993
decision_type=2 2 2 2 2 2 2 2 2 2 2 2 2 2 2 2 2 2 2
left_child=-1 2 3 5 -4 9 7 8 -7 10 14 -12 -13 -14 15 16 -2 -18 -19
right_child=1 -3 4 -5 -6 6 -8 -9 -10 -11 11 12 13 -15 -16 -17 17 18 -20
leaf_value=0.0082467739603349147 0.010084018932603715 0.0070672325927902159 -0.0025007089762948457 0.0098879482730158744 -0.016023706272244455 -0.0095406915899366156 0.01127949094357477 -0.013265484613789756 0.00092358114701267832 0.0083788963207216179 -0.013727658560597584 0.01090996838703921 0.0042177215218544006 -0.013377100172574105 0.012469598669153842 -0.0086738742111871648 0.008335596891120076 0.0019753075704944355 -0.0087494218597809464
leaf_weight=21 36 27 20 21 20 30 22 33 37 27 38 33 20 23 23 24 20 27 30
leaf_count=21 36 27 20 21 20 30 22 33 37 27 38 33 20 23 23 24 20 27 30
internal_value=0 -0.00338908 -0.00752061 0.000146189 -0.0926221 -0.00475546 -0.0362017 -0.0689809 -0.0376191 0.00799018 0.000520953 -0.0337667 0.0179882 -0.0519346 0.0249509 0.00820542 0.0283706 -0.00551135 -0.0366929
internal_weight=0 511 484 444 40 423 122 100 67 301 274 114 76 43 160 137 113 77 57
internal_count=532 511 484 444 40 423 122 100 67 301 274 114 76 43 160 137 113 77 57
shrinkage=0.1


Tree=30
num_leaves=20
num_cat=0
split_feature=2 2 2 4 4 4 1 0 1 0 2 2 2 2 0 1 5 4 1
split_gain=0.122322 0.513401 0.487495 0.364058 0.399127 0.361437 0.385686 0.891035 0.531863 0.32038 0.270604 0.447653 0.253898 0.237186 0.232147 0.208762 0.184874 0.304485 0.112158
threshold=-0.068375479999999988 -0.044961499999999995 -0.083395919999999985 -0.16757878999999998 -0.30573803999999993 0.10583384500000002 -0.005409559999999999 -0.10598777999999999 0.035694680000000013 0.028340720000000003 -0.19612726999999999 -0.26560989499999993 -0.16392635999999997 0.060380050000000011 -0.054797639999999995 -0.091064544999999983 -0.0045447099999999995 -0.16198343499999998 -0.021947184999999998
decision_type=2 2 2 2 2 2 2 2 2 2 2 2 2 2 2 2 2 2 2
left_child=2 -2 9 4 14 6 7 -5 -8 10 11 15 -11 -10 -3 -1 17 -12 -6
right_child=1 3 -4 5 18 -7 8 -9 13 12 16 -13 -14 -15 -16 -17 -18 -19 -20
leaf_value=0.010547003892133944 -0.013095124358193117 -0.0066873766538320173 0.016261491534255802 2.8198529034852984e-05 0.0067612812179943613 0.0055367081230016137 0.013170364759862425 -0.025264442511476005 -0.013199455178497979 0.0017770917705175551 0.0033741112342492367 -0.012355759632415496 -0.012269655716203663 0.0015457248128950597 0.0059472870099573187 -0.0023865757421984973 0.0013051783271496081 0.020080747902393344 0.016112185593532481
leaf_weight=24 33 33 21 30 29 38 20 26 24 22 24 26 31 20 26 26 36 20 23
leaf_count=24 33 33 21 30 29 38 20 26 24 22 24 26 31 20 26 26 36 20 23
internal_value=0 -0.013233 0.0173755 0.00120832 0.0450994 -0.0296266 -0.0565412 -0.117148 -0.00351018 0.00278201 0.025603 -0.017128 -0.0643893 -0.064971 -0.0111956 0.0382154 0.0661975 0.10968 0.108973
internal_weight=0 302 230 269 111 158 120 56 64 209 156 76 53 44 59 50 80 44 52
internal_count=532 302 230 269 111 158 120 56 64 209 156 76 53 44 59 50 80 44 52
shrinkage=0.1


Tree=31
num_leaves=21
num_cat=0
split_feature=0 1 1 0 0 0 0 0 4 2 2 2 0 2 2 3 2 3 4 1
split_gain=0.111211 0.256045 0.15289 0.169033 0.255066 0.194313 0.317557 0.420257 0.388203 0.334939 0.230619 0.618364 0.407014 0.290964 0.455698 0.184508 0.152343 0.136112 0.12584 0.0952268
threshold=0.39943119000000005 0.19675579000000001 0.13838175000000003 0.11406799500000002 0.075676375000000004 0.020960905000000005 -0.027537829999999996 -0.06459580999999999 -0.20750041499999997 0.17551555000000005 -0.096165404999999995 -0.044052654999999989 -0.18496180499999995 -0.19612726999999999 -0.26560989499999993 -0.35837396999999999 -0.14450180999999998 -0.11769646999999998 -0.23648242499999997 0.0098649800000000006
decision_type=2 2 2 2 2 2 2 2 2 2 2 2 2 2 2 2 2 2 2 2
left_child=1 2 3 4 5 6 7 9 -9 10 13 -12 15 14 -1 -13 -15 -8 -7 -5
right_child=-2 -3 -4 19 -6 18 17 8 -10 -11 11 12 -14 16 -16 -17 -18 -19 -20 -21
leaf_value=0.0060712769567599582 0.0071321155077644768 -0.0088124235640421062 0.0088534753583371633 -0.010859700178261848 0.010837032945583696 0.00010245950776152312 0.0033823538407752362 -0.00062238566218487295 -0.019239841587841512 0.013610493736341595 -0.015597820721952052 0.0028671281179413199 0.0090504466310927754 0.015423159646293658 -0.012508966178971938 -0.0094524699233232007 0.004013335574418307 0.013850914622130601 -0.010283247584344022 -0.0020635763721656986
leaf_weight=33 21 33 20 20 23 20 27 24 21 20 29 20 38 22 22 31 25 23 28 32
leaf_count=33 21 33 20 20 23 20 27 24 21 20 29 20 38 22 22 31 25 23 28 32
internal_value=0 -0.00293101 0.00295053 -0.000786767 0.00608853 -5.37142e-05 0.00847237 -0.00442351 -0.0931053 0.0122043 0.000940634 -0.0291613 0.012161 0.0357645 -0.0136082 -0.0462126 0.093541 0.0819789 -0.0595587 -0.054467
internal_weight=0 511 478 458 406 383 335 285 45 240 220 118 89 102 55 51 47 50 48 52
internal_count=532 511 478 458 406 383 335 285 45 240 220 118 89 102 55 51 47 50 48 52
shrinkage=0.1


Tree=32
num_leaves=20
num_cat=0
split_feature=1 0 1 1 1 1 2 0 0 3 0 2 2 0 1 3 4 0 3
split_gain=0.108995 0.258159 0.103146 0.210395 0.143995 0.174437 0.283567 0.192757 0.170932 0.358407 0.337499 0.289466 0.353936 0.277545 0.430136 0.381837 0.198694 0.186818 0.159835
threshold=0.27445468500000003 0.21555589000000003 0.16672739500000003 0.092860400000000023 0.069676520000000006 0.017221515000000003 -0.062714264999999977 0.049852740000000006 -0.027537829999999996 -0.047452839999999989 -0.06459580999999999 0.17551555000000005 0.05712741000000001 -0.091420634999999986 -0.061232374999999992 0.12560909000000001 -0.17780659499999998 -0.26978746999999997 -0.099763724999999984
decision_type=2 2 2 2 2 2 2 2 2 2 2 2 2 2 2 2 2 2 2
left_child=1 2 3 4 5 7 -7 8 10 -10 11 12 13 14 15 16 17 -1 -18
right_child=-2 -3 -4 -5 -6 6 -8 -9 9 -11 -12 -13 -14 -15 -16 -17 18 -19 -20
leaf_value=-0.0047130069198707747 0.0061902907435540805 -0.0093276787238816428 -0.0067913883784785876 0.0084988807313024044 -0.0075586525994973883 0.011868288187730697 -0.003404462262988091 -0.007105410728897703 -0.00060495939172272172 0.016176144303753973 -0.009925279031706263 0.012249444358749315 -0.010193703491841594 0.012489557138178498 -0.012637388753406096 -0.010476125366985799 0.016377921178936959 0.0060410140374941492 0.0041545325778829661
leaf_weight=30 27 30 20 31 24 31 20 38 35 20 34 20 31 20 23 20 20 35 23
leaf_count=30 27 30 20 31 24 31 20 38 35 20 34 20 31 20 23 20 20 35 23
internal_value=0 -0.00330966 0.00237247 0.00546198 -0.000352477 0.00416157 0.0587897 -0.00382135 0.00439359 0.0549726 -0.006473 0.00773652 -0.00362565 0.0141969 -0.000465198 0.022159 0.0456628 0.0107762 0.0983983
internal_weight=0 505 475 455 424 400 51 349 311 55 256 222 202 171 151 128 108 65 43
internal_count=532 505 475 455 424 400 51 349 311 55 256 222 202 171 151 128 108 65 43
shrinkage=0.1


Tree=33
num_leaves=20
num_cat=0
split_feature=0 0 1 3 2 0 1 5 0 0 0 4 5 5 5 1 1 5 1
split_gain=0.115644 0.110423 0.284966 0.235814 0.294779 0.205464 0.167631 0.313791 0.219947 0.208776 0.468494 0.379394 0.240891 0.383393 0.473399 0.320062 0.253476 0.517415 0.0288918
threshold=-0.61563910999999993 -0.17851288999999998 -0.04858408999999999 -0.38909183999999991 0.027114945000000005 -0.14063535999999996 -0.10475946499999998 0.048031190000000008 -0.074632314999999991 -0.027537829999999996 -0.0016717149999999996 -0.20750041499999997 -0.26882586499999994 -0.15133038999999995 -0.04962384999999999 0.14075262500000002 0.069676520000000006 0.07623951000000001 -0.24437628499999997
decision_type=2 2 2 2 2 2 2 2 2 2 2 2 2 2 2 2 2 2 2
left_child=-1 2 3 18 -5 -3 7 -7 -8 11 -11 -10 -12 -14 -15 16 17 -16 -2
right_child=1 5 -4 4 -6 6 8 -9 9 10 12 -13 13 14 15 -17 -18 -19 -20
leaf_value=0.0072728852430979417 0.0024427360203117133 0.0084566086949780586 -0.013865087664453313 -0.010587393219715783 0.0041846303692595526 0.0014552049010115513 0.0080334570611248143 -0.012984687865159853 0.0021850497981246849 0.01463046841647314 -0.010316841507499869 -0.015446584509766621 0.011067960923537613 -0.011469286539192712 0.01197524438439696 0.01049196451016131 -0.009813073851662921 -0.0082045670831576 0.0078178420476615433
leaf_weight=21 20 30 20 35 22 34 37 27 26 23 22 23 30 35 27 31 25 24 20
leaf_count=21 20 30 20 35 22 34 37 27 26 23 22 23 30 35 27 31 25 24 20
internal_value=0 -0.00298886 -0.0299647 -0.00755519 -0.0488591 0.00502174 -0.00153411 -0.0493622 0.00809465 -0.00195376 0.011359 -0.0609102 -0.00463973 0.00796278 -0.013738 0.0192847 -0.0156454 0.0247886 0.0513029
internal_weight=0 511 117 97 57 394 364 61 303 266 217 49 194 172 142 107 76 51 40
internal_count=532 511 117 97 57 394 364 61 303 266 217 49 194 172 142 107 76 51 40
shrinkage=0.1


Tree=34
num_leaves=20
num_cat=0
split_feature=0 2 2 2 5 4 4 4 2 0 3 0 4 5 1 2 2 3 1
split_gain=0.0936717 0.0913411 0.242092 0.328497 0.307661 0.238554 0.248922 0.246772 0.21762 0.19796 0.19316 0.167952 0.164624 0.457367 0.370939 0.137235 0.302629 0.129144 0.116764
threshold=-0.61563910999999993 -0.12863086999999998 -0.068375479999999988 -0.044961499999999995 -0.12361034 -0.16757878999999998 -0.30573803999999993 -0.11802689499999998 -0.16392635999999997 -0.054797639999999995 -0.49777870499999993 -0.051200414999999992 -0.0039228699999999993 0.011844110000000001 -0.005409559999999999 -0.34292335999999995 -0.20671072999999998 0.061693900000000003 -0.021947184999999998
decision_type=2 2 2 2 2 2 2 2 2 2 2 2 2 2 2 2 2 2 2
left_child=-1 8 4 -4 -3 6 9 -7 10 -5 -2 -6 14 17 -9 -12 -17 -14 -8
right_child=1 2 3 5 11 7 18 12 -10 -11 15 -13 13 -15 -16 16 -18 -19 -20
leaf_value=0.0065455967028226177 0.005237798273073844 0.014396778716652009 -0.010319621424423532 -0.0060929715757568684 -0.0058284472430213579 -0.011652729044789853 0.0047624592270169947 -0.0056713183005542862 -0.010158863573752602 0.0058286406314716896 0.002871969962776031 0.0058318014815449716 -0.0044669454188450523 0.0056625085290182729 0.011208388429755967 -0.013297422808994139 0.0025830931518049469 -0.015064084400301395 0.014378516870024411
leaf_weight=21 39 26 32 30 21 23 28 23 29 26 23 30 23 33 30 28 21 23 23
leaf_count=21 39 26 32 30 21 23 28 23 29 26 23 30 23 33 30 28 21 23 23
internal_value=0 -0.00268997 0.00552299 -0.00755 0.055438 0.00413198 0.0404496 -0.0209389 -0.0244543 -0.00557937 -0.00430211 0.0103052 -0.0042833 -0.033209 0.0388323 -0.0350038 -0.0649149 -0.0976551 0.0909911
internal_weight=0 511 371 294 77 262 107 155 140 56 111 51 132 79 53 72 49 46 51
internal_count=532 511 371 294 77 262 107 155 140 56 111 51 132 79 53 72 49 46 51
shrinkage=0.1


Tree=35
num_leaves=20
num_cat=0
split_feature=1 0 0 0 1 1 0 5 0 4 2 2 2 4 3 3 5 0 0
split_gain=0.0871459 0.0927891 0.23393 0.207442 0.232799 0.173977 0.213396 0.19663 0.172188 0.161951 0.333557 0.269884 0.409995 0.220195 0.321261 0.155219 0.147909 0.133618 0.113173
threshold=-0.45932638999999992 -0.17851288999999998 -0.21277177499999997 -0.11786687499999998 -0.081541544999999979 -0.10475946499999998 -0.074632314999999991 0.062669505000000014 -0.054797639999999995 -0.19266604499999998 0.028473875000000003 -0.059024999999999994 -0.115406205 -0.10527362999999999 0.021741955000000004 -0.39237655499999996 -0.046740119999999989 0.030211770000000002 0.072813900000000015
decision_type=2 2 2 2 2 2 2 2 2 2 2 2 2 2 2 2 2 2 2
left_child=-1 2 15 4 -3 7 -7 -5 -8 10 17 12 18 -13 -15 -2 -17 -10 -11
right_child=1 3 -4 5 -6 6 8 -9 9 11 -12 13 -14 14 -16 16 -18 -19 -20
leaf_value=0.0061622807586734947 0.0055495169857749721 0.01229710060508986 -0.0098701479675417595 -0.00051946224130947018 -0.0015279544783490045 0.0091747684260973569 -0.0092402828985359529 -0.013225239628393734 0.0038081806566980154 0.0027942136972255653 0.012006954703247176 -0.014279733514413237 0.013206436867431665 0.0040778836185062254 -0.0092868462976600438 0.0027628185632436173 -0.0078960478263131028 -0.006446694146143273 -0.0072580006284018355
leaf_weight=22 32 29 33 29 21 26 20 21 27 21 32 20 26 37 35 23 30 24 24
leaf_count=22 32 29 33 29 21 26 20 21 27 21 32 20 26 37 35 23 30 24 24
internal_value=0 -0.00265824 -0.027243 0.00474226 0.0649058 -0.00405357 0.00527953 -0.0585589 -0.00317224 0.00408228 0.0400389 -0.0142269 0.0320921 -0.0499731 -0.0241886 0.000499757 -0.032705 -0.0101764 -0.0256697
internal_weight=0 510 118 392 50 342 292 50 266 246 83 163 71 92 72 85 53 51 45
internal_count=532 510 118 392 50 342 292 50 266 246 83 163 71 92 72 85 53 51 45
shrinkage=0.1


Tree=36
num_leaves=21
num_cat=0
split_feature=0 1 1 0 0 0 0 0 4 2 2 2 1 0 2 2 5 5 4 5
split_gain=0.0910432 0.202763 0.12321 0.0901922 0.223319 0.153489 0.148099 0.244722 0.21842 0.193687 0.149919 0.488469 0.328479 0.256377 0.223571 0.330654 0.137646 0.105263 0.0831451 0.0752038
threshold=0.39943119000000005 0.19675579000000001 0.13838175000000003 0.11406799500000002 0.075676375000000004 0.020960905000000005 -0.027537829999999996 -0.06459580999999999 -0.20750041499999997 0.17551555000000005 -0.090087424999999985 -0.044052654999999989 -0.22662117499999998 -0.18496180499999995 -0.19612726999999999 -0.26560989499999993 0.010006650000000001 -0.056670904999999994 -0.066400709999999988 -0.080984134999999999
decision_type=2 2 2 2 2 2 2 2 2 2 2 2 2 2 2 2 2 2 2 2
left_child=1 2 3 4 5 6 7 9 -9 10 14 -12 -13 -14 15 -1 -16 -8 -5 -7
right_child=-2 -3 -4 18 -6 19 17 8 -10 -11 11 12 13 -15 16 -17 -18 -19 -20 -21
leaf_value=0.0049002382706737884 0.0064531054702543084 -0.0078464557917675738 0.0079411111678928149 -0.00015071671525085416 0.0099954312424296934 -0.0011353816466659985 0.010804128782315688 -0.00052306073436435936 -0.014487927921471142 0.010418103449046612 -0.01382941469949271 -0.0072052266728132967 -0.0010581230869163472 0.012127663940191269 0.012434760717275952 -0.010926798453808508 0.001572782776784152 0.0015607060980983079 -0.0081539989560842525 -0.0090794430956101201
leaf_weight=33 21 33 20 27 23 22 22 24 21 20 28 30 29 30 28 22 20 28 25 26
leaf_count=33 21 33 20 27 23 22 22 24 21 20 28 30 29 30 28 22 20 28 25 26
internal_value=0 -0.00265196 0.00258196 -0.000773022 0.00424914 -0.00149817 0.00607952 -0.00272725 -0.0704 0.00996139 0.00139596 -0.0230971 0.0131447 0.0564651 0.0292182 -0.0143058 0.0790894 0.0562781 -0.0399845 -0.0543841
internal_weight=0 511 478 458 406 383 335 285 45 240 220 117 89 59 103 55 48 50 52 48
internal_count=532 511 478 458 406 383 335 285 45 240 220 117 89 59 103 55 48 50 52 48
shrinkage=0.1


Tree=37
num_leaves=22
num_cat=0
split_feature=1 0 3 3 4 4 0 2 2 4 2 0 0 0 0 3 2 1 4 3 3
split_gain=0.0842194 0.177421 0.121483 0.220264 0.242899 0.332313 0.16415 0.153415 0.202885 0.265811 0.195389 0.212869 0.189664 0.157833 0.172667 0.273794 0.177671 0.145344 0.1453 0.129667 0.0414241
threshold=0.27445468500000003 0.21555589000000003 0.012526030000000002 0.037194155000000007 -0.047099354999999996 0.030685790000000001 0.15439562500000004 0.14080326500000004 0.10847156500000002 0.012345585000000001 0.05712741000000001 0.020960905000000005 -0.027537829999999996 -0.074632314999999991 -0.15313562999999999 -0.26096410999999992 -0.10120440499999998 -0.19806919999999997 -0.19266604499999998 0.21843686000000004 -0.26992936499999992
decision_type=2 2 2 2 2 2 2 2 2 2 2 2 2 2 2 2 2 2 2 2 2
left_child=1 2 6 -4 -5 -6 7 8 9 10 11 12 13 14 15 17 -16 -1 -9 -7 -13
right_child=-2 -3 3 4 5 19 -8 18 -10 -11 -12 20 -14 -15 16 -17 -18 -19 -20 -21 -22
leaf_value=0.0081306993772159337 0.0054414433668609026 -0.0077492791713060193 0.011071089374085066 -0.0080136434388502192 0.013833464614369654 -0.0064302053717572409 0.0078200804945524963 -0.001214132540016657 0.008977761922315473 -0.012031015208257098 -0.0097978400252759466 -0.0087636195715855483 0.0094336673765892873 -0.0056345330471231142 0.001127846107729489 -0.008217324037104845 0.01429752839030698 -0.0024279715831984176 -0.013123803408816456 0.0038775018058144132 -0.0026940580943356392
leaf_weight=32 27 30 26 24 22 23 21 21 21 21 20 22 29 32 21 29 20 22 20 26 23
leaf_count=32 27 30 26 24 22 23 21 21 21 21 20 22 29 32 21 29 20 22 20 26 23
internal_value=0 -0.00290929 0.00180125 0.0291552 0.00683464 0.0362333 -0.00754853 -0.0129561 -0.00491325 -0.0122509 -0.00317394 0.00506992 0.0200741 0.0062689 0.0224274 -0.00379944 0.0755208 0.0382902 -0.0702373 -0.0096081 -0.056614
internal_weight=0 505 475 121 95 71 354 333 292 271 250 230 185 156 124 83 41 54 41 49 45
internal_count=532 505 475 121 95 71 354 333 292 271 250 230 185 156 124 83 41 54 41 49 45
shrinkage=0.1


Tree=38
num_leaves=21
num_cat=0
split_feature=0 1 1 2 0 0 5 3 2 3 3 2 1 5 3 2 2 1 2 4
split_gain=0.0695584 0.164179 0.0983811 0.0813932 0.192048 0.113529 0.111065 0.322862 0.168162 0.218703 0.341623 0.169314 0.150603 0.145264 0.12711 0.116031 0.259829 0.086792 0.0918683 0.079828
threshold=0.39943119000000005 0.19675579000000001 0.13838175000000003 0.22425006500000003 0.12859229000000003 0.082848310000000022 -0.085767234999999983 0.041668035000000006 -0.091987434999999992 -0.39237655499999996 -0.15365534499999997 0.033225190000000009 -0.14587558999999997 0.026488395000000001 -0.19101955999999998 -0.15292077999999998 -0.068375479999999988 -0.090356164999999988 0.060380050000000011 -0.066400709999999988
decision_type=2 2 2 2 2 2 2 2 2 2 2 2 2 2 2 2 2 2 2 2
left_child=1 2 3 4 5 6 7 15 12 -10 -11 -12 -8 -14 -15 -1 -17 -18 -19 -6
right_child=-2 -3 -4 -5 19 -7 8 -9 9 10 11 -13 13 14 -16 16 17 18 -20 -21
leaf_value=-0.0049792672246412352 0.005640528492984318 -0.0070537103918578599 0.0071044672094285489 0.0053733310375649202 -0.0027604868635535242 0.0074732676148414612 0.0063190880366355969 0.01378815036267042 0.0038944578990340235 -0.017805715543883188 -0.0077149061153509793 0.0027179503148155558 0.0048507164698094133 0.00037129847623873502 -0.010903001578990372 0.010489780701195392 0.0024077640117244111 -0.0090766393975354725 0.0003933663188252554 -0.011314765475690367
leaf_weight=33 21 33 20 26 24 21 38 20 25 21 35 28 22 20 20 26 38 20 21 20
leaf_count=33 21 33 20 26 24 21 38 20 25 21 35 28 22 20 20 26 38 20 21 20
internal_value=0 -0.00231803 0.00239166 -0.000606288 -0.00387673 0.00322352 -0.000868289 0.0191395 -0.0159938 -0.0431631 -0.0675999 -0.0307808 0.0136207 -0.016761 -0.0526585 0.00193054 0.0181864 -0.0103515 -0.0422615 -0.066488
internal_weight=0 511 478 458 432 388 367 158 209 109 84 63 100 62 40 138 105 79 41 44
internal_count=532 511 478 458 432 388 367 158 209 109 84 63 100 62 40 138 105 79 41 44
shrinkage=0.1


Tree=39
num_leaves=20
num_cat=0
split_feature=1 0 0 1 1 5 3 4 3 4 0 4 4 0 1 0 5 2 2
split_gain=0.0682215 0.134599 0.121976 0.240163 0.23064 0.187975 0.10217 0.196866 0.15303 0.152626 0.124994 0.367475 0.200861 0.262023 0.197654 0.155722 0.102684 0.1328 0.090197
threshold=0.27445468500000003 0.21555589000000003 0.092440665000000005 0.10525115500000001 0.10525115500000001 -0.018412864999999997 0.0072003950000000009 0.0026040500000000005 0.16417605000000002 -0.047099354999999996 -0.0036599449999999995 -0.30573803999999993 -0.28579368499999996 -0.18496180499999995 -0.21522534499999998 -0.084796799999999992 -0.024070309999999994 -0.12635265999999998 -0.12635265999999998
decision_type=2 2 2 2 2 2 2 2 2 2 2 2 2 2 2 2 2 2 2
left_child=1 2 3 6 5 -4 7 10 9 -8 12 -12 16 14 -14 -15 18 -18 -1
right_child=-2 -3 4 -5 -6 -7 8 -9 -10 -11 11 -13 13 15 -16 -17 17 -19 -20
leaf_value=-0.003992780772872114 0.0048974340643595767 -0.0067580766968118643 -0.0059088471098220907 -0.010653638021639465 0.012795445635648712 0.0072178751416504391 0.00010924861223126453 -0.0082155071955639872 -0.0023798614740371707 0.010589928438915222 0.0063551132273542785 -0.0098848976734045302 0.004282668679952621 0.014087594052155815 -0.0090548254735767844 0.0040994979919412649 -0.0001758016648818739 -0.011699690520763398 0.0040641713668733382
leaf_weight=24 27 30 24 22 21 20 24 32 33 33 22 38 25 27 20 37 20 20 33
leaf_count=24 27 30 24 22 21 20 24 32 33 33 22 38 25 27 20 37 20 20 33
internal_value=0 -0.00261843 0.00148445 -0.00489605 0.0417307 0.000578448 0.000867064 -0.00805074 0.0303949 0.0617701 0.000864065 -0.0393023 0.012563 0.0420199 -0.0164511 0.0831323 -0.020538 -0.0593775 0.0067177
internal_weight=0 505 475 410 65 44 388 298 90 57 266 60 206 109 45 64 97 40 57
internal_count=532 505 475 410 65 44 388 298 90 57 266 60 206 109 45 64 97 40 57
shrinkage=0.1


Tree=40
num_leaves=21
num_cat=0
split_feature=0 1 1 4 2 4 2 3 4 4 4 4 0 4 4 2 0 1 4 2
split_gain=0.0678892 0.341942 0.308357 0.174102 0.392952 0.298952 0.159691 0.258192 0.208726 0.101577 0.126286 0.137893 0.116145 0.373033 0.312298 0.17144 0.0736727 0.0696648 0.102992 0.0654142
threshold=0.19442626000000005 0.15395183000000004 0.18306130500000004 0.10583384500000002 0.0066019850000000012 0.043175000000000005 0.14080326500000004 0.061693900000000003 -0.19266604499999998 -0.047099354999999996 -0.090224914999999975 -0.13353868999999999 0.020960905000000005 -0.26872646499999991 -0.28579368499999996 -0.035920929999999997 -0.021285929999999998 -0.32194048499999994 -0.77868681499999992 -0.083395919999999985
decision_type=2 2 2 2 2 2 2 2 2 2 2 2 2 2 2 2 2 2 2 2
left_child=2 -2 3 5 -5 6 7 9 -8 10 11 12 14 -14 17 -16 -11 -1 -19 -20
right_child=1 -3 -4 4 -6 -7 8 -9 -10 16 -12 -13 13 -15 15 -17 -18 18 19 -21
leaf_value=-0.0064024533284828076 -0.0049032551063983533 0.010608873274177314 -0.010979393521287982 -0.0013277667334243176 0.016650965930894018 -0.011302152730058879 0.0015681657919903167 0.010002117860933831 -0.011762986549486716 -0.0088625261001288903 0.0077532204372497901 -0.0056519600669188161 0.0059078755500238571 -0.012940707909209388 0.0037293743065281494 0.014581507684973381 -0.00027924628928303722 -0.0057268244059135521 -0.00010156740301421712 0.0070675957505591221
leaf_weight=20 27 30 26 31 20 24 23 29 24 20 24 35 21 21 37 24 20 21 35 20
leaf_count=20 27 30 26 31 20 24 23 29 24 20 24 35 21 21 37 24 20 21 35 20
internal_value=0 0.0326102 -0.00391323 0.00221795 0.0572272 -0.00483097 0.00211174 0.00994565 -0.0523923 0.00117992 0.00844949 0.00136409 0.0115446 -0.0351642 0.02404 0.0799907 -0.0457089 -0.011512 0.00230707 0.025054
internal_weight=0 57 475 449 51 398 374 327 47 298 258 234 199 42 157 61 40 96 76 55
internal_count=532 57 475 449 51 398 374 327 47 298 258 234 199 42 157 61 40 96 76 55
shrinkage=0.1


Tree=41
num_leaves=20
num_cat=0
split_feature=2 2 2 4 1 3 0 4 4 5 1 0 2 2 2 5 1 5 5
split_gain=0.0639011 0.264122 0.242189 0.15503 0.221409 0.208494 0.139679 0.130239 0.475641 0.209782 0.197774 0.121722 0.210732 0.159538 0.205501 0.135181 0.125581 0.12164 0.0398796
threshold=-0.068375479999999988 -0.087969189999999989 -0.044961499999999995 -0.16757878999999998 -0.017313659999999998 -0.21540314999999996 -0.06459580999999999 0.10583384500000002 0.017541655000000003 -0.091698179999999976 -0.010130414999999999 0.028340720000000003 -0.16392635999999997 -0.19612726999999999 -0.26560989499999993 0.054028890000000003 -0.051202814999999992 -0.11658199999999999 -0.048321529999999994
decision_type=2 2 2 2 2 2 2 2 2 2 2 2 2 2 2 2 2 2 2
left_child=1 11 -2 4 6 -5 17 8 9 -7 -11 13 -13 14 15 -1 18 -4 -15
right_child=2 -3 3 5 -6 7 -8 -9 -10 10 -12 12 -14 16 -16 -17 -18 -19 -20
leaf_value=0.006776750153706719 -0.0090416775563922289 0.010547744703513606 0.0090950208296999343 -0.011255045545597871 0.0093459739867183898 0.0091809641867876043 -0.00562984561547637 0.0044221098596034089 -0.013783703135602452 -0.0093748272973157108 0.0036729742271395835 0.0032810652348085898 -0.0096042578543225933 0.0054117097386292053 -0.0089830767961057763 -0.0036559495287846128 0.00023550651967525483 -0.0012782467314257074 0.011651108991354705
leaf_weight=27 33 27 20 21 36 25 29 38 27 21 26 22 30 21 26 23 34 26 20
leaf_count=27 33 27 20 21 36 25 29 38 27 21 26 22 30 21 26 23 34 26 20
internal_value=0 0.0125585 -0.00956442 0.000354269 0.028996 -0.0197674 -0.0019466 -0.00554524 -0.0246475 0.0177986 -0.0215689 0.000199824 -0.0415278 0.0145696 -0.0177203 0.0197771 0.04729 0.0323187 0.0845532
internal_weight=0 230 302 269 111 158 75 137 99 72 47 203 52 151 76 50 75 46 41
internal_count=532 230 302 269 111 158 75 137 99 72 47 203 52 151 76 50 75 46 41
shrinkage=0.1


Tree=42
num_leaves=21
num_cat=0
split_feature=4 4 3 1 0 2 2 4 4 4 2 1 3 4 2 4 2 4 3 3
split_gain=0.0633921 0.180928 0.18024 0.110738 0.237149 0.150234 0.125198 0.107072 0.129011 0.163704 0.195819 0.244873 0.190138 0.230253 0.275435 0.249107 0.344176 0.16037 0.049693 0.0211571
threshold=-0.43225187499999995 -0.34831988999999991 -0.55198365499999991 0.25409659500000004 0.21555589000000003 0.23229964500000003 0.14080326500000004 -0.28579368499999996 0.16425430500000002 0.090714625000000007 -0.11024783499999999 -0.071174959999999995 0.061693900000000003 -0.016997029999999996 0.044080310000000004 -0.15268369999999998 -0.035920929999999997 -0.063332654999999974 -0.84471281499999995 -1.1043571949999997
decision_type=2 2 2 2 2 2 2 2 2 2 2 2 2 2 2 2 2 2 2 2
left_child=2 -2 18 4 5 6 7 -3 9 10 11 -9 13 14 15 16 -12 -13 19 -1
right_child=1 3 -4 -5 -6 -7 -8 8 -10 -11 12 17 -14 -15 -16 -17 -18 -19 -20 -21
leaf_value=-0.00056011078471783547 0.0089524140237093285 -0.0061761643465918807 -0.010772910499945283 0.0060919214838317465 -0.010754252309423118 0.0083853961811179208 -0.006735777681959528 0.0037804367133386189 -0.0054352329081545281 0.0097436423720368617 -0.0065860252584452224 -0.01257156143463882 0.011658972413057373 -0.0068294584406194863 -0.0042874724778812377 0.013307393949027314 0.011350808436982334 -0.0013020771029202836 -0.0033588302891765691 0.0037311028766756262
leaf_weight=20 24 24 20 28 21 21 28 31 30 22 23 28 21 27 32 33 20 23 29 27
leaf_count=20 24 24 20 28 21 21 28 31 30 22 23 28 21 27 32 33 20 23 29 27
internal_value=0 0.00512217 -0.0232632 0.000205554 -0.00422148 0.00175577 -0.00328535 0.00242811 0.00774037 0.0149049 0.00727595 -0.0322876 0.0280721 0.0143027 0.0349521 0.0677213 0.0175669 -0.0748924 -0.00103533 0.0190505
internal_weight=0 436 96 412 384 363 342 314 290 260 238 82 156 135 108 76 43 51 76 47
internal_count=532 436 96 412 384 363 342 314 290 260 238 82 156 135 108 76 43 51 76 47
shrinkage=0.1


Tree=43
num_leaves=21
num_cat=0
split_feature=2 2 2 3 5 0 3 0 2 2 2 0 1 1 1 4 3 5 2 1
split_gain=0.0667054 0.195924 0.185535 0.135572 0.307013 0.190959 0.211824 0.248966 0.173158 0.108816 0.163433 0.104959 0.0983719 0.0841795 0.12624 0.0955256 0.141929 0.134531 0.0875879 0.0768387
threshold=-0.068375479999999988 -0.083395919999999985 -0.044961499999999995 0.053334580000000006 0.011844110000000001 0.087354630000000016 -0.0069910299999999996 0.0046454650000000005 0.093972240000000012 0.05712741000000001 0.12123636500000003 -0.40928677999999991 -0.16008196499999996 -0.22662117499999998 -0.13271812499999996 -0.0088183549999999982 -0.20703257499999997 -0.16700022499999997 -0.20671072999999998 0.028281395000000004
decision_type=2 2 2 2 2 2 2 2 2 2 2 2 2 2 2 2 2 2 2 2
left_child=1 11 -2 5 -5 6 7 9 -7 12 -11 -1 -4 -13 -15 16 17 -16 -19 -18
right_child=2 -3 3 4 -6 8 -8 -9 -10 10 -12 13 -14 14 15 -17 19 18 -20 -21
leaf_value=0.0072469057608395811 -0.0080538736091870251 0.010490636474319867 -0.0014733612351119519 -0.010139581698199942 0.0044619001137713591 0.00099909943951801816 0.0080658685117959983 -0.010006920708498608 0.013855508230626585 -0.010152688659727575 0.0012396407971049057 -0.0063402529096319568 0.0068427917014835683 0.0078320356772746888 0.0067537262880553797 0.0038485469749300846 -0.01094588873287042 0.0018814971493354635 -0.0068456667556386925 -0.0023913719824382239
leaf_weight=20 33 21 25 36 24 22 25 30 20 20 34 21 33 20 24 36 21 23 23 21
leaf_count=20 33 21 25 36 24 22 25 30 20 20 34 21 33 20 24 36 21 23 23 21
internal_value=0 0.0128311 -0.00977204 -0.00109062 -0.0429899 0.0109379 -0.00422089 -0.0191645 0.071212 0.00250644 -0.0297974 0.00357953 0.0325824 -0.00371036 0.00375116 -0.00632576 -0.0207294 0.00684479 -0.0248208 -0.0666863
internal_weight=0 230 302 269 60 209 167 142 42 112 54 209 58 189 168 148 112 70 46 42
internal_count=532 230 302 269 60 209 167 142 42 112 54 209 58 189 168 148 112 70 46 42
shrinkage=0.1


Tree=44
num_leaves=21
num_cat=0
split_feature=4 4 3 1 0 2 2 1 2 2 2 3 5 5 3 3 2 2 3 3
split_gain=0.055927 0.153478 0.143106 0.0813948 0.193913 0.121436 0.107776 0.0963079 0.26238 0.223459 0.204506 0.15999 0.233856 0.15406 0.150141 0.118841 0.0594788 0.0534009 0.0419081 0.0200891
threshold=-0.43225187499999995 -0.34831988999999991 -0.55198365499999991 0.25409659500000004 0.21555589000000003 0.23229964500000003 0.14080326500000004 -0.1470581 -0.14450180999999998 -0.11024783499999999 -0.059024999999999994 -0.18346136499999996 -0.11466299499999999 -0.024070309999999994 -0.004103734999999999 -0.071161659999999988 -0.012510189999999999 -0.17857171999999996 -0.84471281499999995 -1.1043571949999997
decision_type=2 2 2 2 2 2 2 2 2 2 2 2 2 2 2 2 2 2 2 2
left_child=2 -2 18 4 5 6 7 8 -3 14 15 -12 -13 -14 17 -11 -10 -9 19 -1
right_child=1 3 -4 -5 -6 -7 -8 9 16 10 11 12 13 -15 -16 -17 -18 -19 -20 -21
leaf_value=-0.00076201755553483973 0.0082547312398673963 0.0045561210865465301 -0.0097114077210426336 0.005233469452442868 -0.0096941600448363242 0.0075703727702299758 -0.0062087553287191056 -0.0037675301082864669 -0.011530493833124638 0.014738577865951119 -0.0043852043178464689 0.010561101769487706 -0.0067732499573718427 0.0041686034070387967 0.0026276893514607636 0.0039677118300460281 -0.0043903400323220664 -0.010533043704926968 -0.003193893333383162 0.0034194813610089049
leaf_weight=20 24 30 20 28 21 21 28 28 20 21 35 31 22 31 28 20 28 20 29 27
leaf_count=20 24 30 20 28 21 21 28 28 20 21 35 31 22 31 28 20 28 20 29 27
internal_value=0 0.00481113 -0.0218506 0.000282812 -0.00351264 0.00189234 -0.00263993 0.00266113 -0.027802 0.0127295 0.033937 0.0129519 0.0366202 -0.00373298 -0.0319179 0.094845 -0.073654 -0.0658649 -0.00204438 0.0164012
internal_weight=0 436 96 412 384 363 342 314 78 236 160 119 84 53 76 41 48 48 76 47
internal_count=532 436 96 412 384 363 342 314 78 236 160 119 84 53 76 41 48 48 76 47
shrinkage=0.1


Tree=45
num_leaves=20
num_cat=0
split_feature=2 4 1 0 0 0 2 2 1 4 1 3 5 2 3 1 4 5 4
split_gain=0.0574764 0.0651168 0.227988 0.203573 0.192565 0.352815 0.0976379 0.120859 0.139965 0.132628 0.144309 0.350057 0.244014 0.207465 0.184012 0.192245 0.114634 0.0664507 0.0487638
threshold=-0.42301346499999992 0.030685790000000001 -0.23816516499999998 0.19442626000000005 -0.10411692999999998 0.10817077000000001 0.14080326500000004 0.082940620000000007 0.03453949500000001 -0.79037305499999988 -0.22662117499999998 -0.25156044499999997 -0.27731209999999995 -0.031939494999999991 -0.26992936499999992 -0.058324224999999993 -0.19266604499999998 -0.019018179999999996 -0.35144209999999992
decision_type=2 2 2 2 2 2 2 2 2 2 2 2 2 2 2 2 2 2 2
left_child=-1 3 -3 6 -4 -6 7 8 9 -2 11 -11 -12 14 18 -16 -8 -10 -14
right_child=1 2 4 -5 5 -7 16 -9 17 10 12 -13 13 -15 15 -17 -18 -19 -20
leaf_value=0.0043288634608274904 -0.0059374969327249212 0.0070925387553870678 -0.013350053293397652 0.0077294908902224378 0.0057613889764373503 -0.0092225520476473099 0.00032313521175334853 0.005909131998744082 -0.00729162190612909 0.0059549902987089901 -0.0071698184846900413 -0.011902583520049635 0.00071848029270768173 0.011157111844254865 0.013558197289793975 0.0013890755691510789 -0.0094507159199565659 -0.00061779677495360378 -0.0061809965364989783
leaf_weight=29 26 20 20 34 30 33 24 34 37 21 20 23 20 36 21 34 24 25 21
leaf_count=29 26 20 20 34 30 33 24 34 37 21 20 23 20 36 21 34 24 25 21
internal_value=0 -0.00249577 -0.0249178 0.0032779 -0.0480125 -0.0208734 -0.003598 0.00274764 -0.00399773 0.00773421 0.0166365 -0.0337965 0.0312355 0.0468315 0.0225541 0.0603547 -0.0456379 -0.0460056 -0.028154
internal_weight=0 503 103 400 83 63 366 318 284 222 196 44 152 132 96 55 48 62 41
internal_count=532 503 103 400 83 63 366 318 284 222 196 44 152 132 96 55 48 62 41
shrinkage=0.1


Tree=46
num_leaves=20
num_cat=0
split_feature=1 0 0 0 5 5 4 5 0 0 5 1 0 1 3 4 2 2 3
split_gain=0.0578625 0.0740807 0.240842 0.211573 0.171872 0.184575 0.154088 0.14749 0.162875 0.148141 0.216617 0.719452 0.130454 0.188829 0.113185 0.0976339 0.21093 0.34086 0.0683302
threshold=-0.45932638999999992 -0.027537829999999996 -0.0036599449999999995 -0.06459580999999999 -0.25786856999999991 -0.18769094999999997 -0.20750041499999997 -0.04962384999999999 0.12080919500000002 0.19442626000000005 0.07623951000000001 0.069676520000000006 -0.17851288999999998 -0.04858408999999999 -0.38909183999999991 -0.36682922999999995 -0.087969189999999989 -0.028422994999999996 0.016864425000000006
decision_type=2 2 2 2 2 2 2 2 2 2 2 2 2 2 2 2 2 2 2
left_child=-1 3 -3 12 -4 -6 -5 8 -7 10 11 -9 13 14 -2 -14 -17 -18 -16
right_child=1 2 4 6 5 7 -8 9 -10 -11 -12 -13 15 -15 18 16 17 -19 -20
leaf_value=0.0050213046975179833 0.0036601150047201186 0.01056517982967004 -0.0077911218628287319 -0.0021611967621048772 0.0098710526357449237 -2.6390347028932266e-05 -0.013532420654188505 0.013851705417037011 -0.011601268798112871 0.0076796890098194126 -0.0062169195799570949 -0.010281547034780186 -0.0029157535713166 -0.011182088619098068 -0.006100982236010688 0.011848685897886754 -0.0092208782299643462 0.0070765250898671877 0.00082677492185515206
leaf_weight=22 39 24 25 26 21 31 22 30 20 32 36 21 25 20 35 25 21 33 24
leaf_count=22 39 24 25 26 21 31 22 30 20 32 36 21 25 20 35 25 21 33 24
internal_value=0 -0.00216605 0.0106173 -0.013529 5.78796e-05 0.0102633 -0.0737301 -0.00066258 -0.0456556 0.0186201 -0.00277821 0.0391448 -0.000512562 -0.0232703 -0.0051987 0.0253087 0.0425448 0.00738646 -0.0328291
internal_weight=0 510 240 270 216 191 48 170 51 119 87 51 222 118 98 104 79 54 59
internal_count=532 510 240 270 216 191 48 170 51 119 87 51 222 118 98 104 79 54 59
shrinkage=0.1


Tree=47
num_leaves=20
num_cat=0
split_feature=0 3 3 5 0 0 1 2 5 1 1 5 3 5 4 3 5 1 2
split_gain=0.0518394 0.0759438 0.198981 0.141803 0.106841 0.182054 0.194626 0.21334 0.161621 0.11839 0.356688 0.249407 0.117814 0.126715 0.111644 0.106409 0.101005 0.086881 0.0406576
threshold=-0.61563910999999993 0.16417605000000002 0.23502626500000004 0.17014965000000001 -0.027537829999999996 -0.0036599449999999995 -0.021947184999999998 0.11620682000000002 -0.087844734999999993 -0.061232374999999992 -0.10475946499999998 0.026488395000000001 0.067413205000000018 -0.15133038999999995 -0.13353868999999999 -0.084808409999999987 0.05202573500000001 -0.24903149999999996 -0.099169044999999983
decision_type=2 2 2 2 2 2 2 2 2 2 2 2 2 2 2 2 2 2 2
left_child=-1 3 -3 4 9 -6 8 12 -7 10 11 15 13 -8 18 17 -15 -2 -11
right_child=1 2 -4 -5 5 6 7 -9 -10 14 -12 -13 -14 16 -16 -17 -18 -19 -20
leaf_value=0.004869395676290706 0.0072053610601208427 -0.010467823047656567 0.0021591203788725232 0.0060529255871906093 0.0095086619956418882 -0.011863245946421687 0.0044963928386569018 0.010087649669084285 0.00014944042923161762 -0.0052770023234188562 0.0098246821688070651 -0.011199383351665277 0.0068551333532446915 -0.00701315947688925 -0.0090958957427314351 -0.0062115425505908208 0.0014609049349515275 -0.00073017198655351591 0.00050609129210633615
leaf_weight=21 22 24 26 38 24 21 25 27 24 20 29 26 21 39 35 20 22 37 31
leaf_count=21 22 24 26 38 24 21 25 27 24 20 29 26 21 39 35 20 22 37 31
internal_value=0 -0.00200112 -0.0390181 0.00201374 -0.00324298 0.0133018 0.00233627 0.0214448 -0.0545648 -0.0185093 7.48168e-05 -0.0270394 0.00140134 -0.0149958 -0.047466 0.000920345 -0.0395694 0.0222884 -0.0176179
internal_weight=0 511 50 461 423 203 179 134 45 220 134 105 107 86 86 79 61 59 51
internal_count=532 511 50 461 423 203 179 134 45 220 134 105 107 86 86 79 61 59 51
shrinkage=0.1


Tree=48
num_leaves=20
num_cat=0
split_feature=4 3 4 5 1 2 1 1 4 0 0 0 2 5 3 1 5 3 3
split_gain=0.0533478 0.115927 0.0985082 0.0652675 0.169692 0.0909937 0.137173 0.250847 0.17997 0.141811 0.113313 0.0978181 0.211971 0.163635 0.140382 0.102081 0.0687791 0.0369184 0.0176631
threshold=-0.43225187499999995 -0.55198365499999991 -0.34831988999999991 0.12836579000000004 0.0042287500000000007 -0.24020390499999997 -0.16008196499999996 -0.058324224999999993 -0.097095319999999985 -0.10248998499999999 -0.096282719999999988 0.021445955000000003 -0.075757334999999995 -0.10159792499999999 0.053334580000000006 0.092860400000000023 -0.083068889999999992 -0.84471281499999995 -1.1043571949999997
decision_type=2 2 2 2 2 2 2 2 2 2 2 2 2 2 2 2 2 2 2
left_child=1 17 -2 5 -5 -4 8 9 -7 -8 -9 13 -13 -12 15 -14 -10 18 -1
right_child=2 -3 3 4 -6 6 7 10 16 -11 11 12 14 -15 -16 -17 -18 -19 -20
leaf_value=-0.00087259103776887075 0.00669770595850423 -0.0089081421960145232 0.0047612172791794425 -0.00089078936725854878 0.010145005486397581 -0.011892147300144037 0.011913210176862777 -0.007791038229130208 0.0032081193011254078 0.0016001815814524888 0.0080725631837187152 -0.0086295571343119569 -0.00046344066837004255 -0.0027455536420112133 -0.0047043908562045544 0.00832804261147976 -0.0049858729155468091 -0.0031572783927850687 0.0030483095872181434
leaf_weight=20 24 20 31 38 22 24 24 25 20 30 29 36 28 27 32 25 21 29 27
leaf_count=20 24 20 31 38 22 24 24 25 20 30 29 36 28 27 32 25 21 29 27
internal_value=0 -0.0213408 0.00469889 0.00107103 0.0315567 -0.00412539 -0.00912185 0.00129457 -0.0501465 0.0618375 -0.0148902 -0.00598901 -0.0219818 0.0285669 0.00525697 0.0368349 -0.00988804 -0.00351428 0.0137984
internal_weight=0 96 436 412 60 352 321 256 65 54 202 177 121 56 85 53 41 76 47
internal_count=532 96 436 412 60 352 321 256 65 54 202 177 121 56 85 53 41 76 47
shrinkage=0.1


Tree=49
num_leaves=19
num_cat=0
split_feature=2 2 2 1 4 4 0 0 4 3 3 0 5 3 5 5 4 4
split_gain=0.0599406 0.136849 0.120255 0.155946 0.104063 0.357512 0.245251 0.180216 0.195836 0.0985843 0.175742 0.0811809 0.0748149 0.111455 0.115661 0.130541 0.108112 0.0748118
threshold=-0.068375479999999988 -0.083395919999999985 -0.015526714999999998 -0.017313659999999998 0.10583384500000002 0.030685790000000001 0.15375916500000003 -0.06459580999999999 -0.16551965499999996 -0.18346136499999996 -0.40888674499999994 -0.40928677999999991 0.026488395000000001 0.016864425000000006 -0.074181014999999975 -0.17120758 -0.15020132499999997 -0.30990099999999993
decision_type=2 2 2 2 2 2 2 2 2 2 2 2 2 2 2 2 2 2
left_child=1 11 3 -2 5 6 7 9 17 10 -4 -1 13 14 15 -13 -14 -9
right_child=2 -3 4 -5 -6 -7 -8 8 -10 -11 -12 12 16 -15 -16 -17 -18 -19
leaf_value=0.0065016702096909289 -0.010375511919015222 0.0089115179698204712 0.0048002272249302938 -0.00036296350615365165 0.0050532094776927911 -0.012817730640315198 0.010330408884455329 -0.0042162718583962748 -0.010182349878596142 0.006547515766828188 -0.0075675154104828841 0.0011216974719182441 0.00096800674768423461 0.0068349181965459138 0.0051307895565750432 -0.0079723388797396585 -0.006956138295319045 0.0040391241078791412
leaf_weight=20 28 21 27 35 36 22 23 21 32 35 20 38 36 28 27 27 33 23
leaf_count=20 28 21 27 35 36 22 23 21 32 35 20 38 36 28 27 27 33 23
internal_value=0 0.0121631 -0.00926329 -0.0481299 0.00098187 -0.00780536 0.00682548 -0.00721887 -0.0422996 0.025295 -0.00462642 0.00443107 -0.0019801 0.0131067 -0.00370623 -0.0265583 -0.028218 0.000990488
internal_weight=0 230 302 63 239 203 181 158 76 82 47 209 189 120 92 65 69 44
internal_count=532 230 302 63 239 203 181 158 76 82 47 209 189 120 92 65 69 44
shrinkage=0.1


Tree=50
num_leaves=22
num_cat=0
split_feature=2 2 1 3 2 4 2 2 1 1 1 3 4 4 3 5 3 5 4 3 4
split_gain=0.0486561 0.157424 0.128442 0.118835 0.158585 0.152202 0.215412 0.207961 0.151539 0.125048 0.114132 0.0952034 0.133843 0.222565 0.16327 0.24249 0.142623 0.0815854 0.0522306 0.0398134 0.0269372
threshold=-0.05305229999999999 -0.015526714999999998 -0.017313659999999998 -0.45549376999999996 -0.14075332999999998 -0.23648242499999997 -0.17141131499999998 -0.24020390499999997 0.017221515000000003 -0.03217177999999999 -0.04858408999999999 -0.44167783999999993 0.10583384500000002 0.030685790000000001 -0.21540314999999996 -0.096780104999999991 -0.28885600499999992 -0.11966616999999999 -0.060234624999999993 -0.022947184999999995 -0.14333462999999996
decision_type=2 2 2 2 2 2 2 2 2 2 2 2 2 2 2 2 2 2 2 2 2
left_child=3 2 -2 4 10 -5 7 -7 9 19 -1 17 13 14 16 -16 -13 -3 20 -8 -17
right_child=1 11 -4 5 -6 6 8 -9 -10 -11 -12 12 -14 -15 15 18 -18 -19 -20 -21 -22
leaf_value=-0.003903131315018982 -0.012350012874230744 -7.0701268501579761e-05 -0.0012773502956737173 0.008841171674430371 -0.009552035573869945 0.001195385846817358 0.007408348589669914 -0.011191565923028342 0.0091584310002508582 -0.005130356232720343 0.0061916188702785544 -0.0003616473749279976 0.0045478883975495895 -0.011535957254421771 0.010205582320690156 -0.0010078821144998075 -0.01154041574114845 0.0080081776617735162 0.0026558962929993869 0.0011741325170511292 -0.0061979862255975605
leaf_weight=24 20 25 22 30 22 33 20 23 35 22 21 25 36 22 25 20 21 25 20 21 20
leaf_count=24 20 25 22 30 22 33 20 23 35 22 21 25 36 22 25 20 21 25 20 21 20
internal_value=0 -0.0090385 -0.0655005 0.0101188 -0.0259397 0.0232488 0.0105547 -0.0389211 0.0388266 0.00951681 0.00807752 0.000883683 -0.00938185 -0.0222903 -0.00666029 0.0193106 -0.05465 0.0396874 -0.0151666 0.0421521 -0.0360293
internal_weight=0 281 42 251 67 184 154 56 98 63 45 239 189 153 131 85 46 50 60 41 40
internal_count=532 281 42 251 67 184 154 56 98 63 45 239 189 153 131 85 46 50 60 41 40
shrinkage=0.1


Tree=51
num_leaves=19
num_cat=0
split_feature=0 0 5 5 4 0 0 1 4 3 5 2 0 3 2 3 5 4
split_gain=0.0480418 0.197509 0.0791824 0.146128 0.0767724 0.158216 0.122769 0.231829 0.160764 0.127062 0.242359 0.182032 0.132596 0.191373 0.120213 0.233928 0.18576 0.126369
threshold=-0.24088948999999998 -0.18825419999999995 -0.17843999999999996 0.011844110000000001 -0.43225187499999995 -0.054797639999999995 -0.10598777999999999 -0.058324224999999993 -0.29099900499999992 -0.2771050699999999 -0.048321529999999994 0.044080310000000004 -0.0091360199999999982 0.053334580000000006 -0.10120440499999998 -0.12677014999999997 -0.04962384999999999 -0.021593794999999995
decision_type=2 2 2 2 2 2 2 2 2 2 2 2 2 2 2 2 2 2
left_child=2 -2 -1 -4 5 -3 7 -6 -8 10 -10 14 -13 -14 17 -16 -17 -11
right_child=1 4 3 -5 6 -7 8 -9 9 11 -12 12 13 -15 15 16 -18 -19
leaf_value=0.0073065637351564048 -0.0075341835255838098 -0.0081099436678473032 -0.0041606410697568206 0.0049136022422721403 0.01116587316681599 0.0018390226244016296 0.0073517891543882878 -0.0026303406272615709 -0.013035393675619907 -0.0053265574896200138 0.0021745575778186321 -0.010155917663613092 0.0045023709336029635 -0.0079609922387383191 0.014170280480757356 -0.0039383525401353835 0.0069341373174789962 0.003564899245036706
leaf_weight=22 36 31 35 36 29 33 27 21 22 33 20 23 28 22 20 30 33 31
leaf_count=22 36 31 35 36 29 33 27 21 22 33 20 23 28 22 20 30 33 31
internal_value=0 -0.00437384 0.0206464 0.00440384 0.00196573 -0.0298001 0.00796282 0.0537146 4.72766e-05 -0.00752412 -0.0579256 0.00209798 -0.0387208 -0.00981509 0.0223685 0.0474797 0.0175676 -0.0101976
internal_weight=0 439 93 71 403 64 339 50 289 262 42 220 73 50 147 83 63 64
