tree
version=v3
num_class=1
num_tree_per_iteration=1
label_index=0
max_feature_idx=759
objective=regression
feature_names=Column_0 Column_1 Column_2 Column_3 Column_4 Column_5 Column_6 Column_7 Column_8 Column_9 Column_10 Column_11 Column_12 Column_13 Column_14 Column_15 Column_16 Column_17 Column_18 Column_19 Column_20 Column_21 Column_22 Column_23 Column_24 Column_25 Column_26 Column_27 Column_28 Column_29 Column_30 Column_31 Column_32 Column_33 Column_34 Column_35 Column_36 Column_37 Column_38 Column_39 Column_40 Column_41 Column_42 Column_43 Column_44 Column_45 Column_46 Column_47 Column_48 Column_49 Column_50 Column_51 Column_52 Column_53 Column_54 Column_55 Column_56 Column_57 Column_58 Column_59 Column_60 Column_61 Column_62 Column_63 Column_64 Column_65 Column_66 Column_67 Column_68 Column_69 Column_70 Column_71 Column_72 Column_73 Column_74 Column_75 Column_76 Column_77 Column_78 Column_79 Column_80 Column_81 Column_82 Column_83 Column_84 Column_85 Column_86 Column_87 Column_88 Column_89 Column_90 Column_91 Column_92 Column_93 Column_94 Column_95 Column_96 Column_97 Column_98 Column_99 Column_100 Column_101 Column_102 Column_103 Column_104 Column_105 Column_106 Column_107 Column_108 Column_109 Column_110 Column_111 Column_112 Column_113 Column_114 Column_115 Column_116 Column_117 Column_118 Column_119 Column_120 Column_121 Column_122 Column_123 Column_124 Column_125 Column_126 Column_127 Column_128 Column_129 Column_130 Column_131 Column_132 Column_133 Column_134 Column_135 Column_136 Column_137 Column_138 Column_139 Column_140 Column_141 Column_142 Column_143 Column_144 Column_145 Column_146 Column_147 Column_148 Column_149 Column_150 Column_151 Column_152 Column_153 Column_154 Column_155 Column_156 Column_157 Column_158 Column_159 Column_160 Column_161 Column_162 Column_163 Column_164 Column_165 Column_166 Column_167 Column_168 Column_169 Column_170 Column_171 Column_172 Column_173 Column_174 Column_175 Column_176 Column_177 Column_178 Column_179 Column_180 Column_181 Column_182 Column_183 Column_184 Column_185 Column_186 Column_187 Column_188 Column_189 Column_190 Column_191 Column_192 Column_193 Column_194 Column_195 Column_196 Column_197 Column_198 Column_199 Column_200 Column_201 Column_202 Column_203 Column_204 Column_205 Column_206 Column_207 Column_208 Column_209 Column_210 Column_211 Column_212 Column_213 Column_214 Column_215 Column_216 Column_217 Column_218 Column_219 Column_220 Column_221 Column_222 Column_223 Column_224 Column_225 Column_226 Column_227 Column_228 Column_229 Column_230 Column_231 Column_232 Column_233 Column_234 Column_235 Column_236 Column_237 Column_238 Column_239 Column_240 Column_241 Column_242 Column_243 Column_244 Column_245 Column_246 Column_247 Column_248 Column_249 Column_250 Column_251 Column_252 Column_253 Column_254 Column_255 Column_256 Column_257 Column_258 Column_259 Column_260 Column_261 Column_262 Column_263 Column_264 Column_265 Column_266 Column_267 Column_268 Column_269 Column_270 Column_271 Column_272 Column_273 Column_274 Column_275 Column_276 Column_277 Column_278 Column_279 Column_280 Column_281 Column_282 Column_283 Column_284 Column_285 Column_286 Column_287 Column_288 Column_289 Column_290 Column_291 Column_292 Column_293 Column_294 Column_295 Column_296 Column_297 Column_298 Column_299 Column_300 Column_301 Column_302 Column_303 Column_304 Column_305 Column_306 Column_307 Column_308 Column_309 Column_310 Column_311 Column_312 Column_313 Column_314 Column_315 Column_316 Column_317 Column_318 Column_319 Column_320 Column_321 Column_322 Column_323 Column_324 Column_325 Column_326 Column_327 Column_328 Column_329 Column_330 Column_331 Column_332 Column_333 Column_334 Column_335 Column_336 Column_337 Column_338 Column_339 Column_340 Column_341 Column_342 Column_343 Column_344 Column_345 Column_346 Column_347 Column_348 Column_349 Column_350 Column_351 Column_352 Column_353 Column_354 Column_355 Column_356 Column_357 Column_358 Column_359 Column_360 Column_361 Column_362 Column_363 Column_364 Column_365 Column_366 Column_367 Column_368 Column_369 Column_370 Column_371 Column_372 Column_373 Column_374 Column_375 Column_376 Column_377 Column_378 Column_379 Column_380 Column_381 Column_382 Column_383 Column_384 Column_385 Column_386 Column_387 Column_388 Column_389 Column_390 Column_391 Column_392 Column_393 Column_394 Column_395 Column_396 Column_397 Column_398 Column_399 Column_400 Column_401 Column_402 Column_403 Column_404 Column_405 Column_406 Column_407 Column_408 Column_409 Column_410 Column_411 Column_412 Column_413 Column_414 Column_415 Column_416 Column_417 Column_418 Column_419 Column_420 Column_421 Column_422 Column_423 Column_424 Column_425 Column_426 Column_427 Column_428 Column_429 Column_430 Column_431 Column_432 Column_433 Column_434 Column_435 Column_436 Column_437 Column_438 Column_439 Column_440 Column_441 Column_442 Column_443 Column_444 Column_445 Column_446 Column_447 Column_448 Column_449 Column_450 Column_451 Column_452 Column_453 Column_454 Column_455 Column_456 Column_457 Column_458 Column_459 Column_460 Column_461 Column_462 Column_463 Column_464 Column_465 Column_466 Column_467 Column_468 Column_469 Column_470 Column_471 Column_472 Column_473 Column_474 Column_475 Column_476 Column_477 Column_478 Column_479 Column_480 Column_481 Column_482 Column_483 Column_484 Column_485 Column_486 Column_487 Column_488 Column_489 Column_490 Column_491 Column_492 Column_493 Column_494 Column_495 Column_496 Column_497 Column_498 Column_499 Column_500 Column_501 Column_502 Column_503 Column_504 Column_505 Column_506 Column_507 Column_508 Column_509 Column_510 Column_511 Column_512 Column_513 Column_514 Column_515 Column_516 Column_517 Column_518 Column_519 Column_520 Column_521 Column_522 Column_523 Column_524 Column_525 Column_526 Column_527 Column_528 Column_529 Column_530 Column_531 Column_532 Column_533 Column_534 Column_535 Column_536 Column_537 Column_538 Column_539 Column_540 Column_541 Column_542 Column_543 Column_544 Column_545 Column_546 Column_547 Column_548 Column_549 Column_550 Column_551 Column_552 Column_553 Column_554 Column_555 Column_556 Column_557 Column_558 Column_559 Column_560 Column_561 Column_562 Column_563 Column_564 Column_565 Column_566 Column_567 Column_568 Column_569 Column_570 Column_571 Column_572 Column_573 Column_574 Column_575 Column_576 Column_577 Column_578 Column_579 Column_580 Column_581 Column_582 Column_583 Column_584 Column_585 Column_586 Column_587 Column_588 Column_589 Column_590 Column_591 Column_592 Column_593 Column_594 Column_595 Column_596 Column_597 Column_598 Column_599 Column_600 Column_601 Column_602 Column_603 Column_604 Column_605 Column_606 Column_607 Column_608 Column_609 Column_610 Column_611 Column_612 Column_613 Column_614 Column_615 Column_616 Column_617 Column_618 Column_619 Column_620 Column_621 Column_622 Column_623 Column_624 Column_625 Column_626 Column_627 Column_628 Column_629 Column_630 Column_631 Column_632 Column_633 Column_634 Column_635 Column_636 Column_637 Column_638 Column_639 Column_640 Column_641 Column_642 Column_643 Column_644 Column_645 Column_646 Column_647 Column_648 Column_649 Column_650 Column_651 Column_652 Column_653 Column_654 Column_655 Column_656 Column_657 Column_658 Column_659 Column_660 Column_661 Column_662 Column_663 Column_664 Column_665 Column_666 Column_667 Column_668 Column_669 Column_670 Column_671 Column_672 Column_673 Column_674 Column_675 Column_676 Column_677 Column_678 Column_679 Column_680 Column_681 Column_682 Column_683 Column_684 Column_685 Column_686 Column_687 Column_688 Column_689 Column_690 Column_691 Column_692 Column_693 Column_694 Column_695 Column_696 Column_697 Column_698 Column_699 Column_700 Column_701 Column_702 Column_703 Column_704 Column_705 Column_706 Column_707 Column_708 Column_709 Column_710 Column_711 Column_712 Column_713 Column_714 Column_715 Column_716 Column_717 Column_718 Column_719 Column_720 Column_721 Column_722 Column_723 Column_724 Column_725 Column_726 Column_727 Column_728 Column_729 Column_730 Column_731 Column_732 Column_733 Column_734 Column_735 Column_736 Column_737 Column_738 Column_739 Column_740 Column_741 Column_742 Column_743 Column_744 Column_745 Column_746 Column_747 Column_748 Column_749 Column_750 Column_751 Column_752 Column_753 Column_754 Column_755 Column_756 Column_757 Column_758 Column_759
feature_infos=[-3.7080000000000002:3.9300000000000002] [-3.9539999999999997:7.6890000000000001] [-3.2789999999999999:3.0110000000000001] [-2.9119999999999999:5.1829999999999998] [-4.4689999999999994:5.6449999999999996] [-2.8029999999999999:5.9110000000000005] [-4.1859999999999999:3.9089999999999998] [-4.1689999999999996:6.4120000000000008] [-3.5439999999999996:5.2610000000000001] [-4.4560000000000004:4.085] [-3.8689999999999998:3.9560000000000004] [-5.1320000000000006:5.306] [-3.3500000000000001:2.7610000000000001] [-3.4010000000000002:3.673] [-3.9589999999999996:2.9039999999999999] [-1.9850000000000001:2.4550000000000001] [-3.395:3.2030000000000003] [-3.194:8.5689999999999991] [-2.8169999999999997:3.5739999999999998] [-4.0569999999999995:5.415] [-4.5739999999999998:8.2629999999999999] [-5.1050000000000004:3.863] [-5.6529999999999996:11.628] [-7.0889999999999995:10.786] [-7.2949999999999999:7.4210000000000003] [-5.8329999999999993:5.585] [-3.9380000000000002:6.0829999999999993] [-5.46:8.7370000000000001] [-4.5539999999999994:5.1960000000000006] [-5.3670000000000009:4.8300000000000001] [-5.2920000000000007:9.907] [-4.1029999999999998:3.7969999999999997] [-3.46:5.899] [-3.7469999999999999:7.46] [-4.1589999999999998:4.2169999999999996] [-5.7810000000000006:4.9139999999999997] [-4.8559999999999999:10.352] [-3.5129999999999999:14.917] [-3.6779999999999999:3.0329999999999999] [-3.1180000000000003:5.125] [-4.5739999999999998:4.0880000000000001] [-5.2410000000000005:5.2779999999999996] [-4.3210000000000006:7.4910000000000005] [-3.1160000000000001:12.922000000000001] [-3.6669999999999998:4.9340000000000002] [-3.8489999999999998:5.7170000000000005] [-4.1530000000000005:3.5760000000000001] [-4.8439999999999994:3.6669999999999998] [-3.069:3.161] [-4.4569999999999999:7.2050000000000001] [-2.7560000000000002:3.3769999999999998] [-3.7119999999999997:4.0640000000000001] [-3.3839999999999999:3.758] [-3.1189999999999998:4.601] [-4.1560000000000006:2.8460000000000001] [-4.3330000000000002:7.5570000000000004] [-4.468:5.8929999999999998] [-3.363:3] [-3.7450000000000001:8.7189999999999994] [-4.016:3.4339999999999997] [-3.234:4.7770000000000001] [-5.1070000000000002:3.6239999999999997] [-3.4539999999999997:4.7119999999999997] [-3.7060000000000004:5.7300000000000004] [-6.3770000000000007:5.0830000000000002] [-3.492:4.0369999999999999] [-3.3560000000000003:2.609] [-2.8660000000000001:3.3710000000000004] [-3.8980000000000001:3.0839999999999996] [-3.867:2.2410000000000001] [-4.0350000000000001:4.6189999999999998] [-3.3110000000000004:2.222] [-2.5950000000000002:3.9330000000000003] [-3.0439999999999996:4.2519999999999998] [-3.9730000000000003:6.4529999999999994] [-3.0839999999999996:4.7679999999999998] [-2.835:8.8800000000000008] [-4.5710000000000006:5.931] [-2.613:6.1689999999999996] [-2.367:3.8999999999999999] [-4.133:5.7149999999999999] [-5.0800000000000001:5.3559999999999999] [-4.3710000000000004:3.6120000000000001] [-4.0819999999999999:5.6890000000000001] [-3.7589999999999999:4.3200000000000003] [-3.1880000000000002:3.8029999999999999] [-2.5169999999999999:5.7470000000000008] [-4.5190000000000001:6.5270000000000001] [-2.5610000000000004:4.2530000000000001] [-4.742:7.0960000000000001] [-3.2370000000000001:3.395] [-2.4930000000000003:3.0680000000000001] [-3.1989999999999998:4.2350000000000003] [-10.297000000000001:11.960000000000001] [-4.5720000000000001:9.6999999999999993] [-3.0389999999999997:4.5] [-5.2539999999999996:11.755000000000001] [-4.0999999999999996:5.2149999999999999] [-3.8989999999999996:4.2530000000000001] [-4.181:9.597999999999999] [-4.415:7.2779999999999996] [-4.5999999999999996:8.8000000000000007] [-4.2690000000000001:8.9390000000000001] [-6.5999999999999996:11] [-4.4000000000000004:7.2999999999999998] [-5:6.6129999999999995] [-6.5739999999999998:6.1020000000000003] [-3.5980000000000003:3.5610000000000004] [-4.2430000000000003:5] [-3.516:3.7999999999999998] [-2.4649999999999999:5.4550000000000001] [-3.6000000000000001:6.319] [-5.7879999999999994:6.6329999999999991] [-2.7639999999999998:7.7949999999999999] [-2.9460000000000002:3.7469999999999999] [-4.0259999999999998:4.3330000000000002] [-2.9589999999999996:6.2770000000000001] [-3.4369999999999998:5.3689999999999998] [-3.895:7.0279999999999996] [-5.3720000000000008:15.845000000000001] [-5.7639999999999993:4.984] [-3.895:3.903] [-4.915:5.0869999999999997] [-4.6319999999999997:2.9249999999999998] [-4.5169999999999995:3.6160000000000001] [-3.7080000000000002:7.0110000000000001] [-4.2860000000000005:2.9139999999999997] [-3.1160000000000001:4.1989999999999998] [-3.4079999999999999:3.9330000000000003] [-3.7010000000000001:5.2410000000000005] [-4.6120000000000001:5.5899999999999999] [-3.1430000000000002:6.9870000000000001] [-7.7889999999999997:6.9429999999999996] [-2.8460000000000001:4.8540000000000001] [-9.4149999999999991:6.8799999999999999] [-4.7240000000000002:4.9000000000000004] [-4.3540000000000001:4.7850000000000001] [-4.5449999999999999:7.2889999999999997] [-4.9980000000000002:6.1539999999999999] [-5.2699999999999996:5.1520000000000001] [-5.7120000000000006:8.0519999999999996] [-4.2439999999999998:4.5620000000000003] [-4.9370000000000003:3.4249999999999998] [-3.5539999999999998:3.7789999999999999] [-3.1430000000000002:8.8170000000000002] [-5.9970000000000008:3.827] [-6.2860000000000005:5.5700000000000003] [-2.4819999999999998:4.0439999999999996] [-2.5019999999999998:3.3050000000000002] [-6.6779999999999999:4.3120000000000003] [-5.75:9.7650000000000006] [-3.2349999999999999:6.0270000000000001] [-5.9770000000000003:4.2050000000000001] [-4.6319999999999997:7.4710000000000001] [-3.4810000000000003:4.5110000000000001] [-4.0049999999999999:4.8150000000000004] [-4.7569999999999997:7.0990000000000002] [-4.4809999999999999:3.7549999999999999] [-3.4389999999999996:4.915] [-4.6369999999999996:9.4629999999999992] [-4.9169999999999998:7.0529999999999999] [-4.2199999999999998:3.8789999999999996] [-4.2489999999999997:3.0569999999999999] [-4.5720000000000001:4.8819999999999997] [-4.0049999999999999:2.6830000000000003] [-6.5139999999999993:5.4479999999999995] [-3.2710000000000004:3.6519999999999997] [-1.8200000000000001:3.9010000000000002] [-3.4470000000000001:9.4629999999999992] [-8.3330000000000002:13.305999999999999] [-4.8129999999999997:4.3979999999999997] [-2.7410000000000001:4.0889999999999995] [-9.9779999999999998:5.4179999999999993] [-3.6489999999999996:5.0049999999999999] [-3.9560000000000004:5.6339999999999995] [-6.5710000000000006:5.8660000000000005] [-4.2919999999999998:7.3329999999999993] [-5.1110000000000007:4.0869999999999997] [-4.9009999999999998:4.7750000000000004] [-6.234:4.2690000000000001] [-5.6509999999999998:3.4389999999999996] [-3.4489999999999998:3.5789999999999997] [-3.2749999999999999:8.2189999999999994] [-5.0139999999999993:4.5179999999999998] [-5.524:4.3129999999999997] [-2.3450000000000002:4.3889999999999993] [-2.5009999999999999:4.5270000000000001] [-3.7610000000000001:4.9619999999999997] [-6.9529999999999994:9.4329999999999998] [-4.8570000000000002:5.6110000000000007] [-1.6969999999999998:5.8109999999999999] [-6.5539999999999994:3.3080000000000003] [-3.8989999999999996:3.2349999999999999] [-3.0810000000000004:3.1039999999999996] [-4.2770000000000001:3.403] [-3.4530000000000003:4.8469999999999995] [-6.1890000000000001:4.8970000000000002] [-5.1029999999999998:4.0300000000000002] [-4.9779999999999998:3.2110000000000003] [-5.1509999999999998:3.2869999999999999] [-3.9350000000000001:2.8160000000000003] [-2.1040000000000001:6.5] [-2.2480000000000002:3.0910000000000002] [-3.1589999999999998:3.0739999999999998] [-2.4380000000000002:2.552] [-1.867:3.0660000000000003] [-3.8730000000000002:3.2760000000000002] [-4.5220000000000002:6.4979999999999993] [-3.0830000000000002:3.7489999999999997] [-2.48:3.153] [-3.032:4.0220000000000002] [-3.3710000000000004:2.6839999999999997] [-3.1439999999999997:3.391] [-2.7519999999999998:7.7520000000000007] [-4.21:5.3250000000000002] [-3.4339999999999997:4.6669999999999998] [-3.3039999999999998:3.7730000000000001] [-3.3069999999999999:3.8789999999999996] [-3.0410000000000004:3.9819999999999998] [-3.3330000000000002:2.3559999999999999] [-4.6900000000000004:5.0419999999999998] [-2.2919999999999998:2.464] [-2.8889999999999998:4.4319999999999995] [-3.0439999999999996:3.2170000000000001] [-2.387:2.7969999999999997] [-2.7289999999999996:4.4639999999999995] [-4.1200000000000001:7.2329999999999997] [-2.8849999999999998:7.5920000000000005] [-3.2289999999999996:3.7050000000000001] [-4.8039999999999994:8.3510000000000009] [-6.0179999999999998:5.46] [-3.911:6.0889999999999995] [-6.4390000000000001:6.7450000000000001] [-6.3129999999999997:10.571] [-3.2910000000000004:12.260999999999999] [-4.7189999999999994:6.3479999999999999] [-5.8449999999999998:4.4329999999999998] [-4.8170000000000002:4.9110000000000005] [-4.1960000000000006:3.3519999999999999] [-4.3570000000000002:6.1550000000000002] [-3.1319999999999997:4.7930000000000001] [-6.9409999999999998:5.9239999999999995] [-3.5:2.9049999999999998] [-3.0069999999999997:5.069] [-4.4239999999999995:5.2770000000000001] [-4.3789999999999996:23.155999999999999] [-8.0999999999999996:7.0039999999999996] [-3.363:3.4289999999999998] [-3.6319999999999997:4.7860000000000005] [-3.6889999999999996:2.9100000000000001] [-3.1669999999999998:2.9249999999999998] [-4.6459999999999999:6.0829999999999993] [-2.8569999999999998:3.3999999999999999] [-3.5989999999999998:7.6879999999999997] [-2.9249999999999998:4.0419999999999998] [-4.6389999999999993:4.0579999999999998] [-3.2039999999999997:2.8839999999999999] [-2.3159999999999998:2.4889999999999999] [-2.9330000000000003:3.7389999999999999] [-2.3100000000000001:5.4420000000000002] [-4.7960000000000003:7.1189999999999998] [-2.641:2.2549999999999999] [-2.3169999999999997:2.262] [-2.3439999999999999:3.863] [-4.9460000000000006:12.144] [-2.7110000000000003:3.3599999999999999] [-4.0169999999999995:3.8130000000000002] [-4.3879999999999999:4.6799999999999997] [-3.097:3.6200000000000001] [-3.258:4.0680000000000005] [-3.9849999999999999:5.274] [-2.9860000000000002:4.5039999999999996] [-4.5300000000000002:4.827] [-4.0190000000000001:6.5110000000000001] [-6.0429999999999993:5.8339999999999996] [-3.4580000000000002:5.734] [-2.637:3.5219999999999998] [-4.9189999999999996:3.964] [-3.3560000000000003:5.0590000000000002] [-3.2149999999999999:4.5830000000000002] [-2.3490000000000002:3.3510000000000004] [-3.1619999999999999:2.4769999999999999] [-3.3919999999999999:6.5110000000000001] [-5.407:10.734999999999999] [-4.5939999999999994:7.2079999999999993] [-2.4319999999999999:1.6769999999999998] [-3.6019999999999999:4.8689999999999998] [-2.6289999999999996:4.0780000000000003] [-2.8289999999999997:2.5459999999999998] [-2.6339999999999999:4.7139999999999995] [-3.1430000000000002:5.4260000000000002] [-4.2060000000000004:3.4689999999999999] [-3.3610000000000002:3.641] [-3.4249999999999998:4.2549999999999999] [-2.7560000000000002:3.2639999999999998] [-3.6439999999999997:3.1699999999999999] [-4.319:3.9079999999999999] [-4.1829999999999998:3.1360000000000001] [-3.2400000000000002:3.0329999999999999] [-3.1460000000000004:3.5600000000000001] [-2.4830000000000001:2.8569999999999998] [-3.2989999999999999:3.6269999999999998] [-3.0189999999999997:7.835] [-2.802:3.6499999999999999] [-2:2] [-5.2529999999999992:4.8300000000000001] [-2.6219999999999999:3.6830000000000003] [-3.8100000000000001:2.641] [-2.3930000000000002:3.8620000000000001] [-3.9089999999999998:6.6020000000000003] [-5.4879999999999995:3.8069999999999999] [-2.492:3.133] [-3.8360000000000003:2.8930000000000002] [-2.1949999999999998:3.508] [-2.3169999999999997:3.2789999999999999] [-3.6419999999999999:4.319] [-3.0630000000000002:4.9379999999999997] [-3.1630000000000003:3.2069999999999999] [-3.7280000000000002:3.2689999999999997] [-2.4039999999999999:3.355] [-1.99:2.5459999999999998] [-2.1640000000000001:4.5209999999999999] [-2.448:6.1879999999999997] [-2.4330000000000003:3.6630000000000003] [-7.4060000000000006:6.0539999999999994] [-5.1870000000000003:3.5099999999999998] [-4.4400000000000004:3.3919999999999999] [-5.0220000000000002:5.7039999999999997] [-4.8220000000000001:5.5510000000000002] [-5.6320000000000006:3.778] [-6.6779999999999999:3.4510000000000001] [-4.4089999999999998:8.0519999999999996] [-3.8849999999999998:3.4910000000000001] [-3.6789999999999998:2.73] [-3.2949999999999999:3.786] [-3.2239999999999998:7.9329999999999998] [-4.6050000000000004:3.605] [-4.1429999999999998:5.5700000000000003] [-2.367:3.895] [-2.5380000000000003:2.7749999999999999] [-4.25:7.0999999999999996] [-2.9460000000000002:6.907] [-4.1819999999999995:8.7220000000000013] [-3.1360000000000001:5.9960000000000004] [-7.2889999999999997:6.7290000000000001] [-4.2110000000000003:7.5949999999999998] [-8.238999999999999:7.1220000000000008] [-4.6339999999999995:13.530999999999999] [-9.0279999999999987:11.02] [-5.2879999999999994:8.2329999999999988] [-7.4550000000000001:10.527999999999999] [-6.9239999999999995:10.544] [-5.0270000000000001:15.055999999999999] [-4.2210000000000001:6.2149999999999999] [-3.4350000000000001:16.248000000000001] [-3.5189999999999997:11.762] [-9.3390000000000004:7] [-4.0049999999999999:9.4749999999999996] [-3.992:4.7130000000000001] [-4.0739999999999998:7.944] [-7.2329999999999997:12.677] [-2.3569999999999998:5.1420000000000003] [-3.1430000000000002:6.2350000000000003] [-3.214:4.7530000000000001] [-2.4889999999999999:3.266] [-5.3140000000000001:5.1479999999999997] [-3:6.8779999999999992] [-7.7889999999999997:5.9879999999999995] [-4.4860000000000007:6.5510000000000002] [-3.214:5.8920000000000003] [-3.8110000000000004:5.7960000000000003] [-3.6699999999999999:4.4329999999999998] [-5.2649999999999997:4.1239999999999997] [-5.1110000000000007:8.261000000000001] [-2.5099999999999998:3.6719999999999997] [-3.573:9.0050000000000008] [-4.2240000000000002:2.3050000000000002] [-2.6200000000000001:3.5760000000000001] [-4.2169999999999996:7.5609999999999999] [-8.4190000000000005:10.645999999999999] [-3.6099999999999999:4.0069999999999997] [-2.3399999999999999:5.5420000000000007] [-2.653:3.2000000000000002] [-2.6519999999999997:6.5170000000000003] [-2.9380000000000002:4.1269999999999998] [-2.3580000000000001:10.777999999999999] [-3.1430000000000002:3.4670000000000001] [-4.0250000000000004:5.5700000000000003] [-3.9169999999999998:4.5220000000000002] [-2.0760000000000001:3.75] [-2.2789999999999999:2.9169999999999998] [-2.8599999999999999:5.2699999999999996] [-2.3799999999999999:2.8039999999999998] [-2.7170000000000001:4.4269999999999996] [-2.347:4.3469999999999995] [-1.97:2.8839999999999999] [-2.569:2.9870000000000001] [-4.234:9.7289999999999992] [-2.1030000000000002:4.3570000000000002] [-2.5880000000000001:4.29] [-2.5669999999999997:5.6349999999999998] [-5.9050000000000002:14.323] [-6.8329999999999993:5.1679999999999993] [-7.8389999999999995:13.365] [-3:5.4620000000000006] [-8.1349999999999998:3.6110000000000002] [-6.3329999999999993:13.854000000000001] [-6.4689999999999994:3.133] [-4.625:4.0730000000000004] [-2.714:5.5300000000000002] [-4.0419999999999998:12.604000000000001] [-3.9049999999999998:9.625] [-4.0949999999999998:16.25] [-2.5299999999999998:5.5079999999999991] [-5.9820000000000002:6.1539999999999999] [-6.4479999999999995:4.5350000000000001] [-4.0939999999999994:13.132] [-4.4889999999999999:8.3379999999999992] [-2.9860000000000002:3.6219999999999999] [-7.032:11.655999999999999] [-7.1200000000000001:5.3860000000000001] [-2.8069999999999999:5.9409999999999998] [-4.1920000000000002:7.125] [-4.0620000000000003:6.7850000000000001] [-3.4339999999999997:5.5700000000000003] [-6.0099999999999998:5.6500000000000004] [-3.218:6.2539999999999996] [-3.2930000000000001:3.8050000000000002] [-4.1840000000000002:5.8860000000000001] [-3.8580000000000001:5.7110000000000003] [-4.6040000000000001:4.1239999999999997] [-6.21:4.1310000000000002] [-3.9399999999999999:2.988] [-4.9169999999999998:6.1660000000000004] [-3.5580000000000003:5.9329999999999998] [-3.8519999999999999:8.8379999999999992] [-3.0460000000000003:4.1610000000000005] [-2.7610000000000001:3.1800000000000002] [-11.032:5.9129999999999994] [-4.6669999999999998:3.7469999999999999] [-2.1280000000000001:4.8069999999999995] [-4.1980000000000004:6.2999999999999998] [-4.593:4.6930000000000005] [-3.4169999999999998:5.274] [-7.1560000000000006:5.524] [-3.3380000000000001:4.4379999999999997] [-2.8730000000000002:5.25] [-3.1589999999999998:3.7629999999999999] [-3.875:4.0310000000000006] [-5.3959999999999999:3.4760000000000004] [-5.3739999999999997:3.661] [-2.9470000000000001:2.714] [-3.0830000000000002:2.4380000000000002] [-3.0630000000000002:4.1980000000000004] [-4:10.212999999999999] [-2.9389999999999996:6.141] [-3.427:4.6150000000000002] [-7.2690000000000001:5.8289999999999997] [-5.2729999999999997:8.0689999999999991] [-3.0950000000000002:6.5329999999999995] [-6.4779999999999998:8.2859999999999996] [-3.7760000000000002:8.7080000000000002] [-7.2360000000000007:5.1329999999999991] [-4.1500000000000004:7.8810000000000002] [-6.9660000000000002:5.2240000000000002] [-4.2939999999999996:3.7880000000000003] [-2.778:5.5220000000000002] [-3.7769999999999997:7.8490000000000002] [-3.165:5.9809999999999999] [-4.2309999999999999:5.4120000000000008] [-2.9019999999999997:4.492] [-2.7829999999999999:5.0360000000000005] [-7.0860000000000003:4.8689999999999998] [-8.1890000000000001:7.141] [-4.5099999999999998:6.3920000000000003] [-3.1989999999999998:4.4239999999999995] [-4.0750000000000002:11.115] [-5:7.5829999999999993] [-4.1980000000000004:4.1299999999999999] [-5.75:7.5789999999999997] [-6.4740000000000002:8.9489999999999998] [-6.3810000000000002:10.140000000000001] [-5.5170000000000003:4.2039999999999997] [-7.5:10.802] [-7.524:7.0439999999999996] [-7.2979999999999992:5.9979999999999993] [-4.6139999999999999:8.9109999999999996] [-3.214:7.1349999999999998] [-4.8029999999999999:3.9419999999999997] [-5.3799999999999999:5] [-4.4460000000000006:4.7610000000000001] [-5.6360000000000001:9.3330000000000002] [-3.2269999999999999:10.554] [-4.8730000000000002:6.5710000000000006] [-2.2799999999999998:4.3010000000000002] [-5.0949999999999998:8.3179999999999996] [-4.8129999999999997:6.2110000000000003] [-4.3099999999999996:4.5620000000000003] [-4.601:5.3399999999999999] [-10.844000000000001:6.3370000000000006] [-3.6189999999999998:8.5350000000000001] [-5.3379999999999992:4.6429999999999998] [-2.6949999999999998:7.25] [-2.379:5.9420000000000002] [-4.8159999999999998:4.1239999999999997] [-5.1459999999999999:10.770999999999999] [-4.0819999999999999:2.7489999999999997] [-5.8799999999999999:4.8280000000000003] [-3.0639999999999996:3.0139999999999998] [-3.1310000000000002:4.9719999999999995] [-3.4449999999999998:9.4619999999999997] [-4.2219999999999995:9.048] [-7.1749999999999998:5.9570000000000007] [-2.8980000000000001:3.0469999999999997] [-7.2220000000000004:6.7949999999999999] [-3.528:6.9349999999999996] [-4.2839999999999998:6.4979999999999993] [-6.359:6.7389999999999999] [-5.2379999999999995:9.7599999999999998] [-4.7919999999999998:6.359] [-7.3420000000000005:10.222999999999999] [-9.6129999999999995:5.8289999999999997] [-6.0999999999999996:4.2969999999999997] [-3.9139999999999997:6.5979999999999999] [-5.5360000000000005:5.9420000000000002] [-4.0750000000000002:5.7949999999999999] [-5.4139999999999997:7.6440000000000001] [-2.5209999999999999:5.2470000000000008] [-3.2119999999999997:4.625] [-8.2220000000000013:6.3639999999999999] [-5.9289999999999994:8.2789999999999999] [-3.8639999999999999:7.8090000000000002] [-3.2119999999999997:5.9179999999999993] [-8.1270000000000007:11.773] [-6.4359999999999999:4.1870000000000003] [-5.3849999999999998:6.5839999999999996] [-3.1349999999999998:8] [-3.8560000000000003:4.1299999999999999] [-4.9100000000000001:6.9000000000000004] [-7.2170000000000005:8.8330000000000002] [-3.6389999999999998:7.2929999999999993] [-3.0580000000000003:4.1029999999999998] [-4.3280000000000003:3.4060000000000001] [-3.4199999999999999:5.7599999999999998] [-5.0629999999999997:3.6880000000000002] [-7.5079999999999991:6.0779999999999994] [-5.6479999999999997:2.5230000000000001] [-3.661:3.2189999999999999] [-7.2170000000000005:6.3079999999999998] [-9.3079999999999998:7.8239999999999998] [-4.5919999999999996:5.0310000000000006] [-2.9330000000000003:3.3819999999999997] [-8.5359999999999996:7.3329999999999993] [-3.9510000000000001:7.8889999999999993] [-4.4460000000000006:5.3559999999999999] [-5.6539999999999999:7.931] [-5.1900000000000004:7.7170000000000005] [-4.4319999999999995:8.5830000000000002] [-9.0549999999999997:5.1310000000000002] [-6.3449999999999998:7.9320000000000004] [-5.6610000000000005:4.7910000000000004] [-3.2330000000000001:6.6379999999999999] [-5.8150000000000004:7.4970000000000008] [-3.2489999999999997:3.9730000000000003] [-3.875:9.613999999999999] [-2.044:5.4379999999999997] [-2.7869999999999999:3.931] [-7.681:4.1029999999999998] [-5.8029999999999999:7.3710000000000004] [-3.6639999999999997:5.2220000000000004] [-2.4290000000000003:3.032] [-6.8959999999999999:3.5539999999999998] [-5.319:8.9720000000000013] [-3.7930000000000001:4.0089999999999995] [-3.5760000000000001:4.694] [-4.3810000000000002:5.4000000000000004] [-3.298:4.8700000000000001] [-6.2060000000000004:5.4299999999999997] [-5.343:4.2110000000000003] [-5.9920000000000009:4.3780000000000001] [-3.2060000000000004:4.4110000000000005] [-3.9449999999999998:6.0420000000000007] [-2.9350000000000001:2.9510000000000001] [-2.8510000000000004:5.0860000000000003] [-3.444:3.9060000000000001] [-4.016:3.3029999999999999] [-5.25:4.0830000000000002] [-4.5069999999999997:8.8689999999999998] [-3.5419999999999998:3.2569999999999997] [-3.0830000000000002:3.7639999999999998] [-4.8099999999999996:5.0030000000000001] [-4.6070000000000002:3.4849999999999999] [-4.0780000000000003:4.2460000000000004] [-2.7850000000000001:4.8039999999999994] [-4.7729999999999997:4.5250000000000004] [-4.3300000000000001:6.4790000000000001] [-3.5010000000000003:6.1310000000000002] [-5.9139999999999997:4.5880000000000001] [-3.1689999999999996:5.1130000000000004] [-3.0369999999999999:3.7230000000000003] [-4.9100000000000001:5.9210000000000003] [-3.0329999999999999:3.1600000000000001] [-5.2400000000000002:6.2860000000000005] [-4.335:2.6379999999999999] [-3.1669999999999998:4.0549999999999997] [-3.1210000000000004:6.4939999999999998] [-4.1139999999999999:12.035] [-3.0980000000000003:6.6900000000000004] [-3.5680000000000001:4.5] [-2.9930000000000003:14.75] [-4.3330000000000002:3.8169999999999997] [-4.0579999999999998:4.6070000000000002] [-2.7439999999999998:9.427999999999999] [-7.4170000000000007:12.48] [-11.199999999999999:6.6710000000000003] [-3.1110000000000002:7.069] [-7.024:6.2479999999999993] [-3.8100000000000001:10.764000000000001] [-2.363:6.2779999999999996] [-2.9730000000000003:7.7139999999999995] [-3.286:4.1849999999999996] [-7.375:7.8439999999999994] [-3.6389999999999998:4.75] [-4.6459999999999999:7.3439999999999994] [-4.0250000000000004:6.4970000000000008] [-5.9400000000000004:8.3369999999999997] [-5.5999999999999996:6.2189999999999994] [-2.528:2.7810000000000001] [-6.0789999999999997:6.7379999999999995] [-3.7919999999999998:2.5] [-4.5629999999999997:2.9860000000000002] [-3.1060000000000003:6.0129999999999999] [-3.4239999999999999:5.3879999999999999] [-4.4000000000000004:7.5420000000000007] [-3.0630000000000002:5.1299999999999999] [-5.1539999999999999:5.0220000000000002] [-2.1019999999999999:4.5280000000000005] [-2.161:7.3889999999999993] [-3.1260000000000003:3.2689999999999997] [-3.8250000000000002:4.2709999999999999] [-4.5620000000000003:5.1160000000000005] [-3.2839999999999998:1.76] [-2.6180000000000003:3.8169999999999997] [-3.0630000000000002:3.7739999999999996] [-3.7119999999999997:6.7240000000000002] [-2.927:3.8130000000000002] [-3.3210000000000002:3.9199999999999999] [-5.0629999999999997:12.395] [-7.2089999999999996:4.2560000000000002] [-4.673:3.9350000000000001] [-3.4630000000000001:8.402000000000001] [-4.0099999999999998:3.6710000000000003] [-4.9860000000000007:4.6500000000000004] [-4.9139999999999997:7.8260000000000005] [-6.3979999999999997:6.016] [-3.625:8.2089999999999996] [-2.6579999999999999:4.1989999999999998] [-4.7780000000000005:2.9189999999999996] [-3.528:10] [-5.2800000000000002:4.556] [-7.085:2.573] [-4.827:6.0420000000000007] [-4.9139999999999997:6.7489999999999997] [-8.886000000000001:9.5670000000000002] [-5.9340000000000002:4.8439999999999994] [-3.2360000000000002:4.0280000000000005] [-2.9210000000000003:3.0950000000000002] [-4.2610000000000001:6.1829999999999998] [-2.8250000000000002:3.1230000000000002] [-2.6839999999999997:4.6580000000000004] [-4.1870000000000003:5.7789999999999999] [-2.617:4.3929999999999998] [-3.859:4.6829999999999998] [-4.1429999999999998:2.4670000000000001] [-3.819:4.0529999999999999] [-2.4369999999999998:2.5499999999999998] [-3.1710000000000003:3.605] [-3.3760000000000003:5.0949999999999998] [-2.2400000000000002:2.274] [-3.75:2.6489999999999996] [-2.6669999999999998:2.246] [-3.5939999999999999:3.7850000000000001] [-2.9739999999999998:10.167] [-2.198:6.6329999999999991] [-2.2680000000000002:2.8799999999999999] [-4.101:6.6870000000000003] [-3.0410000000000004:5.25] [-2.3759999999999999:3.1219999999999999] [-2.4060000000000001:4.2530000000000001] [-3.1189999999999998:3.6760000000000002] [-2.1699999999999999:3.673] [-3.117:2.6000000000000001] [-2.3759999999999999:3.1749999999999998] [-2.5830000000000002:2.895] [-1.875:2.0529999999999999] [-2.4130000000000003:3.2269999999999999] [-3.3599999999999999:2.3849999999999998] [-1.7109999999999999:2.8500000000000001] [-2.1989999999999998:3.5039999999999996] [-2.2069999999999999:2.2730000000000001] [-2.375:2.4009999999999998] [-2.2610000000000001:4.9589999999999996] [-2.8900000000000001:4.6749999999999998] [-2.8610000000000002:2.7760000000000002] [-6.5410000000000004:7.5199999999999996] [-2.7250000000000001:6.3210000000000006] [-3.1880000000000002:5.0650000000000004] [-5.6729999999999992:5.6289999999999996] [-3.9049999999999998:8.822000000000001] [-3.887:5.0039999999999996] [-8.4610000000000003:6.3639999999999999] [-7.3420000000000005:8.875] [-8.4529999999999994:4.4359999999999999] [-5.3889999999999993:4.4400000000000004] [-3.4849999999999999:5.7000000000000002] [-4.9820000000000002:5.6929999999999996] [-3.6010000000000004:5.0259999999999998] [-5.4139999999999997:6.5190000000000001] [-2.4470000000000001:4.8689999999999998] [-2.5310000000000001:3.7919999999999998] [-6.3570000000000002:8.3470000000000013] [-3.403:6.4570000000000007] [-7.9179999999999993:14.639000000000001] [-7.4249999999999998:8.886000000000001] [-9.1059999999999999:10.901] [-5.1399999999999997:5.1399999999999997] [-7.9060000000000006:8.1059999999999999] [-6.3810000000000002:9.3729999999999993] [-10.360999999999999:10.831] [-5.9289999999999994:7.3070000000000004] [-8.3960000000000008:10.445] [-5.0019999999999998:9.9169999999999998] [-3.8280000000000003:5.3849999999999998] [-4.2320000000000002:5.1100000000000003] [-7.5520000000000005:8.2579999999999991] [-3.9860000000000002:8.6549999999999994] [-6.2789999999999999:14.145999999999999] [-5.4050000000000002:7.0879999999999992] [-2.4870000000000001:3.7360000000000002] [-5.8929999999999998:5.4900000000000002] [-5.5460000000000003:7.7610000000000001] [-2.262:5.3090000000000002] [-7.306:4.3490000000000002] [-3.9670000000000001:3.9900000000000002] [-2.6589999999999998:3.7119999999999997] [-5.4520000000000008:6.4429999999999996] [-5.4529999999999994:5.4060000000000006] [-5.79:6.5670000000000002] [-4.4980000000000002:4.9560000000000004] [-3.0249999999999999:7.431] [-4.2330000000000005:4.3029999999999999] [-2.6349999999999998:2.8289999999999997] [-2.6299999999999999:3.8500000000000001] [-3.2610000000000001:10.095000000000001] [-2.7919999999999998:5.1879999999999997] [-3.0310000000000001:7.6829999999999998] [-2.665:6.3760000000000003] [-3.141:3.6699999999999999] [-3.75:3.8919999999999999] [-6.0879999999999992:5.4039999999999999]
tree_sizes=1438 1977 2085 2091 1987 1914 1899 1908 1923 1836 1821 1832 1827 1936 2021 1969 2104 1777 1926 2031 1846 1776 1955 1697 1873 1944 1873 1794 1871 1850 1783 2052 1966 1975 1805 1748 1987 2073 1981 1904 2075 1982 2060 2001 1911 2186 1975 2083 2002 2083 2187 2051 2165 2086 1991 1898 2004 2094 1931 2014 1996 2020 2005 1931 1933 2100 2120 2024 2032 2012 2006 2099 2034 2112 2110 1857 2117 2128 2002 2137 1956 2142 1956 1952 2024 2121 2051 2107 1957 1942 2035 2122 2141 2139 2051 2040 2037 2061 2024 2024

Tree=0
num_leaves=16
num_cat=0
split_feature=520 723 53 178 406 624 676 697 410 511 259 158 107 76 15
split_gain=22.8572 11.0641 4.6103 3.81757 3.55991 3.24173 3.1086 2.95404 2.66397 1.92323 1.31068 1.28479 1.07132 0.164912 0.160396
threshold=1.2615000000000001 -0.87150000000000005 -0.45249999999999996 -2.1184999999999996 0.57750000000000001 -0.054999999999999993 -0.40949999999999992 -0.182 -0.65349999999999986 -0.66599999999999993 0.17550000000000004 0.57900000000000018 0.80200000000000016 -0.60699999999999987 -0.38699999999999996
decision_type=2 2 2 2 2 2 2 2 2 2 2 2 2 2 2
left_child=1 7 -2 -3 8 -4 -6 -1 -5 -10 14 12 13 -11 -7
right_child=2 3 5 4 6 10 -8 -9 9 11 -12 -13 -14 -15 -16
leaf_value=0.49838709677419357 0.48499999999999999 0.51296296296296295 0.50666666666666671 0.498 0.52619047619047621 0.54000000000000004 0.4777777777777778 0.53974358974358971 0.49090909090909091 0.45999999999999996 0.52000000000000002 0.48181818181818181 0.47499999999999998 0.45000000000000001 0.55000000000000004
leaf_weight=31 20 27 30 25 21 20 36 39 22 20 20 22 24 94 81
leaf_count=31 20 27 30 25 21 20 36 39 22 20 20 22 24 94 81
internal_value=0 -0.142659 0.30117 -0.228522 -0.265152 0.360927 -0.0438596 0.214286 -0.326087 -0.368132 0.433884 -0.40625 -0.442029 -0.482456 0.480198
internal_weight=0 361 171 291 264 151 57 70 207 182 121 160 138 114 101
internal_count=532 361 171 291 264 151 57 70 207 182 121 160 138 114 101
shrinkage=1


Tree=1
num_leaves=22
num_cat=0
split_feature=406 556 759 49 614 152 717 492 490 89 454 530 448 742 231 437 254 431 357 496 745
split_gain=18.7784 10.1521 6.21182 4.6303 4.60148 3.31889 3.70963 2.22316 2.61368 1.98758 0.755487 0.713066 1.31806 2.33455 0.584045 0.354059 0.0117845 0.00980951 0.00706133 0.00578161 0.00426037
threshold=0.88200000000000001 1.4420000000000002 -1.5085 0.53050000000000008 -0.19149999999999998 -0.85049999999999992 1.554 -1.0989999999999998 -0.7054999999999999 -0.61299999999999988 0.12150000000000001 0.041000000000000009 -0.104 -0.022499999999999996 -0.55099999999999993 -0.39849999999999997 0.014000000000000002 -0.56849999999999989 0.23350000000000001 -0.035999999999999997 -0.43999999999999995
decision_type=2 2 2 2 2 2 2 2 2 2 2 2 2 2 2 2 2 2 2 2 2
left_child=1 2 -1 9 10 -4 7 -7 -9 -2 -3 12 15 -14 -11 -10 -16 -17 19 -13 -18
right_child=3 4 5 -5 -6 6 -8 8 11 14 -12 18 13 -15 16 17 20 -19 -20 -21 -22
leaf_value=0.026654004362913281 0.012233590015343257 0.022777643203735352 0.010299106121063233 -0.015603840351104736 -0.016785468702966516 -0.0019262933212777845 0.013435925543308259 -0.0062318214348384311 -0.031379072219133379 0.029750432393380571 0.047706516615806091 -0.046399005800485615 -0.043144379556179051 0.003469431116467431 0.048524613272060049 -0.048837519288063048 0.045139600170983209 -0.045978394349416099 -0.04547727152705193 -0.048609088926479735 0.046931855877240497
leaf_weight=26 28 20 25 20 22 23 20 28 20 28 31 20 22 21 22 20 36 30 20 29 21
leaf_count=26 28 20 25 20 22 23 20 28 20 28 31 20 22 21 22 20 36 30 20 29 21
internal_value=0 -0.120467 -0.200881 0.293007 0.214407 -0.244597 -0.278943 -0.31442 -0.346747 0.359532 0.379305 -0.390505 -0.341593 -0.203795 0.421603 -0.426241 0.465587 -0.47122 -0.470607 -0.47707 0.457999
internal_weight=0 377 304 155 73 278 253 233 210 135 51 182 113 43 107 70 79 50 69 49 57
internal_count=532 377 304 155 73 278 253 233 210 135 51 182 113 43 107 70 79 50 69 49 57
shrinkage=0.1


Tree=2
num_leaves=23
num_cat=0
split_feature=520 723 250 542 663 255 271 15 300 594 574 346 360 497 115 491 256 609 248 263 284 683
split_gain=15.5608 8.12975 3.77077 3.72864 3.7651 2.8397 2.6148 2.13515 2.10703 1.92045 1.55248 1.17851 0.843082 0.762128 0.631797 0.473921 0.0315053 0.0230291 0.0204484 0.0068472 0.00645822 0.00203664
threshold=1.2615000000000001 -1.2909999999999997 0.48500000000000004 -1.6019999999999996 -0.60249999999999992 -0.82399999999999995 -0.43499999999999994 -0.69599999999999984 -0.42549999999999993 -1.3759999999999997 0.78400000000000014 0.24900000000000003 -0.47099999999999992 -1.0189999999999999 0.49550000000000005 -0.77549999999999986 0.75350000000000017 0.23400000000000001 -0.26499999999999996 0.20700000000000002 -0.1055 0.41450000000000009
decision_type=2 2 2 2 2 2 2 2 2 2 2 2 2 2 2 2 2 2 2 2 2 2
left_child=1 12 8 -3 -5 6 -6 -7 -2 -9 13 14 -1 -11 17 -15 18 -10 -17 -19 -20 -21
right_child=2 3 -4 4 5 7 -8 9 11 10 -12 -13 -14 15 -16 16 -18 19 20 21 -22 -23
leaf_value=0.045258782953023914 0.0016494643959132109 0.020016860127449035 -0.01595348447561264 0.010598106810024807 0.025755027383565905 7.1402477181476101e-05 -0.025380116552114487 -0.0027371864020824433 0.045560979127883913 -0.020699758231639862 -0.010550535673444923 0.013456221279643833 0.016222914606332777 -0.027792650035449437 0.023303036242723466 -0.045148547678380405 -0.0475324269045483 0.043502554297447205 -0.041119265357653305 0.042000944465398787 -0.043272558313149675 0.040621156666589824
leaf_weight=20 22 25 20 35 20 23 20 20 25 20 22 21 20 21 20 37 22 20 30 20 26 23
leaf_count=20 22 25 20 35 20 23 20 20 25 20 22 21 20 21 20 37 22 20 30 20 26 23
internal_value=0 -0.117708 0.248494 -0.170681 -0.202003 -0.243304 0.00187455 -0.28768 0.302537 -0.32118 -0.354193 0.35132 0.307408 -0.389264 0.393467 -0.416068 -0.441293 0.42993 -0.433243 0.419739 -0.42119 0.412629
internal_weight=0 361 171 321 296 261 40 221 151 198 178 129 40 156 108 136 115 88 93 63 56 43
internal_count=532 361 171 321 296 261 40 221 151 198 178 129 40 156 108 136 115 88 93 63 56 43
shrinkage=0.1


Tree=3
num_leaves=23
num_cat=0
split_feature=406 556 759 725 68 736 532 96 723 687 297 347 13 140 158 64 513 14 564 653 260 333
split_gain=12.9894 7.27304 4.65166 3.74099 3.47604 2.58724 2.4237 2.24334 1.95453 1.5689 1.2269 1.89203 0.924521 0.721672 0.490141 0.253734 0.140444 0.0816304 0.0485126 0.0240289 0.0148351 0.0110261
threshold=0.88200000000000001 1.4420000000000002 -1.0894999999999999 -0.19299999999999998 0.41600000000000004 -1.1204999999999996 -0.79949999999999999 -0.97499999999999998 -0.48949999999999999 -0.26499999999999996 -0.13249999999999998 0.064500000000000016 -0.043999999999999991 -0.98649999999999982 -0.022499999999999996 -0.53949999999999987 0.32600000000000001 0.25550000000000006 0.69000000000000006 1.6565000000000003 0.14050000000000004 -0.20449999999999996
decision_type=2 2 2 2 2 2 2 2 2 2 2 2 2 2 2 2 2 2 2 2 2 2
left_child=1 2 8 -3 9 -4 -7 -8 -1 -2 11 14 -5 -11 -9 -12 19 18 20 21 -17 -15
right_child=4 3 5 12 -6 6 7 10 -10 13 15 -13 -14 16 -16 17 -18 -19 -20 -21 -22 -23
leaf_value=0.035972267538309101 0.004283077418804169 -0.018526559621095656 0.012496059834957123 0.015265760719776153 -0.014537797272205354 0.0051820273200670879 0.0011737533237623134 -0.042856591727052418 -0.0056090192152903635 0.017363942712545394 -0.028243054300546647 -0.0019650864190068739 0.042513118639136808 0.040454039403370452 -0.02235974967479706 -0.039090339151712568 0.031829923987388611 -0.035751364350318914 -0.046571255177259449 0.038292386808565691 -0.042576865657516151 0.043694567680358891
leaf_weight=20 20 20 20 20 20 24 23 28 26 20 20 29 33 21 20 26 25 25 20 28 23 21
leaf_count=20 20 20 20 20 20 24 23 28 26 20 20 29 33 21 20 26 25 25 20 28 23 21
internal_value=0 -0.100192 -0.168255 0.183249 0.243693 -0.220487 -0.249516 -0.283311 0.124698 0.301333 -0.318841 -0.22132 0.322311 0.34629 -0.343162 -0.384709 0.382637 -0.406471 -0.424209 0.405615 -0.407269 0.420743
internal_weight=0 377 304 73 155 258 238 214 46 135 191 77 53 115 48 114 95 94 69 70 49 42
internal_count=532 377 304 73 155 258 238 214 46 135 191 77 53 115 48 114 95 94 69 70 49 42
shrinkage=0.1


Tree=4
num_leaves=22
num_cat=0
split_feature=520 723 53 40 81 738 179 488 276 190 127 23 259 533 559 367 670 741 539 136 716
split_gain=10.8888 5.62172 2.72885 2.38553 2.84448 2.26596 2.2105 2.6574 2.35306 2.04367 1.8468 1.41157 1.13109 0.964952 0.671893 0.345338 0.0845268 0.0448337 0.0345795 0.0187149 0.0179807
threshold=1.2615000000000001 -0.87150000000000005 -0.45249999999999996 0.58250000000000013 -0.76649999999999985 0.29100000000000009 1.1245000000000003 -0.62699999999999989 0.038500000000000013 -0.17749999999999996 -0.104 -0.56049999999999989 0.19200000000000003 0.40100000000000002 -0.44449999999999995 0.39850000000000008 -1.2814999999999999 0.085000000000000006 2.6520000000000006 -0.56249999999999989 1.2165000000000001
decision_type=2 2 2 2 2 2 2 2 2 2 2 2 2 2 2 2 2 2 2 2 2
left_child=1 9 -2 4 -3 12 7 10 -8 -1 -6 -9 16 -11 -5 17 -4 -13 20 -16 -18
right_child=2 3 5 14 6 -7 8 11 -10 13 -12 15 -14 -15 19 -17 18 -19 -20 -21 -22
leaf_value=-0.011419166028499603 -0.013923925310373307 0.023980995019276939 0.029964577853679661 -0.01738240033388138 -0.020024099051952363 0.00078245133161544797 -0.016493919491767883 -0.0098987224511802203 0.029342182335399449 0.010078515467189608 0.02243568031560807 -0.035806691476276943 0.0097569595277309431 0.038225326455872635 -0.0375680617414988 -0.023692460358142854 0.040964058165748912 -0.041123599636143655 0.034970813345264744 -0.041636903882026677 0.036904217898845675
leaf_weight=20 20 21 20 20 20 30 24 32 21 21 21 35 20 29 26 22 24 29 37 20 20
leaf_count=20 20 21 20 20 20 30 24 32 21 21 21 35 20 29 26 22 24 29 37 20 20
internal_value=0 -0.0984645 0.207869 -0.159669 -0.110632 0.253844 -0.146707 -0.202085 0.0489626 0.155971 0.0172359 -0.278289 0.314841 0.264037 -0.326842 -0.345006 0.357865 -0.382159 0.37224 -0.393371 0.391187
internal_weight=0 361 171 291 225 151 204 159 45 70 41 118 121 50 66 86 101 64 81 46 44
internal_count=532 361 171 291 225 151 204 159 45 70 41 118 121 50 66 86 101 64 81 46 44
shrinkage=0.1


Tree=5
num_leaves=21
num_cat=0
split_feature=540 533 49 301 517 663 301 359 456 260 43 692 619 488 452 241 181 330 410 616
split_gain=9.15334 5.44781 3.14684 3.49877 3.0694 2.94776 2.10068 3.11627 1.90322 2.11301 1.78954 1.82927 1.30237 0.728724 0.573132 0.291771 0.13838 0.111496 0.0531097 0.0488484
threshold=1.885 1.6800000000000004 0.24650000000000002 -0.64949999999999986 -2.2869999999999995 -0.60249999999999992 -0.31849999999999995 -1.1289999999999998 0.24600000000000002 0.32650000000000007 -0.18849999999999997 0.15400000000000003 -0.46099999999999991 0.57900000000000007 0.13550000000000004 0.45350000000000007 0.19050000000000003 -0.28799999999999992 -0.083999999999999991 -0.88549999999999984
decision_type=2 2 2 2 2 2 2 2 2 2 2 2 2 2 2 2 2 2 2 2
left_child=1 2 3 -1 -5 -6 -7 -8 13 -10 11 -9 15 17 16 19 -12 -4 -19 -2
right_child=12 -3 8 4 5 6 7 10 9 -11 14 -13 -14 -15 -16 -17 -18 18 -20 -21
leaf_value=-0.036116801561980411 0.033577843965628205 0.033696997742499075 -0.04074882303292935 0.035399311780929567 0.023323758670261929 0.018901533136765163 0.023682314604520801 0.0078645920587910555 0.018768105059862136 -0.025242378935217857 -0.031554314643144614 -0.025883200353589556 0.0072482745562280938 -0.014304313347453163 -0.017006881386041641 0.021785025596618653 -0.043047342652624304 -0.035887106033888734 -0.028856377942221508 0.03947098106145859
leaf_weight=29 39 31 26 23 35 24 20 36 20 24 20 29 28 21 20 20 22 22 21 22
leaf_count=29 39 31 26 23 35 24 20 36 20 24 20 29 28 21 20 20 22 22 21 22
internal_value=0 -0.0665851 -0.0984989 -0.033928 0.00751292 -0.0311718 -0.0852906 -0.130075 -0.222822 -0.0523761 -0.187855 -0.0719212 0.258399 -0.306151 -0.309398 0.322666 -0.375745 -0.355793 -0.324535 0.357032
internal_weight=0 423 392 258 229 206 171 147 134 44 127 65 109 90 62 81 42 69 43 61
internal_count=532 423 392 258 229 206 171 147 134 44 127 65 109 90 62 81 42 69 43 61
shrinkage=0.1


Tree=6
num_leaves=21
num_cat=0
split_feature=406 556 759 614 68 532 736 645 138 70 271 37 18 427 454 193 242 29 469 715
split_gain=7.59557 4.43383 3.18419 2.39319 2.19779 1.77935 1.93436 1.73477 2.29649 3.24842 1.40456 1.27081 0.580721 0.496704 0.488257 0.405904 0.145228 0.0920442 0.0542638 0.0492055
threshold=0.88200000000000001 1.4420000000000002 -1.5085 -0.19149999999999998 0.41600000000000004 -0.96299999999999997 -0.96199999999999986 0.11850000000000001 1.0000000180025095e-35 -0.23899999999999996 -0.17499999999999996 -0.62149999999999983 -0.27599999999999997 0.95000000000000007 0.12150000000000001 0.11050000000000001 0.32500000000000007 -0.069499999999999992 0.437 0.38150000000000006
decision_type=2 2 2 2 2 2 2 2 2 2 2 2 2 2 2 2 2 2 2 2
left_child=1 2 -1 14 11 -4 -7 8 15 -10 -11 -2 -9 17 -3 -8 18 -13 -14 -19
right_child=4 3 5 -5 -6 6 7 12 9 10 -12 13 16 -15 -16 -17 -18 19 -20 -21
leaf_value=0.020489731545631704 -4.6964734792709351e-05 0.014179396778345107 0.010533066806585892 -0.013098679212006657 -0.012302060425281525 0.0098357814279469574 -0.034071262098020978 -0.017057426846944369 0.030113311565440632 -0.034926258240427291 0.0016480336586634321 0.035837601218372588 -0.034053941319386168 0.017528801411390304 0.034220114446455438 -0.016303224712610247 -0.027311465532883356 0.031669133018564298 -0.039984453386730623 0.025124896764755253
leaf_weight=26 20 20 23 22 20 22 36 26 23 21 21 32 36 36 31 20 23 27 27 20
leaf_count=26 20 20 23 22 20 22 36 26 23 21 21 32 36 36 31 20 23 27 27 20
internal_value=0 -0.076616 -0.129759 0.14469 0.18635 -0.161057 -0.185085 -0.211847 -0.128832 -0.000959469 -0.166391 0.232183 -0.301534 0.272644 0.26361 -0.277255 -0.341126 0.317009 -0.365956 0.288844
internal_weight=0 377 304 73 155 278 255 233 121 65 42 135 112 115 51 56 86 79 63 47
internal_count=532 377 304 73 155 278 255 233 121 65 42 135 112 115 51 56 86 79 63 47
shrinkage=0.1


Tree=7
num_leaves=21
num_cat=0
split_feature=540 533 18 555 663 506 592 377 709 266 70 716 193 611 430 660 268 615 263 533
split_gain=6.38443 3.79858 2.53231 2.16242 2.47832 2.60681 1.84186 1.88768 2.01777 2.07908 1.83288 1.55079 1.13528 1.01441 0.386418 0.269994 0.155149 0.141099 0.0666657 0.02254
threshold=1.885 1.6800000000000004 0.99600000000000011 -2.4099999999999997 -0.60249999999999992 -0.050499999999999996 -1.0994999999999997 0.39600000000000002 -0.22649999999999998 -0.13399999999999998 -0.020999999999999994 0.13000000000000003 0.40300000000000008 -0.29499999999999998 -1.4404999999999999 -0.21649999999999997 0.40750000000000003 -0.0094999999999999998 -0.023499999999999997 1.5635000000000001
decision_type=2 2 2 2 2 2 2 2 2 2 2 2 2 2 2 2 2 2 2 2
left_child=1 2 3 -1 5 -5 15 8 12 10 -10 -11 17 14 -2 -6 -9 -8 -16 -20
right_child=13 -3 -4 4 6 -7 7 16 9 11 -12 -13 -14 -15 18 -17 -18 -19 19 -21
leaf_value=0.020388776631582353 0.014233606010675432 0.028136937031822819 0.01744356679064887 -0.018755157664418223 -0.039125476489143989 0.028877699927047445 -0.033871943529309903 -0.035691325481121354 0.028970478746024049 -0.028114019986242057 -0.006531252998572129 0.0044280495908525256 -0.002112749218940735 0.0023964194411581212 0.034908464774489403 -0.024439995274657296 -0.023976054713129996 -0.023251639103347606 0.029983321348061934 0.025578489615803675
leaf_weight=21 20 31 35 20 31 27 29 26 33 32 26 27 22 22 20 21 20 22 26 21
leaf_count=21 20 31 35 20 31 27 29 26 33 32 26 27 22 22 20 21 20 22 26 21
internal_value=0 -0.0556094 -0.0822582 -0.107424 -0.126881 0.086084 -0.161516 -0.124121 -0.0803236 0.000518807 0.133256 -0.132219 -0.211 0.215805 0.264317 -0.331948 -0.305977 -0.292906 0.300729 0.280152
internal_weight=0 423 392 357 336 47 289 237 191 118 59 59 73 109 87 52 46 51 67 47
internal_count=532 423 392 357 336 47 289 237 191 118 59 59 73 109 87 52 46 51 67 47
shrinkage=0.1


Tree=8
num_leaves=21
num_cat=0
split_feature=540 533 521 356 37 414 157 623 64 266 85 494 740 414 720 610 210 478 470 632
split_gain=5.23334 3.17032 2.69371 2.44523 2.15218 1.76766 2.14014 1.99329 1.6926 1.19305 1.68457 1.12406 1.11786 0.433413 0.393672 0.46986 0.148126 0.120142 0.055453 0.0452264
threshold=2.7435000000000005 1.6800000000000004 -3.1949999999999998 2.0555000000000003 0.4835000000000001 -0.12449999999999999 -1.3344999999999998 -0.65599999999999981 0.12350000000000001 -0.29899999999999999 -0.071999999999999995 0.62050000000000016 -0.046999999999999993 0.041500000000000002 -0.015999999999999997 0.31550000000000006 0.32600000000000007 -0.36899999999999994 0.30150000000000005 -0.61399999999999988
decision_type=2 2 2 2 2 2 2 2 2 2 2 2 2 2 2 2 2 2 2 2
left_child=1 2 -1 4 5 11 -7 -8 -6 10 -9 14 13 -11 18 -16 19 -15 -4 -2
right_child=16 -3 3 -5 8 6 7 9 -10 12 -12 -13 -14 17 15 -17 -18 -19 -20 -21
leaf_value=0.02472561890116105 0.030397551187447143 0.023707298777605357 -0.032497045993804929 0.024699294638066069 0.019764938872111473 0.019115235626697542 0.014559459872543812 0.018799163773655894 -0.012637553204383171 -0.017651616719861828 -0.022244378328323364 -0.0038267645646225322 -0.0068737960037063145 -0.039990650042891505 -0.012043582377108661 -0.032955680645647502 0.017537239342927932 -0.030049498090820928 -0.039561582207679746 0.024545812070369724
leaf_weight=26 28 38 25 21 38 25 24 20 28 24 20 22 34 20 22 21 20 31 20 25
leaf_count=26 28 38 25 21 38 25 24 20 28 24 20 22 34 20 22 21 20 31 20 25
internal_value=0 -0.0395538 -0.0645225 -0.0850447 -0.103689 -0.138804 -0.082338 -0.12186 0.0601843 -0.16494 -0.0172261 -0.240443 -0.219146 -0.287331 -0.290987 -0.222565 0.248702 -0.33948 -0.356368 0.276373
internal_weight=0 459 421 395 374 308 198 173 66 149 40 110 109 75 88 43 73 51 45 53
internal_count=532 459 421 395 374 308 198 173 66 149 40 110 109 75 88 43 73 51 45 53
shrinkage=0.1


Tree=9
num_leaves=20
num_cat=0
split_feature=406 556 342 243 759 94 78 267 111 162 755 64 233 304 325 243 742 155 547
split_gain=4.32132 2.83556 2.26497 1.73677 1.68622 1.53749 1.22909 1.89565 1.43476 0.776174 0.725563 0.66993 0.318065 0.2817 0.197326 0.0926746 0.0741658 0.0694527 0.0195223
threshold=0.93900000000000017 1.4420000000000002 1.1180000000000001 -0.18099999999999997 -1.3124999999999998 0.12250000000000001 0.30000000000000004 -0.69199999999999995 0.42250000000000004 0.62050000000000016 0.38200000000000006 -0.26049999999999995 -0.24849999999999997 0.0080000000000000019 0.56450000000000011 0.12150000000000001 -0.078499999999999986 0.0035000000000000005 0.054500000000000014
decision_type=2 2 2 2 2 2 2 2 2 2 2 2 2 2 2 2 2 2 2
left_child=1 2 4 -3 -1 9 7 -6 10 14 13 -8 -5 17 16 -13 18 -9 -2
right_child=5 3 -4 12 6 -7 11 8 -10 -11 -12 15 -14 -15 -16 -17 -18 -19 -20
leaf_value=0.0096881890008526476 0.02602678820490837 -0.0096103213429451009 0.0185025787124267 0.01329800429798308 0.017608042332259093 -0.0073917821049690252 -0.01326552000310686 -0.033088713071563025 0.0053116504351298013 0.0033462092901269595 -0.0056020916040454595 -0.033413768693422656 0.029457729746555462 -0.016495462070251331 0.014614475369453431 -0.025041193589568141 0.030239921689033514 -0.025580455256359921 0.022019464017883426
leaf_weight=31 20 25 26 21 22 26 36 22 30 24 28 39 29 29 20 20 25 28 31
leaf_count=31 20 25 26 21 22 26 36 22 30 24 28 39 29 29 20 20 25 28 31
internal_value=0 -0.0554287 -0.0975184 0.119103 -0.123294 0.146544 -0.150166 -0.0963965 -0.140152 0.194311 -0.194339 -0.24016 0.226706 -0.243364 0.234524 -0.305756 0.257781 -0.288841 0.23591
internal_weight=0 386 311 75 285 146 254 159 137 120 107 95 50 79 96 59 76 50 51
internal_count=532 386 311 75 285 146 254 159 137 120 107 95 50 79 96 59 76 50 51
shrinkage=0.1


Tree=10
num_leaves=20
num_cat=0
split_feature=540 22 717 152 759 475 412 585 694 305 8 461 288 288 244 745 425 90 237
split_gain=3.67138 2.23976 2.0296 1.54095 1.61445 1.19132 1.51584 0.931044 0.896047 0.724233 0.738733 0.717939 0.481519 0.639898 0.780151 0.23027 0.107684 0.0725076 0.0411728
threshold=1.885 1.7045000000000001 1.2985000000000004 -0.92399999999999982 -1.5085 -0.72599999999999987 -0.058499999999999996 -0.19149999999999995 0.65450000000000019 0.37800000000000006 -0.016999999999999998 0.45700000000000002 -0.35499999999999993 1.0000000180025095e-35 0.13050000000000003 -1.1459999999999997 -0.083999999999999977 0.40950000000000003 -0.21099999999999999
decision_type=2 2 2 2 2 2 2 2 2 2 2 2 2 2 2 2 2 2 2
left_child=1 2 3 -1 -5 6 -6 -4 9 12 -11 -2 -7 14 -14 -13 18 -17 -15
right_child=11 -3 7 4 5 8 -8 -9 -10 10 -12 15 13 16 -16 17 -18 -19 -20
leaf_value=0.013206674424665317 0.0028854015058484574 0.022120015472173692 -0.0066708966344594962 0.013595850144823394 -0.020623044110834599 -0.031681889830491486 0.011645946228826368 0.019866838363500741 0.0028143202974682765 0.0066548196226358415 -0.019623596966266633 0.01305608923236529 0.0052716199308633811 -0.02439476475119591 -0.021470449926952521 0.028235588659500255 -0.01965391401733671 0.021034389016804874 -0.030383945008118945
leaf_weight=28 29 30 20 24 24 39 37 39 21 20 23 24 20 22 24 29 28 27 24
leaf_count=28 29 30 20 24 24 39 37 39 21 20 23 24 20 22 24 29 28 27 24
internal_value=0 -0.0421698 -0.0622744 -0.0924782 -0.113025 -0.134215 -0.0105005 0.10871 -0.168362 -0.188995 -0.0740108 0.16365 -0.220488 -0.18865 -0.0931496 0.212513 -0.245434 0.247636 -0.275196
internal_weight=0 423 393 334 306 282 61 59 221 200 43 109 157 118 44 80 74 56 46
internal_count=532 423 393 334 306 282 61 59 221 200 43 109 157 118 44 80 74 56 46
shrinkage=0.1


Tree=11
num_leaves=20
num_cat=0
split_feature=520 511 583 602 53 401 472 463 96 88 14 46 117 52 543 121 31 264 242
split_gain=3.07332 2.15373 1.34721 1.29679 1.19741 1.19441 1.16372 1.17216 0.98318 0.936363 0.507936 0.541306 0.367914 0.357493 0.179549 0.128476 0.105928 0.0590967 0.0577113
threshold=1.2615000000000001 -0.66599999999999993 -0.28899999999999998 -1.5685 -0.45249999999999996 1.5895000000000004 -1.5154999999999996 -0.6984999999999999 -0.92799999999999983 -0.50849999999999984 -0.63849999999999996 1.0000000180025095e-35 0.26250000000000007 0.077000000000000013 -0.7769999999999998 -0.26349999999999996 0.35600000000000004 0.14300000000000004 -0.14599999999999996
decision_type=2 2 2 2 2 2 2 2 2 2 2 2 2 2 2 2 2 2 2
left_child=1 2 -1 -3 -2 6 -5 -8 -9 -6 -10 13 14 -12 15 -11 18 -16 -13
right_child=4 3 -4 5 9 -7 7 8 10 12 11 16 -14 -15 17 -17 -18 -19 -20
leaf_value=0.026279653128116361 -0.011949663609266283 0.015700784847140312 -0.002347295497144972 0.0083863882347941406 -0.00080192698673768484 0.012247619458607265 0.0030036936979740861 0.00050033909770158622 -0.0068689154461026199 0.010417968332767487 -0.0087778682217878445 -0.029352981800382788 0.0058929030597209935 -0.023175302318164281 0.028286381838498294 0.020698141715218943 -0.033145976119807789 0.021114492863416674 -0.022560864224516114
leaf_weight=31 20 20 35 24 33 21 32 26 24 20 34 22 20 35 27 31 28 20 29
leaf_count=31 20 20 35 24 33 21 32 26 24 20 34 22 20 35 27 31 28 20 29
internal_value=0 -0.0523109 0.110987 -0.0888454 0.110434 -0.106726 -0.125675 -0.14754 -0.17624 0.140889 -0.203637 -0.22552 0.182532 -0.160809 0.207758 0.166667 -0.28204 0.252345 -0.254908
internal_weight=0 361 66 295 171 275 254 230 198 151 172 148 118 69 98 51 79 47 51
internal_count=532 361 66 295 171 275 254 230 198 151 172 148 118 69 98 51 79 47 51
shrinkage=0.1


Tree=12
num_leaves=20
num_cat=0
split_feature=548 533 521 643 349 37 757 154 147 714 135 64 60 480 165 291 317 729 155
split_gain=2.74248 1.69299 1.65773 2.13926 1.51721 1.35856 1.33173 1.7623 1.73924 1.27595 1.34872 1.26879 0.773455 0.375905 0.469576 0.335474 0.143445 0.122157 0.059863
threshold=2.3515000000000001 1.6800000000000004 -3.722 1.2690000000000003 -1.5394999999999996 0.46700000000000003 -0.14949999999999997 0.79900000000000004 -0.30349999999999994 -0.19449999999999998 0.88700000000000012 0.12350000000000001 0.38050000000000006 -0.27049999999999991 0.036500000000000012 -0.092499999999999985 -0.26949999999999996 -0.47999999999999993 -0.40199999999999997
decision_type=2 2 2 2 2 2 2 2 2 2 2 2 2 2 2 2 2 2 2
left_child=1 2 -1 4 -4 6 13 8 -8 -10 12 15 -11 14 -6 -7 -15 18 -2
right_child=17 -3 3 -5 5 11 7 -9 9 10 -12 -13 -14 16 -16 -17 -18 -19 -20
leaf_value=0.022871211525939763 0.017895930124954742 0.017501242713708627 0.01794254665573438 -0.028531692157450481 -0.00081933743896938499 0.0093435538560152059 -0.018353408575057985 -0.0253477979090906 -0.0084606808987823696 0.032965912918249768 -0.0083051237836480139 -0.010582187337179978 0.0098563439079693387 -0.030462594330310823 -0.022229507789015772 0.027659512981772424 -0.01968658114473025 0.012369244471192361 0.025048251152038577
leaf_weight=21 22 38 30 38 21 20 36 31 37 30 20 24 28 21 20 20 30 20 25
leaf_count=21 22 38 30 38 21 20 36 31 37 30 20 24 28 21 20 20 30 20 25
internal_value=0 -0.0272538 -0.0452541 -0.0594247 -0.0360989 -0.0552283 -0.0858688 -0.036302 0.00828375 0.0683311 0.140879 0.0759514 0.218096 -0.183925 -0.112633 0.185015 -0.241238 0.189149 0.217004
internal_weight=0 465 427 406 368 338 274 182 151 115 78 64 58 92 41 40 51 67 47
internal_count=532 465 427 406 368 338 274 182 151 115 78 64 58 92 41 40 51 67 47
shrinkage=0.1


Tree=13
num_leaves=21
num_cat=0
split_feature=540 297 569 439 709 196 96 297 214 654 256 230 244 117 429 693 389 648 672 320
split_gain=2.23654 1.64189 1.50247 1.21959 1.55163 1.64883 1.26903 1.09481 1.00979 0.88364 1.14445 0.662454 0.622206 0.551891 0.479985 0.462139 0.383766 0.342838 0.10602 0.0414733
threshold=2.7435000000000005 -0.61549999999999983 -1.4749999999999999 -1.3214999999999997 -0.22649999999999998 -0.46349999999999991 -0.97499999999999998 0.24550000000000002 0.39300000000000007 -0.68099999999999994 -0.29799999999999993 -0.21499999999999997 0.52250000000000008 -0.079999999999999974 -0.49049999999999994 0.13800000000000004 -0.040499999999999987 -0.10499999999999998 0.91650000000000009 -0.089999999999999983
decision_type=2 2 2 2 2 2 2 2 2 2 2 2 2 2 2 2 2 2 2 2
left_child=1 8 13 14 15 -6 -7 9 12 16 -11 -9 17 -3 -4 -5 -8 -1 -2 -20
right_child=18 2 3 4 5 6 7 11 -10 10 -12 -13 -14 -15 -16 -17 -18 -19 19 -21
leaf_value=0.013937165314952532 0.010054605640470983 0.021955736974875132 -0.010319594932453973 -0.0099500100773114442 -0.021320201363414528 0.025845233757387509 0.0069082492589950563 0.00071706235408782967 -0.010628512129187584 0.015843342847767332 -0.014019332193967069 -0.023700314879417421 0.00067673210393298763 -0.00053647615015506745 -0.029900152164120831 -0.025662071795927156 0.026047787883064968 0.030596567335582914 0.021794218926326089 0.016150083094835285
leaf_weight=30 20 24 21 39 32 22 20 20 20 21 33 25 22 20 31 36 22 21 23 30
leaf_count=30 20 24 21 39 32 22 20 20 20 21 33 25 22 20 31 36 22 21 23 30
internal_value=0 -0.0258576 -0.0560061 -0.0796904 -0.052682 -0.00566817 0.0350747 0.000221414 0.0927915 0.0605509 -0.0240607 -0.128481 0.147333 0.11732 -0.219926 -0.174918 0.169337 0.207969 0.162584 0.185994
internal_weight=0 459 366 322 270 195 163 141 93 96 54 45 73 44 52 75 42 51 73 53
internal_count=532 459 366 322 270 195 163 141 93 96 54 45 73 44 52 75 42 51 73 53
shrinkage=0.1


Tree=14
num_leaves=22
num_cat=0
split_feature=548 68 59 725 287 413 439 405 255 445 232 714 31 429 30 270 271 455 385 155 454
split_gain=1.85188 1.28425 1.3587 1.38018 1.40372 1.20555 1.59657 1.23796 1.19284 0.946955 1.02178 1.22459 0.826592 0.74039 0.595259 0.592637 0.590761 0.489953 0.207687 0.105653 0.0353783
threshold=2.3515000000000001 1.2090000000000003 -1.5314999999999996 -1.4079999999999997 0.76650000000000007 0.85100000000000009 -1.2224999999999997 -1.0329999999999997 -0.77549999999999986 -0.65849999999999975 0.87750000000000006 0.20950000000000005 0.16150000000000003 -0.5099999999999999 0.25250000000000006 -0.10349999999999999 -0.50199999999999989 0.24450000000000002 -0.12149999999999998 -0.40199999999999997 0.29500000000000004
decision_type=2 2 2 2 2 2 2 2 2 2 2 2 2 2 2 2 2 2 2 2 2
left_child=1 2 -1 -4 5 6 13 -8 16 -10 11 14 15 -5 18 -13 -9 -6 -11 -2 -21
right_child=19 -3 3 4 17 -7 7 8 9 10 -12 12 -14 -15 -16 -17 -18 -19 -20 20 -22
leaf_value=-0.026166743263602257 0.010709796818318192 -0.020381162501871587 0.025496927755219598 -0.0010432174056768417 -0.0064453361047939819 0.018174612041758863 0.022076636681268955 0.027795342057943345 -0.022842396592552012 -0.011354739928529376 0.019841825181529636 0.0092917017266154287 0.01976523339175261 -0.025291035543469821 0.0014843148738145828 -0.014760886416548775 0.0037808646758397423 -0.027105767062554759 -0.024412867837938772 0.015831733904778957 0.021779701225459577
leaf_weight=20 27 36 21 20 22 38 29 20 22 21 21 20 26 34 20 21 21 24 29 20 20
leaf_count=20 27 36 21 20 22 38 29 20 22 21 21 20 26 34 20 21 21 24 29 20 20
internal_value=0 -0.0223956 -0.00717183 0.00527295 -0.00824155 0.0138177 -0.0071734 0.0265075 0.00101655 -0.0340466 -0.00698143 -0.0384661 0.0581719 -0.163104 -0.130962 -0.0302792 0.154952 -0.172247 -0.189285 0.155432 0.188057
internal_weight=0 465 429 409 388 342 304 250 221 180 158 137 67 54 70 41 41 46 50 67 40
internal_count=532 465 429 409 388 342 304 250 221 180 158 137 67 54 70 41 41 46 50 67 40
shrinkage=0.1


Tree=15
num_leaves=22
num_cat=0
split_feature=541 533 356 521 439 687 678 381 157 242 305 655 287 451 4 468 155 83 514 680 342
split_gain=1.52393 1.10708 1.14686 1.0659 1.25412 1.03687 1.27283 1.16644 0.865717 0.857153 0.79278 0.584431 0.434923 0.497568 0.378933 0.28874 0.198387 0.143884 0.133246 0.109428 0.0443862
threshold=1.6460000000000001 1.6560000000000004 1.8915000000000002 -3.722 -1.2059999999999997 0.19000000000000003 -0.062999999999999987 -0.15899999999999997 -0.84249999999999992 0.37000000000000005 0.437 0.88750000000000007 -0.27749999999999991 -0.216 0.35200000000000004 0.11550000000000002 0.044000000000000004 0.60950000000000004 -0.26199999999999996 -0.063499999999999987 0.12400000000000001
decision_type=2 2 2 2 2 2 2 2 2 2 2 2 2 2 2 2 2 2 2 2 2
left_child=1 2 3 -1 14 6 8 -8 -6 -9 12 15 -7 -14 18 -10 -3 20 -5 -17 -2
right_child=17 16 -4 4 5 10 7 9 11 -11 -12 -13 13 -15 -16 19 -18 -19 -20 -21 -22
leaf_value=0.017007445011820114 0.019990940950810911 0.0069127662107348444 0.017596289546539388 -0.028633977224429449 0.0079384473688674708 -0.026970615828859398 -0.0045596598514488764 0.02886407124725255 -0.0071951094482626239 0.0026282218098640443 0.0041538397696885198 0.0034251984886147762 -0.02203943520784378 0.00026679009199142455 -0.0072639854536170056 -0.025400741753124057 0.020398129150271418 0.0068545855954289447 -0.01798258177612139 -0.015516247724493346 0.013909125669548909
leaf_weight=21 24 24 24 24 33 29 35 33 28 20 22 22 20 20 21 21 20 20 23 24 24
leaf_count=21 24 24 24 24 33 29 35 33 28 20 22 22 20 20 21 21 20 20 23 24 24
internal_value=0 -0.0204891 -0.0362991 -0.0491635 -0.0614408 -0.0342238 0.00349746 0.0960785 -0.060152 0.189638 -0.12376 -0.108623 -0.176464 -0.108863 -0.184317 -0.151681 0.130425 0.139808 -0.234216 -0.20129 0.1695
internal_weight=0 464 420 396 375 307 216 88 128 53 91 95 69 40 68 73 44 68 47 45 48
internal_count=532 464 420 396 375 307 216 88 128 53 91 95 69 40 68 73 44 68 47 45 48
shrinkage=0.1


Tree=16
num_leaves=23
num_cat=0
split_feature=556 230 406 620 342 686 309 306 287 605 440 46 166 3 480 344 329 654 30 316 457 203
split_gain=1.2796 1.00108 0.916728 0.85078 0.812652 0.950384 0.980858 0.834284 0.901116 0.799466 0.648127 0.488849 0.61856 0.352918 0.422696 0.328002 0.311768 0.225563 0.220728 0.122475 0.0947446 0.0528343
threshold=1.4420000000000002 0.45300000000000001 0.93900000000000017 0.16150000000000003 1.1180000000000001 0.52200000000000013 0.76850000000000007 0.10350000000000001 -0.34899999999999992 0.082500000000000004 -0.47899999999999993 0.37450000000000006 -0.3715 1.0000000180025095e-35 -0.30349999999999994 0.31650000000000006 -0.16049999999999998 -0.31099999999999994 0.030500000000000006 0.16350000000000003 -0.63449999999999995 0.11050000000000001
decision_type=2 2 2 2 2 2 2 2 2 2 2 2 2 2 2 2 2 2 2 2 2 2
left_child=1 2 4 16 5 6 7 8 15 -10 -3 20 -13 19 -15 -1 -2 21 -9 -12 -4 -18
right_child=3 10 11 -5 -6 -7 -8 18 9 -11 13 12 -14 14 -16 -17 17 -19 -20 -21 -22 -23
leaf_value=-0.018602130406846603 0.0054461685831055928 0.0054119364544749264 0.01198772150091827 -0.0086179794235662979 0.015122892639853738 -0.020625273273749786 0.018725731559097767 -0.024490613974630832 -0.0055900893174111845 0.018396849275538415 -0.026835133694112303 0.013521715924143791 -0.011349156722426416 -0.019109517300412771 -3.4413185830299673e-05 -0.0016977142542600632 0.0098227414217862217 0.026101919077336791 -0.0098116281841482446 -0.016022734682668339 0.021185189308155151 0.016835215474878037
leaf_weight=24 34 20 24 22 22 33 20 20 24 33 20 20 20 21 26 22 22 20 21 22 21 21
leaf_count=24 34 20 24 22 22 33 20 20 24 33 20 20 20 21 26 22 22 20 21 22 21 21
internal_value=0 -0.0263257 0.00315481 0.0913657 -0.0310566 -0.0514133 -0.0202566 -0.049078 -0.00105504 0.0829709 -0.108547 0.0912995 0.0108628 -0.145101 -0.0855733 -0.105174 0.131634 0.173282 -0.169721 -0.211715 0.162799 0.132474
internal_weight=0 413 304 119 219 197 164 144 103 57 109 85 40 89 47 46 97 63 41 42 45 43
internal_count=532 413 304 119 219 197 164 144 103 57 109 85 40 89 47 46 97 63 41 42 45 43
shrinkage=0.1


Tree=17
num_leaves=19
num_cat=0
split_feature=68 757 406 342 358 686 709 439 255 641 734 584 546 725 604 690 634 116
split_gain=1.10222 1.12898 0.938287 0.960199 0.878156 0.896192 0.913769 0.724223 0.574152 0.558518 0.552833 0.486427 0.448363 0.329264 0.219257 0.218015 0.124152 0.0675871
threshold=1.2090000000000003 0.98500000000000021 0.93900000000000017 1.1180000000000001 0.49550000000000005 0.48450000000000004 -0.22649999999999998 -1.3364999999999998 -0.82399999999999995 0.17150000000000001 -0.20399999999999999 -0.049499999999999995 -0.29249999999999993 0.79950000000000021 0.018000000000000006 0.32900000000000001 0.31700000000000006 0.11550000000000002
decision_type=2 2 2 2 2 2 2 2 2 2 2 2 2 2 2 2 2 2
left_child=1 2 3 4 5 6 11 -8 -9 10 -10 -1 -12 15 -7 16 -4 -18
right_child=-2 -3 13 -5 -6 14 7 8 9 -11 12 -13 -14 -15 -16 -17 17 -19
leaf_value=0.0017259571839261939 -0.016895402595400812 -0.016088607034512929 0.021644759550690652 0.018871831086774669 -0.016566986983848942 -0.021117587983608247 -0.0057929156642211113 0.025492000393569469 -0.0017647661841832677 -0.0080381300672888768 0.0088492429374079969 -0.016499484330415728 0.026307995617389682 0.00082209369901454815 -0.0063102677650749691 0.0039530345937237145 0.0097250944695302429 0.016615076890836158
leaf_weight=27 36 35 20 24 36 20 38 20 26 20 38 32 24 33 20 24 35 24
leaf_count=27 36 35 20 24 36 20 38 20 26 20 38 32 24 33 20 24 35 24
internal_value=0 0.0122628 0.0254086 -0.00377543 -0.0191238 0.000784379 0.0253041 0.0632967 0.0992857 0.0704645 0.104748 -0.0815903 0.156075 0.0951498 -0.137139 0.123001 0.148359 0.125278
internal_weight=0 496 461 325 301 265 225 166 128 108 88 59 62 136 40 103 79 59
internal_count=532 496 461 325 301 265 225 166 128 108 88 59 62 136 40 103 79 59
shrinkage=0.1


Tree=18
num_leaves=21
num_cat=0
split_feature=541 725 533 420 420 301 255 622 387 460 415 711 182 374 131 155 218 83 587 342
split_gain=0.968434 0.797465 0.761417 0.741213 0.815351 0.749145 0.751322 0.743828 0.819287 0.715742 0.473395 0.422741 0.37858 0.288647 0.358897 0.148096 0.109914 0.102322 0.0795967 0.0364252
threshold=1.6460000000000001 -1.5339999999999996 1.6560000000000004 -1.8839999999999997 0.32350000000000007 -0.64949999999999986 -0.82399999999999995 -1.1724999999999999 0.35700000000000004 -0.46099999999999997 -0.9345 -0.8204999999999999 0.28350000000000003 0.11000000000000001 -0.0074999999999999989 1.0000000180025095e-35 -0.104 0.60950000000000004 -0.32099999999999995 0.12400000000000001
decision_type=2 2 2 2 2 2 2 2 2 2 2 2 2 2 2 2 2 2 2 2
left_child=1 -1 3 -3 5 -5 12 -8 9 -9 -11 -6 -7 14 -12 -4 -13 19 -15 -2
right_child=17 2 15 4 11 6 7 8 -10 10 13 16 -14 18 -16 -17 -18 -19 -20 -21
leaf_value=0.01740763978589149 0.016403768956661225 -0.017796499047960556 0.0046361108917904936 -0.014319203398895987 -0.0004572804045418035 0.023941618092358116 0.015916848819081984 0.0075432304172746607 0.010380535464929909 0.0045945205911993988 -0.013649713902944519 -0.011070376670076735 0.0047175223628679909 -0.022272842235508419 0.0035323049500584607 0.01640207886695862 -0.020381031150463969 0.0051356442272663116 -0.014245674026509126 0.010894291009753943
leaf_weight=21 24 35 23 33 23 20 24 31 38 20 31 21 21 21 20 20 32 20 30 24
leaf_count=21 24 35 23 33 23 20 24 31 38 20 31 21 21 21 20 20 32 20 30 24
internal_value=0 -0.0163333 -0.0253595 -0.0389525 -0.0256225 -0.00138523 0.0168946 -0.00676278 -0.0276128 -0.0602526 -0.0947299 -0.117788 0.140951 -0.122313 -0.0691167 0.101087 -0.166919 0.111451 -0.17551 0.13649
internal_weight=0 464 443 400 365 289 256 215 191 153 122 76 41 102 51 43 53 68 51 48
internal_count=532 464 443 400 365 289 256 215 191 153 122 76 41 102 51 43 53 68 51 48
shrinkage=0.1


Tree=19
num_leaves=22
num_cat=0
split_feature=556 230 230 366 351 36 418 425 696 207 264 620 681 131 469 480 466 526 474 587 431
split_gain=0.837254 0.639064 0.674999 0.64254 0.589108 0.598752 0.544076 0.719671 0.673036 0.813117 0.529188 0.52658 0.419757 0.302181 0.359444 0.242886 0.236296 0.154504 0.125255 0.122501 0.0551472
threshold=1.4420000000000002 0.45300000000000001 -0.32449999999999996 -0.38199999999999995 -1.2384999999999999 0.36600000000000005 0.21500000000000002 -0.62899999999999989 -0.36699999999999999 0.084000000000000019 -0.50199999999999989 0.20750000000000005 0.26600000000000007 -0.090999999999999984 0.40050000000000008 0.016000000000000004 -0.11649999999999999 0.87550000000000006 -0.21199999999999999 0.10900000000000003 -0.99799999999999989
decision_type=2 2 2 2 2 2 2 2 2 2 2 2 2 2 2 2 2 2 2 2 2
left_child=1 2 4 12 -1 13 8 -8 -5 -10 -3 15 -4 18 -15 17 -12 -2 -6 -18 -19
right_child=11 10 3 6 5 -7 7 -9 9 -11 16 -13 -14 14 -16 -17 19 20 -20 -21 -22
leaf_value=0.0085726186633110057 0.019949673440145411 0.0044140129350125788 -0.016254420862311408 0.028641617191689357 -0.023351015931084046 0.0075161476433277131 0.010410007140759764 -0.013575108620253476 0.01811321786334438 -0.0067026033349659141 -0.0048784798809460234 -0.0074094755202531812 0.003988166991621256 -0.014521259083770789 0.0024497709857920808 0.0013765903432732044 -0.012143120083562805 0.012959428255756697 -0.012293293373659253 -0.021532682375982406 0.0064510127286548204
leaf_weight=26 23 24 21 21 21 20 29 22 31 23 28 20 20 26 24 23 33 30 20 24 23
leaf_count=26 23 24 21 21 21 20 29 22 31 23 28 20 20 26 24 23 33 30 20 24 23
internal_value=0 -0.0212947 0.00225979 0.0449391 -0.0497653 -0.081502 0.0803224 0.000634866 0.13451 0.0754352 -0.0869879 0.0739051 -0.0637999 -0.115934 -0.0637516 0.103804 -0.124012 0.131052 -0.17957 -0.160966 0.10135
internal_weight=0 413 304 167 137 111 126 51 75 54 109 119 41 91 50 99 85 76 41 57 53
internal_count=532 413 304 167 137 111 126 51 75 54 109 119 41 91 50 99 85 76 41 57 53
shrinkage=0.1


Tree=20
num_leaves=20
num_cat=0
split_feature=68 757 331 59 59 301 678 542 313 236 665 127 71 438 374 240 58 731 540
split_gain=0.69407 0.74774 0.644601 0.763783 0.64335 0.592198 0.582733 0.844526 0.509484 0.526928 0.447942 0.414572 0.413727 0.370221 0.301227 0.258793 0.21844 0.115332 0.0800876
threshold=1.2090000000000003 0.98500000000000021 -1.3769999999999996 0.75000000000000011 -1.5919999999999999 -0.68699999999999983 -0.062999999999999987 -1.2604999999999997 0.23450000000000004 -0.56199999999999994 -0.47249999999999998 0.22950000000000004 0.17550000000000004 0.19850000000000004 0.16400000000000003 0.26150000000000007 0.081000000000000003 -0.12799999999999997 2.7800000000000007
decision_type=2 2 2 2 2 2 2 2 2 2 2 2 2 2 2 2 2 2 2
left_child=1 2 -1 4 -4 -6 7 17 12 -10 -9 14 13 -8 16 -5 -12 18 -7
right_child=-2 -3 3 15 5 6 8 10 9 -11 11 -13 -14 -15 -16 -17 -18 -19 -20
leaf_value=0.015734363324008883 -0.013407120402229744 -0.013118199237755368 -0.014901425158604981 -0.0039551844820380211 -0.0094566069194115705 0.016999910306185483 0.028372472258550781 0.0083101053833961498 0.011628946717138645 -0.0092198148835450407 -0.0058351131714880471 -0.018110163137316705 0.0054766767554812962 0.010558654034975917 -0.01099173504345376 -0.018390127757321236 0.0080658137368468143 0.0032288725000052228 0.009182012752678834
leaf_weight=32 36 35 20 27 32 20 28 25 27 22 20 24 27 20 29 23 26 21 38
leaf_count=32 36 35 20 27 32 20 28 25 27 22 20 24 27 20 29 23 26 21 38
internal_value=0 0.00973097 0.0204294 0.0102166 0.0255424 0.035267 0.0479724 0.0149792 0.101985 0.0226828 -0.0365034 -0.0667066 0.153796 0.2095 -0.0301002 -0.105953 0.0202193 0.0957875 0.118778
internal_weight=0 496 461 429 379 359 327 203 124 49 124 99 75 48 75 50 46 79 58
internal_count=532 496 461 429 379 359 327 203 124 49 124 99 75 48 75 50 46 79 58
shrinkage=0.1


Tree=21
num_leaves=19
num_cat=0
split_feature=521 326 600 40 511 713 292 213 49 166 406 634 464 355 729 516 181 258
split_gain=0.609592 0.598641 0.633379 0.576315 0.634249 0.803779 0.593985 0.524355 0.500849 0.425528 0.418734 0.319168 0.329145 0.284403 0.194188 0.14154 0.103325 0.0606033
threshold=-3.4839999999999995 1.1030000000000002 -0.11699999999999998 0.63000000000000012 -1.1479999999999999 0.27100000000000007 -0.79099999999999981 -0.41649999999999998 0.49050000000000005 1.0000000180025095e-35 0.46600000000000003 0.29400000000000009 -0.93449999999999978 0.40850000000000003 0.22500000000000001 1.1645000000000001 -0.099999999999999992 -0.16899999999999998
decision_type=2 2 2 2 2 2 2 2 2 2 2 2 2 2 2 2 2 2
left_child=17 3 -3 4 -2 6 -6 -5 9 11 -11 14 15 -7 -8 -13 -9 -1
right_child=1 2 -4 7 5 13 8 16 -10 10 -12 12 -14 -15 -16 -17 -18 -19
leaf_value=0.006096645304933191 0.017141045540571213 -0.024250548163598236 -0.0015766280437154428 0.0025566413728219852 -0.011977432000761231 -0.0049610059178517895 0.024055283303771699 -0.0097423771252998937 -0.0058034236041399154 -0.0075903453699806157 0.0078845388876895121 0.017576466025784613 -0.0027732734210216083 -0.019628154002130034 0.010287035526707769 0.0071833138991343349 -0.018943689844530563 0.012467092636507006
leaf_weight=28 25 22 28 31 24 39 21 26 39 34 36 20 26 20 20 38 23 32
leaf_count=28 25 22 28 31 24 39 21 26 39 34 36 20 26 20 20 38 23 32
internal_value=0 -0.0120689 -0.115532 0.000189683 0.018063 0.00596938 0.0300493 -0.0762188 0.0454158 0.0661058 0.00368167 0.101063 0.0657607 -0.0993292 0.173391 0.107672 -0.140614 0.0949422
internal_weight=0 472 50 422 342 317 258 80 234 195 70 125 84 59 41 58 49 60
internal_count=532 472 50 422 342 317 258 80 234 195 70 125 84 59 41 58 49 60
shrinkage=0.1


Tree=22
num_leaves=21
num_cat=0
split_feature=420 733 287 711 266 37 79 731 305 306 342 387 430 379 10 64 221 511 722 753
split_gain=0.512872 0.549566 0.511348 0.452301 0.558192 0.615688 0.523274 0.422026 0.359255 0.426597 0.676292 0.282523 0.246638 0.376286 0.212224 0.206721 0.200539 0.156153 0.0852012 0.0463159
threshold=1.1320000000000003 -1.6054999999999997 0.76650000000000007 1.8340000000000003 -0.84349999999999992 0.49500000000000005 0.16400000000000003 -1.6194999999999997 -0.050499999999999996 -0.016499999999999997 -0.054499999999999986 0.23700000000000004 -0.65349999999999986 -0.24049999999999996 -0.23299999999999996 -0.19899999999999998 0.23050000000000004 0.026500000000000006 0.016500000000000004 0.30800000000000005
decision_type=2 2 2 2 2 2 2 2 2 2 2 2 2 2 2 2 2 2 2 2
left_child=1 -1 3 4 -3 7 14 -6 12 11 -11 18 -9 -14 -7 -4 17 -5 -10 -19
right_child=-2 2 15 16 5 6 -8 8 9 10 -12 -13 13 -15 -16 -17 -18 19 -20 -21
leaf_value=0.016619211541754858 -0.012273219216149302 0.010723331475105041 -0.017690525297075512 -0.0026713537331670527 0.0069240380849303869 0.0064960003608749029 -0.0046180463825853972 -0.017518308798246313 -0.0067716771985093759 -0.0068784907180815943 0.019127118783071637 0.0035144720785319807 -0.01645422598036627 -0.00028915228322148325 0.020889438223093748 -0.003924828573750953 0.015941339890871729 0.011506163477897645 -0.014676161482930184 0.0053337575146748181
leaf_weight=21 32 39 20 20 29 21 26 33 30 20 20 20 24 36 20 24 21 20 25 31
leaf_count=21 32 39 20 20 29 21 26 33 30 20 20 20 24 36 20 24 21 20 25 31
internal_value=0 0.00785486 0.000913144 0.0113045 -0.00539548 -0.0198446 0.0647964 -0.0437726 -0.0595292 -0.0221559 0.0612431 -0.0666353 -0.105744 -0.0675518 0.135172 -0.10182 0.0735664 0.048175 -0.103646 0.0775431
internal_weight=0 500 479 435 343 304 67 237 208 115 40 75 93 60 41 44 92 71 55 51
internal_count=532 500 479 435 343 304 67 237 208 115 40 75 93 60 41 44 92 71 55 51
shrinkage=0.1


Tree=23
num_leaves=18
num_cat=0
split_feature=68 511 757 433 331 250 59 713 685 476 98 94 394 199 565 568 165
split_gain=0.449689 0.491505 0.652671 0.483902 0.425368 0.595221 0.408467 0.365255 0.300269 0.438968 0.274237 0.232562 0.159883 0.149163 0.225702 0.0983497 0.0848873
threshold=1.2090000000000003 -1.1694999999999998 0.98500000000000021 0.37250000000000011 -1.3769999999999996 0.49950000000000006 -1.3219999999999998 0.40650000000000008 -0.38399999999999995 -0.34999999999999992 -0.045999999999999992 0.23350000000000001 -0.026999999999999996 -0.033499999999999995 0.38750000000000001 -0.8859999999999999 -0.29449999999999993
decision_type=2 2 2 2 2 2 2 2 2 2 2 2 2 2 2 2 2
left_child=1 -1 3 4 -3 6 -6 8 -8 -10 -5 13 -7 14 -11 -16 -15
right_child=-2 2 -4 10 5 12 7 -9 9 11 -12 -13 -14 16 15 -17 -18
leaf_value=0.012574436058374969 -0.010791701854517062 0.01430391673264759 -0.014072932020550774 -0.012500421400811222 -0.01072182059288025 -0.003715225149478231 0.013465088405288185 -0.005937201864435338 -0.0061230220831930641 0.017071138769388202 -0.00032519860746892722 -0.0025806672799472629 -0.016208265091590873 0.0072176366788335141 0.010589238020475024 0.0028652057873413844 -0.0019957939442247154
leaf_weight=33 36 28 31 37 20 21 39 32 36 30 37 26 20 20 32 34 20
leaf_count=33 36 28 31 37 20 21 39 32 36 30 37 26 20 20 32 34 20
internal_value=0 0.00783269 -0.000571385 0.00948624 0.0247026 0.0146619 0.0306584 0.0409095 0.0544496 0.0386524 -0.0641281 0.0608485 -0.0980939 0.077415 0.0987924 0.0661019 0.0261092
internal_weight=0 496 463 432 358 330 289 269 237 198 74 162 41 136 96 66 40
internal_count=532 496 463 432 358 330 289 269 237 198 74 162 41 136 96 66 40
shrinkage=0.1


Tree=24
num_leaves=20
num_cat=0
split_feature=274 439 759 345 597 478 201 299 606 501 418 373 387 409 438 613 502 657 399
split_gain=0.390057 0.469028 0.427093 0.471179 0.426228 0.373924 0.358629 0.338189 0.411989 0.376642 0.41264 0.276922 0.329645 0.196279 0.253053 0.118 0.118433 0.097857 0.027355
threshold=1.8735000000000002 1.1025000000000003 -1.2024999999999999 -0.16949999999999996 -0.73599999999999988 -0.27849999999999997 0.67800000000000005 0.22600000000000001 0.26000000000000006 -0.17699999999999999 0.017500000000000005 -0.41549999999999992 0.46600000000000003 0.28500000000000009 0.40950000000000003 -0.24949999999999997 0.25650000000000006 -0.91399999999999981 -0.24999999999999997
decision_type=2 2 2 2 2 2 2 2 2 2 2 2 2 2 2 2 2 2 2
left_child=1 2 5 6 13 -1 11 8 9 -6 -11 -4 15 -5 -15 -13 -17 18 -16
right_child=-2 -3 3 4 7 -7 -8 -9 -10 10 -12 12 -14 14 17 16 -18 -19 -20
leaf_value=0.00055699076722649972 0.013700233381241562 -0.014490966628427091 -0.017485120362387255 -0.0013088168192873983 -0.0047129800242762419 0.015874266065657141 0.0047971298694610594 -0.010429490257341129 -0.0091442503006846625 0.018863014946691695 0.0011366701684892178 -0.015346526398900009 0.005517588974907995 0.017248470837339051 0.0048198084703957042 -0.011530965883284809 -0.00064825315959751609 -0.00094212839113814485 0.0090556690859938827
leaf_weight=34 20 23 26 34 31 30 25 39 33 24 29 21 20 21 30 20 20 21 31
leaf_count=34 20 23 26 34 31 30 25 39 33 24 29 21 20 21 30 20 20 21 31
internal_value=0 -0.00535165 0.00121242 -0.010256 0.0120927 0.0773696 -0.0598632 -0.0236498 0.00323189 0.0404254 0.0916369 -0.0850582 -0.0562358 0.0527922 0.0745391 -0.0927642 -0.0608961 0.0494555 0.0697246
internal_weight=0 512 489 425 293 64 132 156 117 84 53 107 81 137 103 61 40 82 61
internal_count=532 512 489 425 293 64 132 156 117 84 53 107 81 137 103 61 40 82 61
shrinkage=0.1


Tree=25
num_leaves=21
num_cat=0
split_feature=521 420 50 178 381 428 729 305 429 123 714 499 759 544 675 226 275 440 290 232
split_gain=0.329368 0.389789 0.43887 0.467725 0.432647 0.432885 0.421323 0.400236 0.403829 0.341944 0.358954 0.269158 0.210852 0.210913 0.209042 0.162886 0.199094 0.160112 0.0474592 0.0227565
threshold=-3.4839999999999995 -1.3079999999999998 -1.1164999999999998 -2.2454999999999994 -0.28349999999999992 -1.0205 -1.0359999999999998 -0.12149999999999998 -0.59049999999999991 -0.7164999999999998 -0.088499999999999981 -0.5169999999999999 -0.13099999999999998 -0.36099999999999993 -0.15849999999999997 0.13500000000000004 -0.13999999999999999 0.32150000000000006 -0.12049999999999998 0.13650000000000004
decision_type=2 2 2 2 2 2 2 2 2 2 2 2 2 2 2 2 2 2 2 2
left_child=18 7 -3 -4 6 -6 -5 -2 -9 -7 14 -12 17 -14 -11 16 -8 -13 19 -1
right_child=1 2 3 4 5 9 15 8 -10 10 11 12 13 -15 -16 -17 -18 -19 -20 -21
leaf_value=0.0026049023075029256 -0.017510352312372284 -0.010669408783768163 0.014866301634659372 0.0051585304380084088 -0.0075978345867684666 0.016680115053341504 0.0025492736068554226 0.0054337673852669788 -0.012774775611857574 -0.010003240521137532 -0.0025802367901498523 -0.0021966346450859593 0.0071416089932123828 0.021490513943135739 0.0022475339786615224 -0.013982543415006468 -0.011236388117752294 0.0089730726611433609 0.010956195313483477 0.0073752783006057147
leaf_weight=20 26 33 24 30 34 21 20 29 21 26 27 21 21 20 30 34 22 33 20 20
leaf_count=20 26 33 24 30 34 21 20 29 21 26 27 21 21 20 30 34 22 33 20 20
internal_value=0 -0.00887135 0.003718 0.0137555 0.00420448 0.0283003 -0.0487609 -0.0744684 -0.0221382 0.0461168 0.0318787 0.0623033 0.0873438 0.141411 -0.0344033 -0.0883713 -0.0467179 0.046293 0.0697879 0.0499009
internal_weight=0 472 396 363 339 233 106 76 50 199 178 122 95 41 56 76 42 54 60 40
internal_count=532 472 396 363 339 233 106 76 50 199 178 122 95 41 56 76 42 54 60 40
shrinkage=0.1


Tree=26
num_leaves=20
num_cat=0
split_feature=68 274 254 709 193 326 287 582 607 309 635 649 574 542 453 407 540 728 442
split_gain=0.299631 0.331555 0.419418 0.336137 0.37512 0.343062 0.327492 0.348871 0.215343 0.254438 0.219717 0.206089 0.204675 0.189737 0.134047 0.126815 0.12309 0.0735565 0.00998408
threshold=1.2090000000000003 1.3990000000000002 -0.95749999999999991 -0.18749999999999997 0.27800000000000002 1.1030000000000002 0.76650000000000007 -0.45699999999999991 -0.67599999999999982 0.76850000000000007 0.012500000000000002 -0.21599999999999997 0.07350000000000001 -0.71899999999999986 1.0000000180025095e-35 -0.89649999999999985 2.2885000000000004 0.14850000000000002 -0.98049999999999982
decision_type=2 2 2 2 2 2 2 2 2 2 2 2 2 2 2 2 2 2 2
left_child=1 2 -1 4 14 6 7 -5 -9 10 11 13 -6 15 -4 16 -10 -17 -18
right_child=-2 -3 3 5 12 -7 -8 8 9 -11 -12 -13 -14 -15 -16 17 18 -19 -20
leaf_value=-0.011174821234758825 -0.0088090042008035305 0.01236411580896896 -0.013721950177568942 0.016156375179391193 -0.0039525448530912406 -0.0067555167888467384 -0.0083149416688353423 -0.0057171806227415802 -0.0047959125600755218 0.014731593281474144 -0.0047398548107594257 0.011649872859319052 0.010353929195553065 -0.0036515625138931421 -0.0041544832806620332 0.012722254790027032 0.0063721893401816488 0.0053828300546026895 0.0032502729490044568
leaf_weight=31 36 23 32 23 20 37 22 24 20 21 30 33 20 34 27 22 20 36 21
leaf_count=31 36 23 32 23 20 37 22 24 20 21 30 33 20 34 27 22 20 36 21
internal_value=0 0.00639363 0.000692378 0.00857848 -0.0427521 0.023394 0.0343911 0.0434964 0.033092 0.0422326 0.0320162 0.044825 0.0320069 0.029366 -0.0934362 0.0481893 0.0163576 0.0816675 0.0477316
internal_weight=0 496 473 442 99 343 306 284 261 237 216 186 40 153 59 119 61 58 41
internal_count=532 496 473 442 99 343 306 284 261 237 216 186 40 153 59 119 61 58 41
shrinkage=0.1


Tree=27
num_leaves=19
num_cat=0
split_feature=473 714 644 686 604 144 266 667 514 16 527 122 5 617 617 581 266 348
split_gain=0.272398 0.291407 0.312227 0.356477 0.304373 0.282438 0.281328 0.275542 0.226411 0.220879 0.197196 0.186714 0.193856 0.181049 0.175594 0.12995 0.0903967 0.061458
threshold=-2.1154999999999995 -0.19449999999999998 0.61050000000000015 0.50050000000000006 -0.61799999999999988 1.1700000000000002 0.053000000000000005 -0.28099999999999997 -1.2129999999999999 -0.15749999999999997 -0.0019999999999999996 -0.034999999999999996 -1.0000000180025095e-35 0.076500000000000012 0.40650000000000008 0.19700000000000004 -0.39949999999999991 -0.18949999999999997
decision_type=2 2 2 2 2 2 2 2 2 2 2 2 2 2 2 2 2 2
left_child=-1 5 3 4 -3 11 10 14 -8 -5 -6 12 -2 -12 -4 -10 -15 -13
right_child=1 2 7 9 6 -7 8 -9 15 -11 13 17 -14 16 -16 -17 -18 -19
leaf_value=0.0082765194209846304 -0.0077857168447790729 0.012159443372174313 -0.016763376959023021 0.00094705651065817595 0.011954819379818881 0.0041813202268843148 0.0064388500793332547 0.0017163394028986139 -0.010716875873644043 -0.012237787898629905 -0.004521453310735524 -0.015744543394872121 0.0046911444561555981 0.0089082620037417553 -0.0038315478601448592 -0.00099369013748530828 0.0015215337142581121 -0.0085315066665686955
leaf_weight=37 33 38 21 27 33 28 21 35 27 24 24 21 20 37 21 28 30 27
leaf_count=37 33 38 21 27 33 28 21 35 27 24 24 21 20 37 21 28 30 27
internal_value=0 -0.00618649 0.00821813 0.0232943 0.0395522 -0.0470554 0.0239641 -0.0483664 -0.0239425 -0.0525758 0.0533263 -0.0716923 -0.0307747 0.0293117 -0.102975 -0.0576689 0.0560077 -0.116872
internal_weight=0 495 366 289 238 129 200 77 76 51 124 101 53 91 42 55 67 48
internal_count=532 495 366 289 238 129 200 77 76 51 124 101 53 91 42 55 67 48
shrinkage=0.1


Tree=28
num_leaves=20
num_cat=0
split_feature=463 272 447 620 744 88 69 269 64 501 381 307 334 348 28 227 688 167 545
split_gain=0.257197 0.450053 0.400696 0.350471 0.308957 0.305633 0.193076 0.207644 0.331856 0.170763 0.192398 0.170405 0.16329 0.161452 0.149439 0.143537 0.0932386 0.0552932 0.0472063
threshold=-0.82599999999999996 0.38500000000000006 0.20650000000000004 0.19400000000000003 -0.44949999999999996 -0.19299999999999998 -0.80949999999999978 -0.74349999999999994 -0.21049999999999999 -0.17699999999999999 -0.021999999999999995 -0.38399999999999995 0.81250000000000011 -0.63449999999999995 0.093000000000000013 -0.26999999999999996 0.27450000000000002 0.28050000000000008 -1.1764999999999997
decision_type=2 2 2 2 2 2 2 2 2 2 2 2 2 2 2 2 2 2 2
left_child=1 -1 3 4 -2 -5 -6 8 -8 -4 -11 14 13 -13 -9 -15 17 18 -17
right_child=2 -3 9 5 6 -7 7 11 -10 10 -12 12 -14 15 -16 16 -18 -19 -20
leaf_value=-0.001761457570163267 -0.0066195668456585782 0.017117328148173249 -0.013331538991167628 0.0018290089842464244 -0.0043837587101734242 -0.01193995009617586 0.0051271648816603784 0.004744029922100405 -0.011160153479828627 -0.0089646807614842377 0.0036036151771744098 0.010546864318617044 0.011693142918838105 -0.0060634431338099683 0.015791275784373282 0.0034468841355513127 -0.0034091071435250345 -4.4038064185191288e-05 0.0092394243945212416
leaf_weight=28 38 23 29 28 32 38 29 24 22 29 21 21 22 23 25 34 20 22 24
leaf_count=28 38 23 29 28 32 38 29 24 22 29 21 21 22 23 25 34 20 22 24
internal_value=0 0.067525 -0.00715962 0.00563524 0.0187215 -0.0609857 0.0295499 0.0383784 -0.0189874 -0.0722677 -0.03686 0.0519861 0.0366906 0.0244315 0.103804 0.0105959 0.0269789 0.0422464 0.058438
internal_weight=0 51 481 402 336 66 298 266 51 79 50 215 166 144 49 123 100 80 58
internal_count=532 51 481 402 336 66 298 266 51 79 50 215 166 144 49 123 100 80 58
shrinkage=0.1


Tree=29
num_leaves=20
num_cat=0
split_feature=633 463 272 447 620 744 269 88 652 661 647 496 238 316 299 536 94 262 121
split_gain=0.241744 0.303161 0.392252 0.265362 0.278126 0.257703 0.245408 0.207161 0.191289 0.164202 0.242037 0.244444 0.144088 0.144746 0.148935 0.152049 0.149912 0.0824289 0.070157
threshold=1.2460000000000002 -0.82599999999999996 0.35100000000000003 0.20650000000000004 0.13100000000000003 -0.44949999999999996 -0.20899999999999999 -0.433 -0.107 -0.80549999999999988 -0.41599999999999998 0.24450000000000002 0.78500000000000003 0.17700000000000002 0.10650000000000003 0.92900000000000016 -0.18899999999999997 0.072500000000000023 -0.64599999999999991
decision_type=2 2 2 2 2 2 2 2 2 2 2 2 2 2 2 2 2 2 2
left_child=1 2 -1 4 5 -3 -6 -8 -5 -7 -11 12 13 14 16 -16 18 -18 -12
right_child=-2 3 -4 8 6 9 7 -9 -10 10 11 -13 -14 -15 15 -17 17 -19 -20
leaf_value=-0.0002619261077294747 -0.010785549795255065 -0.0065395870231441224 0.01870025357231498 -0.010759001766870682 -0.013703051598911936 -0.0058236498758196835 0.0068543782830238348 -0.0062846493783096473 -0.00065756330055788772 0.013876274343402613 0.0079709791953791864 -0.0053183274893936795 0.011592873065224427 -0.0028710030026131254 -0.0062909817026758743 0.0043182410918442262 0.015705246292054654 0.0070921153966337445 0.00061980017800689546
leaf_weight=24 20 32 20 38 22 20 20 30 37 21 20 33 22 34 22 35 20 25 37
leaf_count=24 20 32 20 38 22 20 20 30 37 21 20 33 22 34 22 35 20 25 37
internal_value=0 0.00421311 0.0835725 -0.00324803 0.0071543 0.0197534 -0.0490165 -0.0102904 -0.0577563 0.0291817 0.0356811 0.0269525 0.0392524 0.0305121 0.0431759 0.00223453 0.0660549 0.109202 0.0319916
internal_weight=0 512 44 468 393 321 72 50 75 289 269 248 215 193 159 57 102 45 57
internal_count=532 512 44 468 393 321 72 50 75 289 269 248 215 193 159 57 102 45 57
shrinkage=0.1


Tree=30
num_leaves=19
num_cat=0
split_feature=204 204 740 427 745 680 459 328 429 29 28 162 433 469 218 69 264 708
split_gain=0.196177 0.262827 0.242513 0.364354 0.291233 0.309839 0.236726 0.202543 0.1816 0.164362 0.15134 0.249375 0.15599 0.150595 0.147105 0.13762 0.0874039 0.0784003
threshold=1.1155000000000002 0.74850000000000005 -0.026999999999999996 -0.21399999999999997 0.13300000000000003 -0.61949999999999983 -0.57549999999999979 -0.69399999999999984 0.2235 0.20900000000000005 0.071500000000000022 0.30950000000000005 -0.21449999999999997 -1.0000000180025095e-35 -0.15949999999999998 0.092000000000000012 0.074500000000000011 0.41100000000000009
decision_type=2 2 2 2 2 2 2 2 2 2 2 2 2 2 2 2 2 2
left_child=1 2 3 9 5 -5 -4 -8 10 -1 11 12 -7 -9 -15 -12 -16 -14
right_child=-2 -3 6 4 -6 8 7 13 -10 -11 15 -13 17 14 16 -17 -18 -19
leaf_value=-0.0049441060995579593 -0.0081471291237643784 0.0090798812181067962 0.011668061622633384 0.012734480453655123 -0.011738494206219911 -0.0054426974989473824 -0.0073013251216489938 -0.00234623257876248 -0.0072258748405147344 -0.016076225680964337 0.0088074060232454059 -0.01025890208935986 0.0078371052996122417 0.012796655199490487 -0.00070178167661651971 -0.00079687865608138962 0.0068114305287599571 0.0007377977843862028
leaf_weight=36 28 33 26 20 20 25 23 37 32 21 37 24 28 20 32 25 30 35
leaf_count=36 28 33 26 20 20 25 23 37 32 21 37 24 28 20 32 25 30 35
internal_value=0 0.00452618 -0.0015184 -0.0184147 -0.00172258 0.00851303 0.0289552 0.0128928 -0.00302404 -0.0904541 0.00970878 -0.0122339 0.0124085 0.0294965 0.0533926 0.0493471 0.0293364 0.0389305
internal_weight=0 504 471 303 246 226 168 142 206 57 174 112 88 119 82 62 62 63
internal_count=532 504 471 303 246 226 168 142 206 57 174 112 88 119 82 62 62 63
shrinkage=0.1


Tree=31
num_leaves=22
num_cat=0
split_feature=633 469 272 22 70 328 632 620 391 732 494 31 391 15 630 733 608 670 95 205 150
split_gain=0.185667 0.232054 0.246807 0.214284 0.251797 0.260307 0.224419 0.195961 0.171519 0.166987 0.1665 0.161989 0.156739 0.142346 0.215521 0.14118 0.130929 0.118988 0.110651 0.0888497 0.071833
threshold=1.2460000000000002 -0.91349999999999987 -0.068499999999999991 1.5465000000000002 0.31350000000000006 -0.49449999999999994 -0.17199999999999999 0.58300000000000007 -0.010999999999999999 -0.53449999999999986 0.74800000000000011 0.35600000000000004 0.6180000000000001 0.18800000000000003 -0.22299999999999998 0.65400000000000003 -0.23349999999999996 -0.49699999999999994 -0.23799999999999996 -0.057499999999999989 -0.13699999999999998
decision_type=2 2 2 2 2 2 2 2 2 2 2 2 2 2 2 2 2 2 2 2 2
left_child=1 2 -1 4 5 9 8 10 16 -3 12 -11 13 14 15 20 -6 -15 -16 -8 -7
right_child=-2 3 -4 -5 6 7 19 -9 -10 11 -12 -13 -14 17 18 -17 -18 -19 -20 -21 -22
leaf_value=-0.00072430137079209094 -0.0094521577283740044 0.0027247196655598997 0.014464870550791207 0.0080505868741150566 0.0010803148915459002 -0.0051110220820798228 -0.014503135842581592 -0.0057527155615389354 0.0065402618702501058 -0.0033868897538114756 0.011828116183169188 -0.014611472561955453 -0.0051494274560827764 0.0038001441396772863 0.015966164635583049 0.006921614149560858 -0.0098408937318827557 -0.0068572335569611334 0.0057005946568789937 -0.0057050140786238691 0.0021262576694425664
leaf_weight=20 20 23 23 29 21 24 24 28 20 36 20 20 25 20 21 38 23 22 21 22 32
leaf_count=20 20 23 23 29 21 24 24 28 20 36 20 20 25 20 21 38 23 22 21 22 32
internal_value=0 0.00369225 0.0740014 -0.00275401 -0.00824159 0.00556983 -0.0496758 0.0213264 -0.0113826 -0.0444923 0.0312273 -0.0739567 0.0226506 0.0330642 0.0487793 0.0221699 -0.046285 -0.0178229 0.108334 -0.102953 -0.00975434
internal_weight=0 512 43 469 440 330 110 251 64 79 223 56 203 178 136 94 44 42 42 46 56
internal_count=532 512 43 469 440 330 110 251 64 79 223 56 203 178 136 94 44 42 42 46 56
shrinkage=0.1


Tree=32
num_leaves=21
num_cat=0
split_feature=274 65 759 709 476 663 664 504 449 568 35 219 201 9 60 665 736 93 217 578
split_gain=0.15955 0.205311 0.207056 0.239356 0.198089 0.184993 0.160524 0.19801 0.225809 0.158326 0.158038 0.199707 0.146575 0.129104 0.128032 0.0917869 0.0900905 0.0647217 0.0614997 0.0459618
threshold=1.8735000000000002 -1.0834999999999997 -1.2024999999999999 -0.14449999999999999 0.098000000000000018 0.90950000000000009 -0.13899999999999996 -0.25849999999999995 -0.26949999999999991 -0.85649999999999993 0.062000000000000006 0.096000000000000016 0.28350000000000003 0.18900000000000003 0.85150000000000026 -0.2654999999999999 1.0000000180025095e-35 -0.081499999999999989 -0.14749999999999999 1.0400000000000003
decision_type=2 2 2 2 2 2 2 2 2 2 2 2 2 2 2 2 2 2 2 2
left_child=1 16 4 14 -3 6 12 10 -9 -7 11 -8 13 -5 15 -4 -1 -12 -17 -13
right_child=-2 2 3 5 -6 9 7 8 -10 -11 17 19 -14 -15 -16 18 -18 -19 -20 -21
leaf_value=-0.011829924345947804 0.0087621937831863766 0.011703189555555583 -0.011640124723315239 0.00015322920836267933 0.00011283095926046372 0.0012812698911875487 -0.0094543540550928035 0.0034506413181467606 0.017168307732790707 -0.010884269232780713 0.0024913576734252275 -0.0015972247483053556 0.0041649359899262588 -0.0090489897131919867 0.0019952099410478364 -0.00024117379639805719 -0.0027424100670032205 0.010439987884213527 -0.0071094378548878017 0.003992584207796762
leaf_weight=20 20 29 25 31 30 20 21 30 20 23 20 24 30 30 22 22 24 21 32 38
leaf_count=20 20 29 25 31 30 20 21 30 20 23 20 24 30 30 22 22 24 21 32 38
internal_value=0 -0.00342273 0.00271736 -0.00527152 0.0580979 0.00858154 0.0184537 0.0362526 0.0893771 -0.0522588 0.0148315 -0.0102598 -0.0155793 -0.0437245 -0.0475165 -0.0663052 -0.068731 0.0656261 -0.0431126 0.0182879
internal_weight=0 512 468 409 59 308 265 174 50 43 124 83 91 61 101 79 44 41 54 62
internal_count=532 512 468 409 59 308 265 174 50 43 124 83 91 61 101 79 44 41 54 62
shrinkage=0.1


Tree=33
num_leaves=21
num_cat=0
split_feature=18 441 739 117 330 331 118 652 633 387 328 489 617 215 186 546 164 112 170 740
split_gain=0.148972 0.180833 0.184784 0.183994 0.159058 0.169465 0.18745 0.16037 0.169856 0.156213 0.15489 0.164732 0.144103 0.119479 0.106664 0.118785 0.0998991 0.0775668 0.0649993 0.0435862
